{
 "layers": [
  {
   "out_depth": 838,
   "out_sx": 1,
   "out_sy": 1,
   "layer_type": "input"
  },
  {
   "out_depth": 25,
   "out_sx": 1,
   "out_sy": 1,
   "layer_type": "fc",
   "num_inputs": 838,
   "l1_decay_mul": 0,
   "l2_decay_mul": 1,
   "filters": [
    {
     "sx": 1,
     "sy": 1,
     "depth": 838,
     "w": {
      "0": -0.023743784526924844,
      "1": 0.030018029818549716,
      "2": 0.026486344764367578,
      "3": 0.05075693733262641,
      "4": 0.003905262294625646,
      "5": 0.06548487295910475,
      "6": 0.03245977825400793,
      "7": 0.06199637455510311,
      "8": 0.030630639919032813,
      "9": 0.014569088147488127,
      "10": 0.04967246918137284,
      "11": -0.07917350195379111,
      "12": 0.009998015679842898,
      "13": -0.021993606224001074,
      "14": 0.010512583794263333,
      "15": -0.005940514234414313,
      "16": -0.031989863835036284,
      "17": 0.008707104687550538,
      "18": -0.09115601375903591,
      "19": -0.005632253119403217,
      "20": 0.0368117209635203,
      "21": 0.048725650451035454,
      "22": -0.012869679718195066,
      "23": -0.007017287446756573,
      "24": 0.0027334362157211073,
      "25": 0.004473321018046147,
      "26": -0.030352683321278707,
      "27": 0.04032090875283637,
      "28": 0.034132175895886775,
      "29": -0.009043644309600507,
      "30": 0.012742507760953991,
      "31": 0.045639158851642034,
      "32": 0.02255574473147362,
      "33": 0.004518272445707003,
      "34": -0.08848303427593493,
      "35": -0.04253271867522768,
      "36": 0.015500755829183612,
      "37": -0.010377026247888447,
      "38": 0.03068981109409948,
      "39": -0.043597303513925455,
      "40": -0.09941718910752816,
      "41": -0.017491618738754346,
      "42": 0.0010147249449154385,
      "43": -0.012753055755624066,
      "44": 0.015848430765485408,
      "45": 0.008686934458630644,
      "46": 0.0033723360961864356,
      "47": -0.0031632180050794466,
      "48": 0.03937758161518917,
      "49": -0.003295311678551524,
      "50": 0.03888176873670912,
      "51": -0.020172871969552246,
      "52": -0.0017899387367808078,
      "53": 0.024438636392643733,
      "54": -0.024019282198442855,
      "55": 0.07328003559997007,
      "56": 0.0012974763221448422,
      "57": 0.05475005638574532,
      "58": 0.004518957184531396,
      "59": -0.015258339652843135,
      "60": 0.010958257335714894,
      "61": -0.021788529345642082,
      "62": 0.012486532713875927,
      "63": 0.0919413138876613,
      "64": 0.06150678128973099,
      "65": -0.012789182076321015,
      "66": -0.032652670226409,
      "67": 0.08151544023452915,
      "68": -0.04099281410836809,
      "69": -0.04448727398726697,
      "70": -0.0551251926334158,
      "71": -0.028895723326632854,
      "72": 0.009666350849757992,
      "73": -0.03255879201449545,
      "74": 0.07264051908731865,
      "75": -0.04095586654687577,
      "76": -0.017039684213543824,
      "77": 0.030120794177380637,
      "78": -0.0760751645135512,
      "79": 0.004357889372061052,
      "80": -0.028738216808796853,
      "81": -0.03168655621251261,
      "82": 0.005430589999002277,
      "83": -0.0037441632578644446,
      "84": -0.03287474546549942,
      "85": -0.04552830453833932,
      "86": 0.0543595452975628,
      "87": 0.05091486098911547,
      "88": 0.03743359277841037,
      "89": -0.03610393481511567,
      "90": 0.0372701167346438,
      "91": 0.008909971144534755,
      "92": -0.03811630731586786,
      "93": -0.0032176357793117184,
      "94": -0.030281490335341495,
      "95": 0.040355911162144924,
      "96": 0.010267152191550912,
      "97": -0.014870007506888171,
      "98": 0.019416992286745774,
      "99": 0.012841188318630842,
      "100": -0.0012865258143705273,
      "101": 0.01697768909965996,
      "102": 0.00898035927377229,
      "103": 0.015316475216981856,
      "104": 0.035960848318559537,
      "105": -0.018112180687986645,
      "106": -0.021493763368892107,
      "107": -0.07520657519158562,
      "108": -0.02811372651940647,
      "109": -0.045658622399077926,
      "110": 0.02165539075254589,
      "111": 0.0059301256342063945,
      "112": 0.02530267428775829,
      "113": 0.013430644447188557,
      "114": -0.025600840951808587,
      "115": 0.021260584685354467,
      "116": -0.05555656477574188,
      "117": -0.03401783087893927,
      "118": 0.03413762963823777,
      "119": 0.029244433128048204,
      "120": -0.05018259709001597,
      "121": -0.029327578960056708,
      "122": 0.009158651407599177,
      "123": -0.003539674164251083,
      "124": -0.01802761539506516,
      "125": -0.03235079049956223,
      "126": -0.00860408322948041,
      "127": -0.0008105445890086921,
      "128": 0.004377959796614243,
      "129": 0.017595462151039788,
      "130": 0.040305618307144214,
      "131": 0.06158927370814305,
      "132": -0.00861768910490635,
      "133": -0.026114748484822405,
      "134": -0.0384641799360565,
      "135": 0.04777199004733132,
      "136": -0.029312459397557823,
      "137": 0.04329553731312661,
      "138": -0.02122005322177455,
      "139": 0.014102847752553686,
      "140": -0.020784528372733726,
      "141": 0.03473890080766621,
      "142": -0.0231909425200782,
      "143": -0.0973073581147427,
      "144": 0.07534674626497574,
      "145": -0.07232016186528616,
      "146": 0.030851510744013447,
      "147": 0.06694122869698126,
      "148": 0.03936674400006857,
      "149": 0.013805926108015128,
      "150": -0.020450474385626166,
      "151": -0.034607458645462524,
      "152": 0.023667445937761974,
      "153": 0.020161109410538957,
      "154": 0.027698764426625798,
      "155": 0.01644487865797039,
      "156": -0.016052394385132687,
      "157": 0.0644333083034871,
      "158": -0.036332985579054865,
      "159": 0.043463816842921374,
      "160": -0.01992586397021977,
      "161": -0.014654720416671145,
      "162": -0.03163908834597517,
      "163": -0.02411755842144574,
      "164": 0.03640256793362752,
      "165": -0.04083491929678486,
      "166": 0.04898053613689268,
      "167": 0.019455956990635674,
      "168": -0.016628987261126535,
      "169": 0.0235695047045335,
      "170": 0.01230473894507805,
      "171": -0.007680776521702933,
      "172": 0.06116724011251186,
      "173": 0.02632829585924034,
      "174": 0.03995051315477622,
      "175": -0.00953756081906838,
      "176": -0.01873594793742198,
      "177": -0.006873574022871519,
      "178": -0.03167334634181109,
      "179": 0.03988182285491046,
      "180": 0.02817916859858742,
      "181": 0.0336712890490578,
      "182": -0.08395494200666037,
      "183": -0.002115357170536604,
      "184": 0.04728723110222075,
      "185": -0.073638760071955,
      "186": -0.046927488290543766,
      "187": -0.026529782243900322,
      "188": -0.05495417933093935,
      "189": 0.01760697388689739,
      "190": 0.06319391671334457,
      "191": 0.02174372140524508,
      "192": -0.03236764289370769,
      "193": -0.03173874018393272,
      "194": 0.038920420515039356,
      "195": -0.06909391975641935,
      "196": 0.005079358137101408,
      "197": -0.04350634203341423,
      "198": 0.015976191298882395,
      "199": 0.005575530551501391,
      "200": -0.033620570819171094,
      "201": -0.014682938716010108,
      "202": -0.05717059730446929,
      "203": -0.03284315495142936,
      "204": -0.04018727408409076,
      "205": 0.028041864247108663,
      "206": -0.022015134434668373,
      "207": 0.015418631347496676,
      "208": 0.06784521870820001,
      "209": -0.02484632472987463,
      "210": 0.04632372769675274,
      "211": -0.006352441828718699,
      "212": -0.04213974320735044,
      "213": 0.016531144390856567,
      "214": 0.019836513001128545,
      "215": -0.005811320404669838,
      "216": 0.009583909985729534,
      "217": 0.06355950972634185,
      "218": -0.022934474125210328,
      "219": 0.011297169838091748,
      "220": 0.034029709301726586,
      "221": 0.01306581040740087,
      "222": 0.0379167468693811,
      "223": -0.00959752918640118,
      "224": 0.0008971470082061035,
      "225": 0.05618837506703043,
      "226": 0.022265506432059018,
      "227": -0.013932611932903845,
      "228": 0.012245259360056764,
      "229": 0.03631348080640918,
      "230": 0.016822181923189246,
      "231": 0.017489935945423026,
      "232": 0.014086543073158963,
      "233": 0.0010576681458751298,
      "234": -0.021964028248458736,
      "235": -0.006898116812394668,
      "236": -0.06264087228481148,
      "237": 0.03613121692601341,
      "238": -0.013441781229805824,
      "239": 0.03638943928820594,
      "240": 0.007832990427454747,
      "241": 0.00003257079313898432,
      "242": -0.009469859583631975,
      "243": 0.018684829674533134,
      "244": -0.0032724005691791005,
      "245": 0.02241446311648991,
      "246": 0.03417076341660198,
      "247": -0.018099389213206463,
      "248": 0.021318588731788515,
      "249": 0.003175777647533244,
      "250": 0.09413017418708364,
      "251": 0.08361236578781035,
      "252": -0.016345148771215946,
      "253": 0.011047634528426114,
      "254": -0.03853535479385642,
      "255": -0.04963876439163061,
      "256": 0.03686981867834561,
      "257": -0.0029174793140050036,
      "258": 0.07023061374513129,
      "259": -0.061297884756639005,
      "260": -0.021696812010169927,
      "261": -0.03002813287678443,
      "262": -0.03341946496878667,
      "263": 0.0026509662037883814,
      "264": 0.052200320567191115,
      "265": 0.010928035700382881,
      "266": -0.04838047156593714,
      "267": -0.03659672930571393,
      "268": 0.0543108279705667,
      "269": -0.03359150192350642,
      "270": -0.023057863216425212,
      "271": 0.015939963451393615,
      "272": 0.021193609644155325,
      "273": -0.044821224525463554,
      "274": -0.06531407419926197,
      "275": -0.02919993743776442,
      "276": -0.0173083494247065,
      "277": 0.022684600872378308,
      "278": -0.017346201422987484,
      "279": 0.06855937266397145,
      "280": -0.020015413421452573,
      "281": 0.04317441302663318,
      "282": 0.01537785090307611,
      "283": -0.002079518156395222,
      "284": -0.008712244821757831,
      "285": 0.024997223624836883,
      "286": 0.020837146272482922,
      "287": -0.0019361754296353883,
      "288": 0.01834334036581398,
      "289": -0.0010685011314195499,
      "290": 0.005342783222893326,
      "291": 0.04233060908089381,
      "292": 0.03237540375351017,
      "293": 0.01619236036530112,
      "294": 0.0278158326070492,
      "295": 0.05361286674149875,
      "296": -0.011359551316145017,
      "297": 0.014250246687012929,
      "298": -0.058044379141271175,
      "299": -0.026363832482306143,
      "300": 0.0024353370975469966,
      "301": -0.016792389351020884,
      "302": 0.022178712391062977,
      "303": -0.030092532119800498,
      "304": 0.0293643205890636,
      "305": -0.018293742306339043,
      "306": -0.009566864858854537,
      "307": 0.02664867534809412,
      "308": 0.0168803596926214,
      "309": -0.056705151227263356,
      "310": 0.041809062705574405,
      "311": 0.016597661444824722,
      "312": 0.029005372378970325,
      "313": 0.008822831915021723,
      "314": 0.014750820230050355,
      "315": 0.02392849819544073,
      "316": 0.032060324649569316,
      "317": -0.01185005349370709,
      "318": -0.019373635452046647,
      "319": -0.017816758220238395,
      "320": -0.012455225861671103,
      "321": -0.03558336354037928,
      "322": 0.03893020340575706,
      "323": 0.014099050664650468,
      "324": -0.038222659508968304,
      "325": -0.07713091779317081,
      "326": -0.0547914654246121,
      "327": -0.013384688254081806,
      "328": -0.01650330720311767,
      "329": 0.005602643365816982,
      "330": -0.014720957280328711,
      "331": 0.0751551384092811,
      "332": -0.012790747561568777,
      "333": 0.0336782239142782,
      "334": -0.0031252736043487304,
      "335": 0.0008848715515034921,
      "336": -0.06613741834249703,
      "337": 0.061525078056911334,
      "338": -0.019976900303629076,
      "339": -0.0016038439847414544,
      "340": 0.02350643816090316,
      "341": -0.08362092636576975,
      "342": 0.05058603556320923,
      "343": -0.042236519358885435,
      "344": 0.03237336558729384,
      "345": -0.04512674566066003,
      "346": -0.026206459865488387,
      "347": -0.008876412077740342,
      "348": -0.01162809493706983,
      "349": -0.04329564454571546,
      "350": -0.005982501956069982,
      "351": 0.012532925023916947,
      "352": -0.01133918028838635,
      "353": 0.006216814560870737,
      "354": -0.027817097610341898,
      "355": 0.05832668510850168,
      "356": -0.04031067178551525,
      "357": 0.0017717131773179293,
      "358": -0.03229687675678364,
      "359": -0.06366489028473452,
      "360": -0.008106832771421595,
      "361": -0.02751491105358121,
      "362": -0.03159035926465181,
      "363": -0.018469472242301978,
      "364": 0.022157433041043447,
      "365": -0.010585545428785884,
      "366": 0.0026561258061563887,
      "367": 0.09898613694775531,
      "368": -0.06032384601673054,
      "369": -0.025064781238696585,
      "370": 0.023651155522762906,
      "371": -0.043755384597506115,
      "372": -0.043769195537267214,
      "373": 0.06568013630368734,
      "374": 0.030654044582745166,
      "375": 0.037431196021341775,
      "376": 0.02993292252781012,
      "377": -0.014795461336040257,
      "378": 0.019370553746628556,
      "379": 0.037145934332696806,
      "380": -0.007238391384501823,
      "381": -0.04275140527741898,
      "382": -0.012288984800853676,
      "383": -0.02976930988962347,
      "384": 0.002920086416484511,
      "385": -0.014775418048250048,
      "386": 0.0025029069037101597,
      "387": 0.01261308998816275,
      "388": 0.022706414257187023,
      "389": 0.01441599436328267,
      "390": 0.010697302917086721,
      "391": 0.003447094486533957,
      "392": -0.042749470680803994,
      "393": 0.01684790773685822,
      "394": 0.008919556095959257,
      "395": -0.04070429266552287,
      "396": 0.0004935732327604728,
      "397": 0.013163301122028733,
      "398": -0.04037944280012439,
      "399": 0.018051926988535076,
      "400": 0.02128209636121331,
      "401": -0.07532687991363844,
      "402": 0.02412975083872146,
      "403": -0.02979024484780667,
      "404": 0.020440425803806016,
      "405": 0.036261480701344634,
      "406": 0.009999342683588994,
      "407": 0.03253737833869342,
      "408": -0.03183060983933,
      "409": 0.002410909756420393,
      "410": 0.008203372854044964,
      "411": 0.058710780196178286,
      "412": -0.022262816809003515,
      "413": -0.016493024733591023,
      "414": -0.024608085811954988,
      "415": -0.06945752722205416,
      "416": -0.017392913354450142,
      "417": -0.014215834727250473,
      "418": 0.011597291540318775,
      "419": 0.010777541565302466,
      "420": -0.020175957859767203,
      "421": 0.013324237988502234,
      "422": 0.007930664656016734,
      "423": -0.003934281103285259,
      "424": 0.002604631760892958,
      "425": -0.008114222650387368,
      "426": 0.010553345097049475,
      "427": 0.0005566676031971789,
      "428": -0.010563617660004365,
      "429": -0.036747840229265576,
      "430": 0.019869416623878724,
      "431": 0.02077162761832681,
      "432": 0.008023532574289678,
      "433": -0.010242020818548301,
      "434": 0.02359138461268016,
      "435": -0.06977060382328136,
      "436": 0.06177341892703147,
      "437": 0.026612627660932923,
      "438": 0.018274026692635954,
      "439": 0.0010153859252157024,
      "440": 0.024905183783839064,
      "441": -0.030087318129879366,
      "442": -0.005754530170570733,
      "443": 0.020595492795748186,
      "444": 0.009853924437910697,
      "445": 0.01636670036154372,
      "446": 0.06909278180869943,
      "447": -0.0417648092806738,
      "448": 0.07053240668323031,
      "449": 0.014996999979046124,
      "450": 0.03053353017078972,
      "451": -0.0018935170639039025,
      "452": 0.010978922144054291,
      "453": 0.059240962846400985,
      "454": -0.029003622180150103,
      "455": 0.011962326724043158,
      "456": -0.004302820908140666,
      "457": -0.04182508527227723,
      "458": 0.037724460057545775,
      "459": -0.009033982821990015,
      "460": 0.00756427633699627,
      "461": 0.046480499481848014,
      "462": 0.0062880681445521254,
      "463": -0.029087522844131453,
      "464": -0.07100916152730105,
      "465": -0.04901467222296025,
      "466": 0.0042538030449814366,
      "467": 0.037287004219758946,
      "468": 0.09015388128058184,
      "469": -0.02639400491361815,
      "470": 0.01900756147948946,
      "471": -0.0012545730790581326,
      "472": -0.02229270007062559,
      "473": -0.025878089019260045,
      "474": -0.02133650131986185,
      "475": 0.004593192696786773,
      "476": 0.0740441379215836,
      "477": 0.023698244604885135,
      "478": -0.0026106459861936614,
      "479": 0.0053736491432144545,
      "480": -0.019187626731701827,
      "481": -0.04171994014310759,
      "482": -0.03866720950123398,
      "483": 0.02604190324260783,
      "484": -0.012051717323364049,
      "485": -0.006373846308775074,
      "486": -0.01447314240343411,
      "487": -0.005570987147857418,
      "488": 0.05394205323131004,
      "489": -0.020175447237952556,
      "490": 0.07619007065884909,
      "491": 0.048724935172444195,
      "492": 0.024091813740250163,
      "493": -0.023008178678902282,
      "494": 0.01038818556811142,
      "495": -0.037818324139901056,
      "496": 0.000976869190786276,
      "497": -0.06261941091560014,
      "498": 0.019781173935209877,
      "499": -0.08289968353004647,
      "500": 0.0109326383371163,
      "501": 0.07293166823515954,
      "502": 0.0022566091922509345,
      "503": 0.015080807168388354,
      "504": -0.030046488724203197,
      "505": 0.036042229340066095,
      "506": -0.0012737069835467608,
      "507": 0.011737073259784615,
      "508": -0.01587924511111299,
      "509": -0.038905073225000794,
      "510": -0.026766387670473714,
      "511": -0.04679486399260181,
      "512": -0.017779611767394784,
      "513": 0.014956212085016369,
      "514": 0.0386787003502065,
      "515": -0.013161978317863665,
      "516": -0.08353462946341261,
      "517": -0.02968086307582112,
      "518": 0.07115328894935523,
      "519": 0.025394525190364007,
      "520": -0.005544576794639938,
      "521": 0.021376001741888313,
      "522": 0.020313754792053742,
      "523": 0.006635725142627848,
      "524": 0.017533160786860232,
      "525": 0.02307231203347929,
      "526": 0.04167830950613991,
      "527": 0.009998888502355306,
      "528": 0.004092557042440231,
      "529": 0.05045317521768606,
      "530": 0.09088845381647248,
      "531": 0.00792777212151527,
      "532": -0.045527822542768145,
      "533": 0.007489605911877267,
      "534": 0.03410076795950019,
      "535": 0.047344159674293174,
      "536": 0.0012451237889329577,
      "537": -0.011477369112091773,
      "538": -0.02655111279037411,
      "539": -0.07875096718132849,
      "540": -0.026690551570765605,
      "541": 0.029423520259741723,
      "542": -0.02811177395940166,
      "543": -0.03586412386469553,
      "544": -0.02132000290672823,
      "545": 0.03595060013925325,
      "546": 0.023040012698330895,
      "547": -0.048043135764203264,
      "548": -0.04055739904727327,
      "549": 0.0016321977698678235,
      "550": -0.049161383410478966,
      "551": 0.03485560885235809,
      "552": 0.052662085729195195,
      "553": 0.009940764246038103,
      "554": -0.03781340639905507,
      "555": -0.02370582342937612,
      "556": -0.06686232817246278,
      "557": -0.015823761512532036,
      "558": 0.011794178052368792,
      "559": -0.02433841894944637,
      "560": 0.08079825032679021,
      "561": 0.05770812508241355,
      "562": 0.005314017098193372,
      "563": 0.008423486514290215,
      "564": 0.06418903422588984,
      "565": 0.06593957285821551,
      "566": 0.07260088564691651,
      "567": -0.006437630905644252,
      "568": 0.00964073381188468,
      "569": 0.007450241269413607,
      "570": 0.020889526745234158,
      "571": 0.05182777681476376,
      "572": 0.03096654911623949,
      "573": -0.02969432569941206,
      "574": -0.0563299396436396,
      "575": -0.05727867077159142,
      "576": -0.015930454850290966,
      "577": -0.048192028202571804,
      "578": 0.01125611461130631,
      "579": 0.0246191190406236,
      "580": -0.030144584917435557,
      "581": 0.03354735545426556,
      "582": -0.029216668234074237,
      "583": 0.0045816663721252445,
      "584": -0.007133961628286085,
      "585": -0.012732102116172433,
      "586": 0.07072176157969004,
      "587": 0.0033478611103285754,
      "588": -0.014774177939137966,
      "589": -0.018358357158072162,
      "590": -0.045806999417753194,
      "591": -0.005247960685234425,
      "592": -0.009060138039560517,
      "593": -0.046735049137319185,
      "594": 0.020121016162250364,
      "595": -0.000752853041516233,
      "596": -0.06856737781360382,
      "597": -0.018409728137511364,
      "598": 0.062310998436524316,
      "599": -0.004966157867618594,
      "600": 0.004824646901201487,
      "601": 0.08978645974635145,
      "602": 0.021254200933150794,
      "603": 0.00342124136147583,
      "604": 0.0637684133670457,
      "605": -0.0006984957474244353,
      "606": -0.0359988243869987,
      "607": 0.018813819640316063,
      "608": 0.008218004636239092,
      "609": -0.003913323710187068,
      "610": -0.061378693133202704,
      "611": 0.012912844774457874,
      "612": 0.03331647231020233,
      "613": -0.04733357020500484,
      "614": 0.05447878881552095,
      "615": -0.017526806636317702,
      "616": -0.00777382375938276,
      "617": -0.003126781935420203,
      "618": 0.0062064108507081245,
      "619": -0.02288283004402809,
      "620": -0.049183396945608,
      "621": -0.05368418652203179,
      "622": -0.0014980519687272796,
      "623": -0.06844209394204062,
      "624": 0.06877981821341192,
      "625": -0.019820525091700007,
      "626": 0.04013674233379545,
      "627": 0.023998496645504436,
      "628": 0.027051094641511352,
      "629": 0.02562343039499337,
      "630": -0.025334540121390352,
      "631": 0.05469668336229868,
      "632": 0.014459533519032142,
      "633": -0.024019990331773083,
      "634": -0.015588930615974422,
      "635": -0.022268535712091548,
      "636": -0.0020832701257346964,
      "637": -0.05406634953515301,
      "638": 0.010806398557473876,
      "639": -0.046073603744616956,
      "640": 0.011465280753536483,
      "641": 0.04822367331632436,
      "642": 0.014063560253833228,
      "643": 0.006343579165306128,
      "644": -0.027882035903794546,
      "645": -0.00922954897858874,
      "646": 0.04531740150341969,
      "647": 0.028902924454936384,
      "648": -0.06537469028942353,
      "649": -0.012941066957150263,
      "650": -0.006103335997672566,
      "651": -0.009578195255841738,
      "652": -0.013278827826675915,
      "653": -0.04107093482120042,
      "654": 0.05074615820351108,
      "655": -0.031914102292669534,
      "656": -0.023449250607739603,
      "657": -0.0033550893649649904,
      "658": -0.03945826594631216,
      "659": 0.04819563091013919,
      "660": 0.01185717645543209,
      "661": -0.04171434839223521,
      "662": 0.07520572476946222,
      "663": 0.03996468446648081,
      "664": 0.07314249026268006,
      "665": 0.013836449050966239,
      "666": -0.02903767481931596,
      "667": -0.017937366521784123,
      "668": -0.027819624476589585,
      "669": -0.034882847651171243,
      "670": -0.06167138547652565,
      "671": -0.006252290313966769,
      "672": 0.016465220952181378,
      "673": -0.05396358903280999,
      "674": -0.01025850368461587,
      "675": -0.029163691726566857,
      "676": 0.03696746445759028,
      "677": -0.035466994301800975,
      "678": 0.01287638226099437,
      "679": 0.013296067030933707,
      "680": -0.04204801130781869,
      "681": 0.02676390234427383,
      "682": -0.027203232183035497,
      "683": -0.005072036922793357,
      "684": 0.05092528729633442,
      "685": 0.035478310102656035,
      "686": 0.04668253829228147,
      "687": -0.028557153376034896,
      "688": -0.0579720512855492,
      "689": -0.00004427759427733294,
      "690": -0.030470049034127505,
      "691": -0.04410446348706077,
      "692": 0.04277491758727936,
      "693": -0.04697336720611471,
      "694": 0.023601928791278492,
      "695": 0.060682479641892086,
      "696": -0.041588630461923085,
      "697": 0.04076527095565809,
      "698": -0.011896969916559115,
      "699": 0.026431473289468235,
      "700": 0.004574024944925993,
      "701": 0.032001704611723976,
      "702": 0.03317248958343358,
      "703": -0.07252105678812103,
      "704": 0.028937229945789508,
      "705": -0.007320427884433768,
      "706": 0.02736928426241203,
      "707": -0.08026948603674017,
      "708": -0.05426690875396579,
      "709": 0.021080933958352335,
      "710": 0.01214151036989759,
      "711": -0.027219461820512377,
      "712": 0.03589058790581864,
      "713": -0.0002918665162018971,
      "714": 0.006173625582570397,
      "715": -0.01837701666561144,
      "716": -0.005471945078697531,
      "717": -0.009035687958676394,
      "718": 0.03860419409094442,
      "719": -0.030311478889305486,
      "720": 0.010731215182693512,
      "721": 0.00858091961468353,
      "722": -0.02014806407282701,
      "723": 0.028658125544928567,
      "724": 0.09112363042724021,
      "725": -0.0068755007974757015,
      "726": -0.014025221266634738,
      "727": 0.04070565454167615,
      "728": 0.04449448772666694,
      "729": 0.023669823954884192,
      "730": 0.004893558192215637,
      "731": 0.008538143691162079,
      "732": 0.014992048008457416,
      "733": 0.038460356321259555,
      "734": -0.040447309298841244,
      "735": 0.020701225455111303,
      "736": -0.04912537369716685,
      "737": -0.011177655207513692,
      "738": -0.007746149358524479,
      "739": -0.010851574841992163,
      "740": 0.00738195653200851,
      "741": 0.018943865895164728,
      "742": 0.03708497603450911,
      "743": -0.012148687738727083,
      "744": -0.030890718857852786,
      "745": 0.05514404144365358,
      "746": -0.054851347524203724,
      "747": -0.03652435570133168,
      "748": -0.029763110357154295,
      "749": 0.008782190550510867,
      "750": -0.02533436073129318,
      "751": -0.0045799702617183476,
      "752": -0.016874367365343763,
      "753": 0.020224042868187256,
      "754": 0.0352064718362364,
      "755": 0.002103037951020234,
      "756": -0.03585229923400592,
      "757": -0.016649261696919344,
      "758": 0.014756632829155328,
      "759": 0.002284245626551551,
      "760": -0.016766427114042408,
      "761": -0.014276428978277723,
      "762": -0.00598432750641481,
      "763": -0.04077878479056314,
      "764": 0.031051929373259783,
      "765": -0.022235624578720112,
      "766": -0.01921289979242044,
      "767": 0.11990064330540535,
      "768": -0.04652192302498835,
      "769": -0.009103880891015421,
      "770": 0.058246995166004935,
      "771": 0.04664872339802903,
      "772": -0.029141685250018912,
      "773": -0.04390934997629261,
      "774": -0.05260228751068202,
      "775": 0.028544909782334715,
      "776": 0.02032610841211963,
      "777": 0.02294842331615552,
      "778": -0.01049484932665971,
      "779": -0.008124822717581722,
      "780": 0.025161450663140256,
      "781": -0.05788064343238714,
      "782": 0.015479032182065986,
      "783": -0.010491159060022003,
      "784": -0.014304331030617639,
      "785": 0.015175478837100461,
      "786": -0.016826319545412822,
      "787": 0.010789610534693154,
      "788": -0.014645546725309332,
      "789": -0.015291312074791688,
      "790": -0.015316430344026752,
      "791": 0.010820786105005803,
      "792": -0.08632950492251897,
      "793": 0.03052334812579272,
      "794": 0.02560026697408924,
      "795": 0.02896983871344821,
      "796": 0.013663742943788209,
      "797": 0.005846332293125609,
      "798": -0.031277948533026845,
      "799": -0.02257903067089966,
      "800": -0.016620329975758536,
      "801": 0.0467030132883426,
      "802": -0.01607496070455495,
      "803": -0.010599360254708347,
      "804": 0.018028101305883257,
      "805": 0.01026173041012776,
      "806": -0.02348101980816725,
      "807": -0.004906579179448481,
      "808": 0.0027606308920901127,
      "809": 0.026704640994850606,
      "810": -0.006166801398243078,
      "811": 0.0019254535845520913,
      "812": 0.00472700544478928,
      "813": -0.011850528542463878,
      "814": -0.003795225832980548,
      "815": 0.0054873271190442685,
      "816": -0.08087291117506258,
      "817": 0.017688266058748642,
      "818": -0.016630381269223032,
      "819": 0.05266000587383877,
      "820": 0.013570764256525621,
      "821": 0.010021189986862942,
      "822": 0.007147751645332553,
      "823": -0.013205667697819681,
      "824": -0.029254700495517972,
      "825": 0.03347800143078848,
      "826": 0.021048319503049442,
      "827": 0.0433095112486268,
      "828": 0.06272374137066403,
      "829": -0.016623292880123337,
      "830": -0.016494591320594408,
      "831": 0.03316375205040299,
      "832": -0.015622137516675108,
      "833": -0.09374920108945978,
      "834": -0.028577274512883027,
      "835": -0.04963165268148708,
      "836": -0.03428420540927016,
      "837": 0.008128667666706857
     }
    },
    {
     "sx": 1,
     "sy": 1,
     "depth": 838,
     "w": {
      "0": 0,
      "1": 0,
      "2": 0,
      "3": 0,
      "4": 0,
      "5": 0,
      "6": 0,
      "7": 0,
      "8": 0,
      "9": 0,
      "10": 0,
      "11": 0,
      "12": 0,
      "13": 0,
      "14": 0,
      "15": 0,
      "16": 0,
      "17": 0,
      "18": 0,
      "19": 0,
      "20": 0,
      "21": 0,
      "22": 0,
      "23": 0,
      "24": 0,
      "25": 0,
      "26": 0,
      "27": 0,
      "28": 0,
      "29": 0,
      "30": 0,
      "31": 0,
      "32": 0,
      "33": 0,
      "34": 0,
      "35": 0,
      "36": 0,
      "37": 0,
      "38": 0,
      "39": 0,
      "40": 0,
      "41": 0,
      "42": 0,
      "43": 0,
      "44": 0,
      "45": 0,
      "46": 0,
      "47": 0,
      "48": 0,
      "49": 0,
      "50": 0,
      "51": 0,
      "52": 0,
      "53": 0,
      "54": 0,
      "55": 0,
      "56": 0,
      "57": 0,
      "58": 0,
      "59": 0,
      "60": 0,
      "61": 0,
      "62": 0,
      "63": 0,
      "64": 0,
      "65": 0,
      "66": 0,
      "67": 0,
      "68": 0,
      "69": 0,
      "70": 0,
      "71": 0,
      "72": 0,
      "73": 0,
      "74": 0,
      "75": 0,
      "76": 0,
      "77": 0,
      "78": 0,
      "79": 0,
      "80": 0,
      "81": 0,
      "82": 0,
      "83": 0,
      "84": 0,
      "85": 0,
      "86": 0,
      "87": 0,
      "88": 0,
      "89": 0,
      "90": 0,
      "91": 0,
      "92": 0,
      "93": 0,
      "94": 0,
      "95": 0,
      "96": 0,
      "97": 0,
      "98": 0,
      "99": 0,
      "100": 0,
      "101": 0,
      "102": 0,
      "103": 0,
      "104": 0,
      "105": 0,
      "106": 0,
      "107": 0,
      "108": 0,
      "109": 0,
      "110": 0,
      "111": 0,
      "112": 0,
      "113": 0,
      "114": 0,
      "115": 0,
      "116": 0,
      "117": 0,
      "118": 0,
      "119": 0,
      "120": 0,
      "121": 0,
      "122": 0,
      "123": 0,
      "124": 0,
      "125": 0,
      "126": 0,
      "127": 0,
      "128": 0,
      "129": 0,
      "130": 0,
      "131": 0,
      "132": 0,
      "133": 0,
      "134": 0,
      "135": 0,
      "136": 0,
      "137": 0,
      "138": 0,
      "139": 0,
      "140": 0,
      "141": 0,
      "142": 0,
      "143": 0,
      "144": 0,
      "145": 0,
      "146": 0,
      "147": 0,
      "148": 0,
      "149": 0,
      "150": 0,
      "151": 0,
      "152": 0,
      "153": 0,
      "154": 0,
      "155": 0,
      "156": 0,
      "157": 0,
      "158": 0,
      "159": 0,
      "160": 0,
      "161": 0,
      "162": 0,
      "163": 0,
      "164": 0,
      "165": 0,
      "166": 0,
      "167": 0,
      "168": 0,
      "169": 0,
      "170": 0,
      "171": 0,
      "172": 0,
      "173": 0,
      "174": 0,
      "175": 0,
      "176": 0,
      "177": 0,
      "178": 0,
      "179": 0,
      "180": 0,
      "181": 0,
      "182": 0,
      "183": 0,
      "184": 0,
      "185": 0,
      "186": 0,
      "187": 0,
      "188": 0,
      "189": 0,
      "190": 0,
      "191": 0,
      "192": 0,
      "193": 0,
      "194": 0,
      "195": 0,
      "196": 0,
      "197": 0,
      "198": 0,
      "199": 0,
      "200": 0,
      "201": 0,
      "202": 0,
      "203": 0,
      "204": 0,
      "205": 0,
      "206": 0,
      "207": 0,
      "208": 0,
      "209": 0,
      "210": 0,
      "211": 0,
      "212": 0,
      "213": 0,
      "214": 0,
      "215": 0,
      "216": 0,
      "217": 0,
      "218": 0,
      "219": 0,
      "220": 0,
      "221": 0,
      "222": 0,
      "223": 0,
      "224": 0,
      "225": 0,
      "226": 0,
      "227": 0,
      "228": 0,
      "229": 0,
      "230": 0,
      "231": 0,
      "232": 0,
      "233": 0,
      "234": 0,
      "235": 0,
      "236": 0,
      "237": 0,
      "238": 0,
      "239": 0,
      "240": 0,
      "241": 0,
      "242": 0,
      "243": 0,
      "244": 0,
      "245": 0,
      "246": 0,
      "247": 0,
      "248": 0,
      "249": 0,
      "250": 0,
      "251": 0,
      "252": 0,
      "253": 0,
      "254": 0,
      "255": 0,
      "256": 0,
      "257": 0,
      "258": 0,
      "259": 0,
      "260": 0,
      "261": 0,
      "262": 0,
      "263": 0,
      "264": 0,
      "265": 0,
      "266": 0,
      "267": 0,
      "268": 0,
      "269": 0,
      "270": 0,
      "271": 0,
      "272": 0,
      "273": 0,
      "274": 0,
      "275": 0,
      "276": 0,
      "277": 0,
      "278": 0,
      "279": 0,
      "280": 0,
      "281": 0,
      "282": 0,
      "283": 0,
      "284": 0,
      "285": 0,
      "286": 0,
      "287": 0,
      "288": 0,
      "289": 0,
      "290": 0,
      "291": 0,
      "292": 0,
      "293": 0,
      "294": 0,
      "295": 0,
      "296": 0,
      "297": 0,
      "298": 0,
      "299": 0,
      "300": 0,
      "301": 0,
      "302": 0,
      "303": 0,
      "304": 0,
      "305": 0,
      "306": 0,
      "307": 0,
      "308": 0,
      "309": 0,
      "310": 0,
      "311": 0,
      "312": 0,
      "313": 0,
      "314": 0,
      "315": 0,
      "316": 0,
      "317": 0,
      "318": 0,
      "319": 0,
      "320": 0,
      "321": 0,
      "322": 0,
      "323": 0,
      "324": 0,
      "325": 0,
      "326": 0,
      "327": 0,
      "328": 0,
      "329": 0,
      "330": 0,
      "331": 0,
      "332": 0,
      "333": 0,
      "334": 0,
      "335": 0,
      "336": 0,
      "337": 0,
      "338": 0,
      "339": 0,
      "340": 0,
      "341": 0,
      "342": 0,
      "343": 0,
      "344": 0,
      "345": 0,
      "346": 0,
      "347": 0,
      "348": 0,
      "349": 0,
      "350": 0,
      "351": 0,
      "352": 0,
      "353": 0,
      "354": 0,
      "355": 0,
      "356": 0,
      "357": 0,
      "358": 0,
      "359": 0,
      "360": 0,
      "361": 0,
      "362": 0,
      "363": 0,
      "364": 0,
      "365": 0,
      "366": 0,
      "367": 0,
      "368": 0,
      "369": 0,
      "370": 0,
      "371": 0,
      "372": 0,
      "373": 0,
      "374": 0,
      "375": 0,
      "376": 0,
      "377": 0,
      "378": 0,
      "379": 0,
      "380": 0,
      "381": 0,
      "382": 0,
      "383": 0,
      "384": 0,
      "385": 0,
      "386": 0,
      "387": 0,
      "388": 0,
      "389": 0,
      "390": 0,
      "391": 0,
      "392": 0,
      "393": 0,
      "394": 0,
      "395": 0,
      "396": 0,
      "397": 0,
      "398": 0,
      "399": 0,
      "400": 0,
      "401": 0,
      "402": 0,
      "403": 0,
      "404": 0,
      "405": 0,
      "406": 0,
      "407": 0,
      "408": 0,
      "409": 0,
      "410": 0,
      "411": 0,
      "412": 0,
      "413": 0,
      "414": 0,
      "415": 0,
      "416": 0,
      "417": 0,
      "418": 0,
      "419": 0,
      "420": 0,
      "421": 0,
      "422": 0,
      "423": 0,
      "424": 0,
      "425": 0,
      "426": 0,
      "427": 0,
      "428": 0,
      "429": 0,
      "430": 0,
      "431": 0,
      "432": 0,
      "433": 0,
      "434": 0,
      "435": 0,
      "436": 0,
      "437": 0,
      "438": 0,
      "439": 0,
      "440": 0,
      "441": 0,
      "442": 0,
      "443": 0,
      "444": 0,
      "445": 0,
      "446": 0,
      "447": 0,
      "448": 0,
      "449": 0,
      "450": 0,
      "451": 0,
      "452": 0,
      "453": 0,
      "454": 0,
      "455": 0,
      "456": 0,
      "457": 0,
      "458": 0,
      "459": 0,
      "460": 0,
      "461": 0,
      "462": 0,
      "463": 0,
      "464": 0,
      "465": 0,
      "466": 0,
      "467": 0,
      "468": 0,
      "469": 0,
      "470": 0,
      "471": 0,
      "472": 0,
      "473": 0,
      "474": 0,
      "475": 0,
      "476": 0,
      "477": 0,
      "478": 0,
      "479": 0,
      "480": 0,
      "481": 0,
      "482": 0,
      "483": 0,
      "484": 0,
      "485": 0,
      "486": 0,
      "487": 0,
      "488": 0,
      "489": 0,
      "490": 0,
      "491": 0,
      "492": 0,
      "493": 0,
      "494": 0,
      "495": 0,
      "496": 0,
      "497": 0,
      "498": 0,
      "499": 0,
      "500": 0,
      "501": 0,
      "502": 0,
      "503": 0,
      "504": 0,
      "505": 0,
      "506": 0,
      "507": 0,
      "508": 0,
      "509": 0,
      "510": 0,
      "511": 0,
      "512": 0,
      "513": 0,
      "514": 0,
      "515": 0,
      "516": 0,
      "517": 0,
      "518": 0,
      "519": 0,
      "520": 0,
      "521": 0,
      "522": 0,
      "523": 0,
      "524": 0,
      "525": 0,
      "526": 0,
      "527": 0,
      "528": 0,
      "529": 0,
      "530": 0,
      "531": 0,
      "532": 0,
      "533": 0,
      "534": 0,
      "535": 0,
      "536": 0,
      "537": 0,
      "538": 0,
      "539": 0,
      "540": 0,
      "541": 0,
      "542": 0,
      "543": 0,
      "544": 0,
      "545": 0,
      "546": 0,
      "547": 0,
      "548": 0,
      "549": 0,
      "550": 0,
      "551": 0,
      "552": 0,
      "553": 0,
      "554": 0,
      "555": 0,
      "556": 0,
      "557": 0,
      "558": 0,
      "559": 0,
      "560": 0,
      "561": 0,
      "562": 0,
      "563": 0,
      "564": 0,
      "565": 0,
      "566": 0,
      "567": 0,
      "568": 0,
      "569": 0,
      "570": 0,
      "571": 0,
      "572": 0,
      "573": 0,
      "574": 0,
      "575": 0,
      "576": 0,
      "577": 0,
      "578": 0,
      "579": 0,
      "580": 0,
      "581": 0,
      "582": 0,
      "583": 0,
      "584": 0,
      "585": 0,
      "586": 0,
      "587": 0,
      "588": 0,
      "589": 0,
      "590": 0,
      "591": 0,
      "592": 0,
      "593": 0,
      "594": 0,
      "595": 0,
      "596": 0,
      "597": 0,
      "598": 0,
      "599": 0,
      "600": 0,
      "601": 0,
      "602": 0,
      "603": 0,
      "604": 0,
      "605": 0,
      "606": 0,
      "607": 0,
      "608": 0,
      "609": 0,
      "610": 0,
      "611": 0,
      "612": 0,
      "613": 0,
      "614": 0,
      "615": 0,
      "616": 0,
      "617": 0,
      "618": 0,
      "619": 0,
      "620": 0,
      "621": 0,
      "622": 0,
      "623": 0,
      "624": 0,
      "625": 0,
      "626": 0,
      "627": 0,
      "628": 0,
      "629": 0,
      "630": 0,
      "631": 0,
      "632": 0,
      "633": 0,
      "634": 0,
      "635": 0,
      "636": 0,
      "637": 0,
      "638": 0,
      "639": 0,
      "640": 0,
      "641": 0,
      "642": 0,
      "643": 0,
      "644": 0,
      "645": 0,
      "646": 0,
      "647": 0,
      "648": 0,
      "649": 0,
      "650": 0,
      "651": 0,
      "652": 0,
      "653": 0,
      "654": 0,
      "655": 0,
      "656": 0,
      "657": 0,
      "658": 0,
      "659": 0,
      "660": 0,
      "661": 0,
      "662": 0,
      "663": 0,
      "664": 0,
      "665": 0,
      "666": 0,
      "667": 0,
      "668": 0,
      "669": 0,
      "670": 0,
      "671": 0,
      "672": 0,
      "673": 0,
      "674": 0,
      "675": 0,
      "676": 0,
      "677": 0,
      "678": 0,
      "679": 0,
      "680": 0,
      "681": 0,
      "682": 0,
      "683": 0,
      "684": 0,
      "685": 0,
      "686": 0,
      "687": 0,
      "688": 0,
      "689": 0,
      "690": 0,
      "691": 0,
      "692": 0,
      "693": 0,
      "694": 0,
      "695": 0,
      "696": 0,
      "697": 0,
      "698": 0,
      "699": 0,
      "700": 0,
      "701": 0,
      "702": 0,
      "703": 0,
      "704": 0,
      "705": 0,
      "706": 0,
      "707": 0,
      "708": 0,
      "709": 0,
      "710": 0,
      "711": 0,
      "712": 0,
      "713": 0,
      "714": 0,
      "715": 0,
      "716": 0,
      "717": 0,
      "718": 0,
      "719": 0,
      "720": 0,
      "721": 0,
      "722": 0,
      "723": 0,
      "724": 0,
      "725": 0,
      "726": 0,
      "727": 0,
      "728": 0,
      "729": 0,
      "730": 0,
      "731": 0,
      "732": 0,
      "733": 0,
      "734": 0,
      "735": 0,
      "736": 0,
      "737": 0,
      "738": 0,
      "739": 0,
      "740": 0,
      "741": 0,
      "742": 0,
      "743": 0,
      "744": 0,
      "745": 0,
      "746": 0,
      "747": 0,
      "748": 0,
      "749": 0,
      "750": 0,
      "751": 0,
      "752": 0,
      "753": 0,
      "754": 0,
      "755": 0,
      "756": 0,
      "757": 0,
      "758": 0,
      "759": 0,
      "760": 0,
      "761": 0,
      "762": 0,
      "763": 0,
      "764": 0,
      "765": 0,
      "766": 0,
      "767": 0,
      "768": 0,
      "769": 0,
      "770": 0,
      "771": 0,
      "772": 0,
      "773": 0,
      "774": 0,
      "775": 0,
      "776": 0,
      "777": 0,
      "778": 0,
      "779": 0,
      "780": 0,
      "781": 0,
      "782": 0,
      "783": 0,
      "784": 0,
      "785": 0,
      "786": 0,
      "787": 0,
      "788": 0,
      "789": 0,
      "790": 0,
      "791": 0,
      "792": 0,
      "793": 0,
      "794": 0,
      "795": 0,
      "796": 0,
      "797": 0,
      "798": 0,
      "799": 0,
      "800": 0,
      "801": 0,
      "802": 0,
      "803": 0,
      "804": 0,
      "805": 0,
      "806": 0,
      "807": 0,
      "808": 0,
      "809": 0,
      "810": 0,
      "811": 0,
      "812": 0,
      "813": 0,
      "814": 0,
      "815": 0,
      "816": 0,
      "817": 0,
      "818": 0,
      "819": 0,
      "820": 0,
      "821": 0,
      "822": 0,
      "823": 0,
      "824": 0,
      "825": 0,
      "826": 0,
      "827": 0,
      "828": 0,
      "829": 0,
      "830": 0,
      "831": 0,
      "832": 0,
      "833": 0,
      "834": 0,
      "835": 0,
      "836": 0,
      "837": 0
     }
    },
    {
     "sx": 1,
     "sy": 1,
     "depth": 838,
     "w": {
      "0": 0,
      "1": 0,
      "2": 0,
      "3": 0,
      "4": 0,
      "5": 0,
      "6": 0,
      "7": 0,
      "8": 0,
      "9": 0,
      "10": 0,
      "11": 0,
      "12": 0,
      "13": 0,
      "14": 0,
      "15": 0,
      "16": 0,
      "17": 0,
      "18": 0,
      "19": 0,
      "20": 0,
      "21": 0,
      "22": 0,
      "23": 0,
      "24": 0,
      "25": 0,
      "26": 0,
      "27": 0,
      "28": 0,
      "29": 0,
      "30": 0,
      "31": 0,
      "32": 0,
      "33": 0,
      "34": 0,
      "35": 0,
      "36": 0,
      "37": 0,
      "38": 0,
      "39": 0,
      "40": 0,
      "41": 0,
      "42": 0,
      "43": 0,
      "44": 0,
      "45": 0,
      "46": 0,
      "47": 0,
      "48": 0,
      "49": 0,
      "50": 0,
      "51": 0,
      "52": 0,
      "53": 0,
      "54": 0,
      "55": 0,
      "56": 0,
      "57": 0,
      "58": 0,
      "59": 0,
      "60": 0,
      "61": 0,
      "62": 0,
      "63": 0,
      "64": 0,
      "65": 0,
      "66": 0,
      "67": 0,
      "68": 0,
      "69": 0,
      "70": 0,
      "71": 0,
      "72": 0,
      "73": 0,
      "74": 0,
      "75": 0,
      "76": 0,
      "77": 0,
      "78": 0,
      "79": 0,
      "80": 0,
      "81": 0,
      "82": 0,
      "83": 0,
      "84": 0,
      "85": 0,
      "86": 0,
      "87": 0,
      "88": 0,
      "89": 0,
      "90": 0,
      "91": 0,
      "92": 0,
      "93": 0,
      "94": 0,
      "95": 0,
      "96": 0,
      "97": 0,
      "98": 0,
      "99": 0,
      "100": 0,
      "101": 0,
      "102": 0,
      "103": 0,
      "104": 0,
      "105": 0,
      "106": 0,
      "107": 0,
      "108": 0,
      "109": 0,
      "110": 0,
      "111": 0,
      "112": 0,
      "113": 0,
      "114": 0,
      "115": 0,
      "116": 0,
      "117": 0,
      "118": 0,
      "119": 0,
      "120": 0,
      "121": 0,
      "122": 0,
      "123": 0,
      "124": 0,
      "125": 0,
      "126": 0,
      "127": 0,
      "128": 0,
      "129": 0,
      "130": 0,
      "131": 0,
      "132": 0,
      "133": 0,
      "134": 0,
      "135": 0,
      "136": 0,
      "137": 0,
      "138": 0,
      "139": 0,
      "140": 0,
      "141": 0,
      "142": 0,
      "143": 0,
      "144": 0,
      "145": 0,
      "146": 0,
      "147": 0,
      "148": 0,
      "149": 0,
      "150": 0,
      "151": 0,
      "152": 0,
      "153": 0,
      "154": 0,
      "155": 0,
      "156": 0,
      "157": 0,
      "158": 0,
      "159": 0,
      "160": 0,
      "161": 0,
      "162": 0,
      "163": 0,
      "164": 0,
      "165": 0,
      "166": 0,
      "167": 0,
      "168": 0,
      "169": 0,
      "170": 0,
      "171": 0,
      "172": 0,
      "173": 0,
      "174": 0,
      "175": 0,
      "176": 0,
      "177": 0,
      "178": 0,
      "179": 0,
      "180": 0,
      "181": 0,
      "182": 0,
      "183": 0,
      "184": 0,
      "185": 0,
      "186": 0,
      "187": 0,
      "188": 0,
      "189": 0,
      "190": 0,
      "191": 0,
      "192": 0,
      "193": 0,
      "194": 0,
      "195": 0,
      "196": 0,
      "197": 0,
      "198": 0,
      "199": 0,
      "200": 0,
      "201": 0,
      "202": 0,
      "203": 0,
      "204": 0,
      "205": 0,
      "206": 0,
      "207": 0,
      "208": 0,
      "209": 0,
      "210": 0,
      "211": 0,
      "212": 0,
      "213": 0,
      "214": 0,
      "215": 0,
      "216": 0,
      "217": 0,
      "218": 0,
      "219": 0,
      "220": 0,
      "221": 0,
      "222": 0,
      "223": 0,
      "224": 0,
      "225": 0,
      "226": 0,
      "227": 0,
      "228": 0,
      "229": 0,
      "230": 0,
      "231": 0,
      "232": 0,
      "233": 0,
      "234": 0,
      "235": 0,
      "236": 0,
      "237": 0,
      "238": 0,
      "239": 0,
      "240": 0,
      "241": 0,
      "242": 0,
      "243": 0,
      "244": 0,
      "245": 0,
      "246": 0,
      "247": 0,
      "248": 0,
      "249": 0,
      "250": 0,
      "251": 0,
      "252": 0,
      "253": 0,
      "254": 0,
      "255": 0,
      "256": 0,
      "257": 0,
      "258": 0,
      "259": 0,
      "260": 0,
      "261": 0,
      "262": 0,
      "263": 0,
      "264": 0,
      "265": 0,
      "266": 0,
      "267": 0,
      "268": 0,
      "269": 0,
      "270": 0,
      "271": 0,
      "272": 0,
      "273": 0,
      "274": 0,
      "275": 0,
      "276": 0,
      "277": 0,
      "278": 0,
      "279": 0,
      "280": 0,
      "281": 0,
      "282": 0,
      "283": 0,
      "284": 0,
      "285": 0,
      "286": 0,
      "287": 0,
      "288": 0,
      "289": 0,
      "290": 0,
      "291": 0,
      "292": 0,
      "293": 0,
      "294": 0,
      "295": 0,
      "296": 0,
      "297": 0,
      "298": 0,
      "299": 0,
      "300": 0,
      "301": 0,
      "302": 0,
      "303": 0,
      "304": 0,
      "305": 0,
      "306": 0,
      "307": 0,
      "308": 0,
      "309": 0,
      "310": 0,
      "311": 0,
      "312": 0,
      "313": 0,
      "314": 0,
      "315": 0,
      "316": 0,
      "317": 0,
      "318": 0,
      "319": 0,
      "320": 0,
      "321": 0,
      "322": 0,
      "323": 0,
      "324": 0,
      "325": 0,
      "326": 0,
      "327": 0,
      "328": 0,
      "329": 0,
      "330": 0,
      "331": 0,
      "332": 0,
      "333": 0,
      "334": 0,
      "335": 0,
      "336": 0,
      "337": 0,
      "338": 0,
      "339": 0,
      "340": 0,
      "341": 0,
      "342": 0,
      "343": 0,
      "344": 0,
      "345": 0,
      "346": 0,
      "347": 0,
      "348": 0,
      "349": 0,
      "350": 0,
      "351": 0,
      "352": 0,
      "353": 0,
      "354": 0,
      "355": 0,
      "356": 0,
      "357": 0,
      "358": 0,
      "359": 0,
      "360": 0,
      "361": 0,
      "362": 0,
      "363": 0,
      "364": 0,
      "365": 0,
      "366": 0,
      "367": 0,
      "368": 0,
      "369": 0,
      "370": 0,
      "371": 0,
      "372": 0,
      "373": 0,
      "374": 0,
      "375": 0,
      "376": 0,
      "377": 0,
      "378": 0,
      "379": 0,
      "380": 0,
      "381": 0,
      "382": 0,
      "383": 0,
      "384": 0,
      "385": 0,
      "386": 0,
      "387": 0,
      "388": 0,
      "389": 0,
      "390": 0,
      "391": 0,
      "392": 0,
      "393": 0,
      "394": 0,
      "395": 0,
      "396": 0,
      "397": 0,
      "398": 0,
      "399": 0,
      "400": 0,
      "401": 0,
      "402": 0,
      "403": 0,
      "404": 0,
      "405": 0,
      "406": 0,
      "407": 0,
      "408": 0,
      "409": 0,
      "410": 0,
      "411": 0,
      "412": 0,
      "413": 0,
      "414": 0,
      "415": 0,
      "416": 0,
      "417": 0,
      "418": 0,
      "419": 0,
      "420": 0,
      "421": 0,
      "422": 0,
      "423": 0,
      "424": 0,
      "425": 0,
      "426": 0,
      "427": 0,
      "428": 0,
      "429": 0,
      "430": 0,
      "431": 0,
      "432": 0,
      "433": 0,
      "434": 0,
      "435": 0,
      "436": 0,
      "437": 0,
      "438": 0,
      "439": 0,
      "440": 0,
      "441": 0,
      "442": 0,
      "443": 0,
      "444": 0,
      "445": 0,
      "446": 0,
      "447": 0,
      "448": 0,
      "449": 0,
      "450": 0,
      "451": 0,
      "452": 0,
      "453": 0,
      "454": 0,
      "455": 0,
      "456": 0,
      "457": 0,
      "458": 0,
      "459": 0,
      "460": 0,
      "461": 0,
      "462": 0,
      "463": 0,
      "464": 0,
      "465": 0,
      "466": 0,
      "467": 0,
      "468": 0,
      "469": 0,
      "470": 0,
      "471": 0,
      "472": 0,
      "473": 0,
      "474": 0,
      "475": 0,
      "476": 0,
      "477": 0,
      "478": 0,
      "479": 0,
      "480": 0,
      "481": 0,
      "482": 0,
      "483": 0,
      "484": 0,
      "485": 0,
      "486": 0,
      "487": 0,
      "488": 0,
      "489": 0,
      "490": 0,
      "491": 0,
      "492": 0,
      "493": 0,
      "494": 0,
      "495": 0,
      "496": 0,
      "497": 0,
      "498": 0,
      "499": 0,
      "500": 0,
      "501": 0,
      "502": 0,
      "503": 0,
      "504": 0,
      "505": 0,
      "506": 0,
      "507": 0,
      "508": 0,
      "509": 0,
      "510": 0,
      "511": 0,
      "512": 0,
      "513": 0,
      "514": 0,
      "515": 0,
      "516": 0,
      "517": 0,
      "518": 0,
      "519": 0,
      "520": 0,
      "521": 0,
      "522": 0,
      "523": 0,
      "524": 0,
      "525": 0,
      "526": 0,
      "527": 0,
      "528": 0,
      "529": 0,
      "530": 0,
      "531": 0,
      "532": 0,
      "533": 0,
      "534": 0,
      "535": 0,
      "536": 0,
      "537": 0,
      "538": 0,
      "539": 0,
      "540": 0,
      "541": 0,
      "542": 0,
      "543": 0,
      "544": 0,
      "545": 0,
      "546": 0,
      "547": 0,
      "548": 0,
      "549": 0,
      "550": 0,
      "551": 0,
      "552": 0,
      "553": 0,
      "554": 0,
      "555": 0,
      "556": 0,
      "557": 0,
      "558": 0,
      "559": 0,
      "560": 0,
      "561": 0,
      "562": 0,
      "563": 0,
      "564": 0,
      "565": 0,
      "566": 0,
      "567": 0,
      "568": 0,
      "569": 0,
      "570": 0,
      "571": 0,
      "572": 0,
      "573": 0,
      "574": 0,
      "575": 0,
      "576": 0,
      "577": 0,
      "578": 0,
      "579": 0,
      "580": 0,
      "581": 0,
      "582": 0,
      "583": 0,
      "584": 0,
      "585": 0,
      "586": 0,
      "587": 0,
      "588": 0,
      "589": 0,
      "590": 0,
      "591": 0,
      "592": 0,
      "593": 0,
      "594": 0,
      "595": 0,
      "596": 0,
      "597": 0,
      "598": 0,
      "599": 0,
      "600": 0,
      "601": 0,
      "602": 0,
      "603": 0,
      "604": 0,
      "605": 0,
      "606": 0,
      "607": 0,
      "608": 0,
      "609": 0,
      "610": 0,
      "611": 0,
      "612": 0,
      "613": 0,
      "614": 0,
      "615": 0,
      "616": 0,
      "617": 0,
      "618": 0,
      "619": 0,
      "620": 0,
      "621": 0,
      "622": 0,
      "623": 0,
      "624": 0,
      "625": 0,
      "626": 0,
      "627": 0,
      "628": 0,
      "629": 0,
      "630": 0,
      "631": 0,
      "632": 0,
      "633": 0,
      "634": 0,
      "635": 0,
      "636": 0,
      "637": 0,
      "638": 0,
      "639": 0,
      "640": 0,
      "641": 0,
      "642": 0,
      "643": 0,
      "644": 0,
      "645": 0,
      "646": 0,
      "647": 0,
      "648": 0,
      "649": 0,
      "650": 0,
      "651": 0,
      "652": 0,
      "653": 0,
      "654": 0,
      "655": 0,
      "656": 0,
      "657": 0,
      "658": 0,
      "659": 0,
      "660": 0,
      "661": 0,
      "662": 0,
      "663": 0,
      "664": 0,
      "665": 0,
      "666": 0,
      "667": 0,
      "668": 0,
      "669": 0,
      "670": 0,
      "671": 0,
      "672": 0,
      "673": 0,
      "674": 0,
      "675": 0,
      "676": 0,
      "677": 0,
      "678": 0,
      "679": 0,
      "680": 0,
      "681": 0,
      "682": 0,
      "683": 0,
      "684": 0,
      "685": 0,
      "686": 0,
      "687": 0,
      "688": 0,
      "689": 0,
      "690": 0,
      "691": 0,
      "692": 0,
      "693": 0,
      "694": 0,
      "695": 0,
      "696": 0,
      "697": 0,
      "698": 0,
      "699": 0,
      "700": 0,
      "701": 0,
      "702": 0,
      "703": 0,
      "704": 0,
      "705": 0,
      "706": 0,
      "707": 0,
      "708": 0,
      "709": 0,
      "710": 0,
      "711": 0,
      "712": 0,
      "713": 0,
      "714": 0,
      "715": 0,
      "716": 0,
      "717": 0,
      "718": 0,
      "719": 0,
      "720": 0,
      "721": 0,
      "722": 0,
      "723": 0,
      "724": 0,
      "725": 0,
      "726": 0,
      "727": 0,
      "728": 0,
      "729": 0,
      "730": 0,
      "731": 0,
      "732": 0,
      "733": 0,
      "734": 0,
      "735": 0,
      "736": 0,
      "737": 0,
      "738": 0,
      "739": 0,
      "740": 0,
      "741": 0,
      "742": 0,
      "743": 0,
      "744": 0,
      "745": 0,
      "746": 0,
      "747": 0,
      "748": 0,
      "749": 0,
      "750": 0,
      "751": 0,
      "752": 0,
      "753": 0,
      "754": 0,
      "755": 0,
      "756": 0,
      "757": 0,
      "758": 0,
      "759": 0,
      "760": 0,
      "761": 0,
      "762": 0,
      "763": 0,
      "764": 0,
      "765": 0,
      "766": 0,
      "767": 0,
      "768": 0,
      "769": 0,
      "770": 0,
      "771": 0,
      "772": 0,
      "773": 0,
      "774": 0,
      "775": 0,
      "776": 0,
      "777": 0,
      "778": 0,
      "779": 0,
      "780": 0,
      "781": 0,
      "782": 0,
      "783": 0,
      "784": 0,
      "785": 0,
      "786": 0,
      "787": 0,
      "788": 0,
      "789": 0,
      "790": 0,
      "791": 0,
      "792": 0,
      "793": 0,
      "794": 0,
      "795": 0,
      "796": 0,
      "797": 0,
      "798": 0,
      "799": 0,
      "800": 0,
      "801": 0,
      "802": 0,
      "803": 0,
      "804": 0,
      "805": 0,
      "806": 0,
      "807": 0,
      "808": 0,
      "809": 0,
      "810": 0,
      "811": 0,
      "812": 0,
      "813": 0,
      "814": 0,
      "815": 0,
      "816": 0,
      "817": 0,
      "818": 0,
      "819": 0,
      "820": 0,
      "821": 0,
      "822": 0,
      "823": 0,
      "824": 0,
      "825": 0,
      "826": 0,
      "827": 0,
      "828": 0,
      "829": 0,
      "830": 0,
      "831": 0,
      "832": 0,
      "833": 0,
      "834": 0,
      "835": 0,
      "836": 0,
      "837": 0
     }
    },
    {
     "sx": 1,
     "sy": 1,
     "depth": 838,
     "w": {
      "0": -20069.74184162507,
      "1": 0.06204917186435328,
      "2": -4.1042669475745335,
      "3": -160.72842656873624,
      "4": -80.29466505832616,
      "5": -80.32090615486004,
      "6": 0.10161359462026713,
      "7": -0.05384177194399797,
      "8": -0.058370863604273265,
      "9": -0.09579262829799166,
      "10": -0.07293704718929236,
      "11": -0.07908850982865442,
      "12": -0.08818407674390338,
      "13": -0.09979331941226126,
      "14": -0.07989215513734091,
      "15": -0.08766963958926446,
      "16": -0.05999966713782442,
      "17": -0.04625152239965613,
      "18": -19979.005650656145,
      "19": -0.020421032011771298,
      "20": -4.100813653297524,
      "21": -160.80253398670192,
      "22": -80.31726618770095,
      "23": -80.27254001220595,
      "24": -0.011343741205652418,
      "25": 0.018013947030852327,
      "26": -0.08701435100743155,
      "27": -0.05256395594266011,
      "28": -0.11319033783685936,
      "29": -0.11166134239934149,
      "30": -0.08014745975587899,
      "31": -0.04892450027877734,
      "32": -0.03478283546391879,
      "33": -0.03459441735036385,
      "34": -0.09809873754922459,
      "35": -0.11856748046449767,
      "36": -0.3887052213090781,
      "37": 0.023634639911604586,
      "38": -0.4393056707538202,
      "39": 0.06356887615084032,
      "40": -0.10641307433049549,
      "41": -0.020598117941646437,
      "42": -0.6349661367749467,
      "43": -0.4579764117944607,
      "44": -0.17054948482840346,
      "45": 0.03218270409295472,
      "46": 0.03984944510504075,
      "47": -0.02689511928297285,
      "48": -0.15316214248151405,
      "49": -0.10655922385857661,
      "50": 0.21474700132415636,
      "51": 0.028553803560020144,
      "52": 0.0495060308070857,
      "53": -0.0211374498282405,
      "54": 0.014555665806082373,
      "55": 0.046175568147154,
      "56": -0.028153145746095922,
      "57": -0.6457747593178594,
      "58": -0.2582602739332928,
      "59": -19901.89357291388,
      "60": 0.0017970169534379378,
      "61": -4.242023690155672,
      "62": -160.77583122947266,
      "63": -80.2969369909825,
      "64": -80.28039082625303,
      "65": -0.011689310325613473,
      "66": 0.022228081942233382,
      "67": -0.1149180118993365,
      "68": -0.07420290956648,
      "69": -0.0991043060533064,
      "70": -0.04098224680929655,
      "71": -0.056385010231657096,
      "72": -0.06839489085614038,
      "73": -0.08854032653259107,
      "74": -0.09840445448893036,
      "75": -0.1375148281526149,
      "76": -0.04022687871461153,
      "77": -0.42072947307869124,
      "78": -0.013269866592560294,
      "79": -0.2469450068906594,
      "80": -0.20503668811821707,
      "81": 0.07854264953012252,
      "82": -0.014883378202851865,
      "83": -0.14434604928908185,
      "84": -0.25860665869688987,
      "85": 0.012843171355310773,
      "86": -0.09052961394496402,
      "87": -0.15065187238893818,
      "88": -0.1788087348663103,
      "89": -0.19193625670021378,
      "90": -0.025662126053709468,
      "91": 0.1285320516354797,
      "92": -0.09823469635650774,
      "93": 0.013435407176630351,
      "94": 0.04591596527646167,
      "95": -0.056357007684067345,
      "96": -0.195260772538399,
      "97": -0.37269296333631713,
      "98": -0.49458948939026837,
      "99": -0.3335082465061941,
      "100": -19825.295103475957,
      "101": 0.02205520546042577,
      "102": -4.322471027186139,
      "103": -160.7353024126128,
      "104": -80.3402947261644,
      "105": -80.25896593804586,
      "106": -0.0378682629924746,
      "107": -0.04634741594509046,
      "108": -0.053523668627078407,
      "109": -0.021533407822954407,
      "110": -0.014595878857681216,
      "111": -0.0866278562431121,
      "112": -0.04633571712639403,
      "113": -0.10317289302869632,
      "114": -0.07977882392941368,
      "115": -0.1170657187483268,
      "116": -0.14873173108621365,
      "117": -0.014751985034447806,
      "118": 0.1124047715531801,
      "119": 0.10143514657065691,
      "120": -0.08684802534002398,
      "121": -0.5051053358297567,
      "122": -0.09438321448286159,
      "123": 0.027856802871720484,
      "124": -0.3431348392472986,
      "125": -0.46622948365843897,
      "126": 0.03196013651549051,
      "127": -0.1328612889975621,
      "128": -0.02220683535359399,
      "129": -0.11147084961661446,
      "130": -0.40634012147746795,
      "131": -0.03721238429256189,
      "132": -0.4727751968603974,
      "133": -0.2898238509549566,
      "134": -0.15477398895212666,
      "135": -0.04982308355534909,
      "136": 0.11367782114032068,
      "137": 0.15333462107642798,
      "138": -0.14340388863524225,
      "139": 0.025395769596414163,
      "140": -0.17331077575314752,
      "141": -19743.485026368762,
      "142": -0.06871885323879601,
      "143": -4.434334722114689,
      "144": -160.84427821417395,
      "145": -80.32897122955258,
      "146": -80.29511942197966,
      "147": -0.02850553656187354,
      "148": -0.01143397489352199,
      "149": -0.08822752294300827,
      "150": -0.0820942257968095,
      "151": -0.10017106857212028,
      "152": -0.058635849460784074,
      "153": -0.10843461876166086,
      "154": -0.0607809270549867,
      "155": -0.10115390923133934,
      "156": -0.09532287602908152,
      "157": -0.08397599344684324,
      "158": -0.11355195798335281,
      "159": 0.13981138974338148,
      "160": -0.5506901108047626,
      "161": 0.13037255352763857,
      "162": -0.142459309552309,
      "163": 0.012444460661812885,
      "164": -0.4991582679179971,
      "165": -0.2618074682196076,
      "166": -0.23985192515591436,
      "167": 0.0322762222101828,
      "168": 0.10436140539431112,
      "169": -0.4707115553408763,
      "170": 0.25050348093744434,
      "171": 0.046004306900278076,
      "172": -0.06722326369478092,
      "173": -0.11664683461166256,
      "174": -0.15095686664893898,
      "175": -0.07233628678053722,
      "176": -0.10859895969505907,
      "177": -0.1567129269707687,
      "178": 0.014606446874785142,
      "179": 0.05890303934299739,
      "180": -0.5510824304232225,
      "181": -0.3832731707462632,
      "182": -19650.596702030354,
      "183": -0.0027211521159003957,
      "184": -4.5242976183911585,
      "185": -160.6949303427727,
      "186": -80.2835212080231,
      "187": -80.24342769259155,
      "188": 0.023304128869389394,
      "189": -0.004447826632124087,
      "190": -0.06594440420038306,
      "191": -0.10327866884270048,
      "192": -0.10208371686170416,
      "193": 0.010972012799004867,
      "194": -0.05665626026512233,
      "195": -0.05970949312968939,
      "196": -0.041454438879852784,
      "197": -0.09425034950388189,
      "198": -0.14849937592244808,
      "199": -0.05527019227585165,
      "200": 0.0761099904126301,
      "201": -0.262532741754859,
      "202": -0.3351945088196988,
      "203": 0.20931101247748285,
      "204": -0.016662908808716362,
      "205": 0.03290763385933565,
      "206": -0.17048765859204412,
      "207": -0.02015579540693064,
      "208": 0.2276237150104407,
      "209": -0.6112026351155225,
      "210": -0.2891641155666684,
      "211": 0.007172175576754285,
      "212": -0.4878646905798842,
      "213": 0.11787008743011397,
      "214": 0.04867311532140747,
      "215": -0.7145649363465646,
      "216": -0.15154591380686092,
      "217": -0.37259600902394974,
      "218": -0.25094633563862906,
      "219": -0.01666509617371085,
      "220": -0.2834878477961787,
      "221": 0.15232641475671743,
      "222": 0.006569458436055146,
      "223": -19569.92381285644,
      "224": 0.0665973733091945,
      "225": -4.519794176972003,
      "226": -160.74726540319296,
      "227": -80.31330061367522,
      "228": -80.27241360765514,
      "229": -0.012596329637282607,
      "230": 0.03704725832643078,
      "231": -0.05858019627573695,
      "232": -0.07449576428348349,
      "233": -0.08532426956066629,
      "234": -0.07684917389927638,
      "235": -0.10082277223496237,
      "236": -0.1099261820633457,
      "237": -0.12438045454982039,
      "238": -0.07493226421174433,
      "239": -0.06253400654019613,
      "240": -0.06025689491243396,
      "241": 0.07191454836734062,
      "242": -0.0019068278048466976,
      "243": 0.20840608261658208,
      "244": 0.004344439469531361,
      "245": -0.14177332773572804,
      "246": 0.006770377088371297,
      "247": -0.10467083995129103,
      "248": -0.028474210387838574,
      "249": -0.2661731397873695,
      "250": 0.050725271233404264,
      "251": -0.3882960703646937,
      "252": -0.47582816809492784,
      "253": -0.45410128587551457,
      "254": -0.11337316573353458,
      "255": 0.08595239406469615,
      "256": 0.005382867189728857,
      "257": 0.011576313683429379,
      "258": -0.3865422801846167,
      "259": -0.11786610352539827,
      "260": -0.17861643180676476,
      "261": -0.007416507895935566,
      "262": -0.7392186839148341,
      "263": 0.09570759868280981,
      "264": -19475.4726047497,
      "265": 0.02664895076832172,
      "266": -4.461237764442259,
      "267": -160.78648843786823,
      "268": -80.29600231101651,
      "269": -80.33584965476028,
      "270": -0.03745441681466295,
      "271": 0.00914379620870031,
      "272": -0.10962444863708574,
      "273": -0.06572000282343407,
      "274": -0.08460699220275987,
      "275": -0.05663845595574708,
      "276": -0.15784421452361252,
      "277": -0.09237583203423928,
      "278": -0.07532161249130075,
      "279": -0.06672367626309134,
      "280": -0.06276636533591541,
      "281": -0.057697663984562275,
      "282": -0.6747005947899637,
      "283": -0.4485103402024445,
      "284": 0.17332400660887984,
      "285": 0.009720869950024783,
      "286": 0.026565745429262044,
      "287": 0.19759318019915043,
      "288": -0.2888015953154846,
      "289": 0.043565515107319853,
      "290": -0.09380875813580965,
      "291": -0.027309157022534142,
      "292": -0.2699231710723148,
      "293": 0.03809283805461351,
      "294": -0.02017915334476847,
      "295": -0.46514142287632415,
      "296": 0.022302763439596477,
      "297": -0.3357265150454746,
      "298": -0.060463974488378515,
      "299": -0.1427934114802826,
      "300": 0.06399763472304616,
      "301": -0.01765286364841136,
      "302": -0.11588407753447673,
      "303": -0.12878002634643937,
      "304": -0.31910982628991624,
      "305": -19376.792942586846,
      "306": 0.020340796276374064,
      "307": -4.439491449470956,
      "308": -160.7234148628986,
      "309": -80.22059362010445,
      "310": -80.34348634141622,
      "311": -0.008865782380716922,
      "312": 0.04747527554273425,
      "313": -0.09126997919229066,
      "314": -0.14884329744849387,
      "315": -0.08399154005334523,
      "316": -0.11954181819828939,
      "317": -0.17202515264878832,
      "318": -0.07577984723407764,
      "319": -0.04554326536414965,
      "320": -0.10953350668020613,
      "321": -0.07900923117876163,
      "322": -0.07534798225551007,
      "323": -0.05887361679340708,
      "324": -0.1985821929471933,
      "325": 0.0739271479170554,
      "326": -0.6250510728001547,
      "327": 0.025506369622378414,
      "328": -0.016094976254150226,
      "329": -0.029542192314545322,
      "330": -0.25750425576321634,
      "331": -0.2309262875989899,
      "332": -0.49581722755019864,
      "333": -0.45831693733151446,
      "334": -0.01778794212782923,
      "335": 0.19646643459257276,
      "336": -0.1332906780637746,
      "337": 0.13807371322406228,
      "338": -0.34139499884653923,
      "339": 0.09565552645978745,
      "340": -0.13383887009490664,
      "341": 0.022787738178535726,
      "342": -0.4946389707402785,
      "343": 0.011036315227024108,
      "344": -0.04887449915228005,
      "345": -0.08889723267906631,
      "346": -19272.31988663049,
      "347": -0.014261565169171328,
      "348": -4.4971241030532125,
      "349": -160.76208479340295,
      "350": -80.33848171907653,
      "351": -80.27239013207016,
      "352": 0.05765302487813496,
      "353": -0.017558518215633687,
      "354": -0.045837029686689096,
      "355": -0.09968226706043701,
      "356": -0.11823622418633344,
      "357": -0.09061969476533568,
      "358": -0.03974426700693721,
      "359": -0.09949109467244843,
      "360": -0.07828728584300493,
      "361": -0.07073398240141447,
      "362": -0.04814619627006136,
      "363": -0.03684896997456571,
      "364": -0.011948343895500892,
      "365": -0.28985066163957296,
      "366": -0.3927424833703952,
      "367": 0.06169249991644686,
      "368": -0.002660907718969962,
      "369": -0.0037766320119609607,
      "370": -0.31557266002064055,
      "371": -0.4057249396247646,
      "372": -0.0647232128533322,
      "373": -0.21215949968067854,
      "374": 0.13381433908878285,
      "375": -0.057006692416588435,
      "376": 0.03338850086408302,
      "377": 0.09885559830582513,
      "378": -0.041996571738287684,
      "379": -0.10124847897229479,
      "380": 0.035584702620289815,
      "381": -0.08004396320791676,
      "382": -0.30130207552282723,
      "383": -0.22815408930742123,
      "384": 0.04922261772601178,
      "385": 0.05934187973113839,
      "386": -0.8085322373246947,
      "387": -19196.3110296854,
      "388": -0.0017583489370789135,
      "389": -4.528284622541459,
      "390": -160.71837779523997,
      "391": -80.32044396090976,
      "392": -80.33880696986574,
      "393": -0.0058904575354636664,
      "394": -0.018394783525583262,
      "395": -0.02071464902198676,
      "396": -0.01910852330878863,
      "397": -0.0278149694744563,
      "398": -0.07763690650010542,
      "399": -0.1067942658327326,
      "400": -0.09933256367386237,
      "401": -0.018155552642169538,
      "402": -0.07336132165934654,
      "403": -0.08721093196610781,
      "404": -0.12156450970205446,
      "405": 0.010590216982027395,
      "406": 0.06102322144772113,
      "407": -0.4566600864847536,
      "408": -0.031833075819838075,
      "409": -0.20023262706799608,
      "410": -0.14367557578496273,
      "411": -0.24542901295313171,
      "412": 0.022625796408929377,
      "413": -0.28005501645343234,
      "414": 0.06968934636372476,
      "415": -0.00013448746415873367,
      "416": -0.16135064346493938,
      "417": 0.18800811652922156,
      "418": -0.4448020264484959,
      "419": -0.10702106714312795,
      "420": -0.13287385164030519,
      "421": -0.15133206500649632,
      "422": -0.001289345025165026,
      "423": -0.32594021557539904,
      "424": -0.14350745484734423,
      "425": 0.15561231289443916,
      "426": -0.029567685702389903,
      "427": -0.7121306009845566,
      "428": -19092.563683186658,
      "429": 0.06649451946489153,
      "430": -4.645748850936765,
      "431": -160.73561767039914,
      "432": -80.27805200305167,
      "433": -80.29968267975028,
      "434": 0.004427164634833181,
      "435": 0.055408642383463796,
      "436": -0.07787502580686169,
      "437": -0.03423410123007964,
      "438": -0.10517011347882135,
      "439": 0.0007213617510602651,
      "440": -0.12612865937656725,
      "441": -0.07572481221984967,
      "442": -0.052442063342123764,
      "443": -0.11640210584882242,
      "444": -0.13973767828242442,
      "445": -0.06864013860134055,
      "446": -0.2212506031243634,
      "447": -0.03531258570080292,
      "448": -0.334673752850795,
      "449": 0.3307112142360605,
      "450": -0.7675025701870769,
      "451": -0.2322201579865929,
      "452": -0.005758552696355821,
      "453": -0.06811938467585092,
      "454": -0.19364768602184276,
      "455": -0.12099144056210107,
      "456": 0.0607087326041005,
      "457": 0.008512044940731519,
      "458": -0.0788078631683576,
      "459": -0.16618038547717995,
      "460": -0.5364147229942086,
      "461": 0.0018833518192245143,
      "462": -0.0076014473506081405,
      "463": -0.02537526546035777,
      "464": -0.16489314249727213,
      "465": 0.022179615457581053,
      "466": 0.15488975118358234,
      "467": -0.3179961771625783,
      "468": -0.28405003999182515,
      "469": -19015.514428071136,
      "470": 0.02372472866597251,
      "471": -4.608049621466376,
      "472": -160.74203042029401,
      "473": -80.3309466528383,
      "474": -80.28997504430949,
      "475": 0.032254666295234394,
      "476": 0.04599466003630585,
      "477": -0.05152380444309816,
      "478": -0.056717946843280076,
      "479": -0.03830895971027388,
      "480": -0.036555726965911285,
      "481": -0.10256013022373263,
      "482": -0.05997530573562085,
      "483": -0.05564660578084264,
      "484": -0.021645301107102548,
      "485": -0.1250129702709154,
      "486": -0.04881167528928565,
      "487": -0.029052452074145307,
      "488": 0.038071678254702444,
      "489": -0.4360573539890238,
      "490": 0.026043698234833906,
      "491": -0.688729686457816,
      "492": -0.26633053777866567,
      "493": -0.10330997668312253,
      "494": -0.3577792161086886,
      "495": -0.08775750422314357,
      "496": 0.2329524322136942,
      "497": -0.10283690937635159,
      "498": -0.2445207074102778,
      "499": 0.04518784131783934,
      "500": -0.36998922939365647,
      "501": -0.010259346591724079,
      "502": -0.022535210807061615,
      "503": -0.0850478970079225,
      "504": -0.09512679007119343,
      "505": -0.35445333551800756,
      "506": -0.054649579774317496,
      "507": 0.050974760070828844,
      "508": 0.05382471537919794,
      "509": -0.21042249129470034,
      "510": -18933.716257928714,
      "511": 0.030672925091640914,
      "512": -4.49210769685794,
      "513": -160.78555701405847,
      "514": -80.31530430185782,
      "515": -80.25916987063488,
      "516": 0.013027698596567713,
      "517": 0.021209001012091392,
      "518": -0.14693373969115933,
      "519": -0.055548697698895956,
      "520": -0.07930422156014387,
      "521": -0.07045864184462128,
      "522": -0.11356004170616198,
      "523": -0.08143761092728134,
      "524": -0.07016784764165912,
      "525": -0.04267792249222287,
      "526": -0.03573837982309759,
      "527": -0.12172695175410939,
      "528": -0.012126619908113088,
      "529": -0.29817087785153185,
      "530": -0.14652432493332873,
      "531": -0.6377320204750031,
      "532": -0.03756869184754872,
      "533": -0.2936338895361666,
      "534": 0.03902681496532535,
      "535": -0.17341416155195477,
      "536": -0.12909251644587252,
      "537": -0.24382456796832516,
      "538": -0.08523844867429284,
      "539": -0.04324812337143599,
      "540": -0.09428642688110205,
      "541": -0.083755315874849,
      "542": -0.20914416470854347,
      "543": 0.021253273833019594,
      "544": 0.01713640848268576,
      "545": -0.2441115288889515,
      "546": -0.43200819838895277,
      "547": -0.32258335586857295,
      "548": -0.08361073100957478,
      "549": 0.22820457619399048,
      "550": 0.11321862253571226,
      "551": -18836.102169281723,
      "552": -0.008305985402646817,
      "553": -14.778309397810675,
      "554": -160.80270407446616,
      "555": -80.28428688979768,
      "556": -80.22410105783102,
      "557": -0.02225471118882327,
      "558": 0.027718690126129573,
      "559": -0.08581272622597574,
      "560": 0.003949756042166496,
      "561": -0.10210901984320028,
      "562": -0.1149415881694348,
      "563": -0.15376943946152605,
      "564": -0.09339537838667866,
      "565": -0.040303583317444255,
      "566": -0.09513635921117554,
      "567": -0.10116940637217328,
      "568": -0.06024858499459328,
      "569": -0.02301064360424989,
      "570": -0.26204570937504995,
      "571": -0.045799135983369266,
      "572": 0.048254628872662395,
      "573": -0.014111663010530344,
      "574": -0.360146656899391,
      "575": -0.2187751395189218,
      "576": 0.05167285676159186,
      "577": -0.505422838812878,
      "578": -0.32410314258171896,
      "579": -0.013280031185825374,
      "580": -0.007117304596067601,
      "581": -0.14307176895676757,
      "582": -0.008350927104993728,
      "583": -0.4153700005028969,
      "584": 0.0014938871824667858,
      "585": 0.0015568191408995141,
      "586": -0.37592962494899645,
      "587": -0.11150503117161287,
      "588": -0.31100216932813485,
      "589": -0.5100890080940887,
      "590": 0.10167148708360528,
      "591": 0.29669673702609123,
      "592": -18743.694066759468,
      "593": 0.03978059734649519,
      "594": -17.461756354822434,
      "595": -160.7432121602714,
      "596": -80.25780050239112,
      "597": -80.3149085277777,
      "598": -0.06957577314565097,
      "599": -0.034065782242933454,
      "600": -0.11516345419834367,
      "601": -0.040287317106077636,
      "602": -0.07333744451463216,
      "603": -0.0783872961841215,
      "604": -0.053531045547197106,
      "605": -0.07718333324046084,
      "606": -0.13988794940881943,
      "607": -0.13187281698322512,
      "608": -0.08362924418704053,
      "609": -0.09073641410180519,
      "610": -0.07758259176895538,
      "611": -0.16247124169596808,
      "612": -0.26651000662661206,
      "613": -0.05186480031126898,
      "614": 0.008892237664165338,
      "615": -0.03218032780926995,
      "616": -0.6973899177165314,
      "617": -0.20840738873810669,
      "618": -0.01129537983741334,
      "619": 0.0835426121098895,
      "620": -0.004230710318362959,
      "621": 0.038689919008251895,
      "622": 0.00321713264014581,
      "623": 0.016141376711072575,
      "624": -0.21287208127031673,
      "625": -0.4871206055995464,
      "626": -0.0018112134832927826,
      "627": -0.37868106919105415,
      "628": 0.1767525008016417,
      "629": 0.14653542107443013,
      "630": 0.013412226805456963,
      "631": -0.8108648863119675,
      "632": -0.05349345838947789,
      "633": -18664.458781493824,
      "634": 0.0316942139437382,
      "635": -7.8963454127684845,
      "636": -160.73440103061324,
      "637": -80.31188875544852,
      "638": -80.28743857775702,
      "639": -0.007291310785839117,
      "640": 0.008228269113560355,
      "641": -0.1293115304693065,
      "642": -0.06783789161017291,
      "643": -0.07910511832311894,
      "644": -0.08614131036684858,
      "645": -0.09899272232241053,
      "646": -0.058654020440079994,
      "647": -0.0963507826637941,
      "648": -0.107597954037134,
      "649": -0.09595369859257785,
      "650": -0.03676838681361117,
      "651": -0.22397494921338235,
      "652": -0.4104202147584739,
      "653": 0.06433360447771239,
      "654": 0.0364074362066688,
      "655": -0.0024398479217674247,
      "656": -0.0465118214271239,
      "657": -0.2216753797355414,
      "658": -0.52779325335248,
      "659": 0.05078310433871782,
      "660": -0.27959371382556303,
      "661": 0.032815011610017604,
      "662": -0.3179300773365859,
      "663": -0.1257944005423874,
      "664": 0.16212098436994873,
      "665": 0.07310033583448883,
      "666": -0.03830677214085299,
      "667": -0.010188956432240307,
      "668": -0.10964642714241653,
      "669": -0.006402248453163711,
      "670": -0.24004655620910206,
      "671": -0.5587387758616862,
      "672": -0.600389828512575,
      "673": 0.22058828189546295,
      "674": -18570.017735740075,
      "675": 0.011506640360291823,
      "676": -5.024031334443203,
      "677": -160.74343577564161,
      "678": -80.32400531537562,
      "679": -80.30050584177496,
      "680": 0.022734038992680672,
      "681": -0.015167348052342475,
      "682": -0.045160287729005155,
      "683": -0.11318901379043833,
      "684": -0.10975595231879258,
      "685": -0.028240986211470767,
      "686": -0.07696363509148992,
      "687": -0.06573390362594539,
      "688": -0.006325073675860807,
      "689": -0.11294595736124312,
      "690": -0.04002150413586734,
      "691": -0.03707411789834574,
      "692": -0.05898365427779154,
      "693": -0.055750139034419846,
      "694": -0.058580385824438946,
      "695": 0.0749528511592686,
      "696": 0.031832119438562435,
      "697": 0.07080556992604582,
      "698": -0.16515537515586695,
      "699": -0.3168821640415305,
      "700": 0.0959711421761753,
      "701": -0.3310882637426217,
      "702": -0.06035023670841019,
      "703": -0.45393174598294783,
      "704": 0.07679755954034276,
      "705": -0.17838740394375624,
      "706": -0.14241839955758484,
      "707": -0.09923752813933397,
      "708": -0.21311725794777864,
      "709": -0.47229875219239525,
      "710": -0.29535651350936976,
      "711": -0.2698473166591947,
      "712": -0.3404150090025283,
      "713": -0.20990171621986775,
      "714": 0.28142536798012113,
      "715": -18517.986957251123,
      "716": 0.018616715153582573,
      "717": -6.62377142791787,
      "718": -160.7836175029556,
      "719": -80.31049624042329,
      "720": -80.38200060458749,
      "721": 0.040009941208769086,
      "722": 0.02449793427829359,
      "723": -0.11094473035594117,
      "724": -0.12061153870210921,
      "725": -0.15878412324145366,
      "726": -0.05510633951604142,
      "727": -0.1115509855283479,
      "728": -0.12203900176440252,
      "729": -0.1426725497476711,
      "730": -0.04903537868008105,
      "731": -0.10486245511340249,
      "732": -0.09977068992790228,
      "733": -0.12037746053418694,
      "734": -0.10553355571599578,
      "735": -0.5742598949555363,
      "736": -0.3037812881679824,
      "737": 0.050061062326141006,
      "738": 0.10045792018186744,
      "739": 0.05873267396856516,
      "740": -0.07188870973704886,
      "741": 0.0024861987366764328,
      "742": -0.002806654849339476,
      "743": -0.251643468424123,
      "744": -0.054079666683499665,
      "745": -0.1802244146811166,
      "746": 0.04318457332380685,
      "747": 0.0016462439047937583,
      "748": -0.02089695764761407,
      "749": -0.04201313063631332,
      "750": -0.22449386307423327,
      "751": -0.36718555464980707,
      "752": -0.0849326558593645,
      "753": -0.19762835628762906,
      "754": -0.22674554531903351,
      "755": -0.28136253775718123,
      "756": -18424.89385485487,
      "757": 0.01253322519395562,
      "758": -8.398675742367239,
      "759": -160.7060831686797,
      "760": -80.29549644317359,
      "761": -80.32691568765294,
      "762": 0.04461469300265873,
      "763": -0.03282717249526986,
      "764": -0.13217777064080308,
      "765": -0.0746907480963182,
      "766": -0.027838693535150644,
      "767": -0.016588970918020522,
      "768": -0.03825307546504418,
      "769": -0.07285392579207749,
      "770": -0.07769146035426759,
      "771": -0.0815819755076361,
      "772": -0.09109167930173648,
      "773": -0.07359595480995688,
      "774": 0.04051321257974625,
      "775": 0.09085781020068014,
      "776": 0.0323749306903958,
      "777": -0.15869460040011213,
      "778": -0.3268165999689187,
      "779": 0.004227939546827751,
      "780": -0.013256501571822345,
      "781": 0.033172126162415695,
      "782": -0.29891552354849316,
      "783": -0.2780521613116782,
      "784": -0.17751112105472833,
      "785": -0.010489331980074306,
      "786": 0.024629836399913157,
      "787": -0.2914130281253438,
      "788": -0.11446860356588726,
      "789": -0.1653342953847886,
      "790": -0.02675435594959745,
      "791": -0.21299137313430078,
      "792": -0.22803538709512003,
      "793": -0.17299982388041163,
      "794": 0.02205350327951033,
      "795": -0.090283325251366,
      "796": -0.5694441572668729,
      "797": -18352.70087750321,
      "798": -0.04298901996527975,
      "799": -11.396520496338157,
      "800": -160.7438934289909,
      "801": -80.33950049221559,
      "802": -80.28225761454462,
      "803": -0.04440782610839484,
      "804": -0.01563611779999162,
      "805": -0.08985169846349382,
      "806": -0.0790107940809824,
      "807": -0.05236831133190066,
      "808": -0.07047073601740396,
      "809": -0.12456522211074689,
      "810": -0.07819089177521535,
      "811": -0.0833727884255135,
      "812": -0.048982044764045655,
      "813": -0.10399605741825847,
      "814": -0.07680189096674887,
      "815": -0.15726608752086738,
      "816": 0.020113528038580256,
      "817": -0.1178756825623381,
      "818": -0.4378235439122392,
      "819": -0.18831656290277932,
      "820": -0.07136663014035072,
      "821": -0.4309182029578988,
      "822": 0.13813641392032341,
      "823": 0.02834281423710061,
      "824": -0.12300038473057019,
      "825": 0.0683042983501156,
      "826": -0.06628763047831761,
      "827": -0.527083678391383,
      "828": -0.20754168870293535,
      "829": -0.521066099517908,
      "830": -0.031198895510376894,
      "831": -0.08744004711460575,
      "832": -0.11537791656753817,
      "833": -0.21573404242956787,
      "834": -0.06594882889329746,
      "835": -0.07879176515074622,
      "836": 0.046845924551423314,
      "837": 0.30468256662927834
     }
    },
    {
     "sx": 1,
     "sy": 1,
     "depth": 838,
     "w": {
      "0": 0,
      "1": 0,
      "2": 0,
      "3": 0,
      "4": 0,
      "5": 0,
      "6": 0,
      "7": 0,
      "8": 0,
      "9": 0,
      "10": 0,
      "11": 0,
      "12": 0,
      "13": 0,
      "14": 0,
      "15": 0,
      "16": 0,
      "17": 0,
      "18": 0,
      "19": 0,
      "20": 0,
      "21": 0,
      "22": 0,
      "23": 0,
      "24": 0,
      "25": 0,
      "26": 0,
      "27": 0,
      "28": 0,
      "29": 0,
      "30": 0,
      "31": 0,
      "32": 0,
      "33": 0,
      "34": 0,
      "35": 0,
      "36": 0,
      "37": 0,
      "38": 0,
      "39": 0,
      "40": 0,
      "41": 0,
      "42": 0,
      "43": 0,
      "44": 0,
      "45": 0,
      "46": 0,
      "47": 0,
      "48": 0,
      "49": 0,
      "50": 0,
      "51": 0,
      "52": 0,
      "53": 0,
      "54": 0,
      "55": 0,
      "56": 0,
      "57": 0,
      "58": 0,
      "59": 0,
      "60": 0,
      "61": 0,
      "62": 0,
      "63": 0,
      "64": 0,
      "65": 0,
      "66": 0,
      "67": 0,
      "68": 0,
      "69": 0,
      "70": 0,
      "71": 0,
      "72": 0,
      "73": 0,
      "74": 0,
      "75": 0,
      "76": 0,
      "77": 0,
      "78": 0,
      "79": 0,
      "80": 0,
      "81": 0,
      "82": 0,
      "83": 0,
      "84": 0,
      "85": 0,
      "86": 0,
      "87": 0,
      "88": 0,
      "89": 0,
      "90": 0,
      "91": 0,
      "92": 0,
      "93": 0,
      "94": 0,
      "95": 0,
      "96": 0,
      "97": 0,
      "98": 0,
      "99": 0,
      "100": 0,
      "101": 0,
      "102": 0,
      "103": 0,
      "104": 0,
      "105": 0,
      "106": 0,
      "107": 0,
      "108": 0,
      "109": 0,
      "110": 0,
      "111": 0,
      "112": 0,
      "113": 0,
      "114": 0,
      "115": 0,
      "116": 0,
      "117": 0,
      "118": 0,
      "119": 0,
      "120": 0,
      "121": 0,
      "122": 0,
      "123": 0,
      "124": 0,
      "125": 0,
      "126": 0,
      "127": 0,
      "128": 0,
      "129": 0,
      "130": 0,
      "131": 0,
      "132": 0,
      "133": 0,
      "134": 0,
      "135": 0,
      "136": 0,
      "137": 0,
      "138": 0,
      "139": 0,
      "140": 0,
      "141": 0,
      "142": 0,
      "143": 0,
      "144": 0,
      "145": 0,
      "146": 0,
      "147": 0,
      "148": 0,
      "149": 0,
      "150": 0,
      "151": 0,
      "152": 0,
      "153": 0,
      "154": 0,
      "155": 0,
      "156": 0,
      "157": 0,
      "158": 0,
      "159": 0,
      "160": 0,
      "161": 0,
      "162": 0,
      "163": 0,
      "164": 0,
      "165": 0,
      "166": 0,
      "167": 0,
      "168": 0,
      "169": 0,
      "170": 0,
      "171": 0,
      "172": 0,
      "173": 0,
      "174": 0,
      "175": 0,
      "176": 0,
      "177": 0,
      "178": 0,
      "179": 0,
      "180": 0,
      "181": 0,
      "182": 0,
      "183": 0,
      "184": 0,
      "185": 0,
      "186": 0,
      "187": 0,
      "188": 0,
      "189": 0,
      "190": 0,
      "191": 0,
      "192": 0,
      "193": 0,
      "194": 0,
      "195": 0,
      "196": 0,
      "197": 0,
      "198": 0,
      "199": 0,
      "200": 0,
      "201": 0,
      "202": 0,
      "203": 0,
      "204": 0,
      "205": 0,
      "206": 0,
      "207": 0,
      "208": 0,
      "209": 0,
      "210": 0,
      "211": 0,
      "212": 0,
      "213": 0,
      "214": 0,
      "215": 0,
      "216": 0,
      "217": 0,
      "218": 0,
      "219": 0,
      "220": 0,
      "221": 0,
      "222": 0,
      "223": 0,
      "224": 0,
      "225": 0,
      "226": 0,
      "227": 0,
      "228": 0,
      "229": 0,
      "230": 0,
      "231": 0,
      "232": 0,
      "233": 0,
      "234": 0,
      "235": 0,
      "236": 0,
      "237": 0,
      "238": 0,
      "239": 0,
      "240": 0,
      "241": 0,
      "242": 0,
      "243": 0,
      "244": 0,
      "245": 0,
      "246": 0,
      "247": 0,
      "248": 0,
      "249": 0,
      "250": 0,
      "251": 0,
      "252": 0,
      "253": 0,
      "254": 0,
      "255": 0,
      "256": 0,
      "257": 0,
      "258": 0,
      "259": 0,
      "260": 0,
      "261": 0,
      "262": 0,
      "263": 0,
      "264": 0,
      "265": 0,
      "266": 0,
      "267": 0,
      "268": 0,
      "269": 0,
      "270": 0,
      "271": 0,
      "272": 0,
      "273": 0,
      "274": 0,
      "275": 0,
      "276": 0,
      "277": 0,
      "278": 0,
      "279": 0,
      "280": 0,
      "281": 0,
      "282": 0,
      "283": 0,
      "284": 0,
      "285": 0,
      "286": 0,
      "287": 0,
      "288": 0,
      "289": 0,
      "290": 0,
      "291": 0,
      "292": 0,
      "293": 0,
      "294": 0,
      "295": 0,
      "296": 0,
      "297": 0,
      "298": 0,
      "299": 0,
      "300": 0,
      "301": 0,
      "302": 0,
      "303": 0,
      "304": 0,
      "305": 0,
      "306": 0,
      "307": 0,
      "308": 0,
      "309": 0,
      "310": 0,
      "311": 0,
      "312": 0,
      "313": 0,
      "314": 0,
      "315": 0,
      "316": 0,
      "317": 0,
      "318": 0,
      "319": 0,
      "320": 0,
      "321": 0,
      "322": 0,
      "323": 0,
      "324": 0,
      "325": 0,
      "326": 0,
      "327": 0,
      "328": 0,
      "329": 0,
      "330": 0,
      "331": 0,
      "332": 0,
      "333": 0,
      "334": 0,
      "335": 0,
      "336": 0,
      "337": 0,
      "338": 0,
      "339": 0,
      "340": 0,
      "341": 0,
      "342": 0,
      "343": 0,
      "344": 0,
      "345": 0,
      "346": 0,
      "347": 0,
      "348": 0,
      "349": 0,
      "350": 0,
      "351": 0,
      "352": 0,
      "353": 0,
      "354": 0,
      "355": 0,
      "356": 0,
      "357": 0,
      "358": 0,
      "359": 0,
      "360": 0,
      "361": 0,
      "362": 0,
      "363": 0,
      "364": 0,
      "365": 0,
      "366": 0,
      "367": 0,
      "368": 0,
      "369": 0,
      "370": 0,
      "371": 0,
      "372": 0,
      "373": 0,
      "374": 0,
      "375": 0,
      "376": 0,
      "377": 0,
      "378": 0,
      "379": 0,
      "380": 0,
      "381": 0,
      "382": 0,
      "383": 0,
      "384": 0,
      "385": 0,
      "386": 0,
      "387": 0,
      "388": 0,
      "389": 0,
      "390": 0,
      "391": 0,
      "392": 0,
      "393": 0,
      "394": 0,
      "395": 0,
      "396": 0,
      "397": 0,
      "398": 0,
      "399": 0,
      "400": 0,
      "401": 0,
      "402": 0,
      "403": 0,
      "404": 0,
      "405": 0,
      "406": 0,
      "407": 0,
      "408": 0,
      "409": 0,
      "410": 0,
      "411": 0,
      "412": 0,
      "413": 0,
      "414": 0,
      "415": 0,
      "416": 0,
      "417": 0,
      "418": 0,
      "419": 0,
      "420": 0,
      "421": 0,
      "422": 0,
      "423": 0,
      "424": 0,
      "425": 0,
      "426": 0,
      "427": 0,
      "428": 0,
      "429": 0,
      "430": 0,
      "431": 0,
      "432": 0,
      "433": 0,
      "434": 0,
      "435": 0,
      "436": 0,
      "437": 0,
      "438": 0,
      "439": 0,
      "440": 0,
      "441": 0,
      "442": 0,
      "443": 0,
      "444": 0,
      "445": 0,
      "446": 0,
      "447": 0,
      "448": 0,
      "449": 0,
      "450": 0,
      "451": 0,
      "452": 0,
      "453": 0,
      "454": 0,
      "455": 0,
      "456": 0,
      "457": 0,
      "458": 0,
      "459": 0,
      "460": 0,
      "461": 0,
      "462": 0,
      "463": 0,
      "464": 0,
      "465": 0,
      "466": 0,
      "467": 0,
      "468": 0,
      "469": 0,
      "470": 0,
      "471": 0,
      "472": 0,
      "473": 0,
      "474": 0,
      "475": 0,
      "476": 0,
      "477": 0,
      "478": 0,
      "479": 0,
      "480": 0,
      "481": 0,
      "482": 0,
      "483": 0,
      "484": 0,
      "485": 0,
      "486": 0,
      "487": 0,
      "488": 0,
      "489": 0,
      "490": 0,
      "491": 0,
      "492": 0,
      "493": 0,
      "494": 0,
      "495": 0,
      "496": 0,
      "497": 0,
      "498": 0,
      "499": 0,
      "500": 0,
      "501": 0,
      "502": 0,
      "503": 0,
      "504": 0,
      "505": 0,
      "506": 0,
      "507": 0,
      "508": 0,
      "509": 0,
      "510": 0,
      "511": 0,
      "512": 0,
      "513": 0,
      "514": 0,
      "515": 0,
      "516": 0,
      "517": 0,
      "518": 0,
      "519": 0,
      "520": 0,
      "521": 0,
      "522": 0,
      "523": 0,
      "524": 0,
      "525": 0,
      "526": 0,
      "527": 0,
      "528": 0,
      "529": 0,
      "530": 0,
      "531": 0,
      "532": 0,
      "533": 0,
      "534": 0,
      "535": 0,
      "536": 0,
      "537": 0,
      "538": 0,
      "539": 0,
      "540": 0,
      "541": 0,
      "542": 0,
      "543": 0,
      "544": 0,
      "545": 0,
      "546": 0,
      "547": 0,
      "548": 0,
      "549": 0,
      "550": 0,
      "551": 0,
      "552": 0,
      "553": 0,
      "554": 0,
      "555": 0,
      "556": 0,
      "557": 0,
      "558": 0,
      "559": 0,
      "560": 0,
      "561": 0,
      "562": 0,
      "563": 0,
      "564": 0,
      "565": 0,
      "566": 0,
      "567": 0,
      "568": 0,
      "569": 0,
      "570": 0,
      "571": 0,
      "572": 0,
      "573": 0,
      "574": 0,
      "575": 0,
      "576": 0,
      "577": 0,
      "578": 0,
      "579": 0,
      "580": 0,
      "581": 0,
      "582": 0,
      "583": 0,
      "584": 0,
      "585": 0,
      "586": 0,
      "587": 0,
      "588": 0,
      "589": 0,
      "590": 0,
      "591": 0,
      "592": 0,
      "593": 0,
      "594": 0,
      "595": 0,
      "596": 0,
      "597": 0,
      "598": 0,
      "599": 0,
      "600": 0,
      "601": 0,
      "602": 0,
      "603": 0,
      "604": 0,
      "605": 0,
      "606": 0,
      "607": 0,
      "608": 0,
      "609": 0,
      "610": 0,
      "611": 0,
      "612": 0,
      "613": 0,
      "614": 0,
      "615": 0,
      "616": 0,
      "617": 0,
      "618": 0,
      "619": 0,
      "620": 0,
      "621": 0,
      "622": 0,
      "623": 0,
      "624": 0,
      "625": 0,
      "626": 0,
      "627": 0,
      "628": 0,
      "629": 0,
      "630": 0,
      "631": 0,
      "632": 0,
      "633": 0,
      "634": 0,
      "635": 0,
      "636": 0,
      "637": 0,
      "638": 0,
      "639": 0,
      "640": 0,
      "641": 0,
      "642": 0,
      "643": 0,
      "644": 0,
      "645": 0,
      "646": 0,
      "647": 0,
      "648": 0,
      "649": 0,
      "650": 0,
      "651": 0,
      "652": 0,
      "653": 0,
      "654": 0,
      "655": 0,
      "656": 0,
      "657": 0,
      "658": 0,
      "659": 0,
      "660": 0,
      "661": 0,
      "662": 0,
      "663": 0,
      "664": 0,
      "665": 0,
      "666": 0,
      "667": 0,
      "668": 0,
      "669": 0,
      "670": 0,
      "671": 0,
      "672": 0,
      "673": 0,
      "674": 0,
      "675": 0,
      "676": 0,
      "677": 0,
      "678": 0,
      "679": 0,
      "680": 0,
      "681": 0,
      "682": 0,
      "683": 0,
      "684": 0,
      "685": 0,
      "686": 0,
      "687": 0,
      "688": 0,
      "689": 0,
      "690": 0,
      "691": 0,
      "692": 0,
      "693": 0,
      "694": 0,
      "695": 0,
      "696": 0,
      "697": 0,
      "698": 0,
      "699": 0,
      "700": 0,
      "701": 0,
      "702": 0,
      "703": 0,
      "704": 0,
      "705": 0,
      "706": 0,
      "707": 0,
      "708": 0,
      "709": 0,
      "710": 0,
      "711": 0,
      "712": 0,
      "713": 0,
      "714": 0,
      "715": 0,
      "716": 0,
      "717": 0,
      "718": 0,
      "719": 0,
      "720": 0,
      "721": 0,
      "722": 0,
      "723": 0,
      "724": 0,
      "725": 0,
      "726": 0,
      "727": 0,
      "728": 0,
      "729": 0,
      "730": 0,
      "731": 0,
      "732": 0,
      "733": 0,
      "734": 0,
      "735": 0,
      "736": 0,
      "737": 0,
      "738": 0,
      "739": 0,
      "740": 0,
      "741": 0,
      "742": 0,
      "743": 0,
      "744": 0,
      "745": 0,
      "746": 0,
      "747": 0,
      "748": 0,
      "749": 0,
      "750": 0,
      "751": 0,
      "752": 0,
      "753": 0,
      "754": 0,
      "755": 0,
      "756": 0,
      "757": 0,
      "758": 0,
      "759": 0,
      "760": 0,
      "761": 0,
      "762": 0,
      "763": 0,
      "764": 0,
      "765": 0,
      "766": 0,
      "767": 0,
      "768": 0,
      "769": 0,
      "770": 0,
      "771": 0,
      "772": 0,
      "773": 0,
      "774": 0,
      "775": 0,
      "776": 0,
      "777": 0,
      "778": 0,
      "779": 0,
      "780": 0,
      "781": 0,
      "782": 0,
      "783": 0,
      "784": 0,
      "785": 0,
      "786": 0,
      "787": 0,
      "788": 0,
      "789": 0,
      "790": 0,
      "791": 0,
      "792": 0,
      "793": 0,
      "794": 0,
      "795": 0,
      "796": 0,
      "797": 0,
      "798": 0,
      "799": 0,
      "800": 0,
      "801": 0,
      "802": 0,
      "803": 0,
      "804": 0,
      "805": 0,
      "806": 0,
      "807": 0,
      "808": 0,
      "809": 0,
      "810": 0,
      "811": 0,
      "812": 0,
      "813": 0,
      "814": 0,
      "815": 0,
      "816": 0,
      "817": 0,
      "818": 0,
      "819": 0,
      "820": 0,
      "821": 0,
      "822": 0,
      "823": 0,
      "824": 0,
      "825": 0,
      "826": 0,
      "827": 0,
      "828": 0,
      "829": 0,
      "830": 0,
      "831": 0,
      "832": 0,
      "833": 0,
      "834": 0,
      "835": 0,
      "836": 0,
      "837": 0
     }
    },
    {
     "sx": 1,
     "sy": 1,
     "depth": 838,
     "w": {
      "0": 0,
      "1": 0,
      "2": 0,
      "3": 0,
      "4": 0,
      "5": 0,
      "6": 0,
      "7": 0,
      "8": 0,
      "9": 0,
      "10": 0,
      "11": 0,
      "12": 0,
      "13": 0,
      "14": 0,
      "15": 0,
      "16": 0,
      "17": 0,
      "18": 0,
      "19": 0,
      "20": 0,
      "21": 0,
      "22": 0,
      "23": 0,
      "24": 0,
      "25": 0,
      "26": 0,
      "27": 0,
      "28": 0,
      "29": 0,
      "30": 0,
      "31": 0,
      "32": 0,
      "33": 0,
      "34": 0,
      "35": 0,
      "36": 0,
      "37": 0,
      "38": 0,
      "39": 0,
      "40": 0,
      "41": 0,
      "42": 0,
      "43": 0,
      "44": 0,
      "45": 0,
      "46": 0,
      "47": 0,
      "48": 0,
      "49": 0,
      "50": 0,
      "51": 0,
      "52": 0,
      "53": 0,
      "54": 0,
      "55": 0,
      "56": 0,
      "57": 0,
      "58": 0,
      "59": 0,
      "60": 0,
      "61": 0,
      "62": 0,
      "63": 0,
      "64": 0,
      "65": 0,
      "66": 0,
      "67": 0,
      "68": 0,
      "69": 0,
      "70": 0,
      "71": 0,
      "72": 0,
      "73": 0,
      "74": 0,
      "75": 0,
      "76": 0,
      "77": 0,
      "78": 0,
      "79": 0,
      "80": 0,
      "81": 0,
