{
 "layers": [
  {
   "out_depth": 838,
   "out_sx": 1,
   "out_sy": 1,
   "layer_type": "input"
  },
  {
   "out_depth": 25,
   "out_sx": 1,
   "out_sy": 1,
   "layer_type": "fc",
   "num_inputs": 838,
   "l1_decay_mul": 0,
   "l2_decay_mul": 1,
   "filters": [
    {
     "sx": 1,
     "sy": 1,
     "depth": 838,
     "w": {
      "0": -0.023746248072556205,
      "1": 0.0300211443509503,
      "2": 0.026489092865406853,
      "3": 0.05076220363847104,
      "4": 0.0039056674866393393,
      "5": 0.06549166736765892,
      "6": 0.03246314613097047,
      "7": 0.0620028070131437,
      "8": 0.030633818013033474,
      "9": 0.014570599768915529,
      "10": 0.04967762296780108,
      "11": -0.07918171663138966,
      "12": 0.009999053027862217,
      "13": -0.021995888179199466,
      "14": 0.010513674531498214,
      "15": -0.005941130594787426,
      "16": -0.03199318295584488,
      "17": 0.008708008096595986,
      "18": -0.09116547168682382,
      "19": -0.005632837496024021,
      "20": 0.036815540377997356,
      "21": 0.04873070599991678,
      "22": -0.012871015016837574,
      "23": -0.007018015528154625,
      "24": 0.0027337198244625927,
      "25": 0.00447378514921442,
      "26": -0.030355832575784066,
      "27": 0.04032509226446222,
      "28": 0.034135717293119455,
      "29": -0.009044582636445803,
      "30": 0.012743829864820427,
      "31": 0.04564389416038273,
      "32": 0.022558085011572266,
      "33": 0.004518741240828197,
      "34": -0.08849221486769338,
      "35": -0.04253713167405538,
      "36": 0.015502364116154977,
      "37": -0.010378102920297191,
      "38": 0.030692995327428505,
      "39": -0.04360182696916857,
      "40": -0.09942750417678893,
      "41": -0.017493433588483997,
      "42": 0.0010148302280981718,
      "43": -0.012754378953901864,
      "44": 0.0158500751256055,
      "45": 0.008687835774906111,
      "46": 0.0033726859942343995,
      "47": -0.0031635462059982425,
      "48": 0.03938166725153967,
      "49": -0.00329565358490097,
      "50": 0.03888580292980087,
      "51": -0.02017496501375739,
      "52": -0.0017901244525730987,
      "53": 0.024441172032901633,
      "54": -0.02402177432844266,
      "55": 0.07328763879866665,
      "56": 0.0012976109423070822,
      "57": 0.054755736999215855,
      "58": 0.004519426050697938,
      "59": -0.015259922787829514,
      "60": 0.010959394313982032,
      "61": -0.02179079002300894,
      "62": 0.012487828258951438,
      "63": 0.09195085329457052,
      "64": 0.0615131629498313,
      "65": -0.012790509022899283,
      "66": -0.03265605811695344,
      "67": 0.08152389790084813,
      "68": -0.040997067333796364,
      "69": -0.044491889781743975,
      "70": -0.05513091216929417,
      "71": -0.028898721413685293,
      "72": 0.009667353785763414,
      "73": -0.032562170164669384,
      "74": 0.07264805593273004,
      "75": -0.0409601159387954,
      "76": -0.0170414521726304,
      "77": 0.030123919372137375,
      "78": -0.07608305772193924,
      "79": 0.004358341526573857,
      "80": -0.028741198553699058,
      "81": -0.031689843863520493,
      "82": 0.005431153451987313,
      "83": -0.0037445517349846994,
      "84": -0.032878156397547015,
      "85": -0.04553302834534752,
      "86": 0.05436518539340296,
      "87": 0.05092014368039069,
      "88": 0.037437476715440315,
      "89": -0.036107680792964635,
      "90": 0.03727398371015299,
      "91": 0.008910895602068614,
      "92": -0.038120262088211135,
      "93": -0.003217969626367922,
      "94": -0.03028463220319083,
      "95": 0.040360098305459086,
      "96": 0.010268217463934127,
      "97": -0.014871550350321167,
      "98": 0.0194190069043594,
      "99": 0.012842520661137056,
      "100": -0.0012866592983585602,
      "101": 0.016979450626419278,
      "102": 0.008981291034453998,
      "103": 0.015318064383846374,
      "104": 0.0359645794504132,
      "105": -0.01811405992436354,
      "106": -0.02149599346269995,
      "107": -0.07521437827914952,
      "108": -0.028116643470074937,
      "109": -0.04566335972726656,
      "110": 0.021657637616066025,
      "111": 0.005930740916706238,
      "112": 0.02530529957660525,
      "113": 0.013432037948945477,
      "114": -0.025603497177054162,
      "115": 0.021262790585617006,
      "116": -0.05556232906880525,
      "117": -0.03402136041226006,
      "118": 0.034141171601325605,
      "119": 0.029247467395622187,
      "120": -0.05018780380496449,
      "121": -0.029330621854458977,
      "122": 0.00915960166705081,
      "123": -0.003540041424525614,
      "124": -0.01802948585733708,
      "125": -0.032354147068457816,
      "126": -0.008604975949494269,
      "127": -0.0008106286873788992,
      "128": 0.004378414033541763,
      "129": 0.01759728777508319,
      "130": 0.0403098002323039,
      "131": 0.061595663927276396,
      "132": -0.008618583236603125,
      "133": -0.026117458030744643,
      "134": -0.03846817080205924,
      "135": 0.04777694664880522,
      "136": -0.029315500723223968,
      "137": 0.04330002945849989,
      "138": -0.02122225491667926,
      "139": 0.01410431099902693,
      "140": -0.02078668487958774,
      "141": 0.0347425051558789,
      "142": -0.023193348705371337,
      "143": -0.09731745427766539,
      "144": 0.07535456389604407,
      "145": -0.07232766547190872,
      "146": 0.030854711754552754,
      "147": 0.06694817421029346,
      "148": 0.039370828511958104,
      "149": 0.013807358547267253,
      "150": -0.02045259623257835,
      "151": -0.03461104935584239,
      "152": 0.023669901562853222,
      "153": 0.020163201234315205,
      "154": 0.027701638322740373,
      "155": 0.016446584902774373,
      "156": -0.016054059907577745,
      "157": 0.06443999360654001,
      "158": -0.03633675532215524,
      "159": 0.04346832644820286,
      "160": -0.019927931386013533,
      "161": -0.014656240922908086,
      "162": -0.03164237107193602,
      "163": -0.024120060748133408,
      "164": 0.03640634489627222,
      "165": -0.04083915613977532,
      "166": 0.048985618131537824,
      "167": 0.01945797565104735,
      "168": -0.016630712608190507,
      "169": 0.023571950167693853,
      "170": 0.01230601562807012,
      "171": -0.0076815734436689286,
      "172": 0.061173586543384756,
      "173": 0.026331027561853775,
      "174": 0.03995465823586218,
      "175": -0.0095385503924139,
      "176": -0.018737891893013302,
      "177": -0.00687428719322718,
      "178": -0.03167663262222367,
      "179": 0.03988596080900753,
      "180": 0.02818209233922436,
      "181": 0.033674782626795796,
      "182": -0.08396365278443792,
      "183": -0.0021155766502455064,
      "184": 0.047292137407341076,
      "185": -0.0736464004902492,
      "186": -0.04693235727040824,
      "187": -0.02653253485181223,
      "188": -0.05495988112326574,
      "189": 0.01760880070534545,
      "190": 0.06320047342283927,
      "191": 0.021745977433546552,
      "192": -0.032371001211129964,
      "193": -0.03174203324930888,
      "194": 0.03892445871846146,
      "195": -0.06910108862303266,
      "196": 0.0050798851478875175,
      "197": -0.04351085605091345,
      "198": 0.01597784891484648,
      "199": 0.005576109042850024,
      "200": -0.033624059134619334,
      "201": -0.014684462150047681,
      "202": -0.057176529062107635,
      "203": -0.032846562605790795,
      "204": -0.04019144373039936,
      "205": 0.028044773741679005,
      "206": -0.02201741862353467,
      "207": 0.015420231113610437,
      "208": 0.06785225801534864,
      "209": -0.02484890266999508,
      "210": 0.0463285340332015,
      "211": -0.006353100928800148,
      "212": -0.04214411543285508,
      "213": 0.01653285958619534,
      "214": 0.01983857114627764,
      "215": -0.005811923360486719,
      "216": 0.009584904368050932,
      "217": 0.06356610436808231,
      "218": -0.022936853700525096,
      "219": 0.011298341980357953,
      "220": 0.034033240067497784,
      "221": 0.01306716605565959,
      "222": 0.03792068093625235,
      "223": -0.009598524981788058,
      "224": 0.0008972400920441175,
      "225": 0.0561942049138172,
      "226": 0.022267816598369627,
      "227": -0.01393405751649317,
      "228": 0.012246529871721283,
      "229": 0.03631724852578429,
      "230": 0.016823927315240784,
      "231": 0.017491750620553782,
      "232": 0.014088004627933828,
      "233": 0.0010577778846464377,
      "234": -0.021966307134782738,
      "235": -0.0068988325291970435,
      "236": -0.06264737161296555,
      "237": 0.03613496573452845,
      "238": -0.01344317588706397,
      "239": 0.03639321488868295,
      "240": 0.007833803142433943,
      "241": 0.000032574172534339595,
      "242": -0.009470842132609385,
      "243": 0.018686768326329137,
      "244": -0.003272740098377452,
      "245": 0.022416788737859464,
      "246": 0.034174308817497924,
      "247": -0.01810126712239892,
      "248": 0.021320800650283536,
      "249": 0.003176107151582645,
      "250": 0.0941399407000478,
      "251": 0.08362104102145854,
      "252": -0.01634684466850659,
      "253": 0.011048780780058769,
      "254": -0.0385393530446343,
      "255": -0.049643914681005374,
      "256": 0.03687364412077373,
      "257": -0.002917782018209987,
      "258": 0.07023790054987314,
      "259": -0.06130424474259792,
      "260": -0.021699063171368813,
      "261": -0.03003124845743175,
      "262": -0.033422932418418906,
      "263": 0.00265124125582159,
      "264": 0.05220573663182654,
      "265": 0.01092916954299246,
      "266": -0.0483854913006485,
      "267": -0.036600526413647624,
      "268": 0.05431646301172159,
      "269": -0.03359498722290002,
      "270": -0.023060255594023256,
      "271": 0.015941617308523257,
      "272": 0.02119580859539631,
      "273": -0.044825874969108975,
      "274": -0.0653208508865242,
      "275": -0.029202967088670723,
      "276": -0.017310145259256962,
      "277": 0.022686954521996153,
      "278": -0.01734800118488677,
      "279": 0.06856648606844261,
      "280": -0.0200174901284846,
      "281": 0.04317889260470874,
      "282": 0.015379446437998896,
      "283": -0.002079733917613225,
      "284": -0.008713148764119907,
      "285": 0.024999817221531075,
      "286": 0.020839308238727667,
      "287": -0.001936376318272824,
      "288": 0.018345243586253467,
      "289": -0.0010686119941715015,
      "290": 0.005343337565452036,
      "291": 0.04233500110976163,
      "292": 0.032378762876163494,
      "293": 0.016194040409971088,
      "294": 0.027818718649618504,
      "295": 0.05361842936541387,
      "296": -0.011360729930825724,
      "297": 0.014251725226920142,
      "298": -0.05805040155848508,
      "299": -0.02636656787203578,
      "300": 0.0024355897768981215,
      "301": -0.016794131651932456,
      "302": 0.02218101355202398,
      "303": -0.0300956543822164,
      "304": 0.029367367295607898,
      "305": -0.018295640380712522,
      "306": -0.009567857472652142,
      "307": 0.026651440291806463,
      "308": 0.016882111120930115,
      "309": -0.056711034692362286,
      "310": 0.04181340062119449,
      "311": 0.016599383541666377,
      "312": 0.029008381842702987,
      "313": 0.008823747331390821,
      "314": 0.014752350707160912,
      "315": 0.023930980906110864,
      "316": 0.03206365108106724,
      "317": -0.011851283000632682,
      "318": -0.01937564557115493,
      "319": -0.017818606804941836,
      "320": -0.012456518158491948,
      "321": -0.035587055506152425,
      "322": 0.0389342426242068,
      "323": 0.014100513517155373,
      "324": -0.03822662531592487,
      "325": -0.07713892054165244,
      "326": -0.05479715033449366,
      "327": -0.013386076987635966,
      "328": -0.016505019510198157,
      "329": 0.005603224670266252,
      "330": -0.014722484658997267,
      "331": 0.07516293616000161,
      "332": -0.012792074670574548,
      "333": 0.033681718211545954,
      "334": -0.0031255978683314197,
      "335": 0.0008849633616967046,
      "336": -0.06614428045615214,
      "337": 0.06153146161539986,
      "338": -0.019978973014717537,
      "339": -0.00160401039220011,
      "340": 0.023508877080569653,
      "341": -0.08362960248762404,
      "342": 0.050591284137074054,
      "343": -0.04224090162543742,
      "344": 0.03237672449847645,
      "345": -0.045131427803770115,
      "346": -0.026209178926960723,
      "347": -0.00887733305334014,
      "348": -0.01162930141459874,
      "349": -0.043300136702214664,
      "350": -0.005983122672895553,
      "351": 0.012534225382444699,
      "352": -0.01134035678946312,
      "353": 0.006217459588892051,
      "354": -0.027819983784162134,
      "355": 0.058332736816481406,
      "356": -0.04031485423500056,
      "357": 0.0017718970021101848,
      "358": -0.03230022773183776,
      "359": -0.06367149586027587,
      "360": -0.008107673899020087,
      "361": -0.02751776587391729,
      "362": -0.031593636934707785,
      "363": -0.01847138854960355,
      "364": 0.022159731994157196,
      "365": -0.010586643736183643,
      "366": 0.002656401393526155,
      "367": 0.09899640729303093,
      "368": -0.06033010494091981,
      "369": -0.025067381844857375,
      "370": 0.02365360945763577,
      "371": -0.0437599244545138,
      "372": -0.04377373682723479,
      "373": 0.06568695097186604,
      "374": 0.03065722510510584,
      "375": 0.03743507970969525,
      "376": 0.029936028229870522,
      "377": -0.014796996444906204,
      "378": 0.01937256354599333,
      "379": 0.03714978842361242,
      "380": -0.007239142406625239,
      "381": -0.04275584096616047,
      "382": -0.012290259849268374,
      "383": -0.02977239861599069,
      "384": 0.002920389391190436,
      "385": -0.014776951077516838,
      "386": 0.0025031665937928975,
      "387": 0.012614398664237657,
      "388": 0.022708770170061135,
      "389": 0.014417490100404738,
      "390": 0.010698412819926294,
      "391": 0.00344745214116789,
      "392": -0.04275390616882061,
      "393": 0.016849655798101593,
      "394": 0.008920481547983502,
      "395": -0.04070851595529626,
      "396": 0.0004936244436438913,
      "397": 0.013164666885474588,
      "398": -0.04038363238497317,
      "399": 0.018053799973265873,
      "400": 0.021284304493428163,
      "401": -0.07533469548346569,
      "402": 0.024132254430438135,
      "403": -0.02979333574628869,
      "404": 0.020442546608163678,
      "405": 0.03626524302542851,
      "406": 0.010000380169292106,
      "407": 0.03254075426708308,
      "408": -0.03183391243667788,
      "409": 0.0024111599013032056,
      "410": 0.008204223998197407,
      "411": 0.05871687175609372,
      "412": -0.022265126696251213,
      "413": -0.01649473597380988,
      "414": -0.024610639033503516,
      "415": -0.06946473381490201,
      "416": -0.017394717962964084,
      "417": -0.014217309696731382,
      "418": 0.011598494821829246,
      "419": 0.010778659793334306,
      "420": -0.0201780512241501,
      "421": 0.013325620450015493,
      "422": 0.007931487505223645,
      "423": -0.003934689306156768,
      "424": 0.00260490200547796,
      "425": -0.008115064544725645,
      "426": 0.010554440063489236,
      "427": 0.0005567253604616292,
      "428": -0.010564713692277908,
      "429": -0.03675165301577212,
      "430": 0.019871478182956034,
      "431": 0.02077378278665801,
      "432": 0.008024365059043699,
      "433": -0.01024308348341603,
      "434": 0.023593832345998954,
      "435": -0.06977784289951407,
      "436": 0.06177982825222389,
      "437": 0.026615388864503427,
      "438": 0.01827592272140822,
      "439": 0.0010154912769787066,
      "440": 0.024907767830903642,
      "441": -0.030090439851315726,
      "442": -0.00575512723409471,
      "443": 0.02059762968914212,
      "444": 0.009854946835686976,
      "445": 0.016368398494928042,
      "446": 0.06909995055724452,
      "447": -0.0417691426047625,
      "448": 0.07053972480061624,
      "449": 0.014998555998632639,
      "450": 0.03053669818913055,
      "451": -0.0018937135265059532,
      "452": 0.010980061266406682,
      "453": 0.05924710941562427,
      "454": -0.029006631462290218,
      "455": 0.0119635678799216,
      "456": -0.004303267349003488,
      "457": -0.04182942485032495,
      "458": 0.0377283741736238,
      "459": -0.009034920146403898,
      "460": 0.007565061171440132,
      "461": 0.046485322084214194,
      "462": 0.006288720565516818,
      "463": -0.029090540831417693,
      "464": -0.07101652911057187,
      "465": -0.049019757759408325,
      "466": 0.004254244399976728,
      "467": 0.03729087294743576,
      "468": 0.09016323523172332,
      "469": -0.02639674343390015,
      "470": 0.019009533616449862,
      "471": -0.0012547032477776396,
      "472": -0.022295013058422783,
      "473": -0.02588077401048706,
      "474": -0.021338715096884446,
      "475": 0.0045936692652878575,
      "476": 0.07405182040001485,
      "477": 0.023700703425504094,
      "478": -0.002610916854786955,
      "479": 0.00537420668827877,
      "480": -0.019189617551402742,
      "481": -0.04172426881178142,
      "482": -0.03867122143264851,
      "483": 0.02604460523044353,
      "484": -0.012052967753999014,
      "485": -0.006374507629686703,
      "486": -0.014474644069973392,
      "487": -0.005571565167803435,
      "488": 0.05394765001009789,
      "489": -0.020177540549355666,
      "490": 0.07619797578936911,
      "491": 0.0487299906471115,
      "492": 0.024094313395788384,
      "493": -0.02301056590146174,
      "494": 0.010389263398359792,
      "495": -0.037822247994883575,
      "496": 0.0009769705462304586,
      "497": -0.06262590801702148,
      "498": 0.019783226338632623,
      "499": -0.08290828481906881,
      "500": 0.010933772657274236,
      "501": 0.07293923528886422,
      "502": 0.0022568433276184846,
      "503": 0.015082371883422515,
      "504": -0.030049606209368623,
      "505": 0.036045968915639416,
      "506": -0.0012738391375119967,
      "507": 0.011738291044401933,
      "508": -0.015880892668387502,
      "509": -0.03890910983605883,
      "510": -0.026769164827474014,
      "511": -0.0467997192119805,
      "512": -0.017781456497953506,
      "513": 0.014957763872638996,
      "514": 0.03868271347385853,
      "515": -0.01316334394406146,
      "516": -0.0835432966314981,
      "517": -0.029683942625354703,
      "518": 0.07116067148662303,
      "519": 0.02539716000923721,
      "520": -0.0055451520743694475,
      "521": 0.021378219617292592,
      "522": 0.020315862453611146,
      "523": 0.006636413634880105,
      "524": 0.01753497994680128,
      "525": 0.023074705910219994,
      "526": 0.04168263385541075,
      "527": 0.009999925940934667,
      "528": 0.0040929816672935874,
      "529": 0.050458410006573855,
      "530": 0.0908978839834741,
      "531": 0.007928594670606132,
      "532": -0.04553254629976672,
      "533": 0.007490382998862025,
      "534": 0.03410430609799013,
      "535": 0.04734907188605975,
      "536": 0.0012452529772376784,
      "537": -0.011478559951003891,
      "538": -0.026553867611445212,
      "539": -0.07875913801866674,
      "540": -0.02669332085936178,
      "541": 0.029426573108570966,
      "542": -0.028114690707481498,
      "543": -0.03586784496086572,
      "544": -0.021322214971951525,
      "545": 0.035954330207802934,
      "546": 0.023042403223841462,
      "547": -0.04804812049850687,
      "548": -0.040561607096041924,
      "549": 0.0016323671191845219,
      "550": -0.04916648416900357,
      "551": 0.03485922530965953,
      "552": 0.05266754970445531,
      "553": 0.009941795653912563,
      "554": -0.03781732974379547,
      "555": -0.023708283036338984,
      "556": -0.06686926549942024,
      "557": -0.015825403313084154,
      "558": 0.011795401761916085,
      "559": -0.02434094419160433,
      "560": 0.08080663358079035,
      "561": 0.057714112611456314,
      "562": 0.0053145684561115795,
      "563": 0.008424360496421392,
      "564": 0.06419569418419041,
      "565": 0.06594641444433531,
      "566": 0.07260841838014459,
      "567": -0.006438298844551626,
      "568": 0.00964173408998434,
      "569": 0.00745101427210452,
      "570": 0.02089169414623534,
      "571": 0.05183315422597679,
      "572": 0.030969762062630024,
      "573": -0.029697406645765385,
      "574": -0.05633578417851422,
      "575": -0.05728461374243455,
      "576": -0.015932107720851987,
      "577": -0.04819702838526849,
      "578": 0.011257282493871337,
      "579": 0.024621673406929088,
      "580": -0.030147712580609793,
      "581": 0.03355083617322503,
      "582": -0.029219699620890827,
      "583": 0.004582141744708015,
      "584": -0.007134701815259381,
      "585": -0.012733423140397148,
      "586": 0.07072909934366717,
      "587": 0.0033482084689648267,
      "588": -0.014775710839736757,
      "589": -0.01836026193658479,
      "590": -0.04581175214085733,
      "591": -0.005248505189443724,
      "592": -0.009061078077719201,
      "593": -0.04673989815058422,
      "594": 0.020123103826135975,
      "595": -0.000752931154077412,
      "596": -0.06857449204865236,
      "597": -0.018411638246040023,
      "598": 0.062317463538488556,
      "599": -0.0049666731332665606,
      "600": 0.0048251474843238945,
      "601": 0.08979577557552826,
      "602": 0.021256406171064633,
      "603": 0.0034215963337086803,
      "604": 0.06377502968366493,
      "605": -0.0006985682201233492,
      "606": -0.03600255945907424,
      "607": 0.018815771675516315,
      "608": 0.008218857298517793,
      "609": -0.00391372973861608,
      "610": -0.06138506150346631,
      "611": 0.012914184551707631,
      "612": 0.03331992907379111,
      "613": -0.04733848131805687,
      "614": 0.05448444128351889,
      "615": -0.017528625136981366,
      "616": -0.0077746303355012225,
      "617": -0.0031271063559003692,
      "618": 0.00620705479928845,
      "619": -0.02288520426099103,
      "620": -0.049188499988155554,
      "621": -0.0536897565457586,
      "622": -0.0014982073996940184,
      "623": -0.06844919517821214,
      "624": 0.06878695449029641,
      "625": -0.019822581578017317,
      "626": 0.040140906737162606,
      "627": 0.024000986618891062,
      "628": 0.027053901338394554,
      "629": 0.025626088964015428,
      "630": -0.025337168716489337,
      "631": 0.05470235843803034,
      "632": 0.014461033773576293,
      "633": -0.024022482535245523,
      "634": -0.0155905480515552,
      "635": -0.022270846192706285,
      "636": -0.0020834862762397414,
      "637": -0.05407195921035244,
      "638": 0.010807519779574202,
      "639": -0.04607838412935712,
      "640": 0.011466470338216236,
      "641": 0.04822867678237213,
      "642": 0.014065019424016698,
      "643": 0.006344237345838474,
      "644": -0.027884928815312755,
      "645": -0.009230506594045526,
      "646": 0.045322103428101126,
      "647": 0.0289059232891447,
      "648": -0.06538147326593172,
      "649": -0.012942409662603608,
      "650": -0.0061039692516812755,
      "651": -0.00957918904522911,
      "652": -0.013280205576640112,
      "653": -0.041075196152073744,
      "654": 0.05075142339096292,
      "655": -0.031917413552809734,
      "656": -0.02345168359388919,
      "657": -0.0033554374735716244,
      "658": -0.03946235995409691,
      "659": 0.04820063146663615,
      "660": 0.011858406701403356,
      "661": -0.04171867648073472,
      "662": 0.07521352776879027,
      "663": 0.03996883101791677,
      "664": 0.0731500791903065,
      "665": 0.013837884657138208,
      "666": -0.029040687634600923,
      "667": -0.017939227620248972,
      "668": -0.02782251091258581,
      "669": -0.034886466934644894,
      "670": -0.0616777842151978,
      "671": -0.0062529390227887465,
      "672": 0.016466929307608034,
      "673": -0.053969188046053336,
      "674": -0.010259568059669802,
      "675": -0.02916671761678523,
      "676": 0.03697130003129436,
      "677": -0.035470674193638384,
      "678": 0.012877718255061815,
      "679": 0.013297446569558278,
      "680": -0.042052374015644274,
      "681": 0.026766679243408146,
      "682": -0.027206054665008726,
      "683": -0.0050725631739640155,
      "684": 0.0509305710693952,
      "685": 0.03548199116856874,
      "686": 0.04668738185726334,
      "687": -0.02856011633462996,
      "688": -0.05797806619835823,
      "689": -0.0000442821883164098,
      "690": -0.030473210465958217,
      "691": -0.04410903956288489,
      "692": 0.04277935571554976,
      "693": -0.046978240946163985,
      "694": 0.023604377618612612,
      "695": 0.060688775776253145,
      "696": -0.041592945506509625,
      "697": 0.040769500572257734,
      "698": -0.011898204291316482,
      "699": 0.02643421569729601,
      "700": 0.0045744995246695015,
      "701": 0.03200502496107699,
      "702": 0.033175931408038324,
      "703": -0.07252858123867478,
      "704": 0.028940232339377425,
      "705": -0.0073211874182862536,
      "706": 0.027372123973183587,
      "707": -0.08027781442859505,
      "708": -0.05427253923826522,
      "709": 0.021083121218883564,
      "710": 0.012142770117045136,
      "711": -0.027222285986397966,
      "712": 0.03589431174777578,
      "713": -0.000291896798926208,
      "714": 0.0061742661295024264,
      "715": -0.018378923380148574,
      "716": -0.0054725128224950015,
      "717": -0.009036625460007386,
      "718": 0.03860819948417046,
      "719": -0.030314623868628942,
      "720": 0.010732328604113437,
      "721": 0.00858180993134749,
      "722": -0.020150154543079144,
      "723": 0.0286610989799304,
      "724": 0.09113308499508291,
      "725": -0.006876214167744618,
      "726": -0.014026676458941626,
      "727": 0.0407098779727515,
      "728": 0.04449910426960827,
      "729": 0.023672279826707512,
      "730": 0.004894065925255943,
      "731": 0.008539029569593405,
      "732": 0.014993603514250215,
      "733": 0.03846434679054162,
      "734": -0.04045150592520509,
      "735": 0.020703373318838585,
      "736": -0.049130470719489575,
      "737": -0.011178814949492648,
      "738": -0.007746953063274681,
      "739": -0.010852700751375528,
      "740": 0.007382722449789843,
      "741": 0.018945831423364912,
      "742": 0.03708882380067271,
      "743": -0.012149948230565352,
      "744": -0.03089392393644526,
      "745": 0.05514976293519763,
      "746": -0.05485703864717565,
      "747": -0.03652814530011381,
      "748": -0.02976619844028665,
      "749": 0.008783101750119336,
      "750": -0.02533698930777945,
      "751": -0.004580445458320524,
      "752": -0.0168761181719162,
      "753": 0.020226141221648973,
      "754": 0.035210124697463686,
      "755": 0.0021032561525437077,
      "756": -0.03585601910330695,
      "757": -0.016650989147565316,
      "758": 0.01475816390935438,
      "759": 0.0022844826293481266,
      "760": -0.016768166721231936,
      "761": -0.014277910234738794,
      "762": -0.005984948412651062,
      "763": -0.04078301580929602,
      "764": 0.031055151178312215,
      "765": -0.022237931644627357,
      "766": -0.019214893234337643,
      "767": 0.11991308364345155,
      "768": -0.04652674992527042,
      "769": -0.00910482546773073,
      "770": 0.058253038605723576,
      "771": 0.04665356345453333,
      "772": -0.029144708856946727,
      "773": -0.043913905808038195,
      "774": -0.052607745281554597,
      "775": 0.02854787147059093,
      "776": 0.02032821735543169,
      "777": 0.022950804338774056,
      "778": -0.010495938223847982,
      "779": -0.008125665711734092,
      "780": 0.025164061299274922,
      "781": -0.057886648861138645,
      "782": 0.015480638215091868,
      "783": -0.010492247574325216,
      "784": -0.014305815182067033,
      "785": 0.015177053374830555,
      "786": -0.01682806536676496,
      "787": 0.010790730014945628,
      "788": -0.014647066279726319,
      "789": -0.015292898630844569,
      "790": -0.015318019506235458,
      "791": 0.010821908819891736,
      "792": -0.08633846207399867,
      "793": 0.030526515087691494,
      "794": 0.02560292313978152,
      "795": 0.02897284449037154,
      "796": 0.013665160630770622,
      "797": 0.0058469388816146444,
      "798": -0.03128119378878542,
      "799": -0.02258137336704006,
      "800": -0.016622054424582484,
      "801": 0.046707858977715705,
      "802": -0.01607662856837729,
      "803": -0.010600459995468754,
      "804": 0.018029971818571053,
      "805": 0.010262795119971855,
      "806": -0.023483456090542653,
      "807": -0.004907088263486398,
      "808": 0.002760917322425859,
      "809": 0.026707411745300492,
      "810": -0.006167441237129202,
      "811": 0.0019256533607403064,
      "812": 0.004727495897084269,
      "813": -0.011851758098678344,
      "814": -0.0037956196081182143,
      "815": 0.005487896458811338,
      "816": -0.08088130217552812,
      "817": 0.01769010131169772,
      "818": -0.016632106760922853,
      "819": 0.05266546963330264,
      "820": 0.01357217229646809,
      "821": 0.010022229739341531,
      "822": 0.007148493263094449,
      "823": -0.013207037857026155,
      "824": -0.02925773582838669,
      "825": 0.03348147495389416,
      "826": 0.021050503379655142,
      "827": 0.043314004843871136,
      "828": 0.06273024929693248,
      "829": -0.01662501763636459,
      "830": -0.016496302723355113,
      "831": 0.03316719296844157,
      "832": -0.01562375839765084,
      "833": -0.09375892807441134,
      "834": -0.028580239559154504,
      "835": -0.04963680223298348,
      "836": -0.034287762580384344,
      "837": 0.008129511059793438
     }
    },
    {
     "sx": 1,
     "sy": 1,
     "depth": 838,
     "w": {
      "0": 0,
      "1": 0,
      "2": 0,
      "3": 0,
      "4": 0,
      "5": 0,
      "6": 0,
      "7": 0,
      "8": 0,
      "9": 0,
      "10": 0,
      "11": 0,
      "12": 0,
      "13": 0,
      "14": 0,
      "15": 0,
      "16": 0,
      "17": 0,
      "18": 0,
      "19": 0,
      "20": 0,
      "21": 0,
      "22": 0,
      "23": 0,
      "24": 0,
      "25": 0,
      "26": 0,
      "27": 0,
      "28": 0,
      "29": 0,
      "30": 0,
      "31": 0,
      "32": 0,
      "33": 0,
      "34": 0,
      "35": 0,
      "36": 0,
      "37": 0,
      "38": 0,
      "39": 0,
      "40": 0,
      "41": 0,
      "42": 0,
      "43": 0,
      "44": 0,
      "45": 0,
      "46": 0,
      "47": 0,
      "48": 0,
      "49": 0,
      "50": 0,
      "51": 0,
      "52": 0,
      "53": 0,
      "54": 0,
      "55": 0,
      "56": 0,
      "57": 0,
      "58": 0,
      "59": 0,
      "60": 0,
      "61": 0,
      "62": 0,
      "63": 0,
      "64": 0,
      "65": 0,
      "66": 0,
      "67": 0,
      "68": 0,
      "69": 0,
      "70": 0,
      "71": 0,
      "72": 0,
      "73": 0,
      "74": 0,
      "75": 0,
      "76": 0,
      "77": 0,
      "78": 0,
      "79": 0,
      "80": 0,
      "81": 0,
      "82": 0,
      "83": 0,
      "84": 0,
      "85": 0,
      "86": 0,
      "87": 0,
      "88": 0,
      "89": 0,
      "90": 0,
      "91": 0,
      "92": 0,
      "93": 0,
      "94": 0,
      "95": 0,
      "96": 0,
      "97": 0,
      "98": 0,
      "99": 0,
      "100": 0,
      "101": 0,
      "102": 0,
      "103": 0,
      "104": 0,
      "105": 0,
      "106": 0,
      "107": 0,
      "108": 0,
      "109": 0,
      "110": 0,
      "111": 0,
      "112": 0,
      "113": 0,
      "114": 0,
      "115": 0,
      "116": 0,
      "117": 0,
      "118": 0,
      "119": 0,
      "120": 0,
      "121": 0,
      "122": 0,
      "123": 0,
      "124": 0,
      "125": 0,
      "126": 0,
      "127": 0,
      "128": 0,
      "129": 0,
      "130": 0,
      "131": 0,
      "132": 0,
      "133": 0,
      "134": 0,
      "135": 0,
      "136": 0,
      "137": 0,
      "138": 0,
      "139": 0,
      "140": 0,
      "141": 0,
      "142": 0,
      "143": 0,
      "144": 0,
      "145": 0,
      "146": 0,
      "147": 0,
      "148": 0,
      "149": 0,
      "150": 0,
      "151": 0,
      "152": 0,
      "153": 0,
      "154": 0,
      "155": 0,
      "156": 0,
      "157": 0,
      "158": 0,
      "159": 0,
      "160": 0,
      "161": 0,
      "162": 0,
      "163": 0,
      "164": 0,
      "165": 0,
      "166": 0,
      "167": 0,
      "168": 0,
      "169": 0,
      "170": 0,
      "171": 0,
      "172": 0,
      "173": 0,
      "174": 0,
      "175": 0,
      "176": 0,
      "177": 0,
      "178": 0,
      "179": 0,
      "180": 0,
      "181": 0,
      "182": 0,
      "183": 0,
      "184": 0,
      "185": 0,
      "186": 0,
      "187": 0,
      "188": 0,
      "189": 0,
      "190": 0,
      "191": 0,
      "192": 0,
      "193": 0,
      "194": 0,
      "195": 0,
      "196": 0,
      "197": 0,
      "198": 0,
      "199": 0,
      "200": 0,
      "201": 0,
      "202": 0,
      "203": 0,
      "204": 0,
      "205": 0,
      "206": 0,
      "207": 0,
      "208": 0,
      "209": 0,
      "210": 0,
      "211": 0,
      "212": 0,
      "213": 0,
      "214": 0,
      "215": 0,
      "216": 0,
      "217": 0,
      "218": 0,
      "219": 0,
      "220": 0,
      "221": 0,
      "222": 0,
      "223": 0,
      "224": 0,
      "225": 0,
      "226": 0,
      "227": 0,
      "228": 0,
      "229": 0,
      "230": 0,
      "231": 0,
      "232": 0,
      "233": 0,
      "234": 0,
      "235": 0,
      "236": 0,
      "237": 0,
      "238": 0,
      "239": 0,
      "240": 0,
      "241": 0,
      "242": 0,
      "243": 0,
      "244": 0,
      "245": 0,
      "246": 0,
      "247": 0,
      "248": 0,
      "249": 0,
      "250": 0,
      "251": 0,
      "252": 0,
      "253": 0,
      "254": 0,
      "255": 0,
      "256": 0,
      "257": 0,
      "258": 0,
      "259": 0,
      "260": 0,
      "261": 0,
      "262": 0,
      "263": 0,
      "264": 0,
      "265": 0,
      "266": 0,
      "267": 0,
      "268": 0,
      "269": 0,
      "270": 0,
      "271": 0,
      "272": 0,
      "273": 0,
      "274": 0,
      "275": 0,
      "276": 0,
      "277": 0,
      "278": 0,
      "279": 0,
      "280": 0,
      "281": 0,
      "282": 0,
      "283": 0,
      "284": 0,
      "285": 0,
      "286": 0,
      "287": 0,
      "288": 0,
      "289": 0,
      "290": 0,
      "291": 0,
      "292": 0,
      "293": 0,
      "294": 0,
      "295": 0,
      "296": 0,
      "297": 0,
      "298": 0,
      "299": 0,
      "300": 0,
      "301": 0,
      "302": 0,
      "303": 0,
      "304": 0,
      "305": 0,
      "306": 0,
      "307": 0,
      "308": 0,
      "309": 0,
      "310": 0,
      "311": 0,
      "312": 0,
      "313": 0,
      "314": 0,
      "315": 0,
      "316": 0,
      "317": 0,
      "318": 0,
      "319": 0,
      "320": 0,
      "321": 0,
      "322": 0,
      "323": 0,
      "324": 0,
      "325": 0,
      "326": 0,
      "327": 0,
      "328": 0,
      "329": 0,
      "330": 0,
      "331": 0,
      "332": 0,
      "333": 0,
      "334": 0,
      "335": 0,
      "336": 0,
      "337": 0,
      "338": 0,
      "339": 0,
      "340": 0,
      "341": 0,
      "342": 0,
      "343": 0,
      "344": 0,
      "345": 0,
      "346": 0,
      "347": 0,
      "348": 0,
      "349": 0,
      "350": 0,
      "351": 0,
      "352": 0,
      "353": 0,
      "354": 0,
      "355": 0,
      "356": 0,
      "357": 0,
      "358": 0,
      "359": 0,
      "360": 0,
      "361": 0,
      "362": 0,
      "363": 0,
      "364": 0,
      "365": 0,
      "366": 0,
      "367": 0,
      "368": 0,
      "369": 0,
      "370": 0,
      "371": 0,
      "372": 0,
      "373": 0,
      "374": 0,
      "375": 0,
      "376": 0,
      "377": 0,
      "378": 0,
      "379": 0,
      "380": 0,
      "381": 0,
      "382": 0,
      "383": 0,
      "384": 0,
      "385": 0,
      "386": 0,
      "387": 0,
      "388": 0,
      "389": 0,
      "390": 0,
      "391": 0,
      "392": 0,
      "393": 0,
      "394": 0,
      "395": 0,
      "396": 0,
      "397": 0,
      "398": 0,
      "399": 0,
      "400": 0,
      "401": 0,
      "402": 0,
      "403": 0,
      "404": 0,
      "405": 0,
      "406": 0,
      "407": 0,
      "408": 0,
      "409": 0,
      "410": 0,
      "411": 0,
      "412": 0,
      "413": 0,
      "414": 0,
      "415": 0,
      "416": 0,
      "417": 0,
      "418": 0,
      "419": 0,
      "420": 0,
      "421": 0,
      "422": 0,
      "423": 0,
      "424": 0,
      "425": 0,
      "426": 0,
      "427": 0,
      "428": 0,
      "429": 0,
      "430": 0,
      "431": 0,
      "432": 0,
      "433": 0,
      "434": 0,
      "435": 0,
      "436": 0,
      "437": 0,
      "438": 0,
      "439": 0,
      "440": 0,
      "441": 0,
      "442": 0,
      "443": 0,
      "444": 0,
      "445": 0,
      "446": 0,
      "447": 0,
      "448": 0,
      "449": 0,
      "450": 0,
      "451": 0,
      "452": 0,
      "453": 0,
      "454": 0,
      "455": 0,
      "456": 0,
      "457": 0,
      "458": 0,
      "459": 0,
      "460": 0,
      "461": 0,
      "462": 0,
      "463": 0,
      "464": 0,
      "465": 0,
      "466": 0,
      "467": 0,
      "468": 0,
      "469": 0,
      "470": 0,
      "471": 0,
      "472": 0,
      "473": 0,
      "474": 0,
      "475": 0,
      "476": 0,
      "477": 0,
      "478": 0,
      "479": 0,
      "480": 0,
      "481": 0,
      "482": 0,
      "483": 0,
      "484": 0,
      "485": 0,
      "486": 0,
      "487": 0,
      "488": 0,
      "489": 0,
      "490": 0,
      "491": 0,
      "492": 0,
      "493": 0,
      "494": 0,
      "495": 0,
      "496": 0,
      "497": 0,
      "498": 0,
      "499": 0,
      "500": 0,
      "501": 0,
      "502": 0,
      "503": 0,
      "504": 0,
      "505": 0,
      "506": 0,
      "507": 0,
      "508": 0,
      "509": 0,
      "510": 0,
      "511": 0,
      "512": 0,
      "513": 0,
      "514": 0,
      "515": 0,
      "516": 0,
      "517": 0,
      "518": 0,
      "519": 0,
      "520": 0,
      "521": 0,
      "522": 0,
      "523": 0,
      "524": 0,
      "525": 0,
      "526": 0,
      "527": 0,
      "528": 0,
      "529": 0,
      "530": 0,
      "531": 0,
      "532": 0,
      "533": 0,
      "534": 0,
      "535": 0,
      "536": 0,
      "537": 0,
      "538": 0,
      "539": 0,
      "540": 0,
      "541": 0,
      "542": 0,
      "543": 0,
      "544": 0,
      "545": 0,
      "546": 0,
      "547": 0,
      "548": 0,
      "549": 0,
      "550": 0,
      "551": 0,
      "552": 0,
      "553": 0,
      "554": 0,
      "555": 0,
      "556": 0,
      "557": 0,
      "558": 0,
      "559": 0,
      "560": 0,
      "561": 0,
      "562": 0,
      "563": 0,
      "564": 0,
      "565": 0,
      "566": 0,
      "567": 0,
      "568": 0,
      "569": 0,
      "570": 0,
      "571": 0,
      "572": 0,
      "573": 0,
      "574": 0,
      "575": 0,
      "576": 0,
      "577": 0,
      "578": 0,
      "579": 0,
      "580": 0,
      "581": 0,
      "582": 0,
      "583": 0,
      "584": 0,
      "585": 0,
      "586": 0,
      "587": 0,
      "588": 0,
      "589": 0,
      "590": 0,
      "591": 0,
      "592": 0,
      "593": 0,
      "594": 0,
      "595": 0,
      "596": 0,
      "597": 0,
      "598": 0,
      "599": 0,
      "600": 0,
      "601": 0,
      "602": 0,
      "603": 0,
      "604": 0,
      "605": 0,
      "606": 0,
      "607": 0,
      "608": 0,
      "609": 0,
      "610": 0,
      "611": 0,
      "612": 0,
      "613": 0,
      "614": 0,
      "615": 0,
      "616": 0,
      "617": 0,
      "618": 0,
      "619": 0,
      "620": 0,
      "621": 0,
      "622": 0,
      "623": 0,
      "624": 0,
      "625": 0,
      "626": 0,
      "627": 0,
      "628": 0,
      "629": 0,
      "630": 0,
      "631": 0,
      "632": 0,
      "633": 0,
      "634": 0,
      "635": 0,
      "636": 0,
      "637": 0,
      "638": 0,
      "639": 0,
      "640": 0,
      "641": 0,
      "642": 0,
      "643": 0,
      "644": 0,
      "645": 0,
      "646": 0,
      "647": 0,
      "648": 0,
      "649": 0,
      "650": 0,
      "651": 0,
      "652": 0,
      "653": 0,
      "654": 0,
      "655": 0,
      "656": 0,
      "657": 0,
      "658": 0,
      "659": 0,
      "660": 0,
      "661": 0,
      "662": 0,
      "663": 0,
      "664": 0,
      "665": 0,
      "666": 0,
      "667": 0,
      "668": 0,
      "669": 0,
      "670": 0,
      "671": 0,
      "672": 0,
      "673": 0,
      "674": 0,
      "675": 0,
      "676": 0,
      "677": 0,
      "678": 0,
      "679": 0,
      "680": 0,
      "681": 0,
      "682": 0,
      "683": 0,
      "684": 0,
      "685": 0,
      "686": 0,
      "687": 0,
      "688": 0,
      "689": 0,
      "690": 0,
      "691": 0,
      "692": 0,
      "693": 0,
      "694": 0,
      "695": 0,
      "696": 0,
      "697": 0,
      "698": 0,
      "699": 0,
      "700": 0,
      "701": 0,
      "702": 0,
      "703": 0,
      "704": 0,
      "705": 0,
      "706": 0,
      "707": 0,
      "708": 0,
      "709": 0,
      "710": 0,
      "711": 0,
      "712": 0,
      "713": 0,
      "714": 0,
      "715": 0,
      "716": 0,
      "717": 0,
      "718": 0,
      "719": 0,
      "720": 0,
      "721": 0,
      "722": 0,
      "723": 0,
      "724": 0,
      "725": 0,
      "726": 0,
      "727": 0,
      "728": 0,
      "729": 0,
      "730": 0,
      "731": 0,
      "732": 0,
      "733": 0,
      "734": 0,
      "735": 0,
      "736": 0,
      "737": 0,
      "738": 0,
      "739": 0,
      "740": 0,
      "741": 0,
      "742": 0,
      "743": 0,
      "744": 0,
      "745": 0,
      "746": 0,
      "747": 0,
      "748": 0,
      "749": 0,
      "750": 0,
      "751": 0,
      "752": 0,
      "753": 0,
      "754": 0,
      "755": 0,
      "756": 0,
      "757": 0,
      "758": 0,
      "759": 0,
      "760": 0,
      "761": 0,
      "762": 0,
      "763": 0,
      "764": 0,
      "765": 0,
      "766": 0,
      "767": 0,
      "768": 0,
      "769": 0,
      "770": 0,
      "771": 0,
      "772": 0,
      "773": 0,
      "774": 0,
      "775": 0,
      "776": 0,
      "777": 0,
      "778": 0,
      "779": 0,
      "780": 0,
      "781": 0,
      "782": 0,
      "783": 0,
      "784": 0,
      "785": 0,
      "786": 0,
      "787": 0,
      "788": 0,
      "789": 0,
      "790": 0,
      "791": 0,
      "792": 0,
      "793": 0,
      "794": 0,
      "795": 0,
      "796": 0,
      "797": 0,
      "798": 0,
      "799": 0,
      "800": 0,
      "801": 0,
      "802": 0,
      "803": 0,
      "804": 0,
      "805": 0,
      "806": 0,
      "807": 0,
      "808": 0,
      "809": 0,
      "810": 0,
      "811": 0,
      "812": 0,
      "813": 0,
      "814": 0,
      "815": 0,
      "816": 0,
      "817": 0,
      "818": 0,
      "819": 0,
      "820": 0,
      "821": 0,
      "822": 0,
      "823": 0,
      "824": 0,
      "825": 0,
      "826": 0,
      "827": 0,
      "828": 0,
      "829": 0,
      "830": 0,
      "831": 0,
      "832": 0,
      "833": 0,
      "834": 0,
      "835": 0,
      "836": 0,
      "837": 0
     }
    },
    {
     "sx": 1,
     "sy": 1,
     "depth": 838,
     "w": {
      "0": 0,
      "1": 0,
      "2": 0,
      "3": 0,
      "4": 0,
      "5": 0,
      "6": 0,
      "7": 0,
      "8": 0,
      "9": 0,
      "10": 0,
      "11": 0,
      "12": 0,
      "13": 0,
      "14": 0,
      "15": 0,
      "16": 0,
      "17": 0,
      "18": 0,
      "19": 0,
      "20": 0,
      "21": 0,
      "22": 0,
      "23": 0,
      "24": 0,
      "25": 0,
      "26": 0,
      "27": 0,
      "28": 0,
      "29": 0,
      "30": 0,
      "31": 0,
      "32": 0,
      "33": 0,
      "34": 0,
      "35": 0,
      "36": 0,
      "37": 0,
      "38": 0,
      "39": 0,
      "40": 0,
      "41": 0,
      "42": 0,
      "43": 0,
      "44": 0,
      "45": 0,
      "46": 0,
      "47": 0,
      "48": 0,
      "49": 0,
      "50": 0,
      "51": 0,
      "52": 0,
      "53": 0,
      "54": 0,
      "55": 0,
      "56": 0,
      "57": 0,
      "58": 0,
      "59": 0,
      "60": 0,
      "61": 0,
      "62": 0,
      "63": 0,
      "64": 0,
      "65": 0,
      "66": 0,
      "67": 0,
      "68": 0,
      "69": 0,
      "70": 0,
      "71": 0,
      "72": 0,
      "73": 0,
      "74": 0,
      "75": 0,
      "76": 0,
      "77": 0,
      "78": 0,
      "79": 0,
      "80": 0,
      "81": 0,
      "82": 0,
      "83": 0,
      "84": 0,
      "85": 0,
      "86": 0,
      "87": 0,
      "88": 0,
      "89": 0,
      "90": 0,
      "91": 0,
      "92": 0,
      "93": 0,
      "94": 0,
      "95": 0,
      "96": 0,
      "97": 0,
      "98": 0,
      "99": 0,
      "100": 0,
      "101": 0,
      "102": 0,
      "103": 0,
      "104": 0,
      "105": 0,
      "106": 0,
      "107": 0,
      "108": 0,
      "109": 0,
      "110": 0,
      "111": 0,
      "112": 0,
      "113": 0,
      "114": 0,
      "115": 0,
      "116": 0,
      "117": 0,
      "118": 0,
      "119": 0,
      "120": 0,
      "121": 0,
      "122": 0,
      "123": 0,
      "124": 0,
      "125": 0,
      "126": 0,
      "127": 0,
      "128": 0,
      "129": 0,
      "130": 0,
      "131": 0,
      "132": 0,
      "133": 0,
      "134": 0,
      "135": 0,
      "136": 0,
      "137": 0,
      "138": 0,
      "139": 0,
      "140": 0,
      "141": 0,
      "142": 0,
      "143": 0,
      "144": 0,
      "145": 0,
      "146": 0,
      "147": 0,
      "148": 0,
      "149": 0,
      "150": 0,
      "151": 0,
      "152": 0,
      "153": 0,
      "154": 0,
      "155": 0,
      "156": 0,
      "157": 0,
      "158": 0,
      "159": 0,
      "160": 0,
      "161": 0,
      "162": 0,
      "163": 0,
      "164": 0,
      "165": 0,
      "166": 0,
      "167": 0,
      "168": 0,
      "169": 0,
      "170": 0,
      "171": 0,
      "172": 0,
      "173": 0,
      "174": 0,
      "175": 0,
      "176": 0,
      "177": 0,
      "178": 0,
      "179": 0,
      "180": 0,
      "181": 0,
      "182": 0,
      "183": 0,
      "184": 0,
      "185": 0,
      "186": 0,
      "187": 0,
      "188": 0,
      "189": 0,
      "190": 0,
      "191": 0,
      "192": 0,
      "193": 0,
      "194": 0,
      "195": 0,
      "196": 0,
      "197": 0,
      "198": 0,
      "199": 0,
      "200": 0,
      "201": 0,
      "202": 0,
      "203": 0,
      "204": 0,
      "205": 0,
      "206": 0,
      "207": 0,
      "208": 0,
      "209": 0,
      "210": 0,
      "211": 0,
      "212": 0,
      "213": 0,
      "214": 0,
      "215": 0,
      "216": 0,
      "217": 0,
      "218": 0,
      "219": 0,
      "220": 0,
      "221": 0,
      "222": 0,
      "223": 0,
      "224": 0,
      "225": 0,
      "226": 0,
      "227": 0,
      "228": 0,
      "229": 0,
      "230": 0,
      "231": 0,
      "232": 0,
      "233": 0,
      "234": 0,
      "235": 0,
      "236": 0,
      "237": 0,
      "238": 0,
      "239": 0,
      "240": 0,
      "241": 0,
      "242": 0,
      "243": 0,
      "244": 0,
      "245": 0,
      "246": 0,
      "247": 0,
      "248": 0,
      "249": 0,
      "250": 0,
      "251": 0,
      "252": 0,
      "253": 0,
      "254": 0,
      "255": 0,
      "256": 0,
      "257": 0,
      "258": 0,
      "259": 0,
      "260": 0,
      "261": 0,
      "262": 0,
      "263": 0,
      "264": 0,
      "265": 0,
      "266": 0,
      "267": 0,
      "268": 0,
      "269": 0,
      "270": 0,
      "271": 0,
      "272": 0,
      "273": 0,
      "274": 0,
      "275": 0,
      "276": 0,
      "277": 0,
      "278": 0,
      "279": 0,
      "280": 0,
      "281": 0,
      "282": 0,
      "283": 0,
      "284": 0,
      "285": 0,
      "286": 0,
      "287": 0,
      "288": 0,
      "289": 0,
      "290": 0,
      "291": 0,
      "292": 0,
      "293": 0,
      "294": 0,
      "295": 0,
      "296": 0,
      "297": 0,
      "298": 0,
      "299": 0,
      "300": 0,
      "301": 0,
      "302": 0,
      "303": 0,
      "304": 0,
      "305": 0,
      "306": 0,
      "307": 0,
      "308": 0,
      "309": 0,
      "310": 0,
      "311": 0,
      "312": 0,
      "313": 0,
      "314": 0,
      "315": 0,
      "316": 0,
      "317": 0,
      "318": 0,
      "319": 0,
      "320": 0,
      "321": 0,
      "322": 0,
      "323": 0,
      "324": 0,
      "325": 0,
      "326": 0,
      "327": 0,
      "328": 0,
      "329": 0,
      "330": 0,
      "331": 0,
      "332": 0,
      "333": 0,
      "334": 0,
      "335": 0,
      "336": 0,
      "337": 0,
      "338": 0,
      "339": 0,
      "340": 0,
      "341": 0,
      "342": 0,
      "343": 0,
      "344": 0,
      "345": 0,
      "346": 0,
      "347": 0,
      "348": 0,
      "349": 0,
      "350": 0,
      "351": 0,
      "352": 0,
      "353": 0,
      "354": 0,
      "355": 0,
      "356": 0,
      "357": 0,
      "358": 0,
      "359": 0,
      "360": 0,
      "361": 0,
      "362": 0,
      "363": 0,
      "364": 0,
      "365": 0,
      "366": 0,
      "367": 0,
      "368": 0,
      "369": 0,
      "370": 0,
      "371": 0,
      "372": 0,
      "373": 0,
      "374": 0,
      "375": 0,
      "376": 0,
      "377": 0,
      "378": 0,
      "379": 0,
      "380": 0,
      "381": 0,
      "382": 0,
      "383": 0,
      "384": 0,
      "385": 0,
      "386": 0,
      "387": 0,
      "388": 0,
      "389": 0,
      "390": 0,
      "391": 0,
      "392": 0,
      "393": 0,
      "394": 0,
      "395": 0,
      "396": 0,
      "397": 0,
      "398": 0,
      "399": 0,
      "400": 0,
      "401": 0,
      "402": 0,
      "403": 0,
      "404": 0,
      "405": 0,
      "406": 0,
      "407": 0,
      "408": 0,
      "409": 0,
      "410": 0,
      "411": 0,
      "412": 0,
      "413": 0,
      "414": 0,
      "415": 0,
      "416": 0,
      "417": 0,
      "418": 0,
      "419": 0,
      "420": 0,
      "421": 0,
      "422": 0,
      "423": 0,
      "424": 0,
      "425": 0,
      "426": 0,
      "427": 0,
      "428": 0,
      "429": 0,
      "430": 0,
      "431": 0,
      "432": 0,
      "433": 0,
      "434": 0,
      "435": 0,
      "436": 0,
      "437": 0,
      "438": 0,
      "439": 0,
      "440": 0,
      "441": 0,
      "442": 0,
      "443": 0,
      "444": 0,
      "445": 0,
      "446": 0,
      "447": 0,
      "448": 0,
      "449": 0,
      "450": 0,
      "451": 0,
      "452": 0,
      "453": 0,
      "454": 0,
      "455": 0,
      "456": 0,
      "457": 0,
      "458": 0,
      "459": 0,
      "460": 0,
      "461": 0,
      "462": 0,
      "463": 0,
      "464": 0,
      "465": 0,
      "466": 0,
      "467": 0,
      "468": 0,
      "469": 0,
      "470": 0,
      "471": 0,
      "472": 0,
      "473": 0,
      "474": 0,
      "475": 0,
      "476": 0,
      "477": 0,
      "478": 0,
      "479": 0,
      "480": 0,
      "481": 0,
      "482": 0,
      "483": 0,
      "484": 0,
      "485": 0,
      "486": 0,
      "487": 0,
      "488": 0,
      "489": 0,
      "490": 0,
      "491": 0,
      "492": 0,
      "493": 0,
      "494": 0,
      "495": 0,
      "496": 0,
      "497": 0,
      "498": 0,
      "499": 0,
      "500": 0,
      "501": 0,
      "502": 0,
      "503": 0,
      "504": 0,
      "505": 0,
      "506": 0,
      "507": 0,
      "508": 0,
      "509": 0,
      "510": 0,
      "511": 0,
      "512": 0,
      "513": 0,
      "514": 0,
      "515": 0,
      "516": 0,
      "517": 0,
      "518": 0,
      "519": 0,
      "520": 0,
      "521": 0,
      "522": 0,
      "523": 0,
      "524": 0,
      "525": 0,
      "526": 0,
      "527": 0,
      "528": 0,
      "529": 0,
      "530": 0,
      "531": 0,
      "532": 0,
      "533": 0,
      "534": 0,
      "535": 0,
      "536": 0,
      "537": 0,
      "538": 0,
      "539": 0,
      "540": 0,
      "541": 0,
      "542": 0,
      "543": 0,
      "544": 0,
      "545": 0,
      "546": 0,
      "547": 0,
      "548": 0,
      "549": 0,
      "550": 0,
      "551": 0,
      "552": 0,
      "553": 0,
      "554": 0,
      "555": 0,
      "556": 0,
      "557": 0,
      "558": 0,
      "559": 0,
      "560": 0,
      "561": 0,
      "562": 0,
      "563": 0,
      "564": 0,
      "565": 0,
      "566": 0,
      "567": 0,
      "568": 0,
      "569": 0,
      "570": 0,
      "571": 0,
      "572": 0,
      "573": 0,
      "574": 0,
      "575": 0,
      "576": 0,
      "577": 0,
      "578": 0,
      "579": 0,
      "580": 0,
      "581": 0,
      "582": 0,
      "583": 0,
      "584": 0,
      "585": 0,
      "586": 0,
      "587": 0,
      "588": 0,
      "589": 0,
      "590": 0,
      "591": 0,
      "592": 0,
      "593": 0,
      "594": 0,
      "595": 0,
      "596": 0,
      "597": 0,
      "598": 0,
      "599": 0,
      "600": 0,
      "601": 0,
      "602": 0,
      "603": 0,
      "604": 0,
      "605": 0,
      "606": 0,
      "607": 0,
      "608": 0,
      "609": 0,
      "610": 0,
      "611": 0,
      "612": 0,
      "613": 0,
      "614": 0,
      "615": 0,
      "616": 0,
      "617": 0,
      "618": 0,
      "619": 0,
      "620": 0,
      "621": 0,
      "622": 0,
      "623": 0,
      "624": 0,
      "625": 0,
      "626": 0,
      "627": 0,
      "628": 0,
      "629": 0,
      "630": 0,
      "631": 0,
      "632": 0,
      "633": 0,
      "634": 0,
      "635": 0,
      "636": 0,
      "637": 0,
      "638": 0,
      "639": 0,
      "640": 0,
      "641": 0,
      "642": 0,
      "643": 0,
      "644": 0,
      "645": 0,
      "646": 0,
      "647": 0,
      "648": 0,
      "649": 0,
      "650": 0,
      "651": 0,
      "652": 0,
      "653": 0,
      "654": 0,
      "655": 0,
      "656": 0,
      "657": 0,
      "658": 0,
      "659": 0,
      "660": 0,
      "661": 0,
      "662": 0,
      "663": 0,
      "664": 0,
      "665": 0,
      "666": 0,
      "667": 0,
      "668": 0,
      "669": 0,
      "670": 0,
      "671": 0,
      "672": 0,
      "673": 0,
      "674": 0,
      "675": 0,
      "676": 0,
      "677": 0,
      "678": 0,
      "679": 0,
      "680": 0,
      "681": 0,
      "682": 0,
      "683": 0,
      "684": 0,
      "685": 0,
      "686": 0,
      "687": 0,
      "688": 0,
      "689": 0,
      "690": 0,
      "691": 0,
      "692": 0,
      "693": 0,
      "694": 0,
      "695": 0,
      "696": 0,
      "697": 0,
      "698": 0,
      "699": 0,
      "700": 0,
      "701": 0,
      "702": 0,
      "703": 0,
      "704": 0,
      "705": 0,
      "706": 0,
      "707": 0,
      "708": 0,
      "709": 0,
      "710": 0,
      "711": 0,
      "712": 0,
      "713": 0,
      "714": 0,
      "715": 0,
      "716": 0,
      "717": 0,
      "718": 0,
      "719": 0,
      "720": 0,
      "721": 0,
      "722": 0,
      "723": 0,
      "724": 0,
      "725": 0,
      "726": 0,
      "727": 0,
      "728": 0,
      "729": 0,
      "730": 0,
      "731": 0,
      "732": 0,
      "733": 0,
      "734": 0,
      "735": 0,
      "736": 0,
      "737": 0,
      "738": 0,
      "739": 0,
      "740": 0,
      "741": 0,
      "742": 0,
      "743": 0,
      "744": 0,
      "745": 0,
      "746": 0,
      "747": 0,
      "748": 0,
      "749": 0,
      "750": 0,
      "751": 0,
      "752": 0,
      "753": 0,
      "754": 0,
      "755": 0,
      "756": 0,
      "757": 0,
      "758": 0,
      "759": 0,
      "760": 0,
      "761": 0,
      "762": 0,
      "763": 0,
      "764": 0,
      "765": 0,
      "766": 0,
      "767": 0,
      "768": 0,
      "769": 0,
      "770": 0,
      "771": 0,
      "772": 0,
      "773": 0,
      "774": 0,
      "775": 0,
      "776": 0,
      "777": 0,
      "778": 0,
      "779": 0,
      "780": 0,
      "781": 0,
      "782": 0,
      "783": 0,
      "784": 0,
      "785": 0,
      "786": 0,
      "787": 0,
      "788": 0,
      "789": 0,
      "790": 0,
      "791": 0,
      "792": 0,
      "793": 0,
      "794": 0,
      "795": 0,
      "796": 0,
      "797": 0,
      "798": 0,
      "799": 0,
      "800": 0,
      "801": 0,
      "802": 0,
      "803": 0,
      "804": 0,
      "805": 0,
      "806": 0,
      "807": 0,
      "808": 0,
      "809": 0,
      "810": 0,
      "811": 0,
      "812": 0,
      "813": 0,
      "814": 0,
      "815": 0,
      "816": 0,
      "817": 0,
      "818": 0,
      "819": 0,
      "820": 0,
      "821": 0,
      "822": 0,
      "823": 0,
      "824": 0,
      "825": 0,
      "826": 0,
      "827": 0,
      "828": 0,
      "829": 0,
      "830": 0,
      "831": 0,
      "832": 0,
      "833": 0,
      "834": 0,
      "835": 0,
      "836": 0,
      "837": 0
     }
    },
    {
     "sx": 1,
     "sy": 1,
     "depth": 838,
     "w": {
      "0": -20071.82418552354,
      "1": 0.062055609800399265,
      "2": -4.104692787393673,
      "3": -160.74510300937095,
      "4": -80.3029960626402,
      "5": -80.3292398818311,
      "6": 0.10162413757843923,
      "7": -0.053847358318061714,
      "8": -0.05837691989601008,
      "9": -0.09580256729953085,
      "10": -0.07294461480109254,
      "11": -0.07909671568786185,
      "12": -0.08819322631720634,
      "13": -0.09980367350706854,
      "14": -0.07990044437908096,
      "15": -0.08767873578693962,
      "16": -0.060005892426707584,
      "17": -0.04625632124441576,
      "18": -19981.07858018572,
      "19": -0.020423150803918485,
      "20": -4.101239134818771,
      "21": -160.81921811638065,
      "22": -80.3255995370038,
      "23": -80.28086872092723,
      "24": -0.011344918179948938,
      "25": 0.018015816074957787,
      "26": -0.08702337921538413,
      "27": -0.05256940973642592,
      "28": -0.11320208194454248,
      "29": -0.11167292786550621,
      "30": -0.08015577548685099,
      "31": -0.0489295764594002,
      "32": -0.034786444370588906,
      "33": -0.03459800670763908,
      "34": -0.09810891582202927,
      "35": -0.11857978247971299,
      "36": -0.38874555157103585,
      "37": 0.023637092132893785,
      "38": -0.43935125108516077,
      "39": 0.06357547176439773,
      "40": -0.10642411526055817,
      "41": -0.020600255107413402,
      "42": -0.6350320179343097,
      "43": -0.45802392931582525,
      "44": -0.1705671802567714,
      "45": 0.032186043221979564,
      "46": 0.03985357969977181,
      "47": -0.02689790979657185,
      "48": -0.1531780338793899,
      "49": -0.10657027995244064,
      "50": 0.21476928248309968,
      "51": 0.02855676617105374,
      "52": 0.049511167324635535,
      "53": -0.021139642952597848,
      "54": 0.0145571760348695,
      "55": 0.04618035911125051,
      "56": -0.028156066786721636,
      "57": -0.6458417619300731,
      "58": -0.2582870698288199,
      "59": -19903.958501649708,
      "60": 0.00179720340363336,
      "61": -4.242463822979408,
      "62": -160.7925125885966,
      "63": -80.3052682310218,
      "64": -80.28872034953861,
      "65": -0.011690523154568923,
      "66": 0.022230388225551446,
      "67": -0.1149299352625163,
      "68": -0.07421060851832521,
      "69": -0.09911458865926372,
      "70": -0.040986498938310606,
      "71": -0.056390860480402066,
      "72": -0.0684019871947372,
      "73": -0.08854951306872984,
      "74": -0.09841466448151544,
      "75": -0.13752909605728522,
      "76": -0.040231052470114055,
      "77": -0.4207731260293912,
      "78": -0.013271243412748143,
      "79": -0.24697062876623782,
      "80": -0.20505796177982336,
      "81": 0.07855079875338154,
      "82": -0.014884922433566641,
      "83": -0.1443610259697676,
      "84": -0.2586334905317032,
      "85": 0.012844503903567735,
      "86": -0.09053900688039473,
      "87": -0.150667503332761,
      "88": -0.17882728723638966,
      "89": -0.19195617112144492,
      "90": -0.02566478863761471,
      "91": 0.12854538752866626,
      "92": -0.09824488873577153,
      "93": 0.01343680117254612,
      "94": 0.045920729305360994,
      "95": -0.056362855027397074,
      "96": -0.1952810318960687,
      "97": -0.37273163224019895,
      "98": -0.4946408057157901,
      "99": -0.33354284978448645,
      "100": -19827.352084707698,
      "101": 0.022057493806876986,
      "102": -4.322919506854724,
      "103": -160.75197956665335,
      "104": -80.34863046480245,
      "105": -80.26729323838373,
      "106": -0.03787219202888234,
      "107": -0.046352224739322316,
      "108": -0.05352922199620838,
      "109": -0.02153564203008809,
      "110": -0.014597393258789209,
      "111": -0.08663684435014947,
      "112": -0.04634052470681041,
      "113": -0.10318359777248341,
      "114": -0.07978710141242999,
      "115": -0.11707786494766906,
      "116": -0.14874716280502603,
      "117": -0.014753515632413111,
      "118": 0.11241643415412682,
      "119": 0.10144567101388191,
      "120": -0.08685703629079194,
      "121": -0.5051577432310302,
      "122": -0.09439300725012026,
      "123": 0.027859693165175607,
      "124": -0.3431704413364782,
      "125": -0.4662778574804964,
      "126": 0.03196345255192947,
      "127": -0.13287507407246094,
      "128": -0.022209139432463963,
      "129": -0.11148241531812617,
      "130": -0.40638228145537586,
      "131": -0.03721624527801905,
      "132": -0.472824249835483,
      "133": -0.28985392174173746,
      "134": -0.15479004758776224,
      "135": -0.049828252968830485,
      "136": 0.11368961582702365,
      "137": 0.15335053036988794,
      "138": -0.14341876756168154,
      "139": 0.025398404544401215,
      "140": -0.17332875768033307,
      "141": -19745.53351936403,
      "142": -0.06872598319023637,
      "143": -4.434794808244604,
      "144": -160.86096667504137,
      "145": -80.33730579331669,
      "146": -80.30345047343638,
      "147": -0.028508494164945906,
      "148": -0.011435161230050016,
      "149": -0.0882366770240885,
      "150": -0.08210274351525038,
      "151": -0.1001814618604392,
      "152": -0.05864193324623185,
      "153": -0.10844586943785502,
      "154": -0.06078723340379752,
      "155": -0.1011644044946744,
      "156": -0.09533276629129069,
      "157": -0.08398470640882114,
      "158": -0.11356373961107542,
      "159": 0.1398258959286958,
      "160": -0.5507472478721565,
      "161": 0.13038608038281732,
      "162": -0.14247409047357681,
      "163": 0.012445751841686213,
      "164": -0.49921005827891834,
      "165": -0.2618346321556625,
      "166": -0.23987681108602862,
      "167": 0.032279571042216376,
      "168": 0.10437223345266247,
      "169": -0.4707603942020306,
      "170": 0.2505294720238864,
      "171": 0.04600908009509709,
      "172": -0.06723023847074439,
      "173": -0.11665893734951772,
      "174": -0.15097252923756016,
      "175": -0.07234379206020668,
      "176": -0.10861022742251097,
      "177": -0.1567291867816752,
      "178": 0.01460796237238188,
      "179": 0.058909150850835756,
      "180": -0.5511396081958917,
      "181": -0.3833129374036946,
      "182": -19652.635557361256,
      "183": -0.0027214344501003095,
      "184": -4.5247670386564955,
      "185": -160.71160330799344,
      "186": -80.29185105610269,
      "187": -80.25175338075269,
      "188": 0.023306546798376227,
      "189": -0.004448288118112399,
      "190": -0.06595124628778057,
      "191": -0.10328938456129834,
      "192": -0.10209430859759297,
      "193": 0.010973151204475461,
      "194": -0.056662138657520414,
      "195": -0.0597156883114551,
      "196": -0.041458740001339395,
      "197": -0.09426012848568278,
      "198": -0.14851478353315978,
      "199": -0.05527592685622449,
      "200": 0.07611788723439292,
      "201": -0.26255998094195254,
      "202": -0.33522928705679594,
      "203": 0.20933272962328162,
      "204": -0.01666463767532374,
      "205": 0.03291104820373137,
      "206": -0.17050534760560665,
      "207": -0.020157886679350378,
      "208": 0.22764733219783856,
      "209": -0.6112660506834957,
      "210": -0.2891941179023465,
      "211": 0.007172919728630719,
      "212": -0.48791530917128034,
      "213": 0.11788231708704282,
      "214": 0.04867816541948591,
      "215": -0.7146390763104472,
      "216": -0.15156163751229998,
      "217": -0.37263466786829924,
      "218": -0.2509723726736336,
      "219": -0.01666682526726914,
      "220": -0.28351726118847886,
      "221": 0.15234221944333584,
      "222": 0.0065701400527793915,
      "223": -19571.954297940305,
      "224": 0.0666042831456567,
      "225": -4.520263129981011,
      "226": -160.76394379845837,
      "227": -80.32163355152873,
      "228": -80.28074230326126,
      "229": -0.012597636574380764,
      "230": 0.037051102179178855,
      "231": -0.05858627428686677,
      "232": -0.07450349362058419,
      "233": -0.08533312241355864,
      "234": -0.07685714741531031,
      "235": -0.10083323314104911,
      "236": -0.10993758749727259,
      "237": -0.12439335969243094,
      "238": -0.07494003883806545,
      "239": -0.06254049478045323,
      "240": -0.0602631468900853,
      "241": 0.07192200988937646,
      "242": -0.0019070256485098696,
      "243": 0.2084277058710295,
      "244": 0.004344890228544259,
      "245": -0.1417880374826847,
      "246": 0.006771079551488742,
      "247": -0.10468170011514574,
      "248": -0.028477164740651522,
      "249": -0.26620075668538196,
      "250": 0.05073053425372034,
      "251": -0.3883363581750356,
      "252": -0.4758775378322358,
      "253": -0.4541484013316771,
      "254": -0.1133849288105975,
      "255": 0.08596131208889159,
      "256": 0.005383425691215187,
      "257": 0.011577514788374122,
      "258": -0.3865823860297734,
      "259": -0.1178783327689755,
      "260": -0.17863496422436503,
      "261": -0.007417277398607146,
      "262": -0.7392953818379177,
      "263": 0.09571752886206808,
      "264": -19477.49329001154,
      "265": 0.0266517157406104,
      "266": -4.461700641907836,
      "267": -160.80317090273488,
      "268": -80.30433345407774,
      "269": -80.34418493219819,
      "270": -0.03745830291229891,
      "271": 0.009144744926844976,
      "272": -0.10963582276454309,
      "273": -0.06572682162797916,
      "274": -0.08461577063425996,
      "275": -0.05664433250085215,
      "276": -0.15786059171170083,
      "277": -0.09238541652474845,
      "278": -0.07532942751460459,
      "279": -0.06673059920416584,
      "280": -0.06277287768464998,
      "281": -0.05770365042820971,
      "282": -0.6747705986135276,
      "283": -0.4485568755678565,
      "284": 0.173341989908838,
      "285": 0.009721878542680728,
      "286": 0.026568501768548306,
      "287": 0.1976136815566873,
      "288": -0.2888315600377325,
      "289": 0.04357003526434449,
      "290": -0.09381849130012584,
      "291": -0.027311990494780426,
      "292": -0.2699511770562867,
      "293": 0.03809679039189442,
      "294": -0.020181247040700234,
      "295": -0.4651896838062104,
      "296": 0.022305077471522456,
      "297": -0.3357613484810852,
      "298": -0.06047024795165206,
      "299": -0.14280822706642643,
      "300": 0.06400427482261666,
      "301": -0.01765469522816953,
      "302": -0.1158961011321736,
      "303": -0.12879338796833872,
      "304": -0.3191429356544991,
      "305": -19378.803389301826,
      "306": 0.02034290674363121,
      "307": -4.439952070639134,
      "308": -160.74009078354203,
      "309": -80.22891693910748,
      "310": -80.35182241120155,
      "311": -0.008866702253428359,
      "312": 0.04748020135847891,
      "313": -0.09127944894460654,
      "314": -0.14885874074291774,
      "315": -0.0840002546283674,
      "316": -0.11955422130629656,
      "317": -0.1720430011856468,
      "318": -0.07578770980170606,
      "319": -0.04554799072342415,
      "320": -0.10954487137194524,
      "321": -0.07901742881238322,
      "322": -0.07535580001481908,
      "323": -0.058879725248497224,
      "324": -0.19860279692013386,
      "325": 0.07393481825714306,
      "326": -0.6251159252181855,
      "327": 0.02550901604571426,
      "328": -0.016096646194693726,
      "329": -0.02954525747623996,
      "330": -0.257530973217783,
      "331": -0.23095024744609574,
      "332": -0.4958686712601722,
      "333": -0.4583644901842391,
      "334": -0.017789787722707767,
      "335": 0.1964868190441794,
      "336": -0.1333045076901041,
      "337": 0.13808803911607123,
      "338": -0.34143042041789906,
      "339": 0.09566545123627186,
      "340": -0.13385275659911383,
      "341": 0.02279010252920502,
      "342": -0.49469029219975696,
      "343": 0.011037460304218205,
      "344": -0.04887957014501651,
      "345": -0.08890645624614167,
      "346": -19274.31949370276,
      "347": -0.014263044883432078,
      "348": -4.497590703919859,
      "349": -160.77876472625994,
      "350": -80.34681726960525,
      "351": -80.28071882524051,
      "352": 0.057659006690234535,
      "353": -0.01756034000654466,
      "354": -0.04584178552559552,
      "355": -0.09969260963296421,
      "356": -0.11824849183192414,
      "357": -0.09062909704713705,
      "358": -0.03974839068887364,
      "359": -0.09950141740980999,
      "360": -0.0782954085709049,
      "361": -0.07074132143336767,
      "362": -0.04815119169744798,
      "363": -0.036852793253828474,
      "364": -0.01194958360058549,
      "365": -0.289880735208107,
      "366": -0.3927832325200541,
      "367": 0.06169890084585572,
      "368": -0.00266118380248896,
      "369": -0.003777023857889472,
      "370": -0.31560540238515666,
      "371": -0.40576703577423917,
      "372": -0.06472992823554478,
      "373": -0.21218151237237878,
      "374": 0.13382822304776587,
      "375": -0.057012607168211174,
      "376": 0.03339196510102251,
      "377": 0.09886585510701307,
      "378": -0.04200092910898067,
      "379": -0.1012589840477502,
      "380": 0.03558839472499974,
      "381": -0.0800522682005624,
      "382": -0.3013333372372784,
      "383": -0.2281777615240112,
      "384": 0.0492277248379267,
      "385": 0.05934803677103249,
      "386": -0.8086161269025679,
      "387": -19198.30275042906,
      "388": -0.0017585313752592065,
      "389": -4.528754456479969,
      "390": -160.7350531932604,
      "391": -80.32877763992302,
      "392": -80.3471425541411,
      "393": -0.0058910687021844444,
      "394": -0.01839669208352787,
      "395": -0.020716798278481455,
      "396": -0.019110505921083036,
      "397": -0.027817855427470957,
      "398": -0.07764496174764285,
      "399": -0.10680534631346843,
      "400": -0.09934286996277837,
      "401": -0.01815743637862046,
      "402": -0.07336893329190997,
      "403": -0.08721998057039443,
      "404": -0.1215771226752081,
      "405": 0.010591315774123974,
      "406": 0.061029552935881276,
      "407": -0.4567074674302719,
      "408": -0.03183637867304487,
      "409": -0.2002534022823732,
      "410": -0.14369048290040834,
      "411": -0.24545447753616748,
      "412": 0.022628143957267165,
      "413": -0.28008407367097654,
      "414": 0.06969657700905821,
      "415": -0.00013450141795807115,
      "416": -0.16136738446393115,
      "417": 0.18802762338473622,
      "418": -0.44484817705636703,
      "419": -0.10703217115572225,
      "420": -0.13288763801864595,
      "421": -0.15134776652396953,
      "422": -0.0012894788016613744,
      "423": -0.3259740336296882,
      "424": -0.14352234451933624,
      "425": 0.1556284585107027,
      "426": -0.029570753509160934,
      "427": -0.7122044883730229,
      "428": -19094.54463958388,
      "429": 0.06650141862971305,
      "430": -4.646230872422141,
      "431": -160.75229485714948,
      "432": -80.28638128367167,
      "433": -80.30801420466958,
      "434": 0.004427623977027896,
      "435": 0.0554143913287816,
      "436": -0.07788310576056051,
      "437": -0.034237653202615154,
      "438": -0.10518102544499573,
      "439": 0.0007214365962303108,
      "440": -0.12614174590485192,
      "441": -0.07573266907729871,
      "442": -0.052447504488875196,
      "443": -0.11641418319474928,
      "444": -0.13975217681977756,
      "445": -0.06864726038571299,
      "446": -0.22127355906704996,
      "447": -0.035316249571915585,
      "448": -0.3347084770566532,
      "449": 0.330745527307178,
      "450": -0.767582202715821,
      "451": -0.2322442520797258,
      "452": -0.005759150177238527,
      "453": -0.06812645242919656,
      "454": -0.19366777801309115,
      "455": -0.12100399407624235,
      "456": 0.060715031462347885,
      "457": 0.008512928111276812,
      "458": -0.07881603990896119,
      "459": -0.16619762758793932,
      "460": -0.5364703789131678,
      "461": 0.0018835472271276344,
      "462": -0.007602236041745028,
      "463": -0.025377898280930164,
      "464": -0.1649102510496337,
      "465": 0.02218191671224008,
      "466": 0.15490582183017368,
      "467": -0.3180291709800611,
      "468": -0.284079511714596,
      "469": -19017.48739019283,
      "470": 0.02372719023445557,
      "471": -4.608527731453475,
      "472": -160.75870827240166,
      "473": -80.33928142156331,
      "474": -80.29830556200926,
      "475": 0.0322580128907256,
      "476": 0.045999432230210746,
      "477": -0.05152915031553914,
      "478": -0.05672383163599317,
      "479": -0.038312934471341514,
      "480": -0.03655951981963119,
      "481": -0.10257077139007571,
      "482": -0.059981528496877226,
      "483": -0.055652379416145634,
      "484": -0.021647546923767587,
      "485": -0.12502594104044135,
      "486": -0.04881673976370758,
      "487": -0.029055466422650115,
      "488": 0.038075628396540044,
      "489": -0.43610259728999035,
      "490": 0.026046400408909733,
      "491": -0.6888011458752621,
      "492": -0.26635817100756787,
      "493": -0.10332069565007775,
      "494": -0.3578163376309058,
      "495": -0.08776660953724806,
      "496": 0.23297660228422531,
      "497": -0.10284757926002362,
      "498": -0.24454607775171738,
      "499": 0.04519252979995319,
      "500": -0.3700276177705679,
      "501": -0.010260411054234166,
      "502": -0.022537548956654933,
      "503": -0.08505672118567273,
      "504": -0.09513665998842748,
      "505": -0.3544901119621857,
      "506": -0.054655249962798004,
      "507": 0.05098004897695667,
      "508": 0.053830299983551176,
      "509": -0.21044432376241745,
      "510": -18935.68073304934,
      "511": 0.030676107572956177,
      "512": -4.492573777245405,
      "513": -160.80223938228497,
      "514": -80.32363744760474,
      "515": -80.26749719213183,
      "516": 0.013029050290520618,
      "517": 0.02121120156026981,
      "518": -0.14694898485867267,
      "519": -0.055554461175707684,
      "520": -0.07931244980060616,
      "521": -0.07046595230850757,
      "522": -0.11357182417261436,
      "523": -0.08144606051839011,
      "524": -0.0701751279340794,
      "525": -0.04268235055672922,
      "526": -0.03574208787264565,
      "527": -0.12173958158150153,
      "528": -0.012127878110294957,
      "529": -0.29820181468734624,
      "530": -0.1465395276218542,
      "531": -0.6377981886097088,
      "532": -0.03757258980183531,
      "533": -0.29366435563498755,
      "534": 0.039030864207745174,
      "535": -0.1734321542059742,
      "536": -0.12910591049030434,
      "537": -0.24384986608154527,
      "538": -0.08524729262280564,
      "539": -0.04325261059735715,
      "540": -0.09429620960612536,
      "541": -0.08376400594033927,
      "542": -0.20916586454298672,
      "543": 0.02125547897474178,
      "544": 0.01713818647743663,
      "545": -0.24413685677591399,
      "546": -0.43205302156820036,
      "547": -0.3226168256305733,
      "548": -0.08361940607360593,
      "549": 0.22822825364886729,
      "550": 0.11323036957808535,
      "551": -18838.056516414465,
      "552": -0.008306847193404295,
      "553": -14.779842727070578,
      "554": -160.8193882217925,
      "555": -80.29261681732076,
      "556": -80.23242474074966,
      "557": -0.022257020235069216,
      "558": 0.02772156608964287,
      "559": -0.0858216297588801,
      "560": 0.003950165850646336,
      "561": -0.10211961420440971,
      "562": -0.11495351397877976,
      "563": -0.15378539386973725,
      "564": -0.0934050686606176,
      "565": -0.04030776503146281,
      "566": -0.09514623012125946,
      "567": -0.10117990324342027,
      "568": -0.060254836110045576,
      "569": -0.023013031082558644,
      "570": -0.2620728980299085,
      "571": -0.04580388789059972,
      "572": 0.04825963555051599,
      "573": -0.01411312717163412,
      "574": -0.3601840240563515,
      "575": -0.21879783861891575,
      "576": 0.051678218099014316,
      "577": -0.5054752791567977,
      "578": -0.3241367700297823,
      "579": -0.013281409060644563,
      "580": -0.007118043054784016,
      "581": -0.1430866134240002,
      "582": -0.008351793558695069,
      "583": -0.4154130973794278,
      "584": 0.0014940421813145035,
      "585": 0.0015569806692771425,
      "586": -0.3759686296739672,
      "587": -0.1115166004196452,
      "588": -0.31103443747960485,
      "589": -0.5101419325782235,
      "590": 0.10168203604843247,
      "591": 0.29672752091184834,
      "592": -18745.63882605347,
      "593": 0.03978472479790018,
      "594": -17.46356810616889,
      "595": -160.75989013499094,
      "596": -80.26612768180874,
      "597": -80.32324163246098,
      "598": -0.06958299200715075,
      "599": -0.03406931675146675,
      "600": -0.11517540302748498,
      "601": -0.04029149713238904,
      "602": -0.0733450536698132,
      "603": -0.07839542928863356,
      "604": -0.0535365996817223,
      "605": -0.07719134142732768,
      "606": -0.13990246353761188,
      "607": -0.1318864994988247,
      "608": -0.08363792117191358,
      "609": -0.09074582849386688,
      "610": -0.07759064138104682,
      "611": -0.16248809896306662,
      "612": -0.2665376584763747,
      "613": -0.05187018156386929,
      "614": 0.008893160281755031,
      "615": -0.03218366669174254,
      "616": -0.697462275679652,
      "617": -0.20842901212807183,
      "618": -0.011296551793957216,
      "619": 0.08355128010621764,
      "620": -0.004231149277363388,
      "621": 0.03869393329590017,
      "622": 0.0032174664349986118,
      "623": 0.016143051465913605,
      "624": -0.2128941678961981,
      "625": -0.4871711469881152,
      "626": -0.0018114014064547009,
      "627": -0.37872035939319626,
      "628": 0.1767708398263531,
      "629": 0.1465506249142399,
      "630": 0.013413618396284265,
      "631": -0.8109490179147466,
      "632": -0.053499008624132836,
      "633": -18666.395319699874,
      "634": 0.031697502389276946,
      "635": -7.897164701168913,
      "636": -160.75107809113064,
      "637": -80.32022154681398,
      "638": -80.2957688322847,
      "639": -0.0072920672986356745,
      "640": 0.008229122840833923,
      "641": -0.12932494723762344,
      "642": -0.06784493015709563,
      "643": -0.07911332590554712,
      "644": -0.08615024799212875,
      "645": -0.09900299335095437,
      "646": -0.05866010611086479,
      "647": -0.09636077957685732,
      "648": -0.10760911790485313,
      "649": -0.0959636543060283,
      "650": -0.036772201731936585,
      "651": -0.22399818782166067,
      "652": -0.41046279806805297,
      "653": 0.06434027943595588,
      "654": 0.0364112136744231,
      "655": -0.0024401010691408776,
      "656": -0.04651664727931072,
      "657": -0.22169837975109385,
      "658": -0.5278480147474923,
      "659": 0.05078837335953032,
      "660": -0.2796227231804731,
      "661": 0.03281841634435565,
      "662": -0.3179630642958553,
      "663": -0.12580745238951627,
      "664": 0.16213780529596172,
      "665": 0.07310792038836607,
      "666": -0.0383107466749485,
      "667": -0.01019001359139192,
      "668": -0.10965780355026236,
      "669": -0.006402912720950919,
      "670": -0.2400714623332373,
      "671": -0.5587967480214645,
      "672": -0.6004521221935784,
      "673": 0.22061116911875187,
      "674": -18571.944475178578,
      "675": 0.011507834236253723,
      "676": -5.024552604775306,
      "677": -160.7601137735625,
      "678": -80.33233936389931,
      "679": -80.30883745210177,
      "680": 0.02273639777176999,
      "681": -0.015168921746459825,
      "682": -0.04516497335228565,
      "683": -0.11320075776074454,
      "684": -0.10976734009046575,
      "685": -0.028243916366018276,
      "686": -0.07697162048348953,
      "687": -0.06574072387277359,
      "688": -0.006325729936348872,
      "689": -0.11295767611313462,
      "690": -0.0400256565826503,
      "691": -0.03707796453791917,
      "692": -0.058989774149863866,
      "693": -0.055755923411855986,
      "694": -0.05858646385523547,
      "695": 0.0749606279215965,
      "696": 0.03183542219253933,
      "697": 0.0708129163855906,
      "698": -0.16517251091628044,
      "699": -0.31691504227414713,
      "700": 0.09598109969949162,
      "701": -0.3311226159346579,
      "702": -0.060356498370775995,
      "703": -0.4539788438484325,
      "704": 0.07680552770110874,
      "705": -0.17840591259848115,
      "706": -0.14243317623422022,
      "707": -0.09924782456780078,
      "708": -0.21313937001206165,
      "709": -0.47234775573377824,
      "710": -0.29538715833971363,
      "711": -0.26987531477286253,
      "712": -0.3404503288946593,
      "713": -0.20992349465436372,
      "714": 0.281454567379023,
      "715": -18519.908298215894,
      "716": 0.018618646738129872,
      "717": -6.624458679907788,
      "718": -160.80029966994735,
      "719": -80.31882888730775,
      "720": -80.39034067043521,
      "721": 0.04001409245583605,
      "722": 0.024500476071026754,
      "723": -0.11095624146974363,
      "724": -0.12062405279938473,
      "725": -0.15880059795013793,
      "726": -0.0551120570958072,
      "727": -0.11156255954439252,
      "728": -0.12205166396866526,
      "729": -0.14268735279375863,
      "730": -0.04904046636493568,
      "731": -0.10487333515836307,
      "732": -0.09978104167477862,
      "733": -0.12038995034459088,
      "734": -0.10554450539126119,
      "735": -0.5743194775150848,
      "736": -0.3038128071141093,
      "737": 0.050066256431202695,
      "738": 0.100468343232587,
      "739": 0.058738767800077536,
      "740": -0.07189616857818751,
      "741": 0.0024864566931967784,
      "742": -0.002806946054908879,
      "743": -0.2516695777904117,
      "744": -0.054085277740424986,
      "745": -0.18024311393560782,
      "746": 0.043189053956068035,
      "747": 0.0016464147114726682,
      "748": -0.02089912581961138,
      "749": -0.04201748972508122,
      "750": -0.2245171555226219,
      "751": -0.36722365213035035,
      "752": -0.08494146808022437,
      "753": -0.1976488612948748,
      "754": -0.2267690713915923,
      "755": -0.28139173063710854,
      "756": -18426.805536908465,
      "757": 0.01253452558362763,
      "758": -8.399547150247088,
      "759": -160.7227572910662,
      "760": -80.3038275337483,
      "761": -80.33525003814329,
      "762": 0.044619322017545364,
      "763": -0.03283057849136539,
      "764": -0.132191484796988,
      "765": -0.07469849766404048,
      "766": -0.027841581949664497,
      "767": -0.016590692113173187,
      "768": -0.038257044427820165,
      "769": -0.0728614847795846,
      "770": -0.07769952126206144,
      "771": -0.08159044007734824,
      "772": -0.09110113055447763,
      "773": -0.07360359078697444,
      "774": 0.04051741604393074,
      "775": 0.09086723718824145,
      "776": 0.0323782897639663,
      "777": -0.15871106582031885,
      "778": -0.3268505089528125,
      "779": 0.004228378218345698,
      "780": -0.013257877005317267,
      "781": 0.03317556794931355,
      "782": -0.29894653764531276,
      "783": -0.2780810107222056,
      "784": -0.17752953879038003,
      "785": -0.010490420304808134,
      "786": 0.024632391878202403,
      "787": -0.2914432637978222,
      "788": -0.11448048030053003,
      "789": -0.16535144970914004,
      "790": -0.026757131858241877,
      "791": -0.21301347213735586,
      "792": -0.228059046995716,
      "793": -0.17301777354466427,
      "794": 0.022055791449351086,
      "795": -0.09029269263301722,
      "796": -0.569503240167678,
      "797": -18354.605069146244,
      "798": -0.042993480307825876,
      "799": -11.397702946770593,
      "800": -160.7605714743959,
      "801": -80.34783614844764,
      "802": -80.29058733151952,
      "803": -0.04441243365972622,
      "804": -0.015637740131497102,
      "805": -0.08986102106153918,
      "806": -0.0790189918767625,
      "807": -0.05237374482648349,
      "808": -0.07047804773612582,
      "809": -0.12457814642398772,
      "810": -0.07819900450171124,
      "811": -0.08338143880171899,
      "812": -0.04898712691521902,
      "813": -0.10400684756978801,
      "814": -0.07680985957692374,
      "815": -0.1572824047251626,
      "816": 0.020115614925532686,
      "817": -0.11788791279979206,
      "818": -0.43786897046493045,
      "819": -0.18833610176126772,
      "820": -0.07137403481291697,
      "821": -0.4309629130442442,
      "822": 0.13815074631786758,
      "823": 0.028345754956854655,
      "824": -0.12301314668349786,
      "825": 0.06831138528925165,
      "826": -0.06629450817729153,
      "827": -0.5271383661641674,
      "828": -0.20756322227185528,
      "829": -0.5211201629344479,
      "830": -0.03120213256395823,
      "831": -0.087449119490824,
      "832": -0.11538988764830661,
      "833": -0.2157564259993462,
      "834": -0.06595567143978065,
      "835": -0.07879994022109381,
      "836": 0.04685078506861022,
      "837": 0.3047141790879049
     }
    },
    {
     "sx": 1,
     "sy": 1,
     "depth": 838,
     "w": {
      "0": 0,
      "1": 0,
      "2": 0,
      "3": 0,
      "4": 0,
      "5": 0,
      "6": 0,
      "7": 0,
      "8": 0,
      "9": 0,
      "10": 0,
      "11": 0,
      "12": 0,
      "13": 0,
      "14": 0,
      "15": 0,
      "16": 0,
      "17": 0,
      "18": 0,
      "19": 0,
      "20": 0,
      "21": 0,
      "22": 0,
      "23": 0,
      "24": 0,
      "25": 0,
      "26": 0,
      "27": 0,
      "28": 0,
      "29": 0,
      "30": 0,
      "31": 0,
      "32": 0,
      "33": 0,
      "34": 0,
      "35": 0,
      "36": 0,
      "37": 0,
      "38": 0,
      "39": 0,
      "40": 0,
      "41": 0,
      "42": 0,
      "43": 0,
      "44": 0,
      "45": 0,
      "46": 0,
      "47": 0,
      "48": 0,
      "49": 0,
      "50": 0,
      "51": 0,
      "52": 0,
      "53": 0,
      "54": 0,
      "55": 0,
      "56": 0,
      "57": 0,
      "58": 0,
      "59": 0,
      "60": 0,
      "61": 0,
      "62": 0,
      "63": 0,
      "64": 0,
      "65": 0,
      "66": 0,
      "67": 0,
      "68": 0,
      "69": 0,
      "70": 0,
      "71": 0,
      "72": 0,
      "73": 0,
      "74": 0,
      "75": 0,
      "76": 0,
      "77": 0,
      "78": 0,
      "79": 0,
      "80": 0,
      "81": 0,
      "82": 0,
      "83": 0,
      "84": 0,
      "85": 0,
      "86": 0,
      "87": 0,
      "88": 0,
      "89": 0,
      "90": 0,
      "91": 0,
      "92": 0,
      "93": 0,
      "94": 0,
      "95": 0,
      "96": 0,
      "97": 0,
      "98": 0,
      "99": 0,
      "100": 0,
      "101": 0,
      "102": 0,
      "103": 0,
      "104": 0,
      "105": 0,
      "106": 0,
      "107": 0,
      "108": 0,
      "109": 0,
      "110": 0,
      "111": 0,
      "112": 0,
      "113": 0,
      "114": 0,
      "115": 0,
      "116": 0,
      "117": 0,
      "118": 0,
      "119": 0,
      "120": 0,
      "121": 0,
      "122": 0,
      "123": 0,
      "124": 0,
      "125": 0,
      "126": 0,
      "127": 0,
      "128": 0,
      "129": 0,
      "130": 0,
      "131": 0,
      "132": 0,
      "133": 0,
      "134": 0,
      "135": 0,
      "136": 0,
      "137": 0,
      "138": 0,
      "139": 0,
      "140": 0,
      "141": 0,
      "142": 0,
      "143": 0,
      "144": 0,
      "145": 0,
      "146": 0,
      "147": 0,
      "148": 0,
      "149": 0,
      "150": 0,
      "151": 0,
      "152": 0,
      "153": 0,
      "154": 0,
      "155": 0,
      "156": 0,
      "157": 0,
      "158": 0,
      "159": 0,
      "160": 0,
      "161": 0,
      "162": 0,
      "163": 0,
      "164": 0,
      "165": 0,
      "166": 0,
      "167": 0,
      "168": 0,
      "169": 0,
      "170": 0,
      "171": 0,
      "172": 0,
      "173": 0,
      "174": 0,
      "175": 0,
      "176": 0,
      "177": 0,
      "178": 0,
      "179": 0,
      "180": 0,
      "181": 0,
      "182": 0,
      "183": 0,
      "184": 0,
      "185": 0,
      "186": 0,
      "187": 0,
      "188": 0,
      "189": 0,
      "190": 0,
      "191": 0,
      "192": 0,
      "193": 0,
      "194": 0,
      "195": 0,
      "196": 0,
      "197": 0,
      "198": 0,
      "199": 0,
      "200": 0,
      "201": 0,
      "202": 0,
      "203": 0,
      "204": 0,
      "205": 0,
      "206": 0,
      "207": 0,
      "208": 0,
      "209": 0,
      "210": 0,
      "211": 0,
      "212": 0,
      "213": 0,
      "214": 0,
      "215": 0,
      "216": 0,
      "217": 0,
      "218": 0,
      "219": 0,
      "220": 0,
      "221": 0,
      "222": 0,
      "223": 0,
      "224": 0,
      "225": 0,
      "226": 0,
      "227": 0,
      "228": 0,
      "229": 0,
      "230": 0,
      "231": 0,
      "232": 0,
      "233": 0,
      "234": 0,
      "235": 0,
      "236": 0,
      "237": 0,
      "238": 0,
      "239": 0,
      "240": 0,
      "241": 0,
      "242": 0,
      "243": 0,
      "244": 0,
      "245": 0,
      "246": 0,
      "247": 0,
      "248": 0,
      "249": 0,
      "250": 0,
      "251": 0,
      "252": 0,
      "253": 0,
      "254": 0,
      "255": 0,
      "256": 0,
      "257": 0,
      "258": 0,
      "259": 0,
      "260": 0,
      "261": 0,
      "262": 0,
      "263": 0,
      "264": 0,
      "265": 0,
      "266": 0,
      "267": 0,
      "268": 0,
      "269": 0,
      "270": 0,
      "271": 0,
      "272": 0,
      "273": 0,
      "274": 0,
      "275": 0,
      "276": 0,
      "277": 0,
      "278": 0,
      "279": 0,
      "280": 0,
      "281": 0,
      "282": 0,
      "283": 0,
      "284": 0,
      "285": 0,
      "286": 0,
      "287": 0,
      "288": 0,
      "289": 0,
      "290": 0,
      "291": 0,
      "292": 0,
      "293": 0,
      "294": 0,
      "295": 0,
      "296": 0,
      "297": 0,
      "298": 0,
      "299": 0,
      "300": 0,
      "301": 0,
      "302": 0,
      "303": 0,
      "304": 0,
      "305": 0,
      "306": 0,
      "307": 0,
      "308": 0,
      "309": 0,
      "310": 0,
      "311": 0,
      "312": 0,
      "313": 0,
      "314": 0,
      "315": 0,
      "316": 0,
      "317": 0,
      "318": 0,
      "319": 0,
      "320": 0,
      "321": 0,
      "322": 0,
      "323": 0,
      "324": 0,
      "325": 0,
      "326": 0,
      "327": 0,
      "328": 0,
      "329": 0,
      "330": 0,
      "331": 0,
      "332": 0,
      "333": 0,
      "334": 0,
      "335": 0,
      "336": 0,
      "337": 0,
      "338": 0,
      "339": 0,
      "340": 0,
      "341": 0,
      "342": 0,
      "343": 0,
      "344": 0,
      "345": 0,
      "346": 0,
      "347": 0,
      "348": 0,
      "349": 0,
      "350": 0,
      "351": 0,
      "352": 0,
      "353": 0,
      "354": 0,
      "355": 0,
      "356": 0,
      "357": 0,
      "358": 0,
      "359": 0,
      "360": 0,
      "361": 0,
      "362": 0,
      "363": 0,
      "364": 0,
      "365": 0,
      "366": 0,
      "367": 0,
      "368": 0,
      "369": 0,
      "370": 0,
      "371": 0,
      "372": 0,
      "373": 0,
      "374": 0,
      "375": 0,
      "376": 0,
      "377": 0,
      "378": 0,
      "379": 0,
      "380": 0,
      "381": 0,
      "382": 0,
      "383": 0,
      "384": 0,
      "385": 0,
      "386": 0,
      "387": 0,
      "388": 0,
      "389": 0,
      "390": 0,
      "391": 0,
      "392": 0,
      "393": 0,
      "394": 0,
      "395": 0,
      "396": 0,
      "397": 0,
      "398": 0,
      "399": 0,
      "400": 0,
      "401": 0,
      "402": 0,
      "403": 0,
      "404": 0,
      "405": 0,
      "406": 0,
      "407": 0,
      "408": 0,
      "409": 0,
      "410": 0,
      "411": 0,
      "412": 0,
      "413": 0,
      "414": 0,
      "415": 0,
      "416": 0,
      "417": 0,
      "418": 0,
      "419": 0,
      "420": 0,
      "421": 0,
      "422": 0,
      "423": 0,
      "424": 0,
      "425": 0,
      "426": 0,
      "427": 0,
      "428": 0,
      "429": 0,
      "430": 0,
      "431": 0,
      "432": 0,
      "433": 0,
      "434": 0,
      "435": 0,
      "436": 0,
      "437": 0,
      "438": 0,
      "439": 0,
      "440": 0,
      "441": 0,
      "442": 0,
      "443": 0,
      "444": 0,
      "445": 0,
      "446": 0,
      "447": 0,
      "448": 0,
      "449": 0,
      "450": 0,
      "451": 0,
      "452": 0,
      "453": 0,
      "454": 0,
      "455": 0,
      "456": 0,
      "457": 0,
      "458": 0,
      "459": 0,
      "460": 0,
      "461": 0,
      "462": 0,
      "463": 0,
      "464": 0,
      "465": 0,
      "466": 0,
      "467": 0,
      "468": 0,
      "469": 0,
      "470": 0,
      "471": 0,
      "472": 0,
      "473": 0,
      "474": 0,
      "475": 0,
      "476": 0,
      "477": 0,
      "478": 0,
      "479": 0,
      "480": 0,
      "481": 0,
      "482": 0,
      "483": 0,
      "484": 0,
      "485": 0,
      "486": 0,
      "487": 0,
      "488": 0,
      "489": 0,
      "490": 0,
      "491": 0,
      "492": 0,
      "493": 0,
      "494": 0,
      "495": 0,
      "496": 0,
      "497": 0,
      "498": 0,
      "499": 0,
      "500": 0,
      "501": 0,
      "502": 0,
      "503": 0,
      "504": 0,
      "505": 0,
      "506": 0,
      "507": 0,
      "508": 0,
      "509": 0,
      "510": 0,
      "511": 0,
      "512": 0,
      "513": 0,
      "514": 0,
      "515": 0,
      "516": 0,
      "517": 0,
      "518": 0,
      "519": 0,
      "520": 0,
      "521": 0,
      "522": 0,
      "523": 0,
      "524": 0,
      "525": 0,
      "526": 0,
      "527": 0,
      "528": 0,
      "529": 0,
      "530": 0,
      "531": 0,
      "532": 0,
      "533": 0,
      "534": 0,
      "535": 0,
      "536": 0,
      "537": 0,
      "538": 0,
      "539": 0,
      "540": 0,
      "541": 0,
      "542": 0,
      "543": 0,
      "544": 0,
      "545": 0,
      "546": 0,
      "547": 0,
      "548": 0,
      "549": 0,
      "550": 0,
      "551": 0,
      "552": 0,
      "553": 0,
      "554": 0,
      "555": 0,
      "556": 0,
      "557": 0,
      "558": 0,
      "559": 0,
      "560": 0,
      "561": 0,
      "562": 0,
      "563": 0,
      "564": 0,
      "565": 0,
      "566": 0,
      "567": 0,
      "568": 0,
      "569": 0,
      "570": 0,
      "571": 0,
      "572": 0,
      "573": 0,
      "574": 0,
      "575": 0,
      "576": 0,
      "577": 0,
      "578": 0,
      "579": 0,
      "580": 0,
      "581": 0,
      "582": 0,
      "583": 0,
      "584": 0,
      "585": 0,
      "586": 0,
      "587": 0,
      "588": 0,
      "589": 0,
      "590": 0,
      "591": 0,
      "592": 0,
      "593": 0,
      "594": 0,
      "595": 0,
      "596": 0,
      "597": 0,
      "598": 0,
      "599": 0,
      "600": 0,
      "601": 0,
      "602": 0,
      "603": 0,
      "604": 0,
      "605": 0,
      "606": 0,
      "607": 0,
      "608": 0,
      "609": 0,
      "610": 0,
      "611": 0,
      "612": 0,
      "613": 0,
      "614": 0,
      "615": 0,
      "616": 0,
      "617": 0,
      "618": 0,
      "619": 0,
      "620": 0,
      "621": 0,
      "622": 0,
      "623": 0,
      "624": 0,
      "625": 0,
      "626": 0,
      "627": 0,
      "628": 0,
      "629": 0,
      "630": 0,
      "631": 0,
      "632": 0,
      "633": 0,
      "634": 0,
      "635": 0,
      "636": 0,
      "637": 0,
      "638": 0,
      "639": 0,
      "640": 0,
      "641": 0,
      "642": 0,
      "643": 0,
      "644": 0,
      "645": 0,
      "646": 0,
      "647": 0,
      "648": 0,
      "649": 0,
      "650": 0,
      "651": 0,
      "652": 0,
      "653": 0,
      "654": 0,
      "655": 0,
      "656": 0,
      "657": 0,
      "658": 0,
      "659": 0,
      "660": 0,
      "661": 0,
      "662": 0,
      "663": 0,
      "664": 0,
      "665": 0,
      "666": 0,
      "667": 0,
      "668": 0,
      "669": 0,
      "670": 0,
      "671": 0,
      "672": 0,
      "673": 0,
      "674": 0,
      "675": 0,
      "676": 0,
      "677": 0,
      "678": 0,
      "679": 0,
      "680": 0,
      "681": 0,
      "682": 0,
      "683": 0,
      "684": 0,
      "685": 0,
      "686": 0,
      "687": 0,
      "688": 0,
      "689": 0,
      "690": 0,
      "691": 0,
      "692": 0,
      "693": 0,
      "694": 0,
      "695": 0,
      "696": 0,
      "697": 0,
      "698": 0,
      "699": 0,
      "700": 0,
      "701": 0,
      "702": 0,
      "703": 0,
      "704": 0,
      "705": 0,
      "706": 0,
      "707": 0,
      "708": 0,
      "709": 0,
      "710": 0,
      "711": 0,
      "712": 0,
      "713": 0,
      "714": 0,
      "715": 0,
      "716": 0,
      "717": 0,
      "718": 0,
      "719": 0,
      "720": 0,
      "721": 0,
      "722": 0,
      "723": 0,
      "724": 0,
      "725": 0,
      "726": 0,
      "727": 0,
      "728": 0,
      "729": 0,
      "730": 0,
      "731": 0,
      "732": 0,
      "733": 0,
      "734": 0,
      "735": 0,
      "736": 0,
      "737": 0,
      "738": 0,
      "739": 0,
      "740": 0,
      "741": 0,
      "742": 0,
      "743": 0,
      "744": 0,
      "745": 0,
      "746": 0,
      "747": 0,
      "748": 0,
      "749": 0,
      "750": 0,
      "751": 0,
      "752": 0,
      "753": 0,
      "754": 0,
      "755": 0,
      "756": 0,
      "757": 0,
      "758": 0,
      "759": 0,
      "760": 0,
      "761": 0,
      "762": 0,
      "763": 0,
      "764": 0,
      "765": 0,
      "766": 0,
      "767": 0,
      "768": 0,
      "769": 0,
      "770": 0,
      "771": 0,
      "772": 0,
      "773": 0,
      "774": 0,
      "775": 0,
      "776": 0,
      "777": 0,
      "778": 0,
      "779": 0,
      "780": 0,
      "781": 0,
      "782": 0,
      "783": 0,
      "784": 0,
      "785": 0,
      "786": 0,
      "787": 0,
      "788": 0,
      "789": 0,
      "790": 0,
      "791": 0,
      "792": 0,
      "793": 0,
      "794": 0,
      "795": 0,
      "796": 0,
      "797": 0,
      "798": 0,
      "799": 0,
      "800": 0,
      "801": 0,
      "802": 0,
      "803": 0,
      "804": 0,
      "805": 0,
      "806": 0,
      "807": 0,
      "808": 0,
      "809": 0,
      "810": 0,
      "811": 0,
      "812": 0,
      "813": 0,
      "814": 0,
      "815": 0,
      "816": 0,
      "817": 0,
      "818": 0,
      "819": 0,
      "820": 0,
      "821": 0,
      "822": 0,
      "823": 0,
      "824": 0,
      "825": 0,
      "826": 0,
      "827": 0,
      "828": 0,
      "829": 0,
      "830": 0,
      "831": 0,
      "832": 0,
      "833": 0,
      "834": 0,
      "835": 0,
      "836": 0,
      "837": 0
     }
    },
    {
     "sx": 1,
     "sy": 1,
     "depth": 838,
     "w": {
      "0": 0,
      "1": 0,
      "2": 0,
      "3": 0,
      "4": 0,
      "5": 0,
      "6": 0,
      "7": 0,
      "8": 0,
      "9": 0,
      "10": 0,
      "11": 0,
      "12": 0,
      "13": 0,
      "14": 0,
      "15": 0,
      "16": 0,
      "17": 0,
      "18": 0,
      "19": 0,
      "20": 0,
      "21": 0,
      "22": 0,
      "23": 0,
      "24": 0,
      "25": 0,
      "26": 0,
      "27": 0,
      "28": 0,
      "29": 0,
      "30": 0,
      "31": 0,
      "32": 0,
      "33": 0,
      "34": 0,
      "35": 0,
      "36": 0,
      "37": 0,
      "38": 0,
      "39": 0,
      "40": 0,
      "41": 0,
      "42": 0,
      "43": 0,
      "44": 0,
      "45": 0,
      "46": 0,
      "47": 0,
      "48": 0,
      "49": 0,
      "50": 0,
      "51": 0,
      "52": 0,
      "53": 0,
      "54": 0,
      "55": 0,
      "56": 0,
      "57": 0,
      "58": 0,
      "59": 0,
      "60": 0,
      "61": 0,
      "62": 0,
      "63": 0,
      "64": 0,
      "65": 0,
      "66": 0,
      "67": 0,
      "68": 0,
      "69": 0,
      "70": 0,
      "71": 0,
      "72": 0,
      "73": 0,
      "74": 0,
      "75": 0,
      "76": 0,
      "77": 0,
      "78": 0,
      "79": 0,
      "80": 0,
      "81": 0,
