{
 "layers": [
  {
   "out_depth": 838,
   "out_sx": 1,
   "out_sy": 1,
   "layer_type": "input"
  },
  {
   "out_depth": 25,
   "out_sx": 1,
   "out_sy": 1,
   "layer_type": "fc",
   "num_inputs": 838,
   "l1_decay_mul": 0,
   "l2_decay_mul": 1,
   "filters": [
    {
     "sx": 1,
     "sy": 1,
     "depth": 838,
     "w": {
      "0": -259.8913325995982,
      "1": -0.059816362365954355,
      "2": 0.07115368108096692,
      "3": 0.07313194496196102,
      "4": -0.04083000404475293,
      "5": -9.29922298045326,
      "6": -1.391435542237057,
      "7": 0.029612054914919493,
      "8": -0.031693312845409,
      "9": -0.04801745475533754,
      "10": -0.011006776241863084,
      "11": 0.01701693822968306,
      "12": 0.05723503167796278,
      "13": -0.05066895788913416,
      "14": -0.032488955887150305,
      "15": -0.031350887917149635,
      "16": -0.032278838464148536,
      "17": 0.01356091718088591,
      "18": -249.8123940955305,
      "19": -0.020638821327283733,
      "20": 0.020703509524484593,
      "21": -0.034295646277094506,
      "22": -0.026304698990983783,
      "23": -9.348669001872105,
      "24": -1.396272154396799,
      "25": 0.006666849733269795,
      "26": -0.02226932748722695,
      "27": -0.013863317586636482,
      "28": 0.022631554884525607,
      "29": -0.016856242799856255,
      "30": 0.01508476663796396,
      "31": 0.040267072239654554,
      "32": -0.03424409995140993,
      "33": -0.003826063206068176,
      "34": -0.01640506953492916,
      "35": -0.032769656446725554,
      "36": -0.007190015978291203,
      "37": 0.045597592889821875,
      "38": 0.007975853445667952,
      "39": 0.04896130919538509,
      "40": 0.08640446930825767,
      "41": 0.04663826967914646,
      "42": 0.024239721169964368,
      "43": 0.02125876753242863,
      "44": -0.013992476808528415,
      "45": 0.07709692295128788,
      "46": -0.030847154788718592,
      "47": 0.01987796440556229,
      "48": 0.028185497636626172,
      "49": 0.02575393332382564,
      "50": -0.0250895542991723,
      "51": -0.02278579695368952,
      "52": -0.041099554115827615,
      "53": -0.043883084940948766,
      "54": -0.0026129315839550494,
      "55": 0.006892880578793387,
      "56": -0.317924302549631,
      "57": -0.18350899429166384,
      "58": 0.055164501938448914,
      "59": -238.9223295179608,
      "60": 0.012143765190067221,
      "61": 0.010628063965008925,
      "62": -0.0074402664107287506,
      "63": 0.027039188819781023,
      "64": -9.337473241853528,
      "65": -1.3820017027144007,
      "66": -0.0037649077594733866,
      "67": -0.004649195264208555,
      "68": -0.018878655495916608,
      "69": 0.05762443295910606,
      "70": -0.0309766581655952,
      "71": -0.052464379352066604,
      "72": -0.027340337904165218,
      "73": -0.04009981651557532,
      "74": 0.08397359821076517,
      "75": -0.015029430017859067,
      "76": -0.09279871576843232,
      "77": 0.05212737998053646,
      "78": -0.012853717212594196,
      "79": 0.0009019507459889474,
      "80": 0.01798921337252476,
      "81": 0.03209362939663192,
      "82": -0.03803397799662063,
      "83": -0.023451899964370655,
      "84": -0.2924600138113222,
      "85": -0.03552399768501243,
      "86": 0.015965772784377604,
      "87": 0.033494344016002583,
      "88": -0.00026341997336872203,
      "89": 0.06792822683326782,
      "90": 0.002027624087600514,
      "91": -0.007278142603119208,
      "92": -0.028444909656724155,
      "93": 0.03396294329129986,
      "94": -0.13990367371177498,
      "95": -0.0019366031404985415,
      "96": -0.011259278178728167,
      "97": 0.013720190400152548,
      "98": 0.06644190350429076,
      "99": -0.05901440091616357,
      "100": -232.89194756276632,
      "101": -0.0141010593815712,
      "102": -0.017899435585656986,
      "103": -0.013790868417905184,
      "104": 0.006084724595876543,
      "105": -9.247975520463902,
      "106": -1.4384680730923736,
      "107": 0.014775874937598962,
      "108": 0.0019285211965470418,
      "109": -0.0216462010941479,
      "110": 0.0017570516410479044,
      "111": 0.041075495667545106,
      "112": -0.011520325657666839,
      "113": -0.003254458619099109,
      "114": 0.08415341643420642,
      "115": 0.00032830171448190916,
      "116": -0.015931118993598593,
      "117": -0.012738192782218001,
      "118": 0.008954220309981815,
      "119": 0.03440210080171629,
      "120": -0.25916358236420595,
      "121": 0.012741210557637191,
      "122": 0.00021667436440274166,
      "123": 0.040355665094180766,
      "124": 0.03789236196418493,
      "125": 0.009520114317932989,
      "126": 0.11798334604727712,
      "127": -0.037000248970040166,
      "128": -0.026337710750608367,
      "129": -0.04389611567143847,
      "130": -0.05676028338451215,
      "131": -0.33809386497153415,
      "132": -0.01924893499936145,
      "133": 0.015620963756825285,
      "134": -0.03079943981658631,
      "135": -0.05349074131042493,
      "136": 0.00526403936940963,
      "137": -0.05838421815965471,
      "138": 0.027246735478426164,
      "139": -0.049628539851843,
      "140": -0.06966574323821091,
      "141": -224.53063301395596,
      "142": 0.006197760996680811,
      "143": -0.03079029870312307,
      "144": 0.004819018749349116,
      "145": 0.013089118675478456,
      "146": -9.354860642185901,
      "147": -1.410680223442535,
      "148": 0.002784314131938932,
      "149": 0.015680043554420053,
      "150": 0.024313925083043118,
      "151": -0.004607792133411189,
      "152": -0.011098831524581234,
      "153": -0.004953373019187323,
      "154": 0.009772160394360574,
      "155": -0.012791437293424388,
      "156": -0.004288525998197471,
      "157": 0.000043965758951034644,
      "158": -0.02587243250516309,
      "159": 0.04036534114664335,
      "160": 0.05981470481973362,
      "161": -0.18522783564973697,
      "162": -0.021135617651534475,
      "163": 0.027324531453076478,
      "164": -0.02239742135119929,
      "165": -0.054801806394782035,
      "166": -0.008479125982618,
      "167": 0.04291079578078638,
      "168": -0.028856439128746823,
      "169": -0.023400455107336425,
      "170": -0.021831688189608654,
      "171": -0.0328362412816238,
      "172": -0.009707629007235043,
      "173": 0.01585150736061001,
      "174": 0.02642332343557557,
      "175": -0.04243561719979554,
      "176": -0.023887122401323915,
      "177": -0.06787902485908054,
      "178": 0.005630534131330154,
      "179": 0.06291468935062189,
      "180": -0.3934610710787338,
      "181": -0.006224900594973738,
      "182": -221.295601703961,
      "183": -0.06689652816841014,
      "184": -0.03172911560451659,
      "185": -0.0000622120402146239,
      "186": -0.022234083273803953,
      "187": -9.274139066694708,
      "188": -1.4963717003205945,
      "189": 0.031255991334142176,
      "190": -0.038277039708790685,
      "191": 0.0030757750227091,
      "192": -0.013698657187639645,
      "193": -0.025047473840149347,
      "194": -0.03254963107203356,
      "195": -0.015289846728590524,
      "196": 0.0005096512961300393,
      "197": -0.025365475535502228,
      "198": -0.004194921948046731,
      "199": -0.0392679240423212,
      "200": -0.27285412149355875,
      "201": -0.06479576959707595,
      "202": 0.07863790853929313,
      "203": 0.035094468841194715,
      "204": 0.012471611697050643,
      "205": 0.028049677277366278,
      "206": 0.004243238496585163,
      "207": -0.02406431947732503,
      "208": -0.010402118372526371,
      "209": 0.054703886718222856,
      "210": 0.07282228710122049,
      "211": 0.03387731261275802,
      "212": 0.018016834099582754,
      "213": -0.16815567892964614,
      "214": -0.004891838645192658,
      "215": -0.02385716812899882,
      "216": -0.042498571274666656,
      "217": -0.04886409514306464,
      "218": 0.00014581538750008227,
      "219": 0.029230084884597902,
      "220": -0.03311220238860696,
      "221": 0.009181506562308287,
      "222": -0.03959761752458544,
      "223": -208.51950246876257,
      "224": 0.03271925102656286,
      "225": -0.02393831189117278,
      "226": -0.0027146309654123755,
      "227": -0.048091995136543254,
      "228": -9.290027996271222,
      "229": -1.4361130382554046,
      "230": -0.02533658106971227,
      "231": 0.03745618115375691,
      "232": -0.02588333531147906,
      "233": -0.03871128748577671,
      "234": -0.030436545847551223,
      "235": -0.02834197694134718,
      "236": -0.004037610680087294,
      "237": -0.06943249778175863,
      "238": 0.022958485523526678,
      "239": -0.05215747379834863,
      "240": -0.010008834608405673,
      "241": -0.06063195970882761,
      "242": 0.03811699017636464,
      "243": -0.000830837734783353,
      "244": -0.03183854582185579,
      "245": 0.013044783171273546,
      "246": 0.018361260625700156,
      "247": -0.1418516875427611,
      "248": -0.019416881504226734,
      "249": -0.01639537094877456,
      "250": 0.043499482055753345,
      "251": -0.004753168524697136,
      "252": 0.026428876741276648,
      "253": 0.00036182679626004557,
      "254": -0.28163599275232276,
      "255": 0.09309280659464393,
      "256": 0.05243014869223812,
      "257": 0.0064321361307547245,
      "258": 0.018203821055390354,
      "259": 0.03721516684309829,
      "260": -0.00001228830209566501,
      "261": -0.0019819523605823256,
      "262": 0.037179620929499335,
      "263": 0.007669218297413112,
      "264": -208.13360444248065,
      "265": 0.03067184435211812,
      "266": -0.02973832260327366,
      "267": -0.04300946204326198,
      "268": -0.05017823281606488,
      "269": -9.288818857731167,
      "270": -1.4204357358232957,
      "271": -0.01064058977206922,
      "272": 0.006124131428955776,
      "273": 0.04788001250886699,
      "274": 0.013839845836910865,
      "275": -0.022932268094018268,
      "276": -0.018187297748333105,
      "277": -0.022613819615876305,
      "278": -0.02883438187787901,
      "279": 0.04278112227573959,
      "280": -0.04760072292677794,
      "281": -0.009524114589960761,
      "282": 0.1111375657066755,
      "283": 0.03794778473865691,
      "284": -0.3145196409270889,
      "285": 0.0724441723640536,
      "286": 0.027259516203062044,
      "287": -0.02194568814555256,
      "288": 0.03547878149720312,
      "289": 0.007076260155095368,
      "290": -0.23830887506342854,
      "291": 0.027829196647010123,
      "292": 0.07600624728698685,
      "293": 0.021799620505411985,
      "294": -0.009662379086269553,
      "295": 0.027127086024465216,
      "296": -0.02249806387829794,
      "297": 0.025460411850970113,
      "298": -0.05655464036741903,
      "299": 0.04086468569730896,
      "300": -0.0016560620751991245,
      "301": 0.05157593887608038,
      "302": -0.06051476142271853,
      "303": -0.02252579970801802,
      "304": -0.016979619638348712,
      "305": -191.8241664348934,
      "306": 0.012514976789621709,
      "307": -0.0013338005923362224,
      "308": 0.02030293883861926,
      "309": 0.11160063134525007,
      "310": -9.305403082886734,
      "311": -1.3813002070924947,
      "312": 0.006277301705874186,
      "313": -0.07261925918068446,
      "314": 0.02475822374793444,
      "315": -0.013859913071282383,
      "316": -0.06284303514453639,
      "317": -0.0028967184102961655,
      "318": -0.02653669655690304,
      "319": -0.04166882717856689,
      "320": 0.0010782004486708306,
      "321": -0.0546722961051603,
      "322": -0.03910697529647921,
      "323": 0.056259787493387434,
      "324": -0.01985290489475946,
      "325": 0.035395854630549346,
      "326": -0.002235289163243419,
      "327": 0.03637071358571312,
      "328": 0.07472741835397495,
      "329": -0.026317266961103054,
      "330": 0.010775568372006382,
      "331": -0.06064728983366707,
      "332": -0.03228584579900035,
      "333": -0.061636946105083745,
      "334": 0.0017824305844462663,
      "335": -0.019102791165490608,
      "336": -0.19061291161531588,
      "337": 0.03526387747475687,
      "338": -0.00040602664899708034,
      "339": 0.018337590703567327,
      "340": -0.0362172276414086,
      "341": 0.05250542438322927,
      "342": -0.31366110831213867,
      "343": -0.01814751932188348,
      "344": -0.011260971917971553,
      "345": -0.008532827044948546,
      "346": -177.47996987408843,
      "347": 0.0020437986330427696,
      "348": 0.04150797369965594,
      "349": 0.008312185945527543,
      "350": 0.03608240972433531,
      "351": -9.239182225771438,
      "352": -1.4023043589197413,
      "353": -0.028035642061877163,
      "354": -0.018114980074365784,
      "355": 0.005553784805365259,
      "356": 0.013216453059017499,
      "357": -0.01866629243536518,
      "358": 0.003977194132825099,
      "359": -0.04740463479672553,
      "360": 0.006701594640604879,
      "361": 0.017515538806393557,
      "362": -0.022433682361482993,
      "363": -0.004177368221047787,
      "364": -0.00850184322950442,
      "365": 0.0030748847568534046,
      "366": 0.09470849942537396,
      "367": -0.2204740886383079,
      "368": -0.008026537933446229,
      "369": 0.08077164775275102,
      "370": 0.04037663366912658,
      "371": -0.05117856762019917,
      "372": -0.02170268772400765,
      "373": 0.013689189424602849,
      "374": 0.0164604515442853,
      "375": -0.009495360958968822,
      "376": 0.04618071283811769,
      "377": 0.02986857383602571,
      "378": -0.016015343237500552,
      "379": 0.06778489941688254,
      "380": -0.02858996182204545,
      "381": -0.015705322501715743,
      "382": -0.31091170671709123,
      "383": 0.012632059836558596,
      "384": 0.012925937998354762,
      "385": -0.04354303090552009,
      "386": 0.04491623657933021,
      "387": -163.32940935990308,
      "388": -0.058594606901258575,
      "389": 0.010941210389658495,
      "390": -0.03517508535050549,
      "391": 0.022308232248082285,
      "392": -9.286438391514876,
      "393": -1.4532093065622835,
      "394": 0.014093774147492662,
      "395": 0.013382004853950262,
      "396": 0.01663087766596587,
      "397": -0.01244782361344283,
      "398": 0.012340489402009096,
      "399": -0.016362812906302593,
      "400": -0.06162884359740343,
      "401": -0.05157783716179859,
      "402": -0.004232381398503432,
      "403": -0.0018994906420131696,
      "404": -0.03561334266560765,
      "405": 0.019242177267127302,
      "406": -0.04554543442525334,
      "407": 0.09989613508887402,
      "408": 0.09293972301883935,
      "409": -0.022213352681836447,
      "410": 0.004862082960493829,
      "411": -0.055861800161812906,
      "412": -0.04975721862631111,
      "413": -0.059062426636152965,
      "414": -0.010447097958831676,
      "415": 0.009777887801471982,
      "416": 0.04552871543856799,
      "417": 0.06732195604540805,
      "418": 0.06458386902651228,
      "419": -0.3065024940721157,
      "420": 0.0035920336458079307,
      "421": 0.007319019668223336,
      "422": 0.0002157114027505371,
      "423": -0.03210989767549933,
      "424": 0.03822154028172403,
      "425": -0.17144156653162235,
      "426": 0.039214480148610606,
      "427": 0.01271421683487147,
      "428": -158.8965982953079,
      "429": 0.04509418408069992,
      "430": 0.014925344160632242,
      "431": 0.02502618318845564,
      "432": 0.049112273940431606,
      "433": -9.211953905133475,
      "434": -1.4133043749758678,
      "435": 0.007005477665175702,
      "436": -0.023070247562767536,
      "437": 0.01603795608443404,
      "438": -0.08529414172883429,
      "439": 0.019581262643013148,
      "440": -0.05455941281636208,
      "441": 0.031012556875914237,
      "442": 0.006578982736551008,
      "443": -0.0027749460083341007,
      "444": -0.021978895560682533,
      "445": 0.005889946094053815,
      "446": 0.03535429545495181,
      "447": -0.35468110489270777,
      "448": 0.03790626545277898,
      "449": -0.05151672300651441,
      "450": -0.03840358826639046,
      "451": -0.03404211189528528,
      "452": 0.0573109742725667,
      "453": -0.2446035271961481,
      "454": 0.06827665483486922,
      "455": 0.039157811509344505,
      "456": 0.02676150984629147,
      "457": 0.037576994837113104,
      "458": -0.027731500045806105,
      "459": -0.03765634020050478,
      "460": -0.07440975333721644,
      "461": 0.026902969200053677,
      "462": 0.010486522315074702,
      "463": -0.050560999866646174,
      "464": 0.08482596177305098,
      "465": 0.016691697624783924,
      "466": -0.032987832660715824,
      "467": -0.0306724128600032,
      "468": -0.018996184700687577,
      "469": -147.49458328044634,
      "470": 0.02730794684830366,
      "471": -0.03762033258369973,
      "472": -0.0636681824437979,
      "473": -0.0592877816195762,
      "474": -9.339389808100758,
      "475": -1.4278310288258753,
      "476": 0.05449970867065648,
      "477": -0.013025984852831997,
      "478": -0.03114065390500522,
      "479": 0.006628482330427273,
      "480": -0.06422631347647821,
      "481": 0.003714106890014337,
      "482": 0.0665280482559007,
      "483": 0.025682894417889568,
      "484": 0.01010126035698529,
      "485": -0.02589310855865428,
      "486": -0.0697126079418562,
      "487": 0.007860036081114852,
      "488": -0.028615617813332904,
      "489": 0.019624920021336836,
      "490": -0.12156006766146087,
      "491": -0.04189058252690902,
      "492": -0.020302031667015236,
      "493": 0.06151325614554766,
      "494": -0.02569582662559616,
      "495": 0.004171841821788621,
      "496": 0.04853513939490784,
      "497": -0.3638593448296326,
      "498": -0.04447129434872929,
      "499": -0.017797157183848503,
      "500": -0.1460435054217053,
      "501": -0.01822883406855485,
      "502": 0.025523376888451695,
      "503": -0.010811844384706164,
      "504": 0.027643112767913123,
      "505": 0.013831679879365703,
      "506": 0.010053326123747024,
      "507": 0.02205867801156167,
      "508": -0.049000573913462644,
      "509": 0.030912468357952576,
      "510": -133.516963701179,
      "511": 0.009575984141564811,
      "512": -0.01665167529226894,
      "513": 0.006720531855842315,
      "514": 0.004053827264284886,
      "515": -9.344053425410385,
      "516": -1.4824943533247794,
      "517": 0.037775707007332945,
      "518": -0.0018204362058828283,
      "519": -0.060420011767811255,
      "520": -0.017091443266953107,
      "521": -0.02179517762171636,
      "522": -0.029076569413616648,
      "523": -0.02681654957472583,
      "524": -0.03594265007245552,
      "525": -0.0037546329267321146,
      "526": -0.0304511171566557,
      "527": -0.04838596786954496,
      "528": -0.029390102077592673,
      "529": 0.015120102331436179,
      "530": -0.013939556341015569,
      "531": 0.03431621069165595,
      "532": -0.026782946085674275,
      "533": -0.017685458286543457,
      "534": 0.060608680024271895,
      "535": 0.012576680421852681,
      "536": 0.07333802632224729,
      "537": -0.03212614024142535,
      "538": 0.014110192935618673,
      "539": -0.04462526149840175,
      "540": 0.016771798186077207,
      "541": 0.02599771402041103,
      "542": 0.07135787298899206,
      "543": 0.018412227804351193,
      "544": -0.01227963972611278,
      "545": -0.012519322044393415,
      "546": 0.017467753136820016,
      "547": -0.026085067291065894,
      "548": -0.34013838472932956,
      "549": -0.2378528433097324,
      "550": 0.0047963817841693655,
      "551": -125.09581155383955,
      "552": 0.0407836622326158,
      "553": -0.04762518373966463,
      "554": 0.000429627619183375,
      "555": -0.02139323639475657,
      "556": -9.340861930357184,
      "557": -1.4851864767583576,
      "558": -0.0526832726413447,
      "559": 0.02552940498509027,
      "560": 0.038154069032082794,
      "561": -0.017219179790700517,
      "562": -0.04435010943137174,
      "563": -0.01736034669668473,
      "564": 0.017448887802406114,
      "565": -0.010203265519801613,
      "566": 0.0394894758945631,
      "567": 0.03604175143310563,
      "568": -0.042202698514110376,
      "569": -0.18818788041368387,
      "570": -0.020881894456816263,
      "571": 0.039888955763807604,
      "572": 0.00816581950491139,
      "573": -0.024014613666139346,
      "574": 0.05776380023451974,
      "575": 0.03400523565947871,
      "576": -0.02377865079276254,
      "577": 0.041397832188815736,
      "578": -0.01583871059044072,
      "579": 0.05406715823337196,
      "580": 0.024942959204015673,
      "581": -0.005694450883211652,
      "582": 0.02529829458279352,
      "583": -0.05758163018755248,
      "584": -0.004554402581708932,
      "585": -0.021688770513485393,
      "586": -0.01797553603561874,
      "587": -0.3870026605372341,
      "588": 0.00703238086973855,
      "589": -0.028350061579877028,
      "590": 0.05078150627083468,
      "591": -0.0057002171665883755,
      "592": -121.67633737049573,
      "593": 0.010033119329127455,
      "594": 0.004047535976838997,
      "595": 0.034596032727037374,
      "596": 0.017370262854085855,
      "597": -9.284839050675032,
      "598": -1.449117356447548,
      "599": 0.02562006853926487,
      "600": 0.0035139950780383156,
      "601": -0.10045300598238885,
      "602": -0.046700081737667244,
      "603": -0.020337911331026755,
      "604": -0.05855926887839734,
      "605": -0.025676109528319082,
      "606": 0.002439612458250579,
      "607": 0.019399101885924554,
      "608": -0.011793225223191936,
      "609": 0.062050172873564666,
      "610": -0.28205587420993355,
      "611": -0.0063189736064338834,
      "612": -0.004445573225553663,
      "613": -0.01113425107626622,
      "614": -0.038394899554255325,
      "615": 0.012686747249393093,
      "616": -0.013065634348570028,
      "617": 0.03415104328656211,
      "618": 0.030186145225019417,
      "619": 0.0326240936161102,
      "620": -0.03169948402129046,
      "621": 0.016747210003882164,
      "622": 0.0296543114049466,
      "623": -0.1013404834386864,
      "624": 0.06932268221587483,
      "625": -0.017871717977746858,
      "626": 0.046218907319720975,
      "627": -0.005824453777638723,
      "628": -0.05924838143548752,
      "629": 0.0065444584050125265,
      "630": 0.10935928707771136,
      "631": -0.01584191801957956,
      "632": 0.03498711497474409,
      "633": -115.06689183460104,
      "634": -0.0019570241682924446,
      "635": -0.02789155620910553,
      "636": -0.033792766589279884,
      "637": -0.0603478517271394,
      "638": -9.313150943665368,
      "639": -1.3782517969143722,
      "640": -0.009603437623614031,
      "641": 0.0062818487024091,
      "642": -0.007755555747561505,
      "643": -0.07408326979492245,
      "644": 0.01935189623478581,
      "645": -0.03984428097027077,
      "646": 0.03046477009510174,
      "647": 0.04970477256447079,
      "648": -0.02279888113433108,
      "649": -0.0011751180327720678,
      "650": -0.03719410914751983,
      "651": -0.11956930322517859,
      "652": -0.030865077489829175,
      "653": -0.22416199982784749,
      "654": 0.05962952294259444,
      "655": -0.013040235466594151,
      "656": -0.07414635578706325,
      "657": 0.036333783338133196,
      "658": -0.29672366658426136,
      "659": -0.013363383624869642,
      "660": 0.012751758382001181,
      "661": 0.004587084080200003,
      "662": -0.02364744807875677,
      "663": -0.016728393205475443,
      "664": -0.00033480682922429106,
      "665": -0.02902278539024087,
      "666": 0.002559335327925755,
      "667": 0.028798530667114464,
      "668": 0.024798136137858737,
      "669": 0.054591638710752836,
      "670": 0.05066775144668257,
      "671": 0.05024396767626576,
      "672": -0.028944785479329008,
      "673": -0.014089407728894086,
      "674": -101.4202148288981,
      "675": 0.03785178588281985,
      "676": -0.027374682180968783,
      "677": 0.028703179543650294,
      "678": -0.05952529740900906,
      "679": -9.266087564802358,
      "680": -1.3849638217157372,
      "681": -0.01618546373772921,
      "682": -0.006313047969612702,
      "683": 0.03202961767657139,
      "684": 0.031004221290880613,
      "685": -0.05050496317047967,
      "686": -0.0477078514214909,
      "687": 0.04787407716442889,
      "688": -0.04830467892910197,
      "689": 0.02400875306013325,
      "690": -0.014843189158018263,
      "691": -0.05707124991365951,
      "692": -0.04832199133326807,
      "693": 0.03941341651689867,
      "694": -0.005758567830915386,
      "695": 0.0007648142360197719,
      "696": 0.017661573857829935,
      "697": -0.00895818060609174,
      "698": -0.03826982261897973,
      "699": -0.06274459834966911,
      "700": 0.02838259778416348,
      "701": -0.024465755561280045,
      "702": -0.012396616410730974,
      "703": -0.05663933806544619,
      "704": -0.02921190609282987,
      "705": 0.07032267756521098,
      "706": -0.02788584567938899,
      "707": -0.29274626064476184,
      "708": 0.05168956198133846,
      "709": -0.015464855114108536,
      "710": -0.03243432365226273,
      "711": -0.1970244332671604,
      "712": -0.05587796404768492,
      "713": -0.07710619990327698,
      "714": 0.0028677413197365246,
      "715": -78.42826992134052,
      "716": 0.06050082730745762,
      "717": -0.03285603999770071,
      "718": 0.013106899819483233,
      "719": 0.002851981912501928,
      "720": -9.26958092680749,
      "721": -1.4038914074118893,
      "722": 0.10044890702041873,
      "723": 0.011142967437758009,
      "724": -0.019616239588093252,
      "725": -0.03511747390029806,
      "726": 0.019739384754358866,
      "727": -0.04374130059686761,
      "728": -0.017446081709827973,
      "729": -0.009876445475630633,
      "730": -0.011204417976412794,
      "731": 0.037886104145622976,
      "732": 0.012749038484795147,
      "733": -0.008828826227204226,
      "734": 0.05899109809967501,
      "735": 0.02308636257891494,
      "736": 0.03176993338531694,
      "737": -0.04011658390979174,
      "738": -0.3566137516115842,
      "739": 0.003260982992088237,
      "740": 0.08619752972321253,
      "741": -0.06489087687069008,
      "742": 0.08231939690589898,
      "743": 0.02436983670268621,
      "744": 0.0029008652961518065,
      "745": 0.025492640183003908,
      "746": 0.013752882823837395,
      "747": 0.021400674235228605,
      "748": -0.018080014490806394,
      "749": -0.012861608115200686,
      "750": 0.017965201408929238,
      "751": -0.20359498488443586,
      "752": 0.019489242660088106,
      "753": 0.005420451748753879,
      "754": 0.05209560537038294,
      "755": -0.08503908174351917,
      "756": -55.47808413916343,
      "757": -0.02187765143321887,
      "758": 0.04837690344601009,
      "759": -0.0306320157342047,
      "760": 0.028853027281100296,
      "761": -9.23633730174923,
      "762": -1.4544981826762813,
      "763": 0.06198056132112304,
      "764": -0.03761946280630871,
      "765": -0.023556298859177104,
      "766": -0.00009016510910888785,
      "767": -0.019972628580863537,
      "768": 0.005399417635864263,
      "769": -0.035935792416006244,
      "770": -0.023298328308770287,
      "771": -0.017483156702399427,
      "772": -0.04307088873246684,
      "773": -0.001427298188423765,
      "774": -0.012745967550305815,
      "775": -0.03036900207276924,
      "776": -0.005932127442489736,
      "777": 0.040749648325898856,
      "778": 0.04393139715085836,
      "779": 0.02236319983141604,
      "780": -0.007247362190399086,
      "781": -0.31186230256175984,
      "782": 0.07231092391688876,
      "783": 0.003770208535198831,
      "784": -0.02777186550832221,
      "785": -0.0262572957886008,
      "786": 0.062296438901256294,
      "787": 0.08250180507041338,
      "788": -0.19855217877329107,
      "789": -0.03272191375768916,
      "790": 0.0383442526334435,
      "791": -0.011894679616403269,
      "792": 0.05643818208738473,
      "793": 0.012648893486247492,
      "794": 0.03764736126653865,
      "795": 0.018592581791261303,
      "796": -0.02173999263841548,
      "797": -38.45177175575482,
      "798": -0.030926381010851867,
      "799": -0.010315665147704198,
      "800": -0.03465313065838675,
      "801": 0.04942198772865608,
      "802": -9.258232801190148,
      "803": -1.3723313512950535,
      "804": 0.008866882823363714,
      "805": -0.01750630178809768,
      "806": -0.047272810422039444,
      "807": 0.01015705797033986,
      "808": -0.015599930097044945,
      "809": -0.028859022670535656,
      "810": -0.03738197469720866,
      "811": -0.025983613211060113,
      "812": 0.0026764424970005907,
      "813": 0.04259201632877394,
      "814": -0.01477271609183994,
      "815": 0.021858222105602405,
      "816": -0.1508172863987652,
      "817": -0.00541100602009933,
      "818": -0.014681518659150494,
      "819": 0.025526172470133075,
      "820": 0.048866308596134646,
      "821": 0.007257119131720059,
      "822": 0.009589266766576853,
      "823": -0.022375109814959625,
      "824": -0.015790093592278422,
      "825": -0.31076215878030633,
      "826": 0.02323625117351206,
      "827": -0.026676611429805246,
      "828": 0.03842635825299697,
      "829": -0.008931118278306971,
      "830": 0.026355133616173098,
      "831": -0.0431048999210652,
      "832": -0.046705957505350185,
      "833": -0.06249983187797429,
      "834": 0.015887690838682803,
      "835": 0.025165244564936438,
      "836": 0.0015498358263331968,
      "837": -0.006199028181425752
     }
    },
    {
     "sx": 1,
     "sy": 1,
     "depth": 838,
     "w": {
      "0": -0.07276192502597993,
      "1": -0.0025240359750994877,
      "2": 0.01717314189702149,
      "3": -0.0006590694146191164,
      "4": 0.02320258001553907,
      "5": 0.020508428621057097,
      "6": -0.004405999010039126,
      "7": 0.02449320429792622,
      "8": 0.049018491932097015,
      "9": 0.004477965295300554,
      "10": 0.030549550295466136,
      "11": -0.010121308201913756,
      "12": -0.002187370973070594,
      "13": 0.023926269120603617,
      "14": 0.020597411242400165,
      "15": 0.014984953989607048,
      "16": -0.04583970987636609,
      "17": 0.011070383892761606,
      "18": 0.039084744269100524,
      "19": 0.03696603248278547,
      "20": -0.02685954537823512,
      "21": 0.05054194012436418,
      "22": 0.030973144988044706,
      "23": 0.013867348202902056,
      "24": 0.003871517613751155,
      "25": -0.019615695007745654,
      "26": 0.004422812422688422,
      "27": 0.00318264505989952,
      "28": -0.02302858016658118,
      "29": -0.01621670170736615,
      "30": 0.02669826944667203,
      "31": -0.031116121878092567,
      "32": 0.012159484697671733,
      "33": 0.004813492645338543,
      "34": -0.025628152959520548,
      "35": 0.03681305679633137,
      "36": 0.022676712247208172,
      "37": -0.020202918904259508,
      "38": -0.040041006473472016,
      "39": -0.06819420436575827,
      "40": 0.010780587272895683,
      "41": -0.057326468431729456,
      "42": -0.01061963800904056,
      "43": -0.02076956359481276,
      "44": 0.027116303081072,
      "45": -0.03232001011963721,
      "46": -0.003137222372948987,
      "47": -0.09199296685947604,
      "48": 0.04238259429992731,
      "49": 0.004901243805518053,
      "50": 0.02616604901906635,
      "51": 0.021958842319480747,
      "52": 0.019469051672511617,
      "53": -0.04118512660136448,
      "54": 0.0071104931295566075,
      "55": 0.0028164238141601115,
      "56": 0.06404848651661854,
      "57": -0.05340943179161124,
      "58": 0.0816795322260213,
      "59": 0.030613434458604778,
      "60": 0.05084500824705501,
      "61": -0.018712912587074852,
      "62": 0.009071455055785372,
      "63": 0.01984386652782616,
      "64": -0.02467082133152421,
      "65": -0.05507200855908474,
      "66": -0.015768993373455116,
      "67": 0.008935012858190521,
      "68": 0.04248626724006027,
      "69": 0.016730351721966144,
      "70": -0.06128463254883421,
      "71": 0.02711869742381058,
      "72": 0.009794981550820396,
      "73": 0.036053560209716576,
      "74": -0.020011369810211805,
      "75": -0.0003401592242071935,
      "76": 0.012400708387810265,
      "77": 0.012773820023726144,
      "78": -0.06356322662838818,
      "79": 0.033561624420130685,
      "80": -0.05090085899001958,
      "81": -0.018527623016346778,
      "82": 0.04661980174090737,
      "83": -0.026138834916428638,
      "84": 0.003328824305350463,
      "85": -0.052106118417042976,
      "86": -0.04287222148810324,
      "87": -0.017280098371892275,
      "88": 0.041943961374319626,
      "89": 0.04804964394110041,
      "90": -0.03557962479091785,
      "91": -0.009183054749334446,
      "92": 0.0884148392135846,
      "93": 0.011709972954468677,
      "94": 0.01879351011028985,
      "95": 0.030569336090730155,
      "96": -0.015529510118486089,
      "97": 0.050606103470510706,
      "98": 0.03464819312769493,
      "99": 0.019782845317970876,
      "100": -0.008734583285564155,
      "101": 0.041406150401896546,
      "102": -0.0021559674012605634,
      "103": 0.030358639711370802,
      "104": 0.04095738774030482,
      "105": 0.0013595169361764964,
      "106": -0.0458589070438455,
      "107": 0.003216437759220192,
      "108": 0.03129592719078811,
      "109": -0.017202818994580312,
      "110": 0.03147722974126452,
      "111": -0.013570302275964884,
      "112": -0.02845930198776309,
      "113": -0.07153536975750775,
      "114": -0.00896612903242785,
      "115": -0.007303155903181536,
      "116": 0.0016329926088178802,
      "117": 0.0026041105762397796,
      "118": 0.04388641357416931,
      "119": -0.02475644591627191,
      "120": -0.008851597779099397,
      "121": -0.020952431584176354,
      "122": 0.020704562312236538,
      "123": -0.03780953016122493,
      "124": 0.0261771187031087,
      "125": 0.01791519591239331,
      "126": -0.01979022450130627,
      "127": -0.03206764950448998,
      "128": 0.060516342196604095,
      "129": -0.01968128926931562,
      "130": -0.03973348360806427,
      "131": 0.018005059797296073,
      "132": 0.016377933792975013,
      "133": -0.010866248500733445,
      "134": -0.01779200368908809,
      "135": -0.03285105038582499,
      "136": -0.05663195086669617,
      "137": 0.07587470458694488,
      "138": -0.04408871974062948,
      "139": -0.06597709158802456,
      "140": -0.02580328668617794,
      "141": -0.034018705502462214,
      "142": 0.0072125297820304505,
      "143": -0.019482464298258697,
      "144": -0.044333298178381005,
      "145": 0.03725631441538434,
      "146": 0.014889803758783841,
      "147": 0.007786637187071811,
      "148": -0.06418315701662991,
      "149": 0.04564455545749811,
      "150": 0.017778859474621933,
      "151": 0.01699142530855606,
      "152": -0.030060551865813256,
      "153": -0.03293338439638691,
      "154": 0.007029752925537134,
      "155": -0.017889098812593637,
      "156": 0.001347460540303882,
      "157": 0.010711428783289456,
      "158": -0.019184223481102092,
      "159": 0.03991352185127471,
      "160": 0.0014943748866108985,
      "161": -0.002907460107021635,
      "162": -0.04927685214928041,
      "163": -0.006044734549095763,
      "164": 0.04883740882859748,
      "165": 0.002503108066342637,
      "166": 0.019188949096726384,
      "167": 0.06215961458804173,
      "168": 0.08000270164632428,
      "169": -0.04522946099092256,
      "170": 0.0028787374855677684,
      "171": -0.018368061122592236,
      "172": 0.018625629206022645,
      "173": -0.0019729085493798686,
      "174": 0.026467388204210594,
      "175": -0.010928736523350312,
      "176": 0.00722560357342768,
      "177": -0.028956386407676768,
      "178": -0.07699235505843278,
      "179": -0.017614122672436932,
      "180": -0.027279802441606178,
      "181": -0.013452160172477903,
      "182": -0.042500621004891194,
      "183": 0.05182382754070211,
      "184": 0.06671597749413509,
      "185": -0.05301113857688284,
      "186": -0.010172113446796308,
      "187": -0.04247458550675839,
      "188": -0.05609536536779588,
      "189": -0.008314828746616152,
      "190": 0.051116538908750085,
      "191": 0.016311480661976355,
      "192": 0.0030129743857925206,
      "193": -0.021316311259203774,
      "194": -0.017293431043504375,
      "195": -0.005077541347702086,
      "196": 0.004517412414948145,
      "197": -0.01851019336169231,
      "198": 0.021744920176719838,
      "199": 0.018386808185433017,
      "200": 0.021310319960354412,
      "201": -0.044872795866051834,
      "202": -0.04646257883404258,
      "203": -0.03924769252140701,
      "204": 0.04841462386359673,
      "205": -0.044528881330506094,
      "206": -0.014730871143485211,
      "207": -0.0052405084490130165,
      "208": -0.020310959553655094,
      "209": -0.04548139921879776,
      "210": -0.004136065158023915,
      "211": -0.024430176451799252,
      "212": 0.013246995372774377,
      "213": 0.04228875334137078,
      "214": 0.046764322478786875,
      "215": 0.06977325550154115,
      "216": -0.047802785276291095,
      "217": 0.016385634675665433,
      "218": -0.002170202123496722,
      "219": -0.011706424022379537,
      "220": -0.01573946977907684,
      "221": -0.0370819399754144,
      "222": 0.03582301878853082,
      "223": 0.008008319727082255,
      "224": 0.003664542472714855,
      "225": 0.0007893720427147499,
      "226": -0.011836890119096201,
      "227": -0.03271762650145743,
      "228": -0.017014440457413425,
      "229": 0.03361569773132018,
      "230": 0.03398798312488763,
      "231": 0.0562634365113184,
      "232": 0.02170627518776653,
      "233": -0.006700827575683483,
      "234": 0.040726993601231075,
      "235": 0.008050781676963591,
      "236": 0.05856682189385589,
      "237": 0.01721270500747294,
      "238": 0.04992480488242921,
      "239": 0.025272541312803883,
      "240": 0.007002164789912836,
      "241": 0.04411148757457132,
      "242": -0.05629541950232724,
      "243": 0.02177864000030692,
      "244": -0.03822138778891039,
      "245": 0.0005507531094215393,
      "246": -0.029553310267676512,
      "247": -0.016570514631705818,
      "248": 0.04768100796251057,
      "249": -0.027279609123613685,
      "250": 0.03791778105901671,
      "251": -0.022105289643130244,
      "252": -0.03985819829203566,
      "253": 0.014084932103949684,
      "254": -0.015266025376130112,
      "255": 0.014012828549129712,
      "256": -0.01257014148910182,
      "257": 0.022087531551664624,
      "258": -0.063345268556114,
      "259": -0.016998981469901277,
      "260": 0.03857308751570684,
      "261": 0.027759089687617193,
      "262": 0.05337421915744241,
      "263": 0.01056653233855975,
      "264": -0.08190869033200499,
      "265": 0.011269898305493667,
      "266": 0.025798924390526213,
      "267": -0.034461597920196665,
      "268": -0.040804930129235674,
      "269": -0.01502822560753027,
      "270": -0.0005347975411134208,
      "271": -0.03988060116306215,
      "272": -0.02808053321284402,
      "273": 0.0006143707978329017,
      "274": 0.0007981937623919316,
      "275": -0.0025500697877480346,
      "276": -0.05612471127231733,
      "277": -0.02866102746577859,
      "278": 0.01590302458379216,
      "279": -0.035936395090560964,
      "280": 0.04622131097947566,
      "281": -0.029872834407669437,
      "282": -0.016750479537390218,
      "283": -0.013592250830879036,
      "284": -0.028150250028576823,
      "285": 0.006331672987629893,
      "286": -0.05184212265596736,
      "287": -0.049839736765990524,
      "288": 0.014814058603340782,
      "289": 0.020415482191391648,
      "290": -0.0020612819522737003,
      "291": 0.0254303492390838,
      "292": -0.008732827514060633,
      "293": 0.047342684204381195,
      "294": 0.0525323037047771,
      "295": 0.05287180506499124,
      "296": -0.013401868450725132,
      "297": 0.0016663835986310055,
      "298": 0.02714688823543339,
      "299": -0.05210277439101325,
      "300": -0.052115893923299836,
      "301": 0.06414772603127071,
      "302": -0.008736139654911825,
      "303": -0.06525651454575117,
      "304": 0.05991451355562288,
      "305": 0.00003684116827897705,
      "306": -0.005219570843037375,
      "307": 0.005681154741304861,
      "308": 0.015781995553091573,
      "309": -0.011437395634933553,
      "310": 0.04801237135715072,
      "311": 0.0364065681231846,
      "312": -0.021410641264577805,
      "313": -0.07700973383215572,
      "314": 0.013428575718193822,
      "315": -0.0007984898555026484,
      "316": 0.012877133886787509,
      "317": 0.014152055617425809,
      "318": -0.0558981061073297,
      "319": -0.04523212501032772,
      "320": -0.007383148243987099,
      "321": -0.0007503323712619376,
      "322": -0.024822566035501543,
      "323": -0.06058923608794987,
      "324": -0.04285813495447847,
      "325": 0.035902010766271884,
      "326": -0.027728605408689416,
      "327": 0.007691540694104934,
      "328": 0.013144699300947868,
      "329": -0.002711734555460999,
      "330": -0.0005100427661497716,
      "331": 0.05691898388593381,
      "332": 0.02134392533257954,
      "333": -0.018619811711917178,
      "334": 0.008742828364735566,
      "335": 0.016228957054639465,
      "336": 0.01122852453031711,
      "337": -0.007534954743925639,
      "338": -0.02166417637831935,
      "339": 0.023284615496032262,
      "340": -0.03258023068423786,
      "341": 0.01857601514250417,
      "342": -0.07117410814211908,
      "343": 0.004955192844146319,
      "344": 0.008499378819785214,
      "345": -0.015574999049605449,
      "346": 0.04227957854456099,
      "347": -0.011431341359462251,
      "348": -0.007392332989129373,
      "349": 0.017253171982860246,
      "350": -0.02562455726626738,
      "351": -0.03242048280207664,
      "352": 0.012429747969374808,
      "353": 0.04029404321225946,
      "354": 0.017869311737770198,
      "355": -0.008966610103345606,
      "356": -0.07251054626577406,
      "357": -0.011336122339963782,
      "358": 0.044889596644903655,
      "359": -0.01175181133116248,
      "360": 0.04329056836274804,
      "361": -0.05795372134591995,
      "362": 0.07588506318048022,
      "363": -0.06495181179758404,
      "364": -0.027928251738462643,
      "365": -0.08943115324879813,
      "366": 0.0317136006734414,
      "367": -0.02773649745072579,
      "368": -0.09362598055244553,
      "369": 0.011336756694218407,
      "370": 0.05019728478046368,
      "371": -0.015583254106115992,
      "372": -0.00015152267418930846,
      "373": -0.047099602880303994,
      "374": 0.0054170046939019875,
      "375": -0.015935262700159717,
      "376": -0.021325189445698896,
      "377": -0.047925006999325774,
      "378": -0.007687681775053173,
      "379": -0.016883030315909483,
      "380": 0.02960786336577477,
      "381": 0.035990883708423634,
      "382": 0.011503319104776442,
      "383": 0.06454183879404198,
      "384": -0.006417720627755668,
      "385": -0.019447110300264272,
      "386": -0.042988311113123255,
      "387": -0.005503951193472917,
      "388": 0.03778368668883889,
      "389": 0.05605364168311466,
      "390": -0.039965316068043544,
      "391": 0.04219411811456045,
      "392": 0.024810656738602575,
      "393": 0.05847366231844817,
      "394": 0.01911315831014293,
      "395": 0.0140329803705636,
      "396": 0.04847928317022407,
      "397": 0.007195790830296497,
      "398": 0.0006057947870180017,
      "399": 0.044080870035751334,
      "400": 0.026664069822554228,
      "401": -0.03750334438689014,
      "402": -0.00914830129839746,
      "403": 0.0076677737237720485,
      "404": -0.0009153691595971227,
      "405": -0.0036821868959257312,
      "406": -0.05163698208379502,
      "407": -0.01829302352882902,
      "408": 0.030804917369974108,
      "409": -0.06652276110287451,
      "410": 0.015612070467377151,
      "411": -0.0402295774186663,
      "412": -0.02327882699910501,
      "413": -0.029303510349866987,
      "414": 0.025493756354462646,
      "415": -0.027270818069641503,
      "416": -0.01855007792207048,
      "417": -0.0011695453031415443,
      "418": 0.02995894335106071,
      "419": -0.0708202671944818,
      "420": -0.030807330454987552,
      "421": 0.02414330600694606,
      "422": 0.005178920397083458,
      "423": -0.0013684059258290845,
      "424": 0.018271049295680436,
      "425": -0.00861877514109718,
      "426": 0.03544005653998818,
      "427": -0.012669780434304714,
      "428": 0.013691827471898647,
      "429": 0.08550640546831674,
      "430": -0.013389700077571964,
      "431": -0.023079120642136543,
      "432": -0.045832125869777314,
      "433": -0.023904011279689497,
      "434": -0.039146590900793504,
      "435": 0.032138255740683457,
      "436": -0.010998931388513968,
      "437": -0.0020778792896469643,
      "438": 0.039192040202386355,
      "439": -0.035971002331963084,
      "440": -0.000897839640456022,
      "441": -0.006979293151173168,
      "442": -0.02484135111329176,
      "443": 0.0007281915172897239,
      "444": -0.029774338945400842,
      "445": -0.06000020306640944,
      "446": -0.054751389288127554,
      "447": -0.06062471801403522,
      "448": 0.03278761445009711,
      "449": 0.04480923460772917,
      "450": -0.030934116007892414,
      "451": -0.02195250767859546,
      "452": -0.014574511027854196,
      "453": -0.01583192964638023,
      "454": 0.028742316279753478,
      "455": 0.03580939687647978,
      "456": 0.026516257867772047,
      "457": -0.012392218434810353,
      "458": 0.027704817981211036,
      "459": -0.004629462277402761,
      "460": 0.013341003177342313,
      "461": -0.018389545214274168,
      "462": 0.00031597762977126427,
      "463": 0.05213129030134693,
      "464": -0.039193437957284485,
      "465": 0.0007986489011301696,
      "466": -0.02327800557225587,
      "467": 0.012551405087839447,
      "468": -0.0035001726478367575,
      "469": 0.006923219714997567,
      "470": 0.0002967577431116735,
      "471": -0.032132793234486964,
      "472": 0.04941110999719883,
      "473": -0.06478733589515186,
      "474": -0.059173223651938986,
      "475": 0.015135085544957384,
      "476": -0.040710421638054134,
      "477": 0.0019785971540593862,
      "478": -0.009960968527250813,
      "479": 0.06353263782964617,
      "480": 0.05681327330218775,
      "481": -0.014156971163122232,
      "482": 0.09273223503519015,
      "483": -0.024877883902013443,
      "484": 0.003008936909371161,
      "485": 0.0036308711689366766,
      "486": -0.050286807689979146,
      "487": 0.021236536996939864,
      "488": 0.04502983536138691,
      "489": 0.06636643010066108,
      "490": -0.006355645006955336,
      "491": -0.024003233190538466,
      "492": -0.018558725551933043,
      "493": -0.0021549234845744214,
      "494": -0.057690142989195066,
      "495": -0.009158358048794639,
      "496": 0.037476202575459014,
      "497": -0.05318095466527928,
      "498": 0.00460620598635663,
      "499": -0.011555764581839495,
      "500": 0.0038624030012633344,
      "501": 0.044133501211167485,
      "502": -0.008438153686510404,
      "503": -0.003732954396122234,
      "504": 0.004314361671431267,
      "505": -0.009399815933957114,
      "506": 0.0473033146688931,
      "507": 0.03325126876483335,
      "508": 0.0037587077313745577,
      "509": -0.010755007494115537,
      "510": -0.015248187394662719,
      "511": 0.017780201353516933,
      "512": -0.030732931568640095,
      "513": -0.04656738525982811,
      "514": -0.05172740047169112,
      "515": 0.019887105790603352,
      "516": 0.030861689893123465,
      "517": 0.04066584806431323,
      "518": -0.0024836992098640825,
      "519": -0.013490468702612399,
      "520": -0.043991965184141155,
      "521": 0.03984050381133225,
      "522": -0.018043644948980305,
      "523": -0.007410835676534744,
      "524": 0.009334565189312872,
      "525": -0.015835517637811578,
      "526": 0.018031840747016824,
      "527": -0.013835216327141157,
      "528": -0.027256766544855437,
      "529": 0.04637413134012527,
      "530": 0.001313569059836205,
      "531": -0.04273404202047215,
      "532": 0.032380445158517505,
      "533": -0.060049033084988476,
      "534": -0.04321768113073157,
      "535": 0.037843182568955976,
      "536": -0.0314569437963378,
      "537": -0.0039445091387328764,
      "538": -0.017748045597002052,
      "539": 0.03282318015922255,
      "540": 0.05899804088215496,
      "541": -0.016300208933416303,
      "542": 0.01221046512989052,
      "543": 0.01906027817128042,
      "544": -0.04891474783389089,
      "545": 0.00529656594608496,
      "546": -0.017499040808502987,
      "547": 0.016645318078479812,
      "548": 0.02174740747382205,
      "549": -0.08422649539231897,
      "550": -0.009856612820855084,
      "551": 0.01372235471766676,
      "552": -0.04044015701320655,
      "553": 0.009549709245031122,
      "554": 0.005383674981011899,
      "555": -0.027250702541473878,
      "556": -0.013233888532247788,
      "557": 0.022235542693143696,
      "558": 0.01459974197958977,
      "559": 0.005357661792311436,
      "560": 0.008688159497067123,
      "561": -0.014857159123873236,
      "562": -0.011212623660206637,
      "563": 0.05846549530227581,
      "564": -0.04181727586292647,
      "565": -0.05220216718479999,
      "566": -0.029099403975151126,
      "567": -0.04341327478316084,
      "568": 0.005712238211319646,
      "569": -0.04528152141849585,
      "570": 0.05305667740782574,
      "571": 0.009540446363935862,
      "572": 0.023086595664198295,
      "573": 0.04681321004331497,
      "574": -0.0002553936328909124,
      "575": -0.01977285438783118,
      "576": -0.00775229960232395,
      "577": 0.016926278515687412,
      "578": 0.002624729618596545,
      "579": 0.043985461773781924,
      "580": -0.020678055220050243,
      "581": -0.006216933137251532,
      "582": 0.05955871414414206,
      "583": -0.023704139940483135,
      "584": -0.009351909016324565,
      "585": -0.026740581284368296,
      "586": 0.026453413893697167,
      "587": -0.015901071350442154,
      "588": -0.04938272504181614,
      "589": 0.003702515528343199,
      "590": -0.04248439353811261,
      "591": -0.05134768230224949,
      "592": 0.018641235078384367,
      "593": -0.009109349873750944,
      "594": 0.012862906890130641,
      "595": -0.05146502357265876,
      "596": -0.015916262022315605,
      "597": 0.015023554528694093,
      "598": -0.015478973016071504,
      "599": -0.06016997611741761,
      "600": -0.005706837762596621,
      "601": 0.054991203067230626,
      "602": -0.014302676968696129,
      "603": 0.008124098266303724,
      "604": 0.022537713631111286,
      "605": 0.0006594791260005401,
      "606": -0.011541677948348386,
      "607": -0.011216024104819679,
      "608": -0.044000889498302234,
      "609": -0.00976701249926034,
      "610": 0.0016344174105085293,
      "611": 0.018445201743312076,
      "612": 0.03787757730443552,
      "613": 0.0972745836976189,
      "614": -0.07807023997527912,
      "615": -0.046003917359447394,
      "616": 0.021974338411906446,
      "617": 0.017068297365608703,
      "618": -0.0732971555801989,
      "619": 0.013859424662665671,
      "620": 0.051098275667549854,
      "621": 0.03448713657612249,
      "622": -0.04565702764290503,
      "623": -0.01183705919160329,
      "624": 0.016241143670516295,
      "625": -0.0025966854334678676,
      "626": -0.0017480285358548446,
      "627": -0.0011537010922191375,
      "628": 0.0063405696351425105,
      "629": 0.026971218239051152,
      "630": 0.000015741396446992175,
      "631": -0.010671782600345753,
      "632": 0.03661828933464258,
      "633": 0.05145687352812544,
      "634": -0.06012657264125893,
      "635": -0.00036949192619087064,
      "636": -0.014338595329247875,
      "637": -0.03041870367040593,
      "638": 0.0425483894132685,
      "639": -0.030468733600947713,
      "640": -0.01604310191218607,
      "641": 0.0202448191481876,
      "642": -0.03397656117764967,
      "643": -0.04420034556186675,
      "644": 0.022727357523088233,
      "645": -0.015945442211944435,
      "646": -0.032034635848598725,
      "647": -0.010332435059155497,
      "648": 0.05933507565949722,
      "649": -0.013719425589033104,
      "650": 0.03834495871129227,
      "651": 0.08637860593176053,
      "652": -0.030611094844150064,
      "653": 0.015843437457717692,
      "654": -0.038918754869849886,
      "655": -0.02203815321061755,
      "656": -0.04089876716758159,
      "657": 0.046066343431327754,
      "658": 0.0094618100318553,
      "659": 0.03538860969942121,
      "660": -0.027121368474772825,
      "661": 0.018678621637598807,
      "662": 0.04679539999190455,
      "663": -0.007836567890434005,
      "664": 0.003642858934082165,
      "665": 0.018781420337196163,
      "666": 0.02450981357359601,
      "667": 0.04532513895596252,
      "668": 0.020412273636129154,
      "669": -0.03120421149055753,
      "670": 0.05508715789281533,
      "671": 0.048466204164176206,
      "672": -0.05234239789801581,
      "673": 0.04763355032862737,
      "674": -0.032591385121748064,
      "675": -0.014323189578596898,
      "676": 0.03869180604533782,
      "677": 0.006302318031472182,
      "678": -0.044162171115270925,
      "679": 0.023774149858661508,
      "680": -0.042400964959506175,
      "681": 0.0200410925234824,
      "682": 0.04025698999361854,
      "683": -0.015286786572317895,
      "684": 0.004383642477839333,
      "685": 0.09118791299048624,
      "686": 0.019380150975425756,
      "687": 0.0034402483938435193,
      "688": -0.011064740790541793,
      "689": -0.06644989145195011,
      "690": -0.011282522068786117,
      "691": 0.012716592449130695,
      "692": 0.004392024708431118,
      "693": -0.015500145220055151,
      "694": 0.03185440853975494,
      "695": -0.03219898591122586,
      "696": -0.05082479868938923,
      "697": -0.04513068931487974,
      "698": 0.03645210092581164,
      "699": 0.0035819585733169773,
      "700": -0.008308026870610996,
      "701": -0.02577298028615747,
      "702": 0.04194761069952279,
      "703": 0.01040811084047056,
      "704": 0.008651619075421727,
      "705": -0.02260631156709076,
      "706": 0.025768556560872805,
      "707": -0.015017730744599007,
      "708": 0.021471389616461965,
      "709": 0.004862428829616912,
      "710": -0.032944561238355576,
      "711": -0.02637533050153121,
      "712": -0.0205816542261066,
      "713": -0.007061942884965397,
      "714": 0.03919800360946896,
      "715": -0.0388312685268949,
      "716": 0.038654991891474554,
      "717": -0.03567306812004147,
      "718": 0.02902845422423251,
      "719": -0.04669812655938115,
      "720": -0.03828976630436835,
      "721": 0.054391231758643084,
      "722": -0.04348174240760317,
      "723": -0.05644448725961793,
      "724": 0.057172214786125976,
      "725": 0.007220681623613009,
      "726": -0.03336542437216873,
      "727": -0.006205940250057751,
      "728": -0.035964393843848474,
      "729": -0.007621879308259728,
      "730": 0.05287070933200111,
      "731": -0.03702317076748788,
      "732": 0.0028525616701682802,
      "733": -0.04917408462262828,
      "734": 0.0042301193553997505,
      "735": 0.015427335335863766,
      "736": -0.005613444166037584,
      "737": -0.017627544796922287,
      "738": 0.0087920019390351,
      "739": -0.003705695104189929,
      "740": 0.016089036030518245,
      "741": -0.023026687200243194,
      "742": 0.03118981951493004,
      "743": 0.005120229449751712,
      "744": -0.034632531933192656,
      "745": -0.009497929608852854,
      "746": -0.014044393015436142,
      "747": -0.0375780638576561,
      "748": 0.029879440926248405,
      "749": 0.030685517798972977,
      "750": -0.01017783631833243,
      "751": 0.00828208254391356,
      "752": 0.014919585698403697,
      "753": -0.015543241834712949,
      "754": 0.0622403167662406,
      "755": -0.008030772912932856,
      "756": 0.01874603554054302,
      "757": -0.00107634491593534,
      "758": 0.04171180955904225,
      "759": -0.07218758089694569,
      "760": 0.0697424605584338,
      "761": -0.01747781733820806,
      "762": 0.06707600176010403,
      "763": 0.02130984598258935,
      "764": 0.09093523713662445,
      "765": 0.01916438228888455,
      "766": -0.0662989540409938,
      "767": -0.01083403110178427,
      "768": 0.0015182165752891453,
      "769": -0.0649484119446539,
      "770": -0.01561870270021585,
      "771": 0.021333159436453596,
      "772": 0.013785884945140435,
      "773": 0.07996404610541881,
      "774": 0.005532474364556088,
      "775": -0.011560709497242331,
      "776": 0.013680529483318129,
      "777": 0.1303584854425419,
      "778": 0.017535756460466866,
      "779": -0.06131425894528816,
      "780": 0.044599072593264066,
      "781": 0.0032622168063462576,
      "782": -0.04450409406465802,
      "783": 0.02584395091129805,
      "784": -0.02580025230390635,
      "785": -0.03512626196299295,
      "786": -0.08306571547522915,
      "787": 0.01131556575452512,
      "788": -0.0051615701891467,
      "789": -0.06135989396506249,
      "790": 0.0056173075907649545,
      "791": -0.004495421987876391,
      "792": -0.00854379664085292,
      "793": 0.001684253640095309,
      "794": 0.04516144307819064,
      "795": -0.019922463008231164,
      "796": -0.06509423657738088,
      "797": -0.0036312730438231456,
      "798": 0.0051091136967103875,
      "799": -0.05547567522628976,
      "800": -0.02048154257679362,
      "801": -0.062066103966230336,
      "802": 0.03982313725515858,
      "803": 0.01474131516114391,
      "804": 0.022134102468148727,
      "805": 0.022781353772806285,
      "806": -0.02704977711945782,
      "807": -0.04766275415638774,
      "808": 0.009215298128800124,
      "809": 0.04490969743921142,
      "810": -0.017400299592291082,
      "811": 0.005972584479505117,
      "812": 0.03079887400235871,
      "813": -0.015530198859722297,
      "814": 0.06982869457108673,
      "815": -0.026596676464055103,
      "816": 0.010161652747239886,
      "817": -0.0107799362769339,
      "818": -0.049589094922117175,
      "819": -0.0288230826406773,
      "820": -0.018623530021870158,
      "821": 0.026680038795660367,
      "822": -0.050558519486379225,
      "823": 0.0034891811948371825,
      "824": 0.07685495437970255,
      "825": 0.007440432887096251,
      "826": 0.009340854055258115,
      "827": -0.0112669607590873,
      "828": -0.001910357991496727,
      "829": 0.001746386927447993,
      "830": -0.015326537951817053,
      "831": 0.005721794602213826,
      "832": 0.0037722631120128123,
      "833": 0.0053450273405979964,
      "834": 0.0204805112839509,
      "835": 0.03056170645913681,
      "836": -0.019063013284419023,
      "837": -0.061219756460130836
     }
    },
    {
     "sx": 1,
     "sy": 1,
     "depth": 838,
     "w": {
      "0": -1.016566214053101e+214,
      "1": -0.01596250145191143,
      "2": -3.847262536298963e+209,
      "3": -6.249710097654513e+209,
      "4": -4.189453747777594e+209,
      "5": -1.952185350836835e+212,
      "6": -3.5755969763502645e+211,
      "7": -6.23705433418627e+207,
      "8": -1.796918357642887e+209,
      "9": -3.544567412081739e+209,
      "10": -1.948724623780488e+209,
      "11": -3.2749411031637645e+209,
      "12": -4.28858378011633e+209,
      "13": -2.284871235382923e+209,
      "14": -3.916687037104725e+209,
      "15": -3.2631584406268673e+209,
      "16": -3.43164132743312e+209,
      "17": -2.838032864059924e+209,
      "18": -9.413080385664042e+213,
      "19": 0.006726030713294091,
      "20": -3.448116257060272e+209,
      "21": -3.697655254156207e+208,
      "22": -3.763994420382143e+209,
      "23": -1.9580652954090746e+212,
      "24": -3.5798515696242185e+211,
      "25": -6.23705433418627e+207,
      "26": -1.7989633244223893e+209,
      "27": -3.4992662709390644e+209,
      "28": -1.8739587313629225e+209,
      "29": -3.2243404270884245e+209,
      "30": -4.293618606920739e+209,
      "31": -2.278952188069427e+209,
      "32": -3.919377758723302e+209,
      "33": -3.2631584406268673e+209,
      "34": -3.356682192488672e+209,
      "35": -2.8090127823708093e+209,
      "36": -7.124290520421297e+210,
      "37": 3.627035577556871e+210,
      "38": 8.600545286972527e+209,
      "39": 5.15569545339803e+210,
      "40": 80129866128077890,
      "41": 0.01959034278848845,
      "42": 3.6499217646510075e+209,
      "43": 1.1544149701419684e+210,
      "44": 2.006116858988333e+209,
      "45": -1.2855150471469649e+211,
      "46": 145898460587540260,
      "47": -782608416128131200,
      "48": 76121926019642640,
      "49": 92765862153780220,
      "50": -1.195374552096751e+210,
      "51": 4.780986104782764e+209,
      "52": 8.616686484012392e+209,
      "53": 503014043614065700,
      "54": 627557054003647500,
      "55": 4.739919829585472e+209,
      "56": 2.5885125372817517e+210,
      "57": -8.4292171368965e+210,
      "58": 2.61225870807103e+210,
      "59": -9.531488691144155e+213,
      "60": -0.020497693809115064,
      "61": -3.506805090946879e+209,
      "62": -1.0452240426555893e+209,
      "63": -3.950974434443334e+209,
      "64": -1.9573898368918355e+212,
      "65": -3.5779817694836066e+211,
      "66": -6.23705433418627e+207,
      "67": -1.8243548465687616e+209,
      "68": -3.5046193144224506e+209,
      "69": -1.8876263567519475e+209,
      "70": -3.2372554717522627e+209,
      "71": -4.2949235926199276e+209,
      "72": -2.2804845160109656e+209,
      "73": -3.913421062187636e+209,
      "74": -3.2631584406268673e+209,
      "75": -3.370096530035874e+209,
      "76": -2.789842278216544e+209,
      "77": 3.4789909229049164e+210,
      "78": -0.012651847156199351,
      "79": -1.2855150471469649e+211,
      "80": 4.780986104782764e+209,
      "81": 658297162024728.6,
      "82": -0.07871827209046264,
      "83": 8.600545286972527e+209,
      "84": 1.7846122707012056e+210,
      "85": 4.739919829585472e+209,
      "86": 1.6357449485383315e+210,
      "87": -4838092022404345,
      "88": 8.039002665805461e+209,
      "89": 228061714482144100,
      "90": 332205080477945300,
      "91": 2.006116858988333e+209,
      "92": -5.536554191667488e+185,
      "93": -3.497254942864425e+210,
      "94": 447343974841576700,
      "95": 93189566337059020,
      "96": 3.6499217646510075e+209,
      "97": -8.4292171368965e+210,
      "98": 2.61225870807103e+210,
      "99": 8.616686484012392e+209,
      "100": -9.711100275954785e+213,
      "101": -0.025251835251660033,
      "102": -3.6680524476706506e+209,
      "103": -1.1412141642314885e+209,
      "104": -4.0483012676010975e+209,
      "105": -1.957293846770259e+212,
      "106": -3.5770085011520286e+211,
      "107": -6.23705433418627e+207,
      "108": -1.8320489709007276e+209,
      "109": -3.503985607424695e+209,
      "110": -1.8803238970764947e+209,
      "111": -3.241855068795462e+209,
      "112": -4.297830569514402e+209,
      "113": -2.2855087513732168e+209,
      "114": -3.930224498375861e+209,
      "115": -3.2631584406268673e+209,
      "116": -3.366482480691832e+209,
      "117": -2.8004327068649597e+209,
      "118": 145827235546958900,
      "119": -1.195374552096751e+210,
      "120": 1.6767045304931136e+210,
      "121": 3.627035577556871e+210,
      "122": -147130366417722270,
      "123": -0.006493068131069272,
      "124": -1.2855150471469649e+211,
      "125": -8.4292171368965e+210,
      "126": 3.6499217646510075e+209,
      "127": 2.2627108811794817e+210,
      "128": -2511232474631711,
      "129": 64213837958596700,
      "130": 2.006116858988333e+209,
      "131": -140360479091925070,
      "132": 1.2778922495390936e+210,
      "133": 1.1544149701419684e+210,
      "134": 3.4789909229049164e+210,
      "135": 113843975570220200,
      "136": 191083521145974180,
      "137": 8.600545286972527e+209,
      "138": 2.61225870807103e+210,
      "139": 8.616686484012392e+209,
      "140": -7.124290520421297e+210,
      "141": -8.964629286789138e+213,
      "142": 0.05010689938039161,
      "143": -3.4320501403163464e+209,
      "144": -1.1969068193354149e+209,
      "145": -3.574825027620658e+209,
      "146": -1.9572381541151553e+212,
      "147": -3.5817432635518345e+211,
      "148": -6.23705433418627e+207,
      "149": -1.793233205598357e+209,
      "150": -3.508114258166696e+209,
      "151": -1.8404122636978378e+209,
      "152": -3.2108893986768012e+209,
      "153": -4.28603250060729e+209,
      "154": -2.2715682361776304e+209,
      "155": -3.893550767387085e+209,
      "156": -3.2631584406268673e+209,
      "157": -3.324521208117495e+209,
      "158": -2.7741974499539644e+209,
      "159": 3.627035577556871e+210,
      "160": -0.03886016363430562,
      "161": 4.780986104782764e+209,
      "162": 1.1544149701419684e+210,
      "163": 63447509388050776,
      "164": -0.034649922035337115,
      "165": 1.8773162163919473e+210,
      "166": 2.61225870807103e+210,
      "167": 8.600545286972527e+209,
      "168": -7.625316870315953e+210,
      "169": 80314616176882200,
      "170": 0.02281061167591844,
      "171": 4.739919829585472e+209,
      "172": 128742917967353550,
      "173": 3.6499217646510075e+209,
      "174": 1.7846122707012056e+210,
      "175": -1.195374552096751e+210,
      "176": 323186791370719940,
      "177": 498175951591661440,
      "178": -1.2855150471469649e+211,
      "179": 8.616686484012392e+209,
      "180": -7.124290520421297e+210,
      "181": 3.4789909229049164e+210,
      "182": -9.439726264962807e+213,
      "183": -0.015729209645477502,
      "184": -3.588028641628716e+209,
      "185": -1.5025081903197811e+209,
      "186": -3.785652344233148e+209,
      "187": -1.9569325527441708e+212,
      "188": -3.5796349903857075e+211,
      "189": -6.23705433418627e+207,
      "190": -1.8043088092680185e+209,
      "191": -3.5178509508185e+209,
      "192": -1.854743453801105e+209,
      "193": -3.2255796270127935e+209,
      "194": -4.287000075433863e+209,
      "195": -2.2727903688602336e+209,
      "196": -3.919623186479076e+209,
      "197": -3.2631584406268673e+209,
      "198": -3.343359025192738e+209,
      "199": -2.8049367012021915e+209,
      "200": 50595496369469064,
      "201": 8.039002665805461e+209,
      "202": -5.536554191667488e+185,
      "203": 5.892377186044546e+209,
      "204": 2.006116858988333e+209,
      "205": -0.05411369245426555,
      "206": 9.520905934368236e+209,
      "207": 8.616686484012392e+209,
      "208": -1.2855150471469649e+211,
      "209": 3.7666736782129986e+210,
      "210": -3711607163961637,
      "211": 0.021040203354357745,
      "212": 3.6499217646510075e+209,
      "213": 59806284054553464,
      "214": 8.600545286972527e+209,
      "215": -8.4292171368965e+210,
      "216": 3.627035577556871e+210,
      "217": -148320419887903970,
      "218": 565061696570326000,
      "219": 1.6767045304931136e+210,
      "220": -7.124290520421297e+210,
      "221": 3.4789909229049164e+210,
      "222": -279594372514065400,
      "223": -9.029203918258686e+213,
      "224": 0.054522686528978626,
      "225": -3.52879072481895e+209,
      "226": -8.465633563630266e+209,
      "227": -3.872037133997695e+209,
      "228": -1.949969427370861e+212,
      "229": -3.5787711424880667e+211,
      "230": -6.23705433418627e+207,
      "231": -1.806309077350434e+209,
      "232": -3.472276614078681e+209,
      "233": -1.855006649774036e+209,
      "234": -3.2192959004903776e+209,
      "235": -4.239522759202246e+209,
      "236": -2.2250826946099572e+209,
      "237": -3.9209787197459765e+209,
      "238": -3.2631584406268673e+209,
      "239": -3.3549448809838675e+209,
      "240": -2.8091929871520594e+209,
      "241": -1.195374552096751e+210,
      "242": 0.023578825599865613,
      "243": 1.1544149701419684e+210,
      "244": -8.4292171368965e+210,
      "245": 4.739919829585472e+209,
      "246": 0.004971483649315295,
      "247": 5.65603862363934e+209,
      "248": -7.124290520421297e+210,
      "249": 1.6767045304931136e+210,
      "250": 2.6462809191024444e+210,
      "251": -782608416128131200,
      "252": 0.04755124428747965,
      "253": 8.600545286972527e+209,
      "254": 375352774914589950,
      "255": -1.2855150471469649e+211,
      "256": 2.61225870807103e+210,
      "257": 8.039002665805461e+209,
      "258": -22706223457800828,
      "259": -149302529298070240,
      "260": 4.780986104782764e+209,
      "261": 3.4789909229049164e+210,
      "262": 81561021011967400,
      "263": 3.627035577556871e+210,
      "264": -8.654621420971874e+213,
      "265": -0.01292552239397114,
      "266": -3.495153093624599e+209,
      "267": 2.0107705155688266e+209,
      "268": -3.731232790749159e+209,
      "269": -1.9532015205703788e+212,
      "270": -3.580179185920548e+211,
      "271": -6.23705433418627e+207,
      "272": -1.7831655505416735e+209,
      "273": -3.44976045471207e+209,
      "274": -1.845610487230255e+209,
      "275": -3.1649657463987846e+209,
      "276": -4.2413373913453506e+209,
      "277": -2.231828938086959e+209,
      "278": -3.888693207092446e+209,
      "279": -3.2642729499929723e+209,
      "280": -3.340123896995515e+209,
      "281": -2.8193765456359348e+209,
      "282": 92815729526698110,
      "283": -0.027190119616950423,
      "284": 1.7846122707012056e+210,
      "285": 3.4161589746515765e+210,
      "286": 3.6499217646510075e+209,
      "287": 0.0389215151155501,
      "288": 2.4884614817977686e+210,
      "289": 3.4789909229049164e+210,
      "290": 4.780986104782764e+209,
      "291": -1.555350765731779e+211,
      "292": -0.005800274408132243,
      "293": -0.03666180540162245,
      "294": -1.2855150471469649e+211,
      "295": 202152832808259740,
      "296": 1.6767045304931136e+210,
      "297": 8.616686484012392e+209,
      "298": -1.195374552096751e+210,
      "299": 150019925704198500,
      "300": 2.006116858988333e+209,
      "301": -5.536554191667488e+185,
      "302": 602907968976892900,
      "303": 3.627035577556871e+210,
      "304": -165403307516355780,
      "305": -8.799633132317843e+213,
      "306": 0.013943305646106801,
      "307": -3.563618074960673e+209,
      "308": 2.832652090902863e+208,
      "309": -3.888331715147356e+209,
      "310": -1.934357638101509e+212,
      "311": -3.578608196676565e+211,
      "312": -6.23705433418627e+207,
      "313": -1.782461366072625e+209,
      "314": -3.444396153720026e+209,
      "315": -1.8564315841364126e+209,
      "316": -3.1882950349233974e+209,
      "317": -4.2449939202779986e+209,
      "318": -2.2354129981153618e+209,
      "319": -3.901467448677062e+209,
      "320": -3.2669062387871868e+209,
      "321": -3.350560274561086e+209,
      "322": -2.8190894107564608e+209,
      "323": 8.039002665805461e+209,
      "324": 0.04149237740071153,
      "325": -8.4292171368965e+210,
      "326": 8.616686484012392e+209,
      "327": 8.600545286972527e+209,
      "328": -0.03022684895513125,
      "329": -1.0705546024303334e+211,
      "330": 99893925362828320,
      "331": -5.536554191667488e+185,
      "332": 6.091249630975946e+210,
      "333": 64213837958596700,
      "334": -0.05070469760797916,
      "335": 1.6767045304931136e+210,
      "336": -177005811911888800,
      "337": 4.780986104782764e+209,
      "338": -7.124290520421297e+210,
      "339": 0.01173668377459195,
      "340": -3711607163961637,
      "341": 4.739919829585472e+209,
      "342": 1.1544149701419684e+210,
      "343": 3.627035577556871e+210,
      "344": -340111594739238.8,
      "345": -9.947628661979174e+209,
      "346": -8.354453742698506e+213,
      "347": 0.03789076629840068,
      "348": -3.4654864264306336e+209,
      "349": -2.6114973708074988e+208,
      "350": -3.864122553857615e+209,
      "351": -1.9206329501163196e+212,
      "352": -3.5788502882894653e+211,
      "353": -6.23705433418627e+207,
      "354": -1.7234783170691786e+209,
      "355": -3.390713526205365e+209,
      "356": -1.8594690565787908e+209,
      "357": -3.1890316301132858e+209,
      "358": -4.247441286584851e+209,
      "359": -2.236410140542864e+209,
      "360": -3.909900713751202e+209,
      "361": -3.268933973100881e+209,
      "362": -3.347825851880203e+209,
      "363": -2.82080083911123e+209,
      "364": -184419287263029900,
      "365": 0.02163459421137279,
      "366": 2.61225870807103e+210,
      "367": -7.124290520421297e+210,
      "368": -1.2855150471469649e+211,
      "369": -0.0008405168904949214,
      "370": -5.892458077706136e+210,
      "371": 3.627035577556871e+210,
      "372": 1.1544149701419684e+210,
      "373": 8.616686484012392e+209,
      "374": 0.0289008944936941,
      "375": 0.030221534876824347,
      "376": 4.780986104782764e+209,
      "377": 371550914684220740,
      "378": -5.536554191667488e+185,
      "379": 3.4789909229049164e+210,
      "380": 8.039002665805461e+209,
      "381": -705099239616680200,
      "382": 3.6499217646510075e+209,
      "383": 1.7846122707012056e+210,
      "384": -4977602545779041,
      "385": -1.195374552096751e+210,
      "386": 6.746036688573808e+209,
      "387": -8.209303526881808e+213,
      "388": 0.0742905341136285,
      "389": -3.45811928766485e+209,
      "390": 2.2018456165038395e+209,
      "391": -3.874250723045202e+209,
      "392": -1.8920384208225038e+212,
      "393": -3.5787490065975876e+211,
      "394": -6.23705433418627e+207,
      "395": -1.7498902960518468e+209,
      "396": -3.3606088500790074e+209,
      "397": -1.827731044470606e+209,
      "398": -3.1819779014104012e+209,
      "399": -4.243468683753751e+209,
      "400": -2.2314324368656133e+209,
      "401": -3.925355915351126e+209,
      "402": -3.2737120538158652e+209,
      "403": -3.3126590279505784e+209,
      "404": -2.825264410647372e+209,
      "405": -117947936698517940,
      "406": 0.026663821830807233,
      "407": 8.616686484012392e+209,
      "408": 3.4789909229049164e+210,
      "409": 1.6767045304931136e+210,
      "410": -0.08116570904944803,
      "411": -9.764793152920341e+210,
      "412": 0.04554197933287583,
      "413": 1.9852239566000413e+210,
      "414": -3.497254942864425e+210,
      "415": -0.06176453608559949,
      "416": 0.005228270190738875,
      "417": -5.536554191667488e+185,
      "418": 106633161218571070,
      "419": 1.1544149701419684e+210,
      "420": -0.05728705003551149,
      "421": -0.058164469129845395,
      "422": 62789212226026050,
      "423": 8.600545286972527e+209,
      "424": -8.4292171368965e+210,
      "425": -1.195374552096751e+210,
      "426": -606592564745660300,
      "427": 1.6428844260041946e+210,
      "428": -7.826032239257229e+213,
      "429": 0.034674393728647994,
      "430": -3.50708037177043e+209,
      "431": 1.691106571906889e+209,
      "432": -3.841836551198158e+209,
      "433": -2.3557414488031986e+212,
      "434": -3.5790731483160576e+211,
      "435": -6.23705433418627e+207,
      "436": -1.7532266657870475e+209,
      "437": -3.3845341113853674e+209,
      "438": -1.843269907558213e+209,
      "439": -3.1947469979520223e+209,
      "440": -4.250682482550161e+209,
      "441": -2.238850111354659e+209,
      "442": -3.926664504649392e+209,
      "443": -3.2022945511965883e+209,
      "444": -3.331168133910412e+209,
      "445": -2.8346160093101816e+209,
      "446": 99893925362828320,
      "447": 0.2630425946175396,
      "448": -7.124290520421297e+210,
      "449": 293761878754106400,
      "450": 4.780986104782764e+209,
      "451": 0.03048625982501456,
      "452": 2.5383731788943527e+210,
      "453": -1.195374552096751e+210,
      "454": -7.955225153937955e+210,
      "455": 3.4789909229049164e+210,
      "456": -0.022280747661823076,
      "457": 0.009270665759319268,
      "458": 1.1544149701419684e+210,
      "459": -47215278235605780,
      "460": 1.7846122707012056e+210,
      "461": 3.8276472634557037e+210,
      "462": -0.045331588840901514,
      "463": 140335763978239360,
      "464": -1.2855150471469649e+211,
      "465": 2.61225870807103e+210,
      "466": 113983486093594900,
      "467": 8.039002665805461e+209,
      "468": 1.2250467051623536e+210,
      "469": -6.866063296625104e+213,
      "470": -0.012008320186424311,
      "471": -3.574538237985924e+209,
      "472": -2.9387816400640323e+209,
      "473": -3.9057074473353156e+209,
      "474": -2.2905638969900863e+212,
      "475": -3.578434439354683e+211,
      "476": -6.23705433418627e+207,
      "477": -1.7539223634413455e+209,
      "478": -3.359393530803596e+209,
      "479": -1.8469333635060034e+209,
      "480": -3.193783887970917e+209,
      "481": -4.2221908911598756e+209,
      "482": -2.2073971389826493e+209,
      "483": -3.924204169657726e+209,
      "484": -3.2116095763659955e+209,
      "485": -3.3307372345130475e+209,
      "486": -2.7658314828729656e+209,
      "487": 125028598092245230,
      "488": -45033308173991420,
      "489": 3.4789909229049164e+210,
      "490": 3.627035577556871e+210,
      "491": -5.536554191667488e+185,
      "492": -0.0020895046099384078,
      "493": -5.491776939801052e+210,
      "494": 118821578115999250,
      "495": 2.977250884536131e+210,
      "496": -1.195374552096751e+210,
      "497": 0.22690707689383655,
      "498": 2.006116858988333e+209,
      "499": 1.7846122707012056e+210,
      "500": 38295751011778700,
      "501": -8.4292171368965e+210,
      "502": 4.739919829585472e+209,
      "503": 0.018406336050668756,
      "504": 228061714482144100,
      "505": 1.6767045304931136e+210,
      "506": 8.616686484012392e+209,
      "507": 8.039002665805461e+209,
      "508": 37300157816614664,
      "509": -1.1995095942772395e+211,
      "510": -6.895725076582118e+213,
      "511": -0.03568910460887727,
      "512": -3.667439140944358e+209,
      "513": 3.69958745642795e+208,
      "514": -4.047708194253722e+209,
      "515": -2.276607965330745e+212,
      "516": -3.577014431885502e+211,
      "517": -6.23705433418627e+207,
      "518": -1.7607338766885023e+209,
      "519": -3.388682803195641e+209,
      "520": -1.818477766146246e+209,
      "521": -3.2077224666902748e+209,
      "522": -4.224382822099316e+209,
      "523": -2.209437096270989e+209,
      "524": -3.9265505478541934e+209,
      "525": -3.214265679757542e+209,
      "526": -3.336626019515456e+209,
      "527": -2.734733516585034e+209,
      "528": 88214399424721070,
      "529": 16693803507055462,
      "530": 404077565864614700,
      "531": -26417830621762464,
      "532": 1.1544149701419684e+210,
      "533": 0.042563070213786004,
      "534": 5.464214879504956e+210,
      "535": 8.039002665805461e+209,
      "536": 1.7217231770984918e+210,
      "537": 3.627035577556871e+210,
      "538": -45033308173991420,
      "539": 4.739919829585472e+209,
      "540": -8.4292171368965e+210,
      "541": 44479982131315600,
      "542": 2.61225870807103e+210,
      "543": -8.3038237563165e+209,
      "544": -0.014074574159555021,
      "545": -26913680141982056,
      "546": 4.780986104782764e+209,
      "547": -7.124290520421297e+210,
      "548": -63167711688617440,
      "549": -109146100440594750,
      "550": -1.1178445940976534e+211,
      "551": -6.789685050362523e+213,
      "552": -0.005365253104284102,
      "553": -3.724200348090167e+209,
      "554": -3.5593679169995773e+208,
      "555": -4.2743422389466686e+209,
      "556": -2.2758820697934026e+212,
      "557": -3.5747480914385735e+211,
      "558": -6.23705433418627e+207,
      "559": -1.7591434723096096e+209,
      "560": -3.3904593585515205e+209,
      "561": -1.7914985655896087e+209,
      "562": -3.210936751575176e+209,
      "563": -4.231999137278619e+209,
      "564": -2.2146863362188184e+209,
      "565": -3.9347541369273304e+209,
      "566": -3.214265679757542e+209,
      "567": -3.341554799737253e+209,
      "568": -2.7426645803258556e+209,
      "569": -256467587688453440,
      "570": 162605845587800540,
      "571": 3.627035577556871e+210,
      "572": -1.195374552096751e+210,
      "573": 1.7846122707012056e+210,
      "574": 0.005839550808955908,
      "575": -6.800810183795985e+210,
      "576": -143482327865499660,
      "577": -1.997944099189094e+211,
      "578": 1.0045119524793797e+210,
      "579": 16693803507055462,
      "580": 3.6499217646510075e+209,
      "581": 2.61225870807103e+210,
      "582": 253410256802822460,
      "583": 8.616686484012392e+209,
      "584": 8.600545286972527e+209,
      "585": -0.02478139434098797,
      "586": 10424556600761622,
      "587": -5.536554191667488e+185,
      "588": 3.4789909229049164e+210,
      "589": -68939906321122190,
      "590": 118821578115999250,
      "591": 2.1548031409713894e+210,
      "592": -5.713628942096244e+213,
      "593": -0.0257795386208487,
      "594": -3.835672087311274e+209,
      "595": -3.2725113688046313e+209,
      "596": -2.5637835836868823e+209,
      "597": -2.2312782879611703e+212,
      "598": -3.59185367799117e+211,
      "599": -6.23705433418627e+207,
      "600": -1.7271427287301012e+209,
      "601": -3.3375270349515836e+209,
      "602": -1.7957378803333556e+209,
      "603": -3.2094374518451195e+209,
      "604": -4.211161195100699e+209,
      "605": -2.189439474875042e+209,
      "606": -3.863626931626541e+209,
      "607": -3.2206790962583305e+209,
      "608": -3.338481977137254e+209,
      "609": -2.745282444211575e+209,
      "610": 164006638674433180,
      "611": -158163904283072480,
      "612": -16489123541220436,
      "613": -3053310001936908,
      "614": -8.4292171368965e+210,
      "615": 0.0036482277842945876,
      "616": 8.388898732794207e+210,
      "617": -20194990983169110,
      "618": 5.15569545339803e+210,
      "619": -7.213825691382035e+209,
      "620": 162605845587800540,
      "621": 8.600545286972527e+209,
      "622": 8.616686484012392e+209,
      "623": 149743078987836670,
      "624": -7.124290520421297e+210,
      "625": -1.2051250204889102e+211,
      "626": 0.009076180606411584,
      "627": 0.00984965915516583,
      "628": 1.1544149701419684e+210,
      "629": 105546037473223950,
      "630": -696209303093759500,
      "631": 2.006116858988333e+209,
      "632": 4.780986104782764e+209,
      "633": -5.50249880698908e+213,
      "634": 0.033441341930501106,
      "635": -2.746604152803573e+209,
      "636": 5.908578715535166e+208,
      "637": -2.8769538562333832e+209,
      "638": -2.170697325203986e+212,
      "639": -3.5887219752657065e+211,
      "640": -6.23705433418627e+207,
      "641": -1.740248022160723e+209,
      "642": -3.351292167867262e+209,
      "643": -1.8012884793771612e+209,
      "644": -3.212367340902421e+209,
      "645": -4.154200305882716e+209,
      "646": -2.207153134458721e+209,
      "647": -3.872941956795947e+209,
      "648": -3.231708118239441e+209,
      "649": -3.342794339368862e+209,
      "650": -2.7543355629230787e+209,
      "651": 742494239124351900,
      "652": 96267049629893890,
      "653": -1.195374552096751e+210,
      "654": 8.039002665805461e+209,
      "655": 2.61225870807103e+210,
      "656": -0.013014960298372315,
      "657": -6.707493959798009e+210,
      "658": 69705309527316290,
      "659": 4.780986104782764e+209,
      "660": 3.6499217646510075e+209,
      "661": -158163904283072480,
      "662": -1.2855150471469649e+211,
      "663": -7.124290520421297e+210,
      "664": 222058221479570460,
      "665": 3.4789909229049164e+210,
      "666": 1.6767045304931136e+210,
      "667": 0.04203455684197899,
      "668": -0.001778460451738307,
      "669": 1.9852239566000413e+210,
      "670": 3.627035577556871e+210,
      "671": 162605845587800540,
      "672": 4.739919829585472e+209,
      "673": 1.1544149701419684e+210,
      "674": -4.668438145913139e+213,
      "675": 0.002087595399336397,
      "676": -2.362251683364037e+209,
      "677": -6.764076012871004e+208,
      "678": -2.1316108812647204e+209,
      "679": -2.473818456341298e+212,
      "680": -3.596175405015392e+211,
      "681": -6.23705433418627e+207,
      "682": -1.7345202239684462e+209,
      "683": -3.280103177123472e+209,
      "684": -1.8080880397817057e+209,
      "685": -3.2212343619698586e+209,
      "686": -4.165979822718721e+209,
      "687": -2.2081162031493024e+209,
      "688": -3.8755980601874925e+209,
      "689": -3.187512422939788e+209,
      "690": -3.34532382538304e+209,
      "691": -2.7699177181038413e+209,
      "692": 527682209787185300,
      "693": 99893925362828320,
      "694": 118821578115999250,
      "695": 62789212226026050,
      "696": 8.616686484012392e+209,
      "697": 0.02336959465405075,
      "698": -1.856255683591663e+211,
      "699": -45033308173991420,
      "700": 3.627035577556871e+210,
      "701": 1.663954795277799e+210,
      "702": 2.006116858988333e+209,
      "703": 1.6767045304931136e+210,
      "704": 3.4789909229049164e+210,
      "705": 421282735212977000,
      "706": 125028598092245230,
      "707": 4.780986104782764e+209,
      "708": -0.012570286532314677,
      "709": 658297162024728.6,
      "710": -7.955225153937955e+210,
      "711": 383443386572709440,
      "712": -16440889813024734,
      "713": 3.6499217646510075e+209,
      "714": 2.939027240843173e+210,
      "715": -3.741910373451545e+213,
      "716": -0.06387821186494558,
      "717": -1.7704421796312364e+209,
      "718": 9.132207144241687e+208,
      "719": -2.2915992786831882e+209,
      "720": -2.3810765201988887e+212,
      "721": -3.5945755210412053e+211,
      "722": -6.23705433418627e+207,
      "723": -1.7089018194220425e+209,
      "724": -3.2812032914762427e+209,
      "725": -1.8149824345510233e+209,
      "726": -3.1524501481447973e+209,
      "727": -4.1811502360858106e+209,
      "728": -2.2204180020933648e+209,
      "729": -3.8755980601874925e+209,
      "730": -3.2051672149977598e+209,
      "731": -3.3439947369605185e+209,
      "732": -2.7334315998809572e+209,
      "733": 225175864340928960,
      "734": 17803425191147494,
      "735": 8.039002665805461e+209,
      "736": 247560936879337120,
      "737": -7.124290520421297e+210,
      "738": 0.33373693171873803,
      "739": 6.01736410179927e+210,
      "740": 94202980018506580,
      "741": 1.1544149701419684e+210,
      "742": -1.2855150471469649e+211,
      "743": 4.739919829585472e+209,
      "744": 4.780986104782764e+209,
      "745": -4838092022404345,
      "746": 129764447175078130,
      "747": 3.627035577556871e+210,
      "748": -5.536554191667488e+185,
      "749": 0.013745979392184339,
      "750": -224639542929173440,
      "751": 3.1778625704349643e+210,
      "752": -1.195374552096751e+210,
      "753": 159056261855919970,
      "754": 8.600545286972527e+209,
      "755": -6.644604866195295e+210,
      "756": -3.3373909549314696e+213,
      "757": -0.002738485269032532,
      "758": -1.94326043540537e+209,
      "759": -1.4686440477687106e+209,
      "760": -1.754150734321216e+209,
      "761": -2.3475788431333186e+212,
      "762": -3.599950006484826e+211,
      "763": -6.23705433418627e+207,
      "764": -1.7236488753896896e+209,
      "765": -3.288043419939164e+209,
      "766": -1.795474612666647e+209,
      "767": -3.1637929076278983e+209,
      "768": -4.18208833191662e+209,
      "769": -2.220178032707197e+209,
      "770": -3.882011476688283e+209,
      "771": -3.2173656325536345e+209,
      "772": -3.3442939665041906e+209,
      "773": -2.6500359531911e+209,
      "774": 102624926390217950,
      "775": 2.006116858988333e+209,
      "776": -367463573632648400,
      "777": 315617816744840100,
      "778": 3.4789909229049164e+210,
      "779": -45033308173991420,
      "780": -5.842291643362473e+210,
      "781": 225395057813826530,
      "782": 5.892377186044546e+209,
      "783": 1.6767045304931136e+210,
      "784": 3.6499217646510075e+209,
      "785": -5.536554191667488e+185,
      "786": 3.627035577556871e+210,
      "787": 533414549000365700,
      "788": -31828044759279904,
      "789": 1.1544149701419684e+210,
      "790": 0.013701990862553623,
      "791": -0.029963981806213996,
      "792": 2.1957151600570392e+210,
      "793": 172310728237400800,
      "794": 176015851382470980,
      "795": -1.2855150471469649e+211,
      "796": -5.81695842882547e+210,
      "797": -2.5498145869500046e+213,
      "798": -0.03155352718459471,
      "799": -1.3905834074189421e+209,
      "800": -1.337489654248616e+209,
      "801": -2.1259603374938295e+209,
      "802": -2.6049760440976075e+212,
      "803": -3.596231910453099e+211,
      "804": -6.23705433418627e+207,
      "805": -1.7295389815995757e+209,
      "806": -3.294910906675185e+209,
      "807": -1.7813551439688657e+209,
      "808": -3.17122709173443e+209,
      "809": -4.184812352624533e+209,
      "810": -2.2166315525172714e+209,
      "811": -3.891925989303289e+209,
      "812": -3.1083964724679353e+209,
      "813": -3.345289909612232e+209,
      "814": -2.6723569158372725e+209,
      "815": 594443001221555200,
      "816": 4.739919829585472e+209,
      "817": -244834533912342600,
      "818": 2.006116858988333e+209,
      "819": -4977602545779041,
      "820": 16693803507055462,
      "821": 7.106026500461788e+210,
      "822": -127075286437421380,
      "823": -8.4292171368965e+210,
      "824": 4.780986104782764e+209,
      "825": 8.600545286972527e+209,
      "826": 1.1544149701419684e+210,
      "827": 80314616176882200,
      "828": 710492007399061900,
      "829": -1.195374552096751e+210,
      "830": 1.7846122707012056e+210,
      "831": 0.01847896540446465,
      "832": 107225172901097710,
      "833": -1.9614448815425863e+211,
      "834": 8.039002665805461e+209,
      "835": 245865139673291400,
      "836": 1.6767045304931136e+210,
      "837": 3.473927356472269e+210
     }
    },
    {
     "sx": 1,
     "sy": 1,
     "depth": 838,
     "w": {
      "0": -0.05336398222991943,
      "1": 0.03753638038873761,
      "2": 0.029734880587610146,
      "3": -0.017033481570117734,
      "4": -0.014623338802279463,
      "5": -0.03283339791624139,
      "6": 0.08495168241419827,
      "7": -0.0421051438610234,
      "8": 0.027197038612609747,
      "9": -0.05345892381685422,
      "10": -0.052440280703651206,
      "11": 0.008015202095072383,
      "12": -0.01807497715709731,
      "13": 0.03751486162556665,
      "14": 0.03577491393059397,
      "15": -0.007386751055267429,
      "16": -0.006883711006113758,
      "17": 0.03125395267076262,
      "18": -0.014551604221579516,
      "19": -0.02162522954555463,
      "20": 0.025292104308805647,
      "21": 0.050255059819894254,
      "22": -0.016172853676513485,
      "23": 0.014037754222669648,
      "24": -0.020372556278463804,
      "25": 0.05802500585344895,
      "26": -0.029095584264624375,
      "27": 0.06012562305940566,
      "28": -0.009574670054261122,
      "29": 0.013315596980359076,
      "30": -0.047531974460335955,
      "31": 0.022314769109623277,
      "32": -0.07380612063927344,
      "33": 0.0057245906402864175,
      "34": 0.009954244204585948,
      "35": -0.05515729527401249,
      "36": 0.04141900875890366,
      "37": -0.04391976557317193,
      "38": 0.04176047524829681,
      "39": -0.021832488630664556,
      "40": -0.0059215913332668554,
      "41": -0.019322834976880338,
      "42": 0.030203849176641883,
      "43": 0.07491481770000831,
      "44": 0.0699639329668756,
      "45": 0.002489830088765883,
      "46": 0.007750555874126179,
      "47": -0.018633437195161286,
      "48": -0.060437324755849384,
      "49": -0.01593914619642625,
      "50": 0.05896088590356276,
      "51": 0.03538769818503054,
      "52": -0.03134218606154644,
      "53": 0.02036693234629445,
      "54": -0.003209247242336374,
      "55": 0.032555877076387275,
      "56": 0.00008062887253078059,
      "57": 0.012888440263872916,
      "58": -0.00659705332689122,
      "59": -0.01832730614573998,
      "60": -0.0179077645999338,
      "61": 0.048131514280553435,
      "62": 0.0004990580972605206,
      "63": -0.08441540417435602,
      "64": -0.00926655895371987,
      "65": -0.02193269311012436,
      "66": 0.017478972571779192,
      "67": 0.049392085609245316,
      "68": -0.06196546368709416,
      "69": -0.026975330384063037,
      "70": -0.02777781488908472,
      "71": 0.06292019000868544,
      "72": -0.020024869674725287,
      "73": -0.01508890743575727,
      "74": 0.06779744228700113,
      "75": -0.05478385435290364,
      "76": 0.024540438250361295,
      "77": -0.0829502066755494,
      "78": -0.00008541657743979786,
      "79": -0.0022451583200553313,
      "80": 0.044302437247274264,
      "81": 0.04890745555921576,
      "82": 0.0026515945557314185,
      "83": 0.01266601955682823,
      "84": -0.0350337552802783,
      "85": 0.05423298901159245,
      "86": -0.07282328423005868,
      "87": -0.04861138816934211,
      "88": 0.021580364012118075,
      "89": 0.07366059112540388,
      "90": 0.006968929036039345,
      "91": -0.0020336665373255776,
      "92": 0.060996059888967225,
      "93": 0.0020599006384889153,
      "94": 0.010829593360473755,
      "95": -0.05465925076301929,
      "96": -0.008218973700729777,
      "97": -0.03816060134877325,
      "98": 0.003621655236648423,
      "99": -0.03384541056771538,
      "100": -0.010020348494343393,
      "101": 0.023065888920125052,
      "102": 0.035127281583801025,
      "103": -0.027903766011218977,
      "104": -0.04262373741228366,
      "105": -0.008405391500255306,
      "106": -0.022968652054389676,
      "107": -0.02410583961355497,
      "108": 0.005959472091001181,
      "109": 0.028891969043600002,
      "110": 0.03473139837893848,
      "111": -0.014795579822181739,
      "112": 0.012886678219779183,
      "113": 0.00999214307348632,
      "114": 0.04924810618222816,
      "115": 0.06472796647509631,
      "116": -0.03031165848423796,
      "117": -0.0196533146414262,
      "118": 0.04541219966563581,
      "119": 0.005145113461112532,
      "120": 0.07137386556280914,
      "121": 0.0036647953215632324,
      "122": 0.031091872524699932,
      "123": -0.02870876858153264,
      "124": -0.05545186420664143,
      "125": -0.042052494999656465,
      "126": -0.023598043140064796,
      "127": -0.03491338018377129,
      "128": 0.003266331822643208,
      "129": 0.0254214025094977,
      "130": -0.02756542839044425,
      "131": -0.03839201224052746,
      "132": 0.054901866698392685,
      "133": -0.06381886558558,
      "134": -0.02773495993780443,
      "135": 0.011607815337220379,
      "136": -0.006928939737902024,
      "137": -0.01609724311538622,
      "138": 0.03828441240031379,
      "139": -0.01976711058662252,
      "140": 0.04169555562434092,
      "141": -0.00571829474601771,
      "142": -0.0737577931667174,
      "143": 0.02074079130083414,
      "144": -0.009170965506360396,
      "145": -0.03480540565368004,
      "146": -0.07177635324508046,
      "147": -0.03482451460982939,
      "148": -0.010410328751284814,
      "149": -0.02831414641687076,
      "150": -0.013864217394434504,
      "151": -0.038541286786456484,
      "152": -0.0534625359875492,
      "153": -0.039336341466162175,
      "154": 0.01293682778713837,
      "155": -0.0972163941303849,
      "156": -0.023019621301935838,
      "157": 0.03487481568103449,
      "158": 0.02736583390318465,
      "159": -0.025460328956621255,
      "160": 0.021585777048299646,
      "161": 0.010855018066995056,
      "162": -0.02664363891195719,
      "163": 0.02784914765915661,
      "164": -0.04509312293288681,
      "165": -0.042581381192051834,
      "166": -0.026369698925739184,
      "167": 0.008094642870132765,
      "168": 0.0038554077562307017,
      "169": 0.011449026094864865,
      "170": -0.0268581934925302,
      "171": -0.056735212238268266,
      "172": -0.003093300839112239,
      "173": -0.02898464437623974,
      "174": 0.009197910044303962,
      "175": -0.00038762269413642386,
      "176": -0.033340446345425524,
      "177": 0.01848238459334092,
      "178": 0.03317347753682612,
      "179": 0.008231421700486212,
      "180": 0.028939177925538153,
      "181": -0.00606721399522228,
      "182": -0.025847479888531276,
      "183": -0.02214627133410915,
      "184": 0.0024670039800965826,
      "185": 0.10429913817619928,
      "186": 0.03599631361557142,
      "187": -0.003676112209174023,
      "188": -0.01634757635324206,
      "189": 0.009360212990959803,
      "190": -0.025492912716185548,
      "191": -0.023456127273658346,
      "192": -0.031190112627342895,
      "193": -0.06324271393606945,
      "194": -0.02456920879777481,
      "195": -0.001914982217722869,
      "196": 0.04122002391645087,
      "197": -0.051788619077504885,
      "198": -0.03400318312141896,
      "199": 0.056713511300765164,
      "200": -0.0586614776809632,
      "201": 0.017631151786855905,
      "202": 0.0646018785439877,
      "203": -0.06328945122353861,
      "204": -0.013616332078487383,
      "205": -0.01644286062191163,
      "206": 0.009320698979381939,
      "207": -0.03187833853905102,
      "208": -0.008786590934023954,
      "209": 0.0246923747208396,
      "210": -0.01812309756928801,
      "211": 0.04189495999581101,
      "212": -0.024073542050831676,
      "213": 0.023672298591655063,
      "214": -0.006722520914179918,
      "215": 0.0070477472552973935,
      "216": 0.03154208451593629,
      "217": 0.022132467165548498,
      "218": -0.04889959543284107,
      "219": 0.006368980542871248,
      "220": -0.035818140025260556,
      "221": 0.04135421540444095,
      "222": 0.01982728348877461,
      "223": -0.02787326346868324,
      "224": -0.0034353450894640787,
      "225": -0.008203003238122704,
      "226": -0.0016108640980885818,
      "227": -0.024079679198785148,
      "228": 0.03809912027983111,
      "229": -0.004725433064343731,
      "230": 0.00042391523240363824,
      "231": -0.021350028503904318,
      "232": -0.03594068119552801,
      "233": 0.05230095778773371,
      "234": -0.01715509320684183,
      "235": -0.0339442368969098,
      "236": 0.014435238567877437,
      "237": 0.010083604548166718,
      "238": 0.008263080755481836,
      "239": -0.0017568417634469047,
      "240": 0.0372219462260159,
      "241": -0.05296839061221079,
      "242": 0.02026100204507339,
      "243": -0.020255440112675875,
      "244": 0.007529808717602558,
      "245": 0.04111154021074965,
      "246": -0.0152684517156812,
      "247": 0.022676421002017187,
      "248": 0.007078700030207778,
      "249": -0.008521251204354612,
      "250": -0.03264179962259711,
      "251": -0.0813756745258585,
      "252": 0.03841022470830481,
      "253": 0.009834796992502701,
      "254": 0.015374904787182161,
      "255": 0.059595892456417755,
      "256": -0.025136048932518487,
      "257": 0.046682117134568726,
      "258": 0.016136793105196202,
      "259": -0.0370597868240748,
      "260": -0.08112378598799144,
      "261": -0.024651260351261646,
      "262": -0.08370166289878579,
      "263": -0.01366969021518604,
      "264": -0.03830143859361689,
      "265": 0.008768431727939075,
      "266": -0.050200624079514,
      "267": 0.02857803617864437,
      "268": -0.014071292590495875,
      "269": -0.016386950562635966,
      "270": -0.02986817690683157,
      "271": -0.02938781376411758,
      "272": 0.02042210551181882,
      "273": -0.04902531706079794,
      "274": -0.04084044259251611,
      "275": 0.0210037360893955,
      "276": 0.0713583034944411,
      "277": -0.027691016076370385,
      "278": 0.008379156408497061,
      "279": 0.027664109664823446,
      "280": -0.0074803137621572815,
      "281": 0.03424690730672872,
      "282": 0.013976345004230468,
      "283": 0.015490811685907433,
      "284": -0.004337413378545257,
      "285": -0.032071484167005754,
      "286": 0.012236602774171768,
      "287": -0.02568968070222019,
      "288": -0.012695622332149136,
      "289": 0.03339687107134443,
      "290": -0.023510271555295826,
      "291": -0.031631680923393406,
