{
 "layers": [
  {
   "out_depth": 838,
   "out_sx": 1,
   "out_sy": 1,
   "layer_type": "input"
  },
  {
   "out_depth": 25,
   "out_sx": 1,
   "out_sy": 1,
   "layer_type": "fc",
   "num_inputs": 838,
   "l1_decay_mul": 0,
   "l2_decay_mul": 1,
   "filters": [
    {
     "sx": 1,
     "sy": 1,
     "depth": 838,
     "w": {
      "0": -0.02374625920361347,
      "1": 0.030021158423366112,
      "2": 0.026489105282173013,
      "3": 0.050762227433261434,
      "4": 0.003905669317421546,
      "5": 0.0654916980668876,
      "6": 0.032463161348074976,
      "7": 0.06200283607696857,
      "8": 0.030633832372640155,
      "9": 0.014570606598886305,
      "10": 0.04967764625419412,
      "11": -0.07918175374783093,
      "12": 0.009999057714919789,
      "13": -0.021995898489775272,
      "14": 0.010513679459784691,
      "15": -0.005941133379693263,
      "16": -0.031993197952654075,
      "17": 0.008708012178476056,
      "18": -0.09116551442065203,
      "19": -0.0056328401364174226,
      "20": 0.0368155576352873,
      "21": 0.04873072884244235,
      "22": -0.012871021050127749,
      "23": -0.0070180188178504315,
      "24": 0.0027337211058941608,
      "25": 0.004473787246301864,
      "26": -0.030355846805085032,
      "27": 0.040325111166855124,
      "28": 0.034135733294241945,
      "29": -0.009044586876095238,
      "30": 0.012743835838492543,
      "31": 0.0456439155559648,
      "32": 0.02255809558567792,
      "33": 0.004518743358988816,
      "34": -0.08849225634843205,
      "35": -0.04253715161334208,
      "36": 0.015502371382890427,
      "37": -0.010378107785034455,
      "38": 0.03069300971477456,
      "39": -0.04360184740753135,
      "40": -0.09942755078344609,
      "41": -0.017493441788533553,
      "42": 0.0010148307037999898,
      "43": -0.012754384932518868,
      "44": 0.015850082555330536,
      "45": 0.008687839847330403,
      "46": 0.0033726875751814538,
      "47": -0.0031635476889109895,
      "48": 0.03938168571170196,
      "49": -0.003295655129739071,
      "50": 0.038885821157526694,
      "51": -0.020174974470775195,
      "52": -0.001790125291694198,
      "53": 0.02444118348970461,
      "54": -0.024021785588652894,
      "55": 0.07328767315225808,
      "56": 0.0012976115505624014,
      "57": 0.054755762665975594,
      "58": 0.004519428169179562,
      "59": -0.015259929940920555,
      "60": 0.010959399451199722,
      "61": -0.021790800237444955,
      "62": 0.012487834112622763,
      "63": 0.09195089639654647,
      "64": 0.061513191784135446,
      "65": -0.01279051501845226,
      "66": -0.032656073424485475,
      "67": 0.08152393611518721,
      "68": -0.04099708655117768,
      "69": -0.04449191063732383,
      "70": -0.05513093801191732,
      "71": -0.02889873495996519,
      "72": 0.009667358317336916,
      "73": -0.03256218542819142,
      "74": 0.0726480899865169,
      "75": -0.040960135138855755,
      "76": -0.0170414601608136,
      "77": 0.030123933492729,
      "78": -0.0760830933858837,
      "79": 0.004358343569547086,
      "80": -0.02874121202614009,
      "81": -0.03168985871813945,
      "82": 0.005431155997841289,
      "83": -0.0037445534902438736,
      "84": -0.032878171809187645,
      "85": -0.04553304968896123,
      "86": 0.05436521087709158,
      "87": 0.0509201675492155,
      "88": 0.03743749426426301,
      "89": -0.0361076977184453,
      "90": 0.03727400118233831,
      "91": 0.008910899779052232,
      "92": -0.038120279957089574,
      "93": -0.0032179711347916557,
      "94": -0.03028464639911661,
      "95": 0.04036011722426107,
      "96": 0.010268222277162566,
      "97": -0.014871557321362572,
      "98": 0.01941901600702173,
      "99": 0.012842526681070499,
      "100": -0.0012866599014802948,
      "101": 0.01697945858553925,
      "102": 0.008981295244435486,
      "103": 0.015318071564191299,
      "104": 0.03596459630881509,
      "105": -0.018114068415331783,
      "106": -0.021496003538950034,
      "107": -0.07521441353590036,
      "108": -0.02811665664975568,
      "109": -0.04566338113197312,
      "110": 0.02165764776808683,
      "111": 0.005930743696741911,
      "112": 0.025305311438468137,
      "113": 0.013432044245215232,
      "114": -0.025603509178697217,
      "115": 0.021262800552553206,
      "116": -0.055562355113655135,
      "117": -0.034021376359777734,
      "118": 0.0341411876050048,
      "119": 0.02924748110537681,
      "120": -0.05018782733050487,
      "121": -0.029330635603192268,
      "122": 0.009159605960615434,
      "123": -0.0035400430839205507,
      "124": -0.01802949430866122,
      "125": -0.03235416223446899,
      "126": -0.008604979983078007,
      "127": -0.0008106290673612151,
      "128": 0.004378416085923983,
      "129": 0.01759729602381441,
      "130": 0.04030981912752866,
      "131": 0.061595692800252885,
      "132": -0.00861858727656528,
      "133": -0.02611747027330692,
      "134": -0.03846818883401994,
      "135": 0.04777696904425596,
      "136": -0.029315514464869227,
      "137": 0.04330004975539504,
      "138": -0.02122226486461436,
      "139": 0.014104317610424778,
      "140": -0.02078669462334932,
      "141": 0.034742521441433284,
      "142": -0.023193359577256937,
      "143": -0.09731749989523633,
      "144": 0.07535459921850693,
      "145": -0.0723276993755125,
      "146": 0.03085472621770341,
      "147": 0.06694820559225993,
      "148": 0.03937084696703974,
      "149": 0.013807365019468594,
      "150": -0.02045260581973583,
      "151": -0.03461106557977684,
      "152": 0.023669912658123047,
      "153": 0.020163210685818736,
      "154": 0.027701651307887393,
      "155": 0.016446592612113457,
      "156": -0.016054067432920677,
      "157": 0.06444002381279645,
      "158": -0.03633677235501461,
      "159": 0.04346834682398725,
      "160": -0.01992794072723429,
      "161": -0.014656247793023165,
      "162": -0.0316423859043021,
      "163": -0.024120072054415416,
      "164": 0.03640636196175173,
      "165": -0.04083917528313574,
      "166": 0.0489856410935535,
      "167": 0.01945798477197629,
      "168": -0.016630720403839477,
      "169": 0.02357196121704895,
      "170": 0.012306021396516749,
      "171": -0.007681577044407605,
      "172": 0.06117361521851241,
      "173": 0.0263310399045268,
      "174": 0.03995467696461408,
      "175": -0.009538554863610793,
      "176": -0.01873790067640287,
      "177": -0.0068742904155503085,
      "178": -0.031676647470649855,
      "179": 0.03988597950555751,
      "180": 0.028182105549584273,
      "181": 0.033674798411855084,
      "182": -0.08396369214241246,
      "183": -0.0021155776419223707,
      "184": 0.04729215957553741,
      "185": -0.07364643501201022,
      "186": -0.04693237926995759,
      "187": -0.026532547288941825,
      "188": -0.054959906885718064,
      "189": 0.017608808959473362,
      "190": 0.06320050304807046,
      "191": 0.021745987626976663,
      "192": -0.03237101638504153,
      "193": -0.03174204812839162,
      "194": 0.03892447696430719,
      "195": -0.06910112101417808,
      "196": 0.005079887529084424,
      "197": -0.0435108764466336,
      "198": 0.015977856404465498,
      "199": 0.005576111656651954,
      "200": -0.03362407489590198,
      "201": -0.014684469033391465,
      "202": -0.057176555863614004,
      "203": -0.03284657800262183,
      "204": -0.04019146257014449,
      "205": 0.028044786887670804,
      "206": -0.022017428944202874,
      "207": 0.01542023834184603,
      "208": 0.06785228982110453,
      "209": -0.02484891431792185,
      "210": 0.046328555749708615,
      "211": -0.006353103906817139,
      "212": -0.04214413518791536,
      "213": 0.01653286733597569,
      "214": 0.01983858044561077,
      "215": -0.005811926084826645,
      "216": 0.009584908860976259,
      "217": 0.06356613416470305,
      "218": -0.02293686445217863,
      "219": 0.011298347276457413,
      "220": 0.03403325602058405,
      "221": 0.01306717218089559,
      "222": 0.0379206987115771,
      "223": -0.00959852948109805,
      "224": 0.000897240512625542,
      "225": 0.056194231254858985,
      "226": 0.02226782703641192,
      "227": -0.013934064048084673,
      "228": 0.012246535612283954,
      "229": 0.03631726554949985,
      "230": 0.016823935201459177,
      "231": 0.01749175881981445,
      "232": 0.01408801123168806,
      "233": 0.001057778380479976,
      "234": -0.021966317431492424,
      "235": -0.006898835763025802,
      "236": -0.06264740097893017,
      "237": 0.03613498267279893,
      "238": -0.013443182188554639,
      "239": 0.036393231948007754,
      "240": 0.007833806814530315,
      "241": 0.000032574187803487744,
      "242": -0.009470846572068023,
      "243": 0.018686777085754527,
      "244": -0.0032727416324748525,
      "245": 0.02241679924573247,
      "246": 0.03417432483671019,
      "247": -0.018101275607370536,
      "248": 0.021320810644411967,
      "249": 0.0031761086403833375,
      "250": 0.09413998482815879,
      "251": 0.08362108021883376,
      "252": -0.016346852331092426,
      "253": 0.01104878595917638,
      "254": -0.03853937110996169,
      "255": -0.049643937951597654,
      "256": 0.03687366140529981,
      "257": -0.0029177833859207357,
      "258": 0.07023793347389931,
      "259": -0.061304273478971626,
      "260": -0.021699073342807854,
      "261": -0.030031262534583863,
      "262": -0.03342294808542338,
      "263": 0.002651242498591317,
      "264": 0.052205761103273234,
      "265": 0.010929174666042284,
      "266": -0.048385513981354634,
      "267": -0.03660054357014974,
      "268": 0.05431648847257158,
      "269": -0.0335950029705552,
      "270": -0.023060266403521445,
      "271": 0.015941624781158705,
      "272": 0.02119581853093469,
      "273": -0.04482589598124443,
      "274": -0.06532088150568262,
      "275": -0.02920298077756582,
      "276": -0.017310153373390088,
      "277": 0.02268696515650941,
      "278": -0.01734800931676487,
      "279": 0.068566518208993,
      "280": -0.02001749951168603,
      "281": 0.04317891284482097,
      "282": 0.015379453647116665,
      "283": -0.0020797348924888035,
      "284": -0.008713152848409665,
      "285": 0.02499982894019906,
      "286": 0.020839318007156455,
      "287": -0.001936377225949507,
      "288": 0.018345252185589085,
      "289": -0.0010686124950835304,
      "290": 0.005343340070142303,
      "291": 0.0423350209542996,
      "292": 0.032378778053713336,
      "293": 0.0161940480009299,
      "294": 0.027818731689646947,
      "295": 0.05361845449906049,
      "296": -0.011360735256169542,
      "297": 0.01425173190741843,
      "298": -0.058050428769619314,
      "299": -0.026366580231368335,
      "300": 0.002435590918581186,
      "301": -0.01679413952418413,
      "302": 0.022181023949377335,
      "303": -0.0300956684895588,
      "304": 0.02936738106156562,
      "305": -0.01829564895679663,
      "306": -0.009567861957586734,
      "307": 0.026651452784673003,
      "308": 0.016882119034422174,
      "309": -0.056711061275668107,
      "310": 0.04181342022123216,
      "311": 0.016599391322629845,
      "312": 0.029008395440386227,
      "313": 0.008823751467523674,
      "314": 0.014752357622327468,
      "315": 0.02393099212376167,
      "316": 0.032063666110908384,
      "317": -0.011851288555923324,
      "318": -0.019375654653491628,
      "319": -0.017818615157416385,
      "320": -0.01245652399748666,
      "321": -0.035587072187589906,
      "322": 0.038934260874638735,
      "323": 0.01410052012677315,
      "324": -0.03822664323466109,
      "325": -0.07713895670053275,
      "326": -0.05479717602066591,
      "327": -0.013386083262361514,
      "328": -0.01650502724692847,
      "329": 0.005603227296778637,
      "330": -0.014722491560164109,
      "331": 0.07516297139263894,
      "332": -0.012792080666861421,
      "333": 0.03368173399985629,
      "334": -0.0031255993334558785,
      "335": 0.00088496377652341,
      "336": -0.06614431146129329,
      "337": 0.061531490458281504,
      "338": -0.019978982379864063,
      "339": -0.0016040111440802163,
      "340": 0.023508888100359226,
      "341": -0.08362964168901246,
      "342": 0.050591307851745905,
      "343": -0.042240921425866246,
      "344": 0.032376739675070806,
      "345": -0.04513144895913351,
      "346": -0.026209191212517184,
      "347": -0.008877337214591309,
      "348": -0.011629306865835482,
      "349": -0.04330015699916009,
      "350": -0.005983125477485182,
      "351": 0.012534231257864683,
      "352": -0.011340362105257025,
      "353": 0.006217462503327146,
      "354": -0.02781999682478361,
      "355": 0.05833276415996033,
      "356": -0.04031487313259438,
      "357": 0.0017718978326871642,
      "358": -0.03230024287257424,
      "359": -0.0636715257062989,
      "360": -0.008107677699493413,
      "361": -0.027517778772874073,
      "362": -0.03159365174422973,
      "363": -0.01847139720806964,
      "364": 0.02215974238153481,
      "365": -0.010586648698674447,
      "366": 0.0026564026387146974,
      "367": 0.09899645369761136,
      "368": -0.060330133220665334,
      "369": -0.02506739359519629,
      "370": 0.023653620545268667,
      "371": -0.04375994496698479,
      "372": -0.04377375734618033,
      "373": 0.06568698176263392,
      "374": 0.0306572394756846,
      "375": 0.03743509725739435,
      "376": 0.02993604226238814,
      "377": -0.014797003381000455,
      "378": 0.01937257262688533,
      "379": 0.037149805837581186,
      "380": -0.007239145799974303,
      "381": -0.04275586100796719,
      "382": -0.012290265610329478,
      "383": -0.029772412571806905,
      "384": 0.002920390760123391,
      "385": -0.01477695800421482,
      "386": 0.002503167767152605,
      "387": 0.01261440457723888,
      "388": 0.02270878081480048,
      "389": 0.014417496858605336,
      "390": 0.01069841783480887,
      "391": 0.0034474537571615857,
      "392": -0.04275392620972039,
      "393": 0.016849663696380215,
      "394": 0.008920485729460534,
      "395": -0.04070853503741908,
      "396": 0.0004936246750304217,
      "397": 0.013164673056414118,
      "398": -0.040383651314806764,
      "399": 0.01805380843598725,
      "400": 0.02128431447044901,
      "401": -0.07533473079661523,
      "402": 0.024132265742435932,
      "403": -0.029793349711919187,
      "404": 0.020442556190610396,
      "405": 0.03626526002476649,
      "406": 0.010000384856971776,
      "407": 0.03254076952056641,
      "408": -0.031833927358829,
      "409": 0.0024111610315347624,
      "410": 0.008204227843928607,
      "411": 0.058716899279635956,
      "412": -0.022265137133032614,
      "413": -0.016494743705719784,
      "414": -0.024610650569744166,
      "415": -0.06946476637650617,
      "416": -0.01739472611674068,
      "417": -0.014217316361097384,
      "418": 0.011598500258625393,
      "419": 0.010778664845832663,
      "420": -0.02017806068261457,
      "421": 0.01332562669640203,
      "422": 0.007931491223109575,
      "423": -0.003934691150542956,
      "424": 0.0026049032265261568,
      "425": -0.008115068348663339,
      "426": 0.010554445010884561,
      "427": 0.0005567256214267234,
      "428": -0.010564718644489,
      "429": -0.036751670243114855,
      "430": 0.019871487497714342,
      "431": 0.020773792524371736,
      "432": 0.008024368820465998,
      "433": -0.010243088284862912,
      "434": 0.023593843405611326,
      "435": -0.06977787560788815,
      "436": 0.061779857211527435,
      "437": 0.026615401340470857,
      "438": 0.018275931288249673,
      "439": 0.0010154917529903915,
      "440": 0.02490777950642346,
      "441": -0.030090453956213816,
      "442": -0.005755129931811445,
      "443": 0.020597639344284057,
      "444": 0.009854951455194749,
      "445": 0.016368406167617235,
      "446": 0.06909998294785648,
      "447": -0.04176916218405421,
      "448": 0.07053975786612257,
      "449": 0.014998563029207958,
      "450": 0.030536712503212302,
      "451": -0.0018937144141844462,
      "452": 0.01098006641331201,
      "453": 0.05924713718771549,
      "454": -0.02900664505915297,
      "455": 0.011963573487845797,
      "456": -0.004303269366160688,
      "457": -0.041829444457873975,
      "458": 0.03772839185880472,
      "459": -0.00903492438152404,
      "460": 0.0075650647175636646,
      "461": 0.04648534387421573,
      "462": 0.006288723513355504,
      "463": -0.02909055446761297,
      "464": -0.07101656239958029,
      "465": -0.04901978073742695,
      "466": 0.004254246394154414,
      "467": 0.037290890427537915,
      "468": 0.09016327749575304,
      "469": -0.0263967558073775,
      "470": 0.01900954252717153,
      "471": -0.0012547038359199706,
      "472": -0.022295023509213422,
      "473": -0.02588078614210367,
      "474": -0.021338725099410275,
      "475": 0.004593671418570999,
      "476": 0.0740518551118165,
      "477": 0.023700714535212296,
      "478": -0.0026109180786546135,
      "479": 0.005374209207438942,
      "480": -0.019189626546538784,
      "481": -0.04172428837003854,
      "482": -0.03867123955978922,
      "483": 0.026044617438856048,
      "484": -0.012052973403829414,
      "485": -0.006374510617738088,
      "486": -0.01447465085496492,
      "487": -0.005571567779475423,
      "488": 0.05394767529806673,
      "489": -0.020177550007580754,
      "490": 0.07619801150718143,
      "491": 0.048730013489301754,
      "492": 0.024094324690001317,
      "493": -0.023010576687667875,
      "494": 0.010389268268328533,
      "495": -0.03782226572406786,
      "496": 0.0009769710041855452,
      "497": -0.06262593737292503,
      "498": 0.019783235612022866,
      "499": -0.08290832368233945,
      "500": 0.01093377778248177,
      "501": 0.07293926947914144,
      "502": 0.0022568443855141254,
      "503": 0.015082378953286544,
      "504": -0.030049620295125937,
      "505": 0.03604598581219263,
      "506": -0.001273839734624279,
      "507": 0.01173829654672758,
      "508": -0.015880900112558268,
      "509": -0.03890912807470977,
      "510": -0.02676917737552395,
      "511": -0.046799741149355735,
      "512": -0.017781464833013846,
      "513": 0.014957770884093004,
      "514": 0.038682731606386134,
      "515": -0.013163350114380861,
      "516": -0.08354333579243065,
      "517": -0.029683956539707155,
      "518": 0.07116070484319821,
      "519": 0.025397171914159685,
      "520": -0.005545154673660295,
      "521": 0.021378229638336167,
      "522": 0.02031587197667465,
      "523": 0.006636416745699969,
      "524": 0.017534988166325698,
      "525": 0.02307471672649177,
      "526": 0.041682653394151475,
      "527": 0.009999930628401417,
      "528": 0.004092983585879344,
      "529": 0.05045843365896094,
      "530": 0.09089792659187054,
      "531": 0.007928598387136046,
      "532": -0.04553256764315446,
      "533": 0.007490386509980153,
      "534": 0.03410432208438861,
      "535": 0.047349094080944135,
      "536": 0.0012452535609501938,
      "537": -0.011478565331580549,
      "538": -0.026553880058574546,
      "539": -0.07875917493702422,
      "540": -0.02669333337185984,
      "541": 0.02942658690228142,
      "542": -0.028114703886246886,
      "543": -0.0358678617739233,
      "544": -0.021322224966742916,
      "545": 0.035954347061400486,
      "546": 0.02304241402497135,
      "547": -0.04804814302107039,
      "548": -0.04056162610930119,
      "549": 0.0016323678843568482,
      "550": -0.04916650721580023,
      "551": 0.0348592416499265,
      "552": 0.052667574392376945,
      "553": 0.009941800314130732,
      "554": -0.037817347470674334,
      "555": -0.02370829414960013,
      "556": -0.06686929684439824,
      "557": -0.015825410731244275,
      "558": 0.01179540729101239,
      "559": -0.024340955601425483,
      "560": 0.08080667145891168,
      "561": 0.05771413966495505,
      "562": 0.005314570947316322,
      "563": 0.00842436444534161,
      "564": 0.06419572427593147,
      "565": 0.06594644535672675,
      "566": 0.07260845241535134,
      "567": -0.006438301862505153,
      "568": 0.009641738609548606,
      "569": 0.007451017764768551,
      "570": 0.020891703939220033,
      "571": 0.05183317852277543,
      "572": 0.03096977657971053,
      "573": -0.0296974205664291,
      "574": -0.056335810585921305,
      "575": -0.05728464059460563,
      "576": -0.015932115189029813,
      "577": -0.048197050977632605,
      "578": 0.011257287770724154,
      "579": 0.024621684948342104,
      "580": -0.030147726712354484,
      "581": 0.033550851900184406,
      "582": -0.029219713317629303,
      "583": 0.004582143892587629,
      "584": -0.007134705159651902,
      "585": -0.01273342910919111,
      "586": 0.07072913249794284,
      "587": 0.0033482100384380374,
      "588": -0.014775717765853378,
      "589": -0.018360270542960265,
      "590": -0.04581177361512286,
      "591": -0.0052485076496813,
      "592": -0.009061082325100878,
      "593": -0.046739920059918325,
      "594": 0.020123113258843844,
      "595": -0.0007529315070140007,
      "596": -0.06857452419295555,
      "597": -0.01841164687649815,
      "598": 0.06231749274980872,
      "599": -0.004966675461395319,
      "600": 0.004825149746112484,
      "601": 0.0897958176673112,
      "602": 0.02125641613500814,
      "603": 0.003421597937582463,
      "604": 0.06377505957821943,
      "605": -0.0006985685475773048,
      "606": -0.03600257633527926,
      "607": 0.018815780495412042,
      "608": 0.008218861151108356,
      "609": -0.003913731573177468,
      "610": -0.06138509027772289,
      "611": 0.01291419060523353,
      "612": 0.033319944692512746,
      "613": -0.04733850350797692,
      "614": 0.05448446682310872,
      "615": -0.017528633353526966,
      "616": -0.007774633979860331,
      "617": -0.003127107821731932,
      "618": 0.006207057708846296,
      "619": -0.02288521498843388,
      "620": -0.049188523045272124,
      "621": -0.053689781712839856,
      "622": -0.0014982081019789565,
      "623": -0.06844922726378241,
      "624": 0.06878698673419142,
      "625": -0.019822590869855338,
      "626": 0.04014092555321852,
      "627": 0.024000997869357058,
      "628": 0.02705391401991477,
      "629": 0.025626100976248383,
      "630": -0.025337180593290883,
      "631": 0.05470238407976887,
      "632": 0.014461040552187993,
      "633": -0.02402249379578773,
      "634": -0.015590555359626883,
      "635": -0.0222708566321687,
      "636": -0.0020834872528742387,
      "637": -0.05407198455659124,
      "638": 0.01080752484560068,
      "639": -0.04607840572860643,
      "640": 0.011466475713125887,
      "641": 0.04822869938957144,
      "642": 0.014065026016996615,
      "643": 0.006344240319700659,
      "644": -0.02788494188637722,
      "645": -0.009230510920846844,
      "646": 0.045322124672843744,
      "647": 0.028905936838800477,
      "648": -0.0653815039135069,
      "649": -0.012942415729360033,
      "650": -0.006103972112917757,
      "651": -0.009579193535475379,
      "652": -0.013280211801738422,
      "653": -0.041075215406077954,
      "654": 0.050751447180700064,
      "655": -0.031917428514102016,
      "656": -0.02345169458686931,
      "657": -0.0033554390464334313,
      "658": -0.03946237845208392,
      "659": 0.048200654060689206,
      "660": 0.011858412260033235,
      "661": -0.041718696036370434,
      "662": 0.07521356302514243,
      "663": 0.03996884975331216,
      "664": 0.07315011347941684,
      "665": 0.013837891143648667,
      "666": -0.029040701247427504,
      "667": -0.017939236029264546,
      "668": -0.027822523954391876,
      "669": -0.03488648328768138,
      "670": -0.06167781312666819,
      "671": -0.006252941953854829,
      "672": 0.016466937026483563,
      "673": -0.053969213344118146,
      "674": -0.010259572868843833,
      "675": -0.029166731288688384,
      "676": 0.03697131736159666,
      "677": -0.03547069082052211,
      "678": 0.012877724291494133,
      "679": 0.013297452802738306,
      "680": -0.04205239372770076,
      "681": 0.02676669179029296,
      "682": -0.027206067417850834,
      "683": -0.005072565551728746,
      "684": 0.05093059494310785,
      "685": 0.035482007800757304,
      "686": 0.04668740374198042,
      "687": -0.028560129722188677,
      "688": -0.05797809337558526,
      "689": -0.00004428220907369206,
      "690": -0.030473224750280085,
      "691": -0.04410906023900364,
      "692": 0.04277937576837902,
      "693": -0.04697826296722131,
      "694": 0.02360438868316808,
      "695": 0.060688804224125675,
      "696": -0.04159296500320892,
      "697": 0.0407695196829671,
      "698": -0.011898209868601487,
      "699": 0.026434228088338493,
      "700": 0.004574501668966824,
      "701": 0.03200503996343713,
      "702": 0.03317594695926103,
      "703": -0.07252861523645786,
      "704": 0.028940245905115573,
      "705": -0.0073211908500939275,
      "706": 0.027372136803870708,
      "707": -0.08027785205883232,
      "708": -0.05427256467852593,
      "709": 0.021083131101599723,
      "710": 0.012142775808970406,
      "711": -0.02722229874684851,
      "712": 0.03589432857323967,
      "713": -0.00029189693575287524,
      "714": 0.006174269023690579,
      "715": -0.018378931995271602,
      "716": -0.005472515387736188,
      "717": -0.009036629695926893,
      "718": 0.03860821758176963,
      "719": -0.030314638078613322,
      "720": 0.010732333634894042,
      "721": 0.008581813954072154,
      "722": -0.02015016398846704,
      "723": 0.028661112414824746,
      "724": 0.09113312771372985,
      "725": -0.006876217390971016,
      "726": -0.014026683033948271,
      "727": 0.04070989705551277,
      "728": 0.04449912512856992,
      "729": 0.02367229092309215,
      "730": 0.004894068219350062,
      "731": 0.008539033572264767,
      "732": 0.014993610542504058,
      "733": 0.038464364820709813,
      "734": -0.04045152488685442,
      "735": 0.02070338302354786,
      "736": -0.049130493749404924,
      "737": -0.011178820189563793,
      "738": -0.007746956694660063,
      "739": -0.010852705838580595,
      "740": 0.007382725910442073,
      "741": 0.018945840304226167,
      "742": 0.0370888411860643,
      "743": -0.012149953925855363,
      "744": -0.030893938417976628,
      "745": 0.055149788786657085,
      "746": -0.05485706436142055,
      "747": -0.03652816242268726,
      "748": -0.02976621239319653,
      "749": 0.008783105867199568,
      "750": -0.0253370011844969,
      "751": -0.004580447605405003,
      "752": -0.016876126082599065,
      "753": 0.020226150702655633,
      "754": 0.035210141202214794,
      "755": 0.002103257138445337,
      "756": -0.03585603591082116,
      "757": -0.01665099695271892,
      "758": 0.014758170827245874,
      "759": 0.0022844837001996937,
      "760": -0.016768174581312544,
      "761": -0.014277916927511307,
      "762": -0.0059849512180965075,
      "763": -0.04078303492634065,
      "764": 0.031055165735418878,
      "765": -0.022237942068661073,
      "766": -0.019214902241321663,
      "767": 0.11991313985272707,
      "768": -0.04652677173469127,
      "769": -0.009104829735619002,
      "770": 0.05825306591184396,
      "771": 0.04665358532339803,
      "772": -0.029144722518533277,
      "773": -0.04391392639268798,
      "774": -0.0526077699414429,
      "775": 0.028547884852409864,
      "776": 0.02032822688428655,
      "777": 0.02295081509696695,
      "778": -0.010495943143820562,
      "779": -0.008125669520641086,
      "780": 0.025164073094932342,
      "781": -0.05788667599551378,
      "782": 0.0154806454716433,
      "783": -0.010492252492567803,
      "784": -0.014305821887919994,
      "785": 0.015177060489076548,
      "786": -0.016828073254923064,
      "787": 0.010790735073101902,
      "788": -0.014647073145540783,
      "789": -0.015292905799393042,
      "790": -0.015318026686559346,
      "791": 0.01082191389266308,
      "792": -0.08633850254516542,
      "793": 0.030526529396999912,
      "794": 0.02560293514115549,
      "795": 0.028972858071396636,
      "796": 0.013665167036316669,
      "797": 0.005846941622368101,
      "798": -0.0312812084518496,
      "799": -0.022581383952062137,
      "800": -0.01662206221617293,
      "801": 0.04670788087203144,
      "802": -0.016076636104299286,
      "803": -0.010600464964435929,
      "804": 0.018029980270122984,
      "805": 0.01026279993065857,
      "806": -0.023483467098416134,
      "807": -0.00490709056368474,
      "808": 0.002760918616606258,
      "809": 0.026707424264403663,
      "810": -0.006167444128118185,
      "811": 0.0019256542633906014,
      "812": 0.004727498113098663,
      "813": -0.01185176365419169,
      "814": -0.0037956213873154617,
      "815": 0.005487899031263606,
      "816": -0.08088134008865036,
      "817": 0.0176901096039353,
      "818": -0.016632114557225332,
      "819": 0.052665494320249244,
      "820": 0.013572178658425842,
      "821": 0.010022234437263189,
      "822": 0.007148496613951712,
      "823": -0.013207044047827084,
      "824": -0.029257749542954646,
      "825": 0.033481490648340446,
      "826": 0.021050513247081685,
      "827": 0.043314025147317255,
      "828": 0.06273027870174602,
      "829": -0.016625025429344038,
      "830": -0.01649631045599943,
      "831": 0.03316720851556813,
      "832": -0.01562376572128988,
      "833": -0.09375897202392262,
      "834": -0.028580252956145986,
      "835": -0.049636825500241795,
      "836": -0.03428777865277808,
      "837": 0.008129514870502938
     }
    },
    {
     "sx": 1,
     "sy": 1,
     "depth": 838,
     "w": {
      "0": 0.05104322573905327,
      "1": 0.02694068887585952,
      "2": 0.002509455208692749,
      "3": 0.038263376030670794,
      "4": -0.0030380072180776034,
      "5": 0.04106455618094507,
      "6": -0.011399737485373233,
      "7": -0.025501839425430634,
      "8": -0.028444624487277206,
      "9": -0.04123280130777431,
      "10": 0.03900124359223558,
      "11": 0.02274491429456738,
      "12": -0.07963806271265125,
      "13": 0.01738168365997243,
      "14": -0.004177453295110973,
      "15": 0.014607634303173429,
      "16": -0.05181136914685225,
      "17": -0.011259724326280888,
      "18": -0.0029987412743211488,
      "19": -0.03525686651847104,
      "20": -0.011007914195656892,
      "21": -0.01504098096786629,
      "22": 0.0206528741880105,
      "23": -0.0427291784977388,
      "24": -0.03527422330909439,
      "25": -0.09111637267031597,
      "26": -0.04861725181209302,
      "27": -0.011144480141893677,
      "28": 0.0678051634335012,
      "29": 0.02084681500903059,
      "30": -0.07001134979645864,
      "31": -0.002726307146239331,
      "32": -0.0717711161440454,
      "33": -0.0029109832980828312,
      "34": 0.026558153298886982,
      "35": 0.0265128122347505,
      "36": -0.03901331039764189,
      "37": -0.002087133256418451,
      "38": 0.0087920066146946,
      "39": 0.03528297521954994,
      "40": -0.05721087698427938,
      "41": -0.00979061447671451,
      "42": 0.030883918024060215,
      "43": 0.023035043958043826,
      "44": 0.0057179161354490955,
      "45": 0.014296059040695272,
      "46": -0.00026467255024323783,
      "47": 0.0010646250726408942,
      "48": 0.006034597440725142,
      "49": -0.021905137082988375,
      "50": -0.02030373906802371,
      "51": -0.12381701883486042,
      "52": 0.020222169622460765,
      "53": 0.02400261041765065,
      "54": -0.00672756457757551,
      "55": 0.009413129734217039,
      "56": 0.021301523677380606,
      "57": -0.03014525903150088,
      "58": 0.022940535623576903,
      "59": -0.042863390792937064,
      "60": -0.021604343767076626,
      "61": -0.026055360207286608,
      "62": -0.03793512860788406,
      "63": 0.029238719889984076,
      "64": -0.029640663609274247,
      "65": 0.045454788768072796,
      "66": -0.032460476422201325,
      "67": -0.023927055468893427,
      "68": 0.020112201924947122,
      "69": -0.035575866446589596,
      "70": -0.01609023744755895,
      "71": -0.08736741783283414,
      "72": 0.022408790110099185,
      "73": 0.015572110561054398,
      "74": -0.0030288580765167406,
      "75": 0.02651126016783878,
      "76": -0.10474648238366112,
      "77": 0.003041830535220741,
      "78": 0.004759081005950916,
      "79": 0.03807643861900009,
      "80": 0.03211888309178544,
      "81": -0.052148562223401564,
      "82": 0.03865052124743437,
      "83": -0.04975679791560831,
      "84": 0.01941369981333624,
      "85": -0.001149895636437411,
      "86": 0.04339142863730821,
      "87": -0.05194062619497631,
      "88": 0.0354662549768773,
      "89": -0.02334959421354552,
      "90": -0.046481903032602974,
      "91": 0.01907965523413916,
      "92": -0.0024515898167279445,
      "93": -0.007300486591569378,
      "94": 0.021475234529013947,
      "95": 0.05152409707521409,
      "96": 0.05532823042007575,
      "97": -0.02256858248986793,
      "98": 0.05294460297715519,
      "99": -0.012020772931301903,
      "100": -0.0011388544784126395,
      "101": -0.025316279674271278,
      "102": 0.02488204956715485,
      "103": 0.05829635866530692,
      "104": -0.034513774383418516,
      "105": -0.07902480745503657,
      "106": 0.0013610212550285018,
      "107": 0.02839544149854855,
      "108": 0.09314733325411224,
      "109": 0.01641544765486222,
      "110": 0.00860645616168895,
      "111": 0.04407694218591463,
      "112": 0.05036598479200784,
      "113": -0.005240584552732361,
      "114": -0.00982170232629009,
      "115": -0.03611970185831077,
      "116": 0.004668714971936273,
      "117": -0.04630794119503038,
      "118": -0.025958481825567113,
      "119": 0.03912755886303158,
      "120": 0.005790790286246295,
      "121": -0.03407068194477163,
      "122": 0.029835043960916633,
      "123": -0.0031476605454821218,
      "124": -0.04424876038194183,
      "125": -0.04083216933375492,
      "126": -0.04585029033126642,
      "127": 0.032877903163920225,
      "128": -0.005721380129597581,
      "129": 0.008137469529295784,
      "130": 0.019597519443901944,
      "131": -0.05069050496260012,
      "132": 0.05969577594069097,
      "133": 0.11110687670589738,
      "134": -0.027752679062919738,
      "135": -0.06096848925772205,
      "136": 0.025631151186835285,
      "137": 0.02648740030733201,
      "138": -0.03230901803356003,
      "139": -0.038821896779417234,
      "140": 0.004048812358415847,
      "141": 0.031054839324866898,
      "142": -0.05971755867111791,
      "143": -0.03723496242451292,
      "144": -0.025672499341900596,
      "145": -0.055161892888509534,
      "146": 0.04756579404338337,
      "147": -0.02413990281614345,
      "148": -0.0330478693492775,
      "149": 0.010357410426522985,
      "150": -0.018905631602908275,
      "151": 0.0008302058752779145,
      "152": -0.002195877196665427,
      "153": -0.004191816856186118,
      "154": 0.005503747431601824,
      "155": -0.007197213815618285,
      "156": -0.06464978889070525,
      "157": 0.0003664950625016735,
      "158": 0.0024038796936518216,
      "159": 0.016874151589227764,
      "160": -0.024813734280908807,
      "161": 0.01331108808123091,
      "162": -0.04017791081715366,
      "163": 0.0016346799603058051,
      "164": 0.02382388810582012,
      "165": -0.009969651659916829,
      "166": -0.00923226403144384,
      "167": 0.05417396421005484,
      "168": 0.009071351362655503,
      "169": -0.027372801162798225,
      "170": 0.002857494554632675,
      "171": 0.027732549995065726,
      "172": 0.04274060033623053,
      "173": 0.02487231732833689,
      "174": -0.021869397191921113,
      "175": 0.04067774209186557,
      "176": 0.008096955632031236,
      "177": 0.024642076159190576,
      "178": 0.01006885318585299,
      "179": 0.030532411049762603,
      "180": 0.027603784839924688,
      "181": -0.00617392539555568,
      "182": -0.04669799129797946,
      "183": -0.0009623573001829639,
      "184": 0.05019515722882864,
      "185": -0.018055472764771558,
      "186": -0.05444560801585306,
      "187": -0.047514574968244995,
      "188": 0.014197653304135319,
      "189": 0.017029397107805135,
      "190": 0.04319111003763725,
      "191": 0.015683090491105365,
      "192": -0.006710556088100604,
      "193": 0.059077700114959185,
      "194": -0.08210265823000497,
      "195": 0.039302992281693754,
      "196": 0.014848087313385092,
      "197": -0.023984242418066362,
      "198": 0.008551697899450768,
      "199": -0.03199778125598185,
      "200": 0.017941194636964915,
      "201": -0.019185154492247124,
      "202": 0.014902863854934029,
      "203": 0.0015893672378233825,
      "204": 0.02896230361026628,
      "205": -0.0032222671061739394,
      "206": 0.005246695400087968,
      "207": -0.02847884619559747,
      "208": 0.008552898354236891,
      "209": -0.02898842264623327,
      "210": -0.007361834739176121,
      "211": -0.023054593846880713,
      "212": -0.05257495639776034,
      "213": -0.02097482860118931,
      "214": 0.030586394436506226,
      "215": -0.036663225520632045,
      "216": 0.03094685398884534,
      "217": -0.04141655336275431,
      "218": 0.0530676167124626,
      "219": 0.010636336763370472,
      "220": 0.024221528705544212,
      "221": 0.020663959643321676,
      "222": -0.00382394692583625,
      "223": -0.033560302917799635,
      "224": -0.03333563265374911,
      "225": -0.03316779580505151,
      "226": 0.03516186062198491,
      "227": 0.017455162773075624,
      "228": -0.013938958664934997,
      "229": -0.008549237360936237,
      "230": 0.041667887927687684,
      "231": -0.019113471424344997,
      "232": -0.002898335651755574,
      "233": 0.03534316901782605,
      "234": -0.017645127360153598,
      "235": -0.016400789107144296,
      "236": 0.06180135921472952,
      "237": -0.03637329511659879,
      "238": -0.01841076757989562,
      "239": 0.01671177004214374,
      "240": 0.01824262791250284,
      "241": -0.0013212692908945313,
      "242": 0.005512152394213717,
      "243": -0.0021539804813243235,
      "244": 0.029053084918577058,
      "245": 0.03677216749135274,
      "246": -0.039805384032548005,
      "247": 0.02338401918986724,
      "248": -0.03789264804491578,
      "249": 0.0021299514574970356,
      "250": 0.0016993255902342111,
      "251": -0.010013767271933646,
      "252": 0.01856904945692735,
      "253": -0.05491716255830651,
      "254": -0.014391843046809474,
      "255": -0.019964450031710906,
      "256": -0.07828383421956472,
      "257": -0.04114368827856043,
      "258": -0.00880729449631118,
      "259": 0.007852549938945984,
      "260": 0.002849047193371457,
      "261": -0.02722301813531136,
      "262": -0.01299143623814551,
      "263": 0.03190563844300707,
      "264": 0.030669298810399346,
      "265": 0.009015208794755364,
      "266": -0.04764259008802561,
      "267": 0.02103643409707109,
      "268": 0.02430818858360933,
      "269": -0.05513918058337559,
      "270": -0.005769108229097858,
      "271": 0.01140675747750593,
      "272": 0.014127076224261783,
      "273": -0.03688584932198491,
      "274": 0.008641474533654013,
      "275": 0.017915317879263638,
      "276": -0.014396393871608909,
      "277": 0.0596294369472988,
      "278": 0.005385338461083573,
      "279": 0.0200776327077565,
      "280": -0.04828885977134978,
      "281": 0.0087318029543411,
      "282": 0.03321624348736095,
      "283": 0.010806394821277638,
      "284": -0.025172737117516497,
      "285": -0.009325978897280082,
      "286": -0.005534351951832144,
      "287": 0.004051288468731558,
      "288": 0.01130342213111972,
      "289": -0.03185342828944992,
      "290": 0.06682240649570086,
      "291": 0.06556906748023004,
      "292": 0.03627620218466558,
      "293": -0.0032270947965178072,
      "294": 0.03721535583334087,
      "295": 0.014494948030961578,
      "296": -0.012194104890288415,
      "297": 0.0010342175749716719,
      "298": 0.005288605704584348,
      "299": 0.01941401609070084,
      "300": -0.004866598087499116,
      "301": -0.010596647809185678,
      "302": -0.05749461905892128,
      "303": 0.02922172757095469,
      "304": 0.01933678296025591,
      "305": 0.0007649151900764408,
      "306": -0.01757339153381712,
      "307": 0.01305170255083563,
      "308": -0.01761567792282767,
      "309": 0.02079312350666106,
      "310": 0.055917685439307675,
      "311": -0.009624244107818763,
      "312": 0.03448088672611487,
      "313": 0.0694796314431676,
      "314": -0.045917850708604394,
      "315": 0.022875483719941102,
      "316": 0.07082330067130439,
      "317": -0.005923021594494183,
      "318": 0.022113804589778865,
      "319": -0.046727201993226726,
      "320": -0.018026005360927144,
      "321": -0.024373081575766897,
      "322": -0.03592656152277758,
      "323": 0.0421632540623791,
      "324": -0.038055106958909006,
      "325": -0.01221472163315592,
      "326": 0.033138542196715,
      "327": 0.012463458526714441,
      "328": 0.012790867542201776,
      "329": -0.0455635868568647,
      "330": -0.03975228969814599,
      "331": -0.004428232226962621,
      "332": 0.041355404341493575,
      "333": -0.01460076157386195,
      "334": 0.058918416990226784,
      "335": 0.047966632879444526,
      "336": -0.046482671766622574,
      "337": -0.0045071614214900165,
      "338": 0.06390986026290334,
      "339": -0.03288419158704927,
      "340": 0.019408680273774716,
      "341": 0.02054203278290126,
      "342": 0.03382238293263019,
      "343": -0.03700738716098763,
      "344": -0.03303185736752087,
      "345": -0.009938269976567342,
      "346": -0.013687289907837968,
      "347": 0.012345606669337475,
      "348": -0.04774572161950901,
      "349": 0.009977984812416003,
      "350": -0.002861740483280833,
      "351": -0.003851758958190011,
      "352": 0.024624395793159073,
      "353": 0.042071206517996174,
      "354": 0.04791339473623317,
      "355": 0.06093985892300858,
      "356": 0.026215325307482645,
      "357": 0.004645588681080897,
      "358": -0.02668155177870059,
      "359": -0.06560460987134005,
      "360": 0.023500211514446007,
      "361": 0.03437739625573785,
      "362": -0.06868234577104963,
      "363": -0.01615886815369209,
      "364": -0.025128752740315227,
      "365": 0.01084411058340324,
      "366": -0.010699400279140125,
      "367": 0.07243403966211873,
      "368": 0.09026537467492304,
      "369": -0.015726447834695526,
      "370": 0.027165162721452907,
      "371": -0.06389081853650942,
      "372": -0.014505795794185533,
      "373": -0.03405507280582722,
      "374": -0.06700144331560502,
      "375": 0.003760260503814645,
      "376": 0.010923059123877511,
      "377": 0.019583731947759125,
      "378": 0.05184583197852233,
      "379": -0.004783142637506354,
      "380": 0.0010672152491511303,
      "381": -0.020270428424145007,
      "382": 0.020974757118624166,
      "383": 0.00960133511025191,
      "384": -0.04433627952812051,
      "385": -0.043459698885070806,
      "386": 0.033736211485917725,
      "387": -0.031084065816376447,
      "388": 0.002910261796609212,
      "389": -0.03215516696891933,
      "390": 0.05277544158432905,
      "391": 0.04799841986354216,
      "392": 0.0028224803426498764,
      "393": -0.03270460246095014,
      "394": 0.007897293226239058,
      "395": -0.007572642639079122,
      "396": -0.011565561548072716,
      "397": 0.0030704380088143104,
      "398": -0.00474022962568022,
      "399": 0.02499011555687833,
      "400": 0.06579513938327808,
      "401": 0.030525350603543774,
      "402": 0.008961696441939074,
      "403": -0.0966850742231058,
      "404": 0.015769490432847,
      "405": 0.03607347725249915,
      "406": 0.01802194117288909,
      "407": -0.011916498089712263,
      "408": 0.014629717699147855,
      "409": -0.020071850556936246,
      "410": 0.02092108274953942,
      "411": 0.011998571892553838,
      "412": -0.015195304893979668,
      "413": -0.009051899834240953,
      "414": 0.018263828978246,
      "415": -0.03713387308210861,
      "416": 0.010450088258514805,
      "417": -0.00038091587327494987,
      "418": 0.08724128993908191,
      "419": 0.02290274467845356,
      "420": 0.030675165286542457,
      "421": -0.0019532373164241807,
      "422": 0.03577040243345116,
      "423": 0.00168996819860421,
      "424": 0.02515042499922452,
      "425": -0.009495499884654252,
      "426": -0.00035778277362833334,
      "427": 0.0020984958809422216,
      "428": -0.012072469883184262,
      "429": -0.010117198282266074,
      "430": -0.0007054357692714117,
      "431": 0.05227354219492417,
      "432": 0.024514997147906576,
      "433": 0.021044579308665233,
      "434": -0.03033805226517907,
      "435": 0.01885054972184125,
      "436": 0.006265130815100952,
      "437": 0.018174057543770213,
      "438": -0.0198464421963687,
      "439": -0.015584464888250854,
      "440": -0.07723445529187364,
      "441": 0.02721013919978859,
      "442": -0.01824244919565643,
      "443": -0.027746612437981974,
      "444": -0.03571273086744785,
      "445": 0.06532773359265122,
      "446": -0.0454752809205062,
      "447": -0.07905035876304603,
      "448": -0.013266990527313033,
      "449": -0.06372414653847941,
      "450": 0.002474405058976221,
      "451": -0.03848830051341545,
      "452": 0.013953319719952383,
      "453": 0.044476589035054505,
      "454": 0.004268319049090093,
      "455": -0.00762225161270105,
      "456": -0.07790832248389168,
      "457": -0.019253986827049707,
      "458": -0.01228658437050023,
      "459": 0.049978532627373645,
      "460": -0.03641828424571363,
      "461": -0.034572678396006244,
      "462": -0.0200960286457071,
      "463": 0.027168833777944244,
      "464": 0.03376866294645094,
      "465": -0.015803817037928648,
      "466": 0.04884278075075084,
      "467": 0.016781015456178692,
      "468": -0.026754490999674363,
      "469": -0.011517673541697686,
      "470": -0.03618301374467524,
      "471": -0.028685737502696044,
      "472": 0.04923612526418768,
      "473": 0.012233664598624931,
      "474": 0.034395069648261306,
      "475": 0.033188540375856196,
      "476": -0.030005616120899976,
      "477": 0.011750635524354075,
      "478": -0.01883601762862968,
      "479": 0.0013791688219411747,
      "480": -0.03347083079689574,
      "481": 0.033770481371121555,
      "482": -0.03232230376969086,
      "483": 0.07997678901111174,
      "484": 0.01236679817044565,
      "485": -0.02630936317142211,
      "486": 0.025588319703349478,
      "487": 0.005039616601341988,
      "488": -0.031814145998002856,
      "489": 0.04317276210287511,
      "490": -0.010628959337019206,
      "491": -0.013944456481204149,
      "492": 0.008342034736913098,
      "493": 0.02240337623826544,
      "494": -0.05096575834540672,
      "495": -0.011214026600041532,
      "496": -0.06754890087891037,
      "497": 0.05292625257885335,
      "498": -0.051623146730039905,
      "499": 0.04030905388477281,
      "500": -0.010692115699615267,
      "501": 0.005508682602979368,
      "502": 0.013724849427080918,
      "503": 0.015698198199174767,
      "504": 0.04785894174380446,
      "505": -0.01827809782486899,
      "506": -0.054098776117038685,
      "507": -0.03467064061262908,
      "508": -0.03244756766465346,
      "509": -0.051835136564279655,
      "510": 0.03085772154901796,
      "511": -0.010725192519389247,
      "512": -0.03324615332755492,
      "513": 0.030208688936790063,
      "514": 0.02845392834756631,
      "515": 0.03497143819755305,
      "516": 0.035803916111311125,
      "517": 0.0185029217983451,
      "518": -0.027901960527245414,
      "519": -0.00401871772614605,
      "520": -0.01762500163575682,
      "521": 0.004134999824124276,
      "522": -0.005144815780399671,
      "523": -0.05182384008551704,
      "524": -0.060235967285523564,
      "525": 0.08248513029955738,
      "526": 0.01678857319993154,
      "527": -0.0026292458238244285,
      "528": -0.028113096934161173,
      "529": -0.05004284879746914,
      "530": -0.004608790314238217,
      "531": 0.010533548970683168,
      "532": 0.043326148586044916,
      "533": -0.016555626514692553,
      "534": -0.016876997506004448,
      "535": -0.06378745979371767,
      "536": -0.0665111765195723,
      "537": -0.022148887747318224,
      "538": -0.05956275700082918,
      "539": -0.008126057572392048,
      "540": 0.010571368498422254,
      "541": 0.034367013606171073,
      "542": 0.012820668227812838,
      "543": 0.01767985069289502,
      "544": -0.002366623966645243,
      "545": -0.005370685845300708,
      "546": -0.050679588951054566,
      "547": -0.04168544088623489,
      "548": 0.01956072813255838,
      "549": -0.008708851720686705,
      "550": 0.061854434770886424,
      "551": -0.006909335741707871,
      "552": 0.08072657911379123,
      "553": -0.00824998665706105,
      "554": 0.004527527690907086,
      "555": -0.03200713731354954,
      "556": -0.04497523163613217,
      "557": 0.014195251921757033,
      "558": 0.013235492006061191,
      "559": -0.02115260966038843,
      "560": 0.00869099257224756,
      "561": -0.018118540818043347,
      "562": 0.042735776140974464,
      "563": 0.006768828375494332,
      "564": -0.011489661313032792,
      "565": 0.043285787821554414,
      "566": 0.01828341822128739,
      "567": -0.010044785858512217,
      "568": -0.010600916104540468,
      "569": -0.03753378035983068,
      "570": 0.024113976287240553,
      "571": 0.04332340501234765,
      "572": 0.02773741905602568,
      "573": 0.0059496651897470425,
      "574": -0.03334910824896053,
      "575": -0.00033962603893671024,
      "576": 0.00002855872377296809,
      "577": 0.006681613969960438,
      "578": 0.0012377180192686596,
      "579": -0.016895487821976526,
      "580": -0.005593103365350531,
      "581": -0.022529750114912293,
      "582": -0.031864101904612196,
      "583": 0.04247304409127144,
      "584": 0.023576464813399298,
      "585": 0.010520943850612698,
      "586": -0.033119224215370086,
      "587": -0.028124046241044264,
      "588": -0.016865687833751884,
      "589": 0.022941005196354843,
      "590": 0.025586358071806873,
      "591": 0.02936138607464613,
      "592": 0.010361101245080048,
      "593": -0.04953190835029727,
      "594": 0.009993973550371571,
      "595": 0.02877414676079123,
      "596": -0.002115224998022496,
      "597": 0.047789264252360554,
      "598": 0.02549634713990606,
      "599": -0.020500990694531623,
      "600": -0.029219202880365832,
      "601": 0.0008537051082718774,
      "602": -0.030286532903544702,
      "603": 0.007171988362503182,
      "604": -0.034536054108940735,
      "605": 0.04171206614619154,
      "606": -0.03258998887098449,
      "607": 0.027205276203328795,
      "608": 0.008554118844281922,
      "609": 0.038056432972122585,
      "610": -0.005858228137061458,
      "611": -0.03723660141388422,
      "612": 0.022068808188754525,
      "613": -0.009374376818650474,
      "614": -0.0574962381728457,
      "615": 0.05185788041564833,
      "616": -0.007947081367152031,
      "617": -0.023513053673422095,
      "618": 0.001633046418182379,
      "619": -0.016704380792543248,
      "620": -0.00004069290259066242,
      "621": -0.004312494074630316,
      "622": 0.015593138838257675,
      "623": 0.0069111305714414555,
      "624": 0.049241613803346566,
      "625": 0.029981709980511174,
      "626": -0.0039592435416033285,
      "627": -0.0366408609798201,
      "628": 0.026659432035608728,
      "629": -0.034542980319172155,
      "630": -0.008916866602553968,
      "631": -0.035507432218334994,
      "632": 0.020181658096612307,
      "633": 0.019623506439271184,
      "634": 0.022903246020782253,
      "635": -0.00949327961211753,
      "636": 0.01989884388635461,
      "637": -0.026013865202235916,
      "638": 0.08025842149690716,
      "639": 0.009055041243212368,
      "640": 0.042235867521596804,
      "641": -0.015433470241891428,
      "642": 0.034916017083128546,
      "643": -0.0009826686594038363,
      "644": -0.01406254671117619,
      "645": 0.11265089588494542,
      "646": -0.03680643181791939,
      "647": -0.10273023066718193,
      "648": 0.020686406261027832,
      "649": 0.01702924936606389,
      "650": 0.009541772060650053,
      "651": 0.005125007206867736,
      "652": 0.046544909684061185,
      "653": -0.0420457119704508,
      "654": 0.010976673294356355,
      "655": 0.0072622111382246125,
      "656": 0.0010244932047822064,
      "657": -0.01964690813751625,
      "658": -0.04750377620216851,
      "659": -0.02164776362659921,
      "660": -0.03062724975251475,
      "661": 0.002343973837739794,
      "662": -0.008665162331519198,
      "663": 0.001356253885593186,
      "664": -0.009899521287920177,
      "665": 0.05001625018141517,
      "666": -0.0027516518640656306,
      "667": 0.05173242639326795,
      "668": -0.03094677996887719,
      "669": -0.0034011042384195864,
      "670": 0.028869219934372196,
      "671": 0.013939108925694487,
      "672": -0.001514874635486293,
      "673": 0.01440262656990334,
      "674": -0.013043618908034618,
      "675": -0.03436799738899475,
      "676": -0.034052928870108023,
      "677": -0.0035021076261207555,
      "678": -0.030232202998324548,
      "679": -0.05496709581535481,
      "680": 0.01741555618968933,
      "681": -0.023241502914578646,
      "682": -0.003958107840202706,
      "683": -0.006466948748443649,
      "684": 0.04879753344827834,
      "685": -0.039676501491668625,
      "686": -0.06089022605848402,
      "687": 0.06331894500258595,
      "688": -0.003201043980694649,
      "689": -0.031747198647446594,
      "690": 0.04780125767271837,
      "691": 0.015387935582324385,
      "692": -0.015407549055375546,
      "693": 0.03994195637565758,
      "694": 0.014654754066920817,
      "695": -0.05474008693681816,
      "696": 0.018268447234286056,
      "697": 0.0041250939323887285,
      "698": 0.007916367054655924,
      "699": -0.006661194313668252,
      "700": 0.010482189455738734,
      "701": 0.025462927611310648,
      "702": -0.031348631625505885,
      "703": -0.026585152484630056,
      "704": -0.00797219405956029,
      "705": -0.009922729718804374,
      "706": -0.030241876157816074,
      "707": -0.010269666904538316,
      "708": -0.011440793973153196,
      "709": -0.06217183376320316,
      "710": -0.0696917428794094,
      "711": 0.011356793850899185,
      "712": 0.08800550391505113,
      "713": 0.034131302566302285,
      "714": 0.06263847011739566,
      "715": 0.05613321030928636,
      "716": -0.056736145949474966,
      "717": 0.020455028529609565,
      "718": -0.013622671117514586,
      "719": -0.05040802429162032,
      "720": -0.02172674653319505,
      "721": 0.044204873582325215,
      "722": 0.04701290582556143,
      "723": 0.01986148701451911,
      "724": 0.004379445676014137,
      "725": -0.009385061524865223,
      "726": 0.0105933030630162,
      "727": 0.031681454700927834,
      "728": 0.026376211661622007,
      "729": -0.0017195032273717291,
      "730": -0.015615976912219333,
      "731": -0.0009984991743004698,
      "732": -0.04833200133705668,
      "733": -0.03502156309166187,
      "734": -0.026710435373498688,
      "735": -0.05202243412523707,
      "736": -0.05564421364551846,
      "737": -0.023060770207970916,
      "738": 0.052628490056553574,
      "739": -0.0004455191109142611,
      "740": -0.014021083345826874,
      "741": 0.008910103629345868,
      "742": -0.04886639847918458,
      "743": -0.03472393707874073,
      "744": -0.028217517515200696,
      "745": -0.009677076173776476,
      "746": 0.009438937607626034,
      "747": 0.02378815888808241,
      "748": -0.024815507936790458,
      "749": 0.007054455983224321,
      "750": 0.005834424737633171,
      "751": -0.019752712547169576,
      "752": -0.03547811013961448,
      "753": -0.02096690617424229,
      "754": 0.034089820839700025,
      "755": 0.016470224589913728,
      "756": -0.020020142209966774,
      "757": -0.002281581957750326,
      "758": 0.04459013380092934,
      "759": -0.02108644012726151,
      "760": -0.03629252043115579,
      "761": -0.0029555335202267716,
      "762": -0.024700494415963954,
      "763": -0.02801265121404589,
      "764": -0.039100011466621884,
      "765": 0.016259207761263016,
      "766": 0.027876360627418426,
      "767": -0.04963080347490477,
      "768": 0.0041494762078816555,
      "769": 0.02951385145565733,
      "770": 0.003610722481995258,
      "771": -0.03578412522999385,
      "772": 0.012821702566066469,
      "773": 0.023222174227014142,
      "774": 0.02483926041480619,
      "775": -0.06791813140464521,
      "776": -0.004910934961904561,
      "777": -0.02433666734819647,
      "778": 0.01122406536180339,
      "779": 0.022924636008027518,
      "780": 0.002124922072506282,
      "781": 0.04802386120281523,
      "782": 0.07733834618273429,
      "783": 0.02415313736836592,
      "784": -0.017892816129417496,
      "785": 0.03977891508204782,
      "786": -0.005649908861170856,
      "787": 0.05931795035082099,
      "788": 0.007230246154808672,
      "789": -0.012321824428531298,
      "790": 0.02735779134809741,
      "791": -0.027489203319701984,
      "792": -0.05851059148717915,
      "793": -0.0003380407346950908,
      "794": 0.009636673135960857,
      "795": -0.017395633443214882,
      "796": -0.005253193320228952,
      "797": -0.003498504056799735,
      "798": -0.012038124967324655,
      "799": -0.009676954869905979,
      "800": -0.0006882095432597617,
      "801": 0.030075731404532974,
      "802": -0.002750224507497418,
      "803": 0.02142789226167032,
      "804": -0.026444732913564778,
      "805": -0.03380380155340257,
      "806": -0.018362302788729055,
      "807": -0.0034086632740603874,
      "808": 0.01646027506523517,
      "809": -0.0043905898496120555,
      "810": -0.05576868869807763,
      "811": 0.037385556890891285,
      "812": 0.04335043038459231,
      "813": -0.004953297740948274,
      "814": 0.03935933596439969,
      "815": -0.001168781085742976,
      "816": -0.01585728178465976,
      "817": -0.014415534717943912,
      "818": 0.009787445176150213,
      "819": -0.017847328662999356,
      "820": -0.05703466086607754,
      "821": 0.06863984372564852,
      "822": 0.02571226998896266,
      "823": 0.04061828065247465,
      "824": -0.04113601106588161,
      "825": -0.017777964417889255,
      "826": -0.03235679148532482,
      "827": -0.04627966646513536,
      "828": 0.06360567826488989,
      "829": -0.010713891851527584,
      "830": -0.04097045761606772,
      "831": 0.03482703285163137,
      "832": -0.05954814990107296,
      "833": -0.007639244040435633,
      "834": 0.06773570429839357,
      "835": 0.03578587790901239,
      "836": -0.004083067001800682,
      "837": 0.007647397713535087
     }
    },
    {
     "sx": 1,
     "sy": 1,
     "depth": 838,
     "w": {
      "0": -0.03836873592348333,
      "1": -0.012252355962441074,
      "2": -0.03831714990022069,
      "3": 0.03274454818612857,
      "4": -0.006603753781158158,
      "5": 0.04525945902955573,
      "6": -0.04814092274621056,
      "7": -0.023733557549133956,
      "8": -0.050420886376303035,
      "9": -0.06219805958762728,
      "10": -0.007420899388592733,
      "11": -0.025836173672733755,
      "12": -0.04382687674909825,
      "13": 0.01084618335942121,
      "14": 0.0481923933875071,
      "15": 0.008801917535127927,
      "16": -0.005767414183180436,
      "17": 0.02271943388227339,
      "18": 0.04361031765764475,
      "19": -0.01170909967505356,
      "20": -0.058826330918227636,
      "21": -0.01895871951025379,
      "22": 0.0052081934857258925,
      "23": 0.01873576442382551,
      "24": 0.02911692568644951,
      "25": -0.017145509338233948,
      "26": 0.03414197783826535,
      "27": 0.001099450805418207,
      "28": -0.008229013748954652,
      "29": -0.0318475595506127,
      "30": 0.04237185407787001,
      "31": -0.019881199520676348,
      "32": -0.013137586400436312,
      "33": 0.0023045055164556505,
      "34": 0.03980863085820483,
      "35": 0.011005999634174602,
      "36": 0.005657298670427395,
      "37": 0.0041605844598443424,
      "38": -0.011852296766853829,
      "39": -0.03382057797946624,
      "40": -0.02959334163408122,
      "41": -0.011267761660545304,
      "42": -0.009441155241720078,
      "43": -0.002171702304490039,
      "44": 0.020393018236462793,
      "45": 0.01809123007515744,
      "46": 0.018289974795103893,
      "47": -0.027548724327726325,
      "48": 0.06646902461192114,
      "49": 0.06608187229734018,
      "50": -0.014046992823009993,
      "51": -0.0023244265474448877,
      "52": -0.018138092585449846,
      "53": 0.04105763377275743,
      "54": -0.035284982411715314,
      "55": 0.05934940800426431,
      "56": 0.030556232251642335,
      "57": -0.018152789317778674,
      "58": 0.04075092834430346,
      "59": 0.016075876921815353,
      "60": 0.04285208945866084,
      "61": -0.032730311565905765,
      "62": 0.021980204343638482,
      "63": -0.01945787756498353,
      "64": -0.042107037424757535,
      "65": -0.024598783878422563,
      "66": 0.005177879254855367,
      "67": 0.013127635750621152,
      "68": 0.05920056837019096,
      "69": 0.06372766489918404,
      "70": -0.07141663814712784,
      "71": -0.01547976441533352,
      "72": 0.033547936078414435,
      "73": -0.047505706435455146,
      "74": -0.004543627860136322,
      "75": -0.02632933039964877,
      "76": -0.025155042703190387,
      "77": 0.06276817730957981,
      "78": -0.02252930712328289,
      "79": -0.005317249882554462,
      "80": -0.0360679744368721,
      "81": 0.021309679325601162,
      "82": -0.016732021315462094,
      "83": -0.0007067790609780793,
      "84": 0.00982965189203189,
      "85": -0.013749888776390657,
      "86": -0.006160359308310837,
      "87": 0.06581117244832042,
      "88": 0.0027997840083990827,
      "89": -0.009056198619509504,
      "90": -0.04139937804010181,
      "91": 0.000021348368070650598,
      "92": 0.0035510528827189976,
      "93": 0.021962415940247063,
      "94": -0.0523903089691728,
      "95": -0.013425745607547862,
      "96": 0.005629308002489392,
      "97": 0.0093990055364594,
      "98": 0.016946754914022574,
      "99": 0.012261476756467772,
      "100": -0.0078011831386126124,
      "101": -0.02671352376585236,
      "102": -0.050782738233498964,
      "103": 0.012036408891585259,
      "104": -0.019218999421810004,
      "105": -0.022190522095474122,
      "106": -0.010123019742644769,
      "107": 0.03542458014033098,
      "108": -0.010398101921275703,
      "109": 0.000343822022853862,
      "110": 0.020506122597088772,
      "111": -0.03343675333094782,
      "112": 0.001484957581209669,
      "113": 0.028731109609976872,
      "114": -0.009977388216419109,
      "115": -0.04910332223855241,
      "116": 0.007060263501029672,
      "117": -0.04082779281761107,
      "118": -0.0010043503124853694,
      "119": 0.06211986361107168,
      "120": -0.004949894990015379,
      "121": 0.030166210127646035,
      "122": 0.010303623479405786,
      "123": -0.017503909229121938,
      "124": -0.057476903342984983,
      "125": -0.043927502313923755,
      "126": -0.02760863095615944,
      "127": -0.02524365862097379,
      "128": 0.011614983579769911,
      "129": -0.0045279303104079705,
      "130": 0.05266186991361384,
      "131": 0.033291517395296025,
      "132": -0.005524504380535677,
      "133": -0.016506939705242127,
      "134": -0.02755141415884537,
      "135": 0.06599315585356817,
      "136": -0.045240705185615154,
      "137": 0.007548206674668522,
      "138": 0.0038405900164304118,
      "139": 0.059355895029019806,
      "140": -0.018118913559745937,
      "141": 0.016418089847796486,
      "142": 0.05499826507938123,
      "143": 0.002998687678127722,
      "144": 0.05683290860154256,
      "145": 0.0012249340044527505,
      "146": -0.005478715024150975,
      "147": 0.028647978316915224,
      "148": -0.023861454583187707,
      "149": 0.016293669045629,
      "150": 0.033451642617956114,
      "151": 0.08862805101660626,
      "152": 0.05349980972514419,
      "153": -0.01243816675161491,
      "154": 0.024069218081932478,
      "155": 0.009511030124932075,
      "156": 0.034661053293520955,
      "157": -0.03355245360261184,
      "158": -0.009271527283530707,
      "159": -0.006867148362335775,
      "160": 0.02913509294768114,
      "161": 0.04267837060948205,
      "162": -0.02168730501885286,
      "163": 0.00018396510004694468,
      "164": 0.004434322588180314,
      "165": -0.022886666045810345,
      "166": -0.02499197909286487,
      "167": 0.04256428181141763,
      "168": 0.029353569661792454,
      "169": 0.021441519449813252,
      "170": -0.021756945770877487,
      "171": -0.012737240258470067,
      "172": -0.0070488580348875216,
      "173": 0.06005731102486946,
      "174": 0.027777751858430705,
      "175": -0.012476156612120537,
      "176": 0.004822052595815063,
      "177": 0.019108365035191893,
      "178": 0.03120894316258893,
      "179": 0.01692214567887047,
      "180": 0.050331818568401285,
      "181": 0.0030352444190672556,
      "182": -0.004357027162041467,
      "183": 0.008637394633005998,
      "184": 0.0017396178045643905,
      "185": -0.018613868678002923,
      "186": 0.02112961642732395,
      "187": -0.043002153870384585,
      "188": 0.013431115881799191,
      "189": 0.023558745563129577,
      "190": -0.02147876572079517,
      "191": 0.011676820451952669,
      "192": -0.01102778443390466,
      "193": -0.03568615739215322,
      "194": 0.023048365696686196,
      "195": -0.019120525600765284,
      "196": -0.030822569097582304,
      "197": -0.022770655985948258,
      "198": 0.038019390670240176,
      "199": -0.0318986146145246,
      "200": -0.002006593736147631,
      "201": 0.0029558451947609135,
      "202": 0.02707577800951899,
      "203": 0.031183735854206897,
      "204": -0.03665544476077224,
      "205": -0.04398921077717108,
      "206": 0.0015924680265962617,
      "207": 0.019182460804583436,
      "208": -0.004101199339665706,
      "209": 0.0404148684097797,
      "210": 0.009078539087864388,
      "211": 0.02747958274210683,
      "212": -0.012408695765128496,
      "213": 0.025611662217870725,
      "214": -0.056916150028823644,
      "215": 0.02398671157975536,
      "216": -0.018384739831478706,
      "217": -0.03875676768395453,
      "218": 0.003074738795446114,
      "219": 0.0008486549046965602,
      "220": -0.0872682176292127,
      "221": 0.02710300310822466,
      "222": -0.005004421100642127,
      "223": -0.01791036785583342,
      "224": 0.06834583231897719,
      "225": 0.01878009210078138,
      "226": -0.020983445051836077,
      "227": -0.03516518677025351,
      "228": -0.0048706606982895865,
      "229": -0.03757467367157926,
      "230": 0.008158887972086548,
      "231": -0.059292486073908836,
      "232": 0.052686953209013246,
      "233": -0.0631658620221462,
      "234": -0.0039731931541682735,
      "235": -0.020203568408712815,
      "236": 0.020855799298274583,
      "237": -0.002494027890910169,
      "238": -0.006525578258324036,
      "239": 0.03789291878451109,
      "240": -0.003511152993552571,
      "241": 0.005316448252880203,
      "242": 0.023145168916515083,
      "243": 0.012179539232524298,
      "244": 0.09312400939070421,
      "245": 0.03662849842434581,
      "246": -0.009559780562613286,
      "247": -0.03684900169802397,
      "248": 0.053374262922796636,
      "249": 0.036554261538324,
      "250": 0.052401545640874604,
      "251": 0.006310639800632403,
      "252": 0.009822008606997445,
      "253": -0.004491512039356583,
      "254": -0.03635954790438739,
      "255": 0.03338403871626069,
      "256": -0.02528222008316256,
      "257": 0.016762501777250423,
      "258": 0.07308867019832961,
      "259": -0.020359034592057543,
      "260": -0.01175969583475164,
      "261": 0.0033994012297070488,
      "262": -0.030961751892669656,
      "263": 0.019401906873327757,
      "264": 0.057051085921403004,
      "265": -0.040656370600212495,
      "266": 0.03939791092643317,
      "267": 0.048058142860234965,
      "268": 0.01791121891701489,
      "269": 0.0027576764499396044,
      "270": 0.019375688600109964,
      "271": 0.010251101754102267,
      "272": 0.015775087225690362,
      "273": 0.04430460003444685,
      "274": -0.008606524249952481,
      "275": -0.009771547190265328,
      "276": -0.001911882565762857,
      "277": 0.007220879121907313,
      "278": 0.02904817519882425,
      "279": -0.007101652750558784,
      "280": 0.04217136711961432,
      "281": 0.0019192434803230293,
      "282": 0.005420194996260193,
      "283": 0.04669723762482358,
      "284": -0.027721969165416395,
      "285": 0.018689833232128823,
      "286": -0.040186483111211334,
      "287": -0.0001461111188172903,
      "288": 0.06560470572482248,
      "289": -0.009703898079772897,
      "290": 0.044697390538938085,
      "291": -0.02920019646976397,
      "292": -0.03464771163993852,
      "293": 0.053511167536442784,
      "294": -0.08357559588034012,
      "295": -0.006347617235780019,
      "296": -0.01183265187622804,
      "297": 0.016368129266884565,
      "298": -0.00377873102490491,
      "299": -0.024271740174911585,
      "300": 0.027489652827705307,
      "301": -0.0004223594080764346,
      "302": 0.022162315844422607,
      "303": 0.058534763212731405,
      "304": -0.005159609039120027,
      "305": -0.01444733524915304,
      "306": 0.09840198506650123,
      "307": 0.02464221480071642,
      "308": -0.04108967348854195,
      "309": 0.03623865150916759,
      "310": -0.001959007132801559,
      "311": -0.017155808181758842,
      "312": 0.05543394623949245,
      "313": -0.03649576979355474,
      "314": -0.03809509197552026,
      "315": -0.016249538197356174,
      "316": -0.008660471083360332,
      "317": -0.08326413575700037,
      "318": -0.012849419100075919,
      "319": 0.13072692674444975,
      "320": -0.004564145892035767,
      "321": 0.03301597316485198,
      "322": -0.0013261999280081704,
      "323": 0.005051379701526254,
      "324": 0.02539184257836583,
      "325": 0.02732163297100898,
      "326": 0.027563049715401758,
      "327": 0.006238930863116466,
      "328": 0.012787643584038187,
      "329": 0.03376150532207281,
      "330": -0.0069494702765805026,
      "331": 0.03649412335648538,
      "332": -0.02060459283847459,
      "333": 0.04380629893506435,
      "334": -0.023597326462017492,
      "335": 0.029420835046257036,
      "336": 0.014920026331963676,
      "337": -0.07038013614178519,
      "338": -0.04540696957179372,
      "339": -0.002229502807339584,
      "340": 0.03341713103223369,
      "341": -0.0869746785733722,
      "342": -0.03491928836322337,
      "343": 0.019738549428761278,
      "344": 0.019652765779452245,
      "345": 0.008248892899138925,
      "346": 0.010179325371485607,
      "347": -0.02792747995801827,
      "348": -0.020019673574364356,
      "349": 0.028179961076207193,
      "350": -0.038102839843613456,
      "351": -0.03234280927030844,
      "352": -0.03002648145026791,
      "353": -0.020082672704166627,
      "354": 0.007719926571143102,
      "355": 0.0229155162257507,
      "356": -0.04659072423439168,
      "357": 0.02002525116136145,
      "358": 0.03468266172545364,
      "359": 0.004177384479216039,
      "360": -0.061279611054881486,
      "361": 0.015923445884969675,
      "362": -0.018629305127994975,
      "363": -0.0757273752658216,
      "364": 0.019162124014575885,
      "365": -0.02114976599315085,
      "366": 0.01870397506397647,
      "367": 0.0346436105139457,
      "368": 0.06915544330459715,
      "369": -0.04612258355591866,
      "370": 0.009142895341446513,
      "371": 0.0017814686539117603,
      "372": -0.007123995473004124,
      "373": -0.05202901066100517,
      "374": -0.01308243676334045,
      "375": 0.02091136100801678,
      "376": 0.01239664304835668,
      "377": -0.002684616596480615,
      "378": -0.047031613850100115,
      "379": -0.00017372862608316337,
      "380": 0.026561973832675098,
      "381": 0.07230067067186322,
      "382": -0.03172608936727829,
      "383": -0.006860580949015467,
      "384": 0.05309881282557704,
      "385": -0.02186762745896248,
      "386": 0.024640977850569554,
      "387": -0.020162315231715237,
      "388": 0.010924947387811877,
      "389": 0.01338148113007808,
      "390": 0.008320540468944405,
      "391": 0.010503759792172225,
      "392": -0.017686232847991003,
      "393": -0.01387998048152007,
      "394": -0.04485104954432821,
      "395": -0.02281667247171935,
      "396": -0.017662213611089324,
      "397": -0.015360271024422412,
      "398": 0.005455300589531448,
      "399": -0.0012005648013478846,
      "400": -0.005995573505465269,
      "401": 0.05252775944625483,
      "402": 0.04108938713461968,
      "403": 0.013527507732720222,
      "404": 0.025575817120396162,
      "405": -0.015528473816643719,
      "406": 0.004127641557563109,
      "407": -0.0038504649404863312,
      "408": -0.012802771213057193,
      "409": 0.015520577806323847,
      "410": 0.039164193083618216,
      "411": 0.009944394462638041,
      "412": 0.0060986161146356,
      "413": -0.0035975253035835314,
      "414": -0.0007154494029748743,
      "415": -0.09301459521769258,
      "416": 0.01622988359516895,
      "417": -0.05379497904864318,
      "418": 0.00037778435424701143,
      "419": 0.0708923810032475,
      "420": 0.05794104822893758,
      "421": -0.0019264699422011412,
      "422": 0.001404505035521064,
      "423": 0.03689238445490915,
      "424": 0.039862628315882914,
      "425": 0.02524269515179633,
      "426": 0.02863875881698578,
      "427": -0.028812639760225363,
      "428": 0.006341597904750502,
      "429": -0.014548006083620594,
      "430": -0.01321870308204812,
      "431": 0.05213489294761609,
      "432": 0.054348402226874336,
      "433": -0.000809548065103276,
      "434": -0.012270533450056628,
      "435": -0.008828887170936724,
      "436": -0.03579430649572323,
      "437": -0.013947868074975944,
      "438": 0.009037069486910989,
      "439": 0.016349680458850515,
      "440": -0.01142490724217737,
      "441": -0.017109725419274475,
      "442": -0.0009402660290348065,
      "443": -0.03753386927828843,
      "444": 0.010294767581086713,
      "445": 0.016177789327059208,
      "446": -0.08003339399541254,
      "447": 0.04875261981837398,
      "448": 0.003698089174215399,
      "449": 0.03580120034593381,
      "450": 0.01262844256517256,
      "451": -0.03590942354078314,
      "452": 0.02380601012969517,
      "453": 0.021678390925555898,
      "454": 0.031791537075774146,
      "455": -0.009592030474672277,
      "456": 0.03002937258626451,
      "457": -0.03967903967657406,
      "458": -0.02477396962976903,
      "459": 0.0027242244726965806,
      "460": -0.035924064779585825,
      "461": -0.003849991047132425,
      "462": 0.019297445310193572,
      "463": 0.0016398560203130337,
      "464": -0.023744155484241317,
      "465": -0.006387735161216124,
      "466": 0.045795588635669154,
      "467": -0.007774875441647877,
      "468": 0.022438733271301973,
      "469": -0.024452974139716026,
      "470": -0.10246997881053416,
      "471": -0.02812940195367899,
      "472": -0.013103562878906806,
      "473": -0.017982127492378718,
      "474": 0.014246082358170724,
      "475": 0.012678632240576361,
      "476": 0.03148610938987905,
      "477": -0.04206861616054028,
      "478": 0.04539700852253442,
      "479": 0.005528594170625756,
      "480": 0.042956428905431714,
      "481": -0.07791618901934957,
      "482": 0.000814759893835473,
      "483": 0.06878968724501543,
      "484": -0.018939847998095203,
      "485": 0.02540205845641799,
      "486": -0.029658292999881066,
      "487": -0.001485638540357599,
      "488": -0.005455632128946841,
      "489": 0.045942276664032715,
      "490": -0.0005281542219754186,
      "491": -0.011642168819152362,
      "492": -0.06968882478845491,
      "493": -0.027209574129247995,
      "494": -0.05415092230565382,
      "495": 0.004323000696638411,
      "496": 0.001913146072475468,
      "497": -0.00676245576749357,
      "498": -0.05116722375992886,
      "499": 0.008260270257726722,
      "500": 0.0015131663988540043,
      "501": -0.013970445845792852,
      "502": -0.021669000018443817,
      "503": 0.0014155798312567788,
      "504": -0.048738379762945726,
      "505": 0.018162170875208484,
      "506": 0.0602329941553979,
      "507": 0.010757555753919186,
      "508": 0.011133326286820568,
      "509": 0.02638692887080694,
      "510": -0.04380150615414331,
      "511": 0.03236735489344236,
      "512": 0.03326111915210649,
      "513": 0.045697569874663516,
      "514": -0.03297990958862918,
      "515": 0.02292390474643675,
      "516": -0.017494628035696985,
      "517": 0.012897568654722294,
      "518": 0.04395184339369498,
      "519": -0.028850638164336546,
      "520": -0.006737971146657671,
      "521": 0.016212385593569217,
      "522": 0.017415137118668877,
      "523": 0.002848702574886398,
      "524": -0.018305687188964945,
      "525": -0.0244712581370039,
      "526": -0.01192996757433622,
      "527": -0.021939868261173053,
      "528": -0.006589454474749676,
      "529": -0.027042106932687916,
      "530": 0.0340414550615917,
      "531": -0.09248465355770617,
      "532": 0.034645230309074175,
      "533": 0.03862698906026414,
      "534": 0.025425800818906764,
      "535": 0.009750892589652472,
      "536": 0.02455199337816675,
      "537": -0.003390851642541381,
      "538": -0.0031324273263420494,
      "539": 0.005163520542785344,
      "540": -0.03872139975188319,
      "541": 0.07719569078180606,
      "542": -0.008388167758598434,
      "543": -0.011475226963198411,
      "544": -0.06490962664459744,
      "545": -0.11421044401010914,
      "546": -0.04992985387015628,
      "547": -0.007096191682631459,
      "548": 0.008362749333317009,
      "549": -0.02075237489097016,
      "550": 0.04059954977571425,
      "551": -0.017150010709901933,
      "552": 0.01663992851025603,
      "553": -0.09195680248512235,
      "554": -0.03136032706395422,
      "555": -0.06527968277097691,
      "556": -0.03437079271190948,
      "557": -0.002959977246674484,
      "558": 0.01845383010121546,
      "559": 0.04999486032588219,
      "560": -0.003957992417676364,
      "561": 0.040238436472081876,
      "562": -0.011686393254787885,
      "563": 0.0494139927601662,
      "564": 0.03339304963906899,
      "565": 0.03621039063406975,
      "566": -0.005644270723225109,
      "567": 0.017982238173774125,
      "568": -0.015530743151517422,
      "569": -0.06510021854087257,
      "570": 0.014945928372163027,
      "571": -0.020500162540313453,
      "572": -0.015669840537761586,
      "573": 0.01735269445641313,
      "574": -0.06139691706283453,
      "575": 0.07407680587101494,
      "576": -0.036812528119589585,
      "577": 0.05281528509266354,
      "578": 0.06942700294612994,
      "579": -0.0271017810842812,
      "580": -0.02594788040311353,
      "581": -0.017934685302414658,
      "582": -0.0076901178073664036,
      "583": -0.03926373448175022,
      "584": -0.01013487185430697,
      "585": 0.014535917793437589,
      "586": 0.05518007243581985,
      "587": -0.0200588440536797,
      "588": 0.05684305087710275,
      "589": 0.022002634530064773,
      "590": -0.06369654356279363,
      "591": -0.004752562687492261,
      "592": -0.029588299446373034,
      "593": 0.05060462705338616,
      "594": -0.014394078475614512,
      "595": 0.010208551811120927,
      "596": 0.04287475696223207,
      "597": 0.04473843717153945,
      "598": -0.005079375940325581,
      "599": 0.03376441361109262,
      "600": -0.007050715881265176,
      "601": 0.05559080958859884,
      "602": -0.015597066039514818,
      "603": 0.01387607209712347,
      "604": 0.022696486726208272,
      "605": 0.00977415361415722,
      "606": 0.03703254013572276,
      "607": -0.02480428979766007,
      "608": -0.0013443317528798457,
      "609": 0.017817135777464885,
      "610": 0.05678617392089641,
      "611": 0.07316064916085581,
      "612": 0.02546074983338471,
      "613": 0.01451291210414935,
      "614": -0.03698726128632883,
      "615": -0.039300260831128794,
      "616": 0.0006096590774839684,
      "617": -0.005991275567919312,
      "618": 0.014541285503009583,
      "619": -0.05135640701357848,
      "620": 0.05050295585466632,
      "621": 0.060560810159149006,
      "622": 0.007565744431668764,
      "623": 0.06748122913665819,
      "624": -0.021465478128496026,
      "625": 0.007038019218505604,
      "626": 0.006070697594673711,
      "627": -0.05757789640175095,
      "628": -0.015565824599302709,
      "629": -0.014151852250455585,
      "630": -0.060833823996078,
      "631": 0.057270580333143,
      "632": -0.0007823831251700834,
      "633": 0.0006792229546190213,
      "634": 0.0036166634411829257,
      "635": -0.019508213979232747,
      "636": -0.054802335611612386,
      "637": -0.015194181443095095,
      "638": -0.015342976740213647,
      "639": -0.012483543300863958,
      "640": -0.06482581032906168,
      "641": 0.035380293743967325,
      "642": 0.027723160501565557,
      "643": 0.007557115324334213,
      "644": -0.006609933050705721,
      "645": 0.007074242708989984,
      "646": -0.027816151343775304,
      "647": 0.04894891981249271,
      "648": 0.027331907029004083,
      "649": -0.030972285479038828,
      "650": 0.01599566284605725,
      "651": -0.0115938138036761,
      "652": 0.028031915794779285,
      "653": 0.004876358132040355,
      "654": 0.016871520154478604,
      "655": 0.031830233517809295,
      "656": -0.010957927064509071,
      "657": -0.03935016884575415,
      "658": -0.04105960262772944,
      "659": 0.018253372140488045,
      "660": 0.024838359197307328,
      "661": -0.02538662457429477,
      "662": 0.042657536966115836,
      "663": 0.02126326635512,
      "664": 0.02863028761946308,
      "665": 0.0689316183918405,
      "666": -0.0031352073432382764,
      "667": -0.11278913722361873,
      "668": -0.039256675660495,
      "669": 0.06115606046358579,
      "670": 0.0041144894707179505,
      "671": 0.025357446483768063,
      "672": 0.04871871645019375,
      "673": -0.005695054518720001,
      "674": 0.04713899871115587,
      "675": -0.01537923637536868,
      "676": 0.007803462758458363,
      "677": -0.044804315209379844,
      "678": -0.017218245156042925,
      "679": -0.0034705287558690913,
      "680": 0.0011027835371760057,
      "681": -0.029629187636024484,
      "682": -0.047922266548238224,
      "683": -0.045126591003286726,
      "684": 0.061105078577987144,
      "685": 0.03223946100595941,
      "686": 0.012033394724663509,
      "687": -0.03514583994273519,
      "688": 0.03325677711444705,
      "689": 0.04523676089530906,
      "690": 0.058750770178033776,
      "691": 0.024141471425558655,
      "692": 0.06128748136835917,
      "693": 0.03474865253261256,
      "694": 0.0022014850001626984,
      "695": 0.02593251619530714,
      "696": 0.03914723302765173,
      "697": -0.010440236043909305,
      "698": 0.027886153680055183,
      "699": 0.02477162212782311,
      "700": -0.0025163535999931795,
      "701": 0.010566322020545965,
      "702": -0.007195893991796729,
      "703": 0.05377141456490234,
      "704": -0.029234361237913786,
      "705": 0.04818841437461912,
      "706": -0.0033128676195028576,
      "707": 0.07097869409356614,
      "708": 0.017757804678799997,
      "709": -0.050020304983568395,
      "710": 0.009655392597970278,
      "711": 0.05671813597095438,
      "712": 0.05066528003219185,
      "713": 0.00025830357220039203,
      "714": -0.028326690108372257,
      "715": -0.006325343686601166,
      "716": 0.0049544908232478455,
      "717": 0.015851953800338162,
      "718": -0.02997058438765813,
      "719": -0.022464243328986232,
      "720": -0.01594807887807319,
      "721": 0.04247608484680649,
      "722": -0.009520556186941602,
      "723": -0.014269177657532018,
      "724": 0.0214728332933657,
      "725": 0.007885370715868529,
      "726": -0.04017549024901764,
      "727": -0.021270662613356497,
      "728": 0.07872289373250384,
      "729": 0.10698016336022384,
      "730": 0.021160340832470627,
      "731": 0.0060651434188489705,
      "732": 0.014658091674517183,
      "733": -0.049522385948056656,
      "734": 0.014515156565590957,
      "735": 0.009688699457013018,
      "736": 0.033082827262931463,
      "737": 0.016554436989900764,
      "738": -0.004996958382454502,
      "739": -0.0886751821098518,
      "740": -0.044367098884461664,
      "741": -0.00005988630947309816,
      "742": -0.02565678471356552,
      "743": -0.022077633619272858,
      "744": -0.013770363745867495,
      "745": 0.022006562714097788,
      "746": 0.04981145262634393,
      "747": -0.0005384796749152594,
      "748": 0.037027217230586176,
      "749": 0.0317482532382472,
      "750": 0.01138592077981097,
      "751": -0.05658125811690013,
      "752": -0.014141615257542525,
      "753": -0.019507208342785968,
      "754": -0.02101072519875708,
      "755": -0.01796868240018759,
      "756": -0.007979596484364384,
      "757": -0.05661514117689003,
      "758": -0.03873492881236446,
      "759": -0.02482271124223624,
      "760": -0.004980472699547118,
      "761": 0.03886427126672192,
      "762": -0.04525196016622904,
      "763": -0.00042995765830042157,
      "764": -0.001410135118273547,
      "765": 0.018554050000739036,
      "766": 0.03233273099554069,
      "767": -0.018990468148739875,
      "768": 0.025364742440872386,
      "769": 0.016310581176807375,
      "770": -0.07484806814058304,
      "771": -0.029169543020720053,
      "772": -0.024176677104351067,
      "773": -0.03200719724701977,
      "774": 0.032805204201297226,
      "775": 0.0575972307572911,
      "776": 0.04033608497904834,
      "777": 0.018764735211268695,
      "778": 0.03287188197855403,
      "779": 0.03249215811580472,
      "780": -0.02415170296669732,
      "781": 0.006232070443725739,
      "782": 0.05214835151839906,
      "783": 0.005311860580072981,
      "784": 0.044298236295972473,
      "785": -0.017878336835511634,
      "786": 0.019127691380523778,
      "787": -0.03706356065586538,
      "788": 0.021509080945148747,
      "789": 0.04889433062222642,
      "790": 0.045628078499677295,
      "791": -0.007002013834754552,
      "792": 0.04273664903534099,
      "793": 0.04677376210181694,
      "794": 0.004177952069486006,
      "795": -0.006450573167698174,
      "796": -0.018755244172995733,
      "797": 0.0007724890810121774,
      "798": -0.0687018845892132,
      "799": -0.043680513425530414,
      "800": 0.01739590261329794,
      "801": 0.011955201381378901,
      "802": 0.012385430406268242,
      "803": 0.03443931713977726,
      "804": 0.009889409054573963,
      "805": 0.04565098621503098,
      "806": 0.017926845797454787,
      "807": 0.01392125456305417,
      "808": 0.02325093024444153,
      "809": -0.01979417973357772,
      "810": 0.007201279094736485,
      "811": -0.06834461445388007,
      "812": -0.002960279809821231,
      "813": 0.034862108890484446,
      "814": -0.05174268884881521,
      "815": -0.0064751787482316935,
      "816": -0.07730816923665788,
      "817": -0.010159440772719104,
      "818": -0.052199060408997563,
      "819": -0.004058034453560301,
      "820": -0.03161914282138931,
      "821": 0.015430858526716702,
      "822": 0.013602325282426685,
      "823": -0.037314197252105386,
      "824": 0.01977193783647026,
      "825": -0.034567644162736506,
      "826": 0.017924530223965122,
      "827": 0.018658276554434094,
      "828": 0.010484244107273088,
      "829": -0.03635728832787518,
      "830": -0.050909332822859824,
      "831": -0.02744876044708633,
      "832": -0.0780831499943192,
      "833": 0.008372296152834972,
      "834": -0.06251700705853848,
      "835": -0.035805701321234944,
      "836": 0.030017198833075617,
      "837": 0.03831112909859187
     }
    },
    {
     "sx": 1,
     "sy": 1,
     "depth": 838,
     "w": {
      "0": -0.020863955283830168,
      "1": 0.06205563888897545,
      "2": -0.007314543548689363,
      "3": 0.04035087041811143,
      "4": 0.00598844671828594,
      "5": -0.020255384774406967,
      "6": 0.10162418521476861,
      "7": -0.0521725342962159,
      "8": 0.023555877473831324,
      "9": -0.017125510604608866,
      "10": 0.015504264782472622,
      "11": -0.005606984008929767,
      "12": 0.0013561099176043214,
      "13": -0.012016009019601313,
      "14": -0.0015857069263877036,
      "15": -0.011732678379999298,
      "16": 0.02596423351947913,
      "17": 0.0321792227291226,
      "18": -0.0373766183910895,
      "19": -0.020423160377273417,
      "20": -0.0038608893548870574,
      "21": -0.03376427133313966,
      "22": -0.016615038240693564,
      "23": 0.028115798803490383,
      "24": -0.011344923497880997,
      "25": 0.019690673782677123,
      "26": -0.005128215043591947,
      "27": 0.02607764336790675,
      "28": -0.024764773040448523,
      "29": -0.038140744687781905,
      "30": 0.009420206530408657,
      "31": 0.038975176418905313,
      "32": 0.04359027786264248,
      "33": 0.04136848437326824,
      "34": -0.012086110256698727,
      "35": -0.04017067190452399,
      "36": 0.01978436608470968,
      "37": 0.023637103212784186,
      "38": 0.0018910644216197758,
      "39": 0.06357550156540943,
      "40": -0.041487132086596684,
      "41": -0.020600264763786,
      "42": 0.010081511211734107,
      "43": -0.08430746794232495,
      "44": 0.015834806749679253,
      "45": 0.027070687055216917,
      "46": 0.04018006232690587,
      "47": 0.004304453660081404,
      "48": 0.050280746547328094,
      "49": -0.01985972470367755,
      "50": 0.03380172374359653,
      "51": 0.007474082714507932,
      "52": 0.04951119053300247,
      "53": 0.02315796078052205,
      "54": 0.014557182858547898,
      "55": -0.05453548982177908,
      "56": -0.028156079984882065,
      "57": -0.07051980005355635,
      "58": 0.0030626802900962356,
      "59": -0.03349118829618581,
      "60": 0.0017972042460727188,
      "61": 0.005253218900315414,
      "62": -0.007058731030767906,
      "63": 0.0037162772716243034,
      "64": 0.02026416651163687,
      "65": -0.011690528634503365,
      "66": 0.023905247908852095,
      "67": -0.033096982639978956,
      "68": 0.004424214362150878,
      "69": -0.010772287776607442,
      "70": 0.03254699945270738,
      "71": 0.03318113952132998,
      "72": 0.01954356266340522,
      "73": -0.010151205279630732,
      "74": -0.022459780408892106,
      "75": -0.0514608861858925,
      "76": 0.038144239301737236,
      "77": 0.058222649823723584,
      "78": -0.031929046930984605,
      "79": 0.024915473422807827,
      "80": -0.03839924409915294,
      "81": 0.05324692200203998,
      "82": -0.005115617038786645,
      "83": 0.020271715391599283,
      "84": -0.006603636445285088,
      "85": 0.01284450992443082,
      "86": -0.013464442563902147,
      "87": -0.020745297519996018,
      "88": -0.023154616140369528,
      "89": -0.05264897160172327,
      "90": -0.025664800667988142,
      "91": -0.014591850247816101,
      "92": 0.015052943322536712,
      "93": -0.0495565376440152,
      "94": -0.026296528436328757,
      "95": -0.05636288144749362,
      "96": 0.008177728794862806,
      "97": -0.06106931433432435,
      "98": 0.03110935251654207,
      "99": 0.003375657949644446,
      "100": 0.05276045538559394,
      "101": 0.02205750414633044,
      "102": -0.012787451422486119,
      "103": 0.03347430991230589,
      "104": -0.03964597683508799,
      "105": 0.04169128771049696,
      "106": -0.0378722097814779,
      "107": -0.04467739720413153,
      "108": 0.028290058242412538,
      "109": 0.05711407568943679,
      "110": 0.07370003449200742,
      "111": -0.013091701325769518,
      "112": 0.043235232685503146,
      "113": -0.015217488922405424,
      "114": -0.0013447738550120658,
      "115": -0.04113660416346078,
      "116": -0.06261684715061866,
      "117": 0.06351014191806086,
      "118": 0.025058389828904404,
      "119": 0.03915013069756648,
      "120": 0.03189382886709924,
      "121": -0.008341853240539479,
      "122": 0.005081101211107743,
      "123": 0.027859706224410863,
      "124": 0.033067756816138216,
      "125": -0.003954248452310666,
      "126": 0.03196346753480253,
      "127": -0.06482232845141311,
      "128": -0.022209149843001326,
      "129": -0.02672001949212526,
      "130": 0.040459229904728354,
      "131": -0.02744695035104991,
      "132": 0.03575180179282898,
      "133": -0.017967839654241712,
      "134": -0.00012307302380373675,
      "135": -0.04982827632583136,
      "136": 0.00019970576004991076,
      "137": 0.029922367612380586,
      "138": -0.03619190477276774,
      "139": 0.035872752190630935,
      "140": 0.012111270718938057,
      "141": 0.025627098720945617,
      "142": -0.06872601540555107,
      "143": 0.027847015665914198,
      "144": -0.07551284956345539,
      "145": -0.028321300040891804,
      "146": 0.005534035709121973,
      "147": -0.028508507528306724,
      "148": -0.009760317327480604,
      "149": -0.00637309195740052,
      "150": -0.00342795898118615,
      "151": -0.011986661213387621,
      "152": 0.014928538645142138,
      "153": -0.018823984761045617,
      "154": 0.027130157534397223,
      "155": -0.02269701513423283,
      "156": -0.01939348154084212,
      "157": 0.0022111810151801753,
      "158": -0.035346667553609906,
      "159": 0.029772518029965445,
      "160": -0.0023131190731822764,
      "161": -0.02128290040127863,
      "162": 0.060984694970616225,
      "163": 0.012445757675634212,
      "164": -0.040131386395778706,
      "165": 0.010051463065879411,
      "166": -0.06934740555583176,
      "167": 0.014386610121693903,
      "168": 0.09058432604895991,
      "169": -0.0701253349525984,
      "170": 0.0018669358939071364,
      "171": 0.0559307930599099,
      "172": -0.01913162209640866,
      "173": 0.04108259728199354,
      "174": -0.0143287180822396,
      "175": -0.012807260204366483,
      "176": -0.07082503759862294,
      "177": -0.06583137392541943,
      "178": 0.014607969219866382,
      "179": 0.017640314908356425,
      "180": 0.0682696807905535,
      "181": 0.0006922791997896345,
      "182": 0.00015668437871352585,
      "183": -0.0027214357257731065,
      "184": -0.06212525692047395,
      "185": 0.07385058749856,
      "186": 0.017133458480049515,
      "187": 0.05723115262581113,
      "188": 0.023306557723323455,
      "189": -0.002773440940445193,
      "190": 0.01590168360563828,
      "191": -0.02459159513463188,
      "192": -0.013954124839417745,
      "193": 0.08463314743932096,
      "194": 0.032930101211198125,
      "195": 0.028155183000894275,
      "196": 0.0370466923125395,
      "197": -0.018313769427921855,
      "198": -0.0621738476029643,
      "199": 0.02290979703131205,
      "200": -0.03393552052747585,
      "201": -0.02332859663623521,
      "202": -0.02411422224890654,
      "203": -0.005342935088625085,
      "204": -0.016664645486875095,
      "205": 0.03291106363079004,
      "206": -0.03386154560629755,
      "207": -0.03617776528931071,
      "208": 0.0449283999658764,
      "209": 0.03149561212831835,
      "210": -0.017308035505567528,
      "211": -0.058474306493936846,
      "212": -0.01967967449527981,
      "213": 0.044967335831282616,
      "214": 0.048678188237383076,
      "215": -0.0065298738731564224,
      "216": -0.04603635302328536,
      "217": 0.007364679842023111,
      "218": -0.0023330146784798305,
      "219": -0.03152359613099587,
      "220": -0.012804390606979904,
      "221": 0.02073239925395945,
      "222": 0.046934314911580906,
      "223": 0.03453554201315199,
      "224": 0.06660431436642417,
      "225": -0.057621346133782066,
      "226": 0.021510072499021426,
      "227": -0.012649050906553345,
      "228": 0.028242216528695307,
      "229": -0.012597642479524754,
      "230": 0.03872596880969134,
      "231": 0.02325805921053617,
      "232": 0.004219817745598293,
      "233": 0.0027357408753303208,
      "234": -0.003102645757696176,
      "235": -0.011220410099283649,
      "236": -0.02213705739420925,
      "237": -0.045847039600331145,
      "238": 0.0010784237389137579,
      "239": 0.0238624947661203,
      "240": 0.017985591188844366,
      "241": -0.02368833933198163,
      "242": -0.037309763570774056,
      "243": -0.03634541881853772,
      "244": -0.013548083786363943,
      "245": -0.035732746256361775,
      "246": 0.006771082725433274,
      "247": -0.008201831609021,
      "248": 0.026790397306727543,
      "249": 0.02975686911323996,
      "250": 0.0507305580336657,
      "251": 0.031012111876016206,
      "252": -0.021733926665074007,
      "253": 0.008353738846914106,
      "254": 0.0412820651620165,
      "255": 0.013744073116230883,
      "256": 0.005383428214696769,
      "257": 0.011577520215335877,
      "258": 0.038445580103832165,
      "259": 0.03986320129094398,
      "260": -0.006157488138455058,
      "261": 0.015806283515401115,
      "262": -0.05175598079061533,
      "263": 0.06590974824052348,
      "264": -0.05061564847855587,
      "265": 0.026651728233606054,
      "266": 0.0009411693905685047,
      "267": -0.017717050165178952,
      "268": 0.004651054653868856,
      "269": -0.03520044214698396,
      "270": -0.03745832047088389,
      "271": 0.010819598476248414,
      "272": -0.02780224014881395,
      "273": 0.012925912398880536,
      "274": 0.0033995857252302527,
      "275": 0.01725382065056212,
      "276": -0.06818489970213305,
      "277": -0.004633522467194778,
      "278": 0.0032191121055661037,
      "279": 0.009377367455180426,
      "280": 0.023673627551514247,
      "281": 0.020609188984912354,
      "282": -0.0019749230478487024,
      "283": 0.01398985714732996,
      "284": 0.03190634761369728,
      "285": -0.015582030472227261,
      "286": 0.026568514222537407,
      "287": 0.040198648818487004,
      "288": -0.06146871496560216,
      "289": -0.008064296158306053,
      "290": 0.06392305403784783,
      "291": 0.030121505029969093,
      "292": 0.0019349143606236447,
      "293": 0.03809680824977049,
      "294": -0.03620112566161074,
      "295": 0.026756383950177258,
      "296": 0.060090328661978845,
      "297": -0.042850915789027944,
      "298": -0.06047027629708964,
      "299": -0.03295929876342172,
      "300": -0.008212974442408486,
      "301": 0.05922593265039164,
      "302": 0.020747726465227784,
      "303": 0.016148554238539465,
      "304": 0.018886987125077324,
      "305": 0.03809244757283454,
      "306": 0.020342916279371726,
      "307": 0.022689750853915266,
      "308": 0.045363098596503705,
      "309": 0.08006760497561945,
      "310": -0.04283792473041502,
      "311": -0.00886670640969634,
      "312": 0.04915507287763317,
      "313": -0.00945336952920175,
      "314": -0.07023903154245809,
      "315": 0.003945430873107209,
      "316": -0.0455647544145925,
      "317": -0.08227998470333887,
      "318": 0.011875141582018167,
      "319": 0.03302144199320499,
      "320": -0.033336770265247465,
      "321": 0.0074043229248882516,
      "322": 0.003067575738112934,
      "323": -0.0073545756248452965,
      "324": 0.0034561768747023666,
      "325": -0.0026182188013593784,
      "326": 0.001706957309062628,
      "327": 0.03543071940111904,
      "328": -0.016096653739998988,
      "329": 0.007809786640799322,
      "330": -0.0612648051114428,
