{
 "layers": [
  {
   "out_depth": 838,
   "out_sx": 1,
   "out_sy": 1,
   "layer_type": "input"
  },
  {
   "out_depth": 25,
   "out_sx": 1,
   "out_sy": 1,
   "layer_type": "fc",
   "num_inputs": 838,
   "l1_decay_mul": 0,
   "l2_decay_mul": 1,
   "filters": [
    {
     "sx": 1,
     "sy": 1,
     "depth": 838,
     "w": {
      "0": 0.03408176076040347,
      "1": -0.016768409619520443,
      "2": 0.016700997864201,
      "3": 0.005196208761886823,
      "4": 0.09467530464059053,
      "5": -0.027317145164637072,
      "6": 0.01410896252698276,
      "7": 0.017274867958994997,
      "8": 0.055009680253582334,
      "9": 0.058592504308774884,
      "10": 0.017498631655522182,
      "11": -0.020584515734353465,
      "12": 0.04559730493697564,
      "13": -0.003648520625663718,
      "14": 0.04728195676950466,
      "15": 0.04368138589027825,
      "16": 0.0015070006492986262,
      "17": -0.016289179572551483,
      "18": 0.057572618524273575,
      "19": 0.03853121189143863,
      "20": 0.04325409768881733,
      "21": 0.001770710854036969,
      "22": 0.011200735744904336,
      "23": 0.08813317814475091,
      "24": -0.010460250606277777,
      "25": 0.011324612796123764,
      "26": 0.019297931942671376,
      "27": 0.07183470714569717,
      "28": 0.02522685619617408,
      "29": 0.010300939221800538,
      "30": -0.0019283998738616043,
      "31": -0.03582796288174462,
      "32": 0.01630084568443368,
      "33": -0.018374650450807918,
      "34": 0.0699160987829586,
      "35": -0.01944701541056722,
      "36": 0.0690411259115273,
      "37": 0.013472290862876681,
      "38": 0.02772761254247595,
      "39": 0.02733105313451782,
      "40": 0.005535971372996372,
      "41": -0.03059266489319358,
      "42": -0.006710365229670781,
      "43": 0.0015665243474145194,
      "44": -0.05687630200538298,
      "45": -0.03637962728736408,
      "46": 0.033529860002787154,
      "47": 0.018305252214971316,
      "48": 0.07966779331827785,
      "49": -0.01538727074247114,
      "50": -0.03103894496889365,
      "51": 0.024598610297254613,
      "52": 0.037182524857233966,
      "53": -0.06749926193379614,
      "54": 0.008829010433513858,
      "55": -0.019603741320846902,
      "56": 0.0327181202241439,
      "57": 0.05570297331281247,
      "58": 0.013528272805663686,
      "59": -0.058754211248089126,
      "60": 0.07333526320873238,
      "61": 0.031012538133173766,
      "62": -0.01690687255031479,
      "63": 0.006470615507696798,
      "64": -0.0006343204470686235,
      "65": 0.016203053967453508,
      "66": -0.024427434071776305,
      "67": 0.018250426826455033,
      "68": -0.016879935679736648,
      "69": 0.047882523998765254,
      "70": -0.04824760524188371,
      "71": 0.01609161256125248,
      "72": 0.018375802035464132,
      "73": -0.05383817987393834,
      "74": -0.0074649048487704,
      "75": -0.004809960989914451,
      "76": -0.07348597587690922,
      "77": -0.00626001124043437,
      "78": -0.03042202173570235,
      "79": -0.01467523751378407,
      "80": -0.04343656537617843,
      "81": -0.013031100018961218,
      "82": -0.00021676745956789346,
      "83": -0.021029922464573,
      "84": -0.01184356648233013,
      "85": 0.021350240789193915,
      "86": -0.06019183009414862,
      "87": -0.008767618188508403,
      "88": 0.017171784622665016,
      "89": -0.010376917707659816,
      "90": -0.023692644025484676,
      "91": 0.011773270898459899,
      "92": -0.03527562421972202,
      "93": 0.03948772170656261,
      "94": 0.0006703711579316763,
      "95": -0.004918807427649483,
      "96": -0.009150232403350986,
      "97": -0.05229681386046806,
      "98": -0.022090084959514294,
      "99": -0.0049005696759338805,
      "100": -0.043596736197929774,
      "101": 0.009959241309012058,
      "102": 0.022671737515138214,
      "103": 0.08181699259509857,
      "104": 0.009159454908586976,
      "105": -0.0006867142758320289,
      "106": 0.00041647963705077176,
      "107": -0.02408325558700388,
      "108": 0.023094215001531707,
      "109": -0.0011033485274125048,
      "110": 0.10184974492715057,
      "111": 0.0187810373602426,
      "112": 0.06629749322734028,
      "113": 0.02250236798951491,
      "114": -0.06383953835620576,
      "115": -0.033857664035844365,
      "116": -0.015312877021376077,
      "117": -0.017234680738275738,
      "118": 0.033940160093698636,
      "119": 0.03238672957538409,
      "120": -0.02680080212184451,
      "121": -0.0027610079920156096,
      "122": 0.051923470233169955,
      "123": -0.0034770979298861765,
      "124": -0.050867972420208844,
      "125": -0.01792338957602676,
      "126": 0.011113265791384915,
      "127": -0.003682583985913495,
      "128": 0.022372197198584114,
      "129": 0.025669524081464005,
      "130": 0.03867681645447229,
      "131": -0.03461936693985523,
      "132": -0.02593669176532416,
      "133": 0.07406033816681677,
      "134": 0.0001696918258345926,
      "135": 0.07042507953521956,
      "136": 0.018821083386088306,
      "137": -0.010458969374511273,
      "138": -0.01468711756532525,
      "139": -0.029657454056809418,
      "140": -0.056281204866202854,
      "141": -0.02811841294595249,
      "142": 0.03019258494277621,
      "143": 0.050739717403684305,
      "144": 0.006940552117990823,
      "145": -0.03704177015925597,
      "146": 0.02521592437103255,
      "147": -0.047638239942219475,
      "148": -0.03845692235783443,
      "149": 0.01680354920451857,
      "150": 0.05007311113021998,
      "151": -0.017103663978798544,
      "152": 0.07671223747789763,
      "153": 0.05780439756220936,
      "154": -0.00615939915842691,
      "155": -0.07551610855924513,
      "156": 0.0023627940270704345,
      "157": 0.04643941307181575,
      "158": -0.05823735266437773,
      "159": 0.0759050479754954,
      "160": 0.056213565656094554,
      "161": -0.012113157431748742,
      "162": -0.03071992985782894,
      "163": 0.0012725892891451672,
      "164": -0.05551662180201013,
      "165": 0.010669662315843705,
      "166": -0.049758444158195504,
      "167": 0.0010558431841197556,
      "168": 0.03794501173947886,
      "169": 0.028848661937229972,
      "170": -0.0026464380035892496,
      "171": -0.003735331111225535,
      "172": 0.049725715139455895,
      "173": 0.046786863999422196,
      "174": 0.02099994323505298,
      "175": 0.022890916359380648,
      "176": 0.03797088249489874,
      "177": -0.01781457169441316,
      "178": 0.006272913444569927,
      "179": 0.04913687018866488,
      "180": -0.021822129918777692,
      "181": -0.04093598013760138,
      "182": -0.005494777462060195,
      "183": 0.021305627696157625,
      "184": -0.020369280978086903,
      "185": 0.03340882443383874,
      "186": -0.038559307844234614,
      "187": 0.05085854304380095,
      "188": 0.009694668616362034,
      "189": -0.05693367008302593,
      "190": 0.01586080209867374,
      "191": -0.012125891864970442,
      "192": -0.007881505673623154,
      "193": 0.023705104399920886,
      "194": 0.04934419628449673,
      "195": 0.03628775890381415,
      "196": -0.0077333943737215305,
      "197": -0.028828797225360085,
      "198": -0.0062849664023268345,
      "199": 0.0446172141094719,
      "200": -0.033055408496519355,
      "201": -0.006674840455483503,
      "202": 0.032803855673113405,
      "203": -0.013002231702901561,
      "204": -0.0016388501888831817,
      "205": 0.008861084638640035,
      "206": -0.07440090736056611,
      "207": 0.012907791952802953,
      "208": -0.007632908750687475,
      "209": -0.002678556565675826,
      "210": -0.09476716091875668,
      "211": -0.007623682258098229,
      "212": 0.0007315403190263791,
      "213": 0.029038432318274725,
      "214": 0.031347789438410455,
      "215": 0.018343957950123002,
      "216": -0.0038741988452583994,
      "217": -0.014358909750045053,
      "218": 0.049118793914217744,
      "219": 0.008632736438642088,
      "220": 0.00021581271502012526,
      "221": 0.030662697958800625,
      "222": -0.021630657441831323,
      "223": 0.01854664751502731,
      "224": 0.035672766556405874,
      "225": 0.02727978642938025,
      "226": 0.027839686139940766,
      "227": -0.006262182914577238,
      "228": 0.01873588790477401,
      "229": 0.015358082202824799,
      "230": 0.016958139423200465,
      "231": 0.0046568819531936445,
      "232": -0.04942793832426072,
      "233": 0.04149223745936312,
      "234": -0.06519816958633977,
      "235": -0.011361405996999531,
      "236": 0.01061569160141086,
      "237": -0.010150513603137727,
      "238": -0.057215687857574395,
      "239": 0.03379575273886882,
      "240": -0.03306271976400076,
      "241": 0.06484912833843288,
      "242": -0.005482458934787221,
      "243": -0.01706834012950387,
      "244": 0.004045615981347502,
      "245": 0.025880407673846195,
      "246": 0.03162382722385301,
      "247": -0.023660083331005617,
      "248": 0.058466431056348835,
      "249": -0.03402369067525308,
      "250": 0.014338126082268364,
      "251": -0.01829453976864055,
      "252": -0.031959559047366345,
      "253": 0.017468907562801228,
      "254": 0.023410144045868126,
      "255": 0.003982083834367067,
      "256": -0.016665248399500645,
      "257": 0.02806359111328137,
      "258": -0.02585636461079094,
      "259": -0.007094502507896755,
      "260": -0.0004805312711533787,
      "261": 0.04767356100449373,
      "262": -0.05032655969580343,
      "263": -0.001247914823119311,
      "264": -0.016335004355145743,
      "265": -0.06284960622957253,
      "266": 0.008220276767636796,
      "267": -0.030542002955345367,
      "268": 0.013991641667658566,
      "269": 0.07061485527559148,
      "270": 0.018911692032634122,
      "271": 0.08658078387478488,
      "272": -0.01611146513156897,
      "273": -0.04668846380419124,
      "274": 0.056325671400035006,
      "275": -0.013218279586993177,
      "276": 0.014811215694671644,
      "277": 0.001330221634655484,
      "278": 0.021855112598658126,
      "279": 0.0006659996611817493,
      "280": 0.055924485505989635,
      "281": -0.03333145284569795,
      "282": 0.014506346644265998,
      "283": 0.04933133311046217,
      "284": -0.037963645321819624,
      "285": 0.05916900658632617,
      "286": 0.056955455708643084,
      "287": 0.01814440543046263,
      "288": 0.005791661701135783,
      "289": -0.04599192078755256,
      "290": 0.01929731241495985,
      "291": -0.004010064114952035,
      "292": -0.021646954044270285,
      "293": 0.013635012767333074,
      "294": -0.003135698990823133,
      "295": -0.01139708962003371,
      "296": 0.041626566619437616,
      "297": 0.03427920153075905,
      "298": 0.023364695153965824,
      "299": -0.000969833837167499,
      "300": -0.014690903486222942,
      "301": 0.05020212113555385,
      "302": 0.029728740933471772,
      "303": -0.0024036878387880605,
      "304": 0.08115300518937207,
      "305": -0.05216016355446011,
      "306": 0.03132119442746019,
      "307": -0.031654708503119786,
      "308": 0.026891344457281346,
      "309": -0.0015290989094061997,
      "310": 0.026542560121978212,
      "311": 0.05427343228883496,
      "312": -0.009211481429940181,
      "313": 0.010367055530316244,
      "314": -0.04117073001713673,
      "315": 0.020102008542065633,
      "316": 0.01613147871716246,
      "317": -0.0459119168615855,
      "318": 0.02887157092921019,
      "319": -0.032337758087421335,
      "320": -0.021029270526094736,
      "321": -0.02931654026645545,
      "322": 0.06832774243240891,
      "323": 0.002749799519425551,
      "324": -0.011525651214062361,
      "325": 0.03799215043994051,
      "326": -0.015248837479331399,
      "327": -0.010299269353939558,
      "328": 0.04542690094595792,
      "329": 0.013612749127783404,
      "330": -0.02016181990611783,
      "331": -0.012098891978020051,
      "332": 0.03029010897892085,
      "333": 0.015418048206378281,
      "334": -0.022280628863870614,
      "335": -0.008771088047685777,
      "336": -0.03735474710678627,
      "337": 0.015936498361778437,
      "338": -0.0390518392888207,
      "339": -0.0030137867931054833,
      "340": -0.0047011722103216325,
      "341": 0.09074435226191721,
      "342": 0.005317543744172014,
      "343": -0.021361620760518226,
      "344": 0.06447786295109137,
      "345": -0.01850075921024343,
      "346": -0.024082117785869165,
      "347": 0.024734917099947858,
      "348": -0.023029381340381943,
      "349": 0.004657269763833107,
      "350": 0.07084947844444102,
      "351": -0.03318934174456739,
      "352": 0.060906217164786614,
      "353": -0.0015132500984132173,
      "354": -0.03900484588176864,
      "355": -0.04278425290707029,
      "356": 0.0695233137466115,
      "357": 0.032469381415744326,
      "358": -0.024692970622464817,
      "359": -0.0392300922578977,
      "360": -0.014786085355534113,
      "361": -0.02624082072311364,
      "362": 0.005497213651567807,
      "363": 0.016271095727599764,
      "364": -0.07020078821781657,
      "365": 0.0015631100248461069,
      "366": 0.07823679022439294,
      "367": -0.03272866615078616,
      "368": -0.009421969398774191,
      "369": -0.009919942118763684,
      "370": 0.027426318902378902,
      "371": 0.020820797900087562,
      "372": -0.01217012865339925,
      "373": 0.028049671566573762,
      "374": 0.0552485756252952,
      "375": -0.014159950459276196,
      "376": 0.02653967471026179,
      "377": -0.01610675649175006,
      "378": -0.021881682476285465,
      "379": -0.004505014582489734,
      "380": -0.04588311461435762,
      "381": -0.0064013800347175265,
      "382": 0.011607533002210409,
      "383": -0.04054338636609093,
      "384": -0.00656714921996745,
      "385": 0.019957503434047726,
      "386": 0.02849157129532178,
      "387": -0.023226765519825623,
      "388": -0.012762263323433089,
      "389": 0.010549506663599122,
      "390": -0.04817727490252844,
      "391": -0.02737813934776759,
      "392": -0.025327806708570048,
      "393": 0.019875047988339327,
      "394": -0.022035550666503066,
      "395": -0.01806102581736793,
      "396": -0.03641141766516736,
      "397": 0.04645151699729817,
      "398": -0.026160724960642086,
      "399": -0.020580853879203994,
      "400": 0.0356841280207339,
      "401": -0.0809391609069076,
      "402": 0.0014301469827602852,
      "403": 0.018344830934304383,
      "404": 0.03127982412350093,
      "405": 0.023260082313079918,
      "406": 0.03630243311118092,
      "407": -0.033731327464114634,
      "408": -0.05654853685017329,
      "409": -0.015740863299587904,
      "410": -0.05836409349386889,
      "411": 0.0318557971092215,
      "412": 0.01855968774308513,
      "413": 0.03638802121005905,
      "414": -0.017660431053662495,
      "415": -0.006686431991788091,
      "416": 0.030330086459002294,
      "417": 0.009296512011414643,
      "418": 0.04883099689279558,
      "419": -0.00804455337022608,
      "420": -0.024852873673547764,
      "421": 0.008727390054620303,
      "422": -0.0019177179353843145,
      "423": -0.008915456380728208,
      "424": 0.010459496712374365,
      "425": 0.021207940891274542,
      "426": 0.03532791449244916,
      "427": -0.015583861011173343,
      "428": -0.0028688519515677217,
      "429": 0.0701420775805894,
      "430": -0.05195484634538463,
      "431": -0.014944242764480533,
      "432": 0.039268423024384116,
      "433": -0.019539782637438087,
      "434": -0.02906066330954622,
      "435": -0.0023939326598737647,
      "436": 0.022495307207079925,
      "437": 0.0036813289421253736,
      "438": -0.03134677888410697,
      "439": 0.014259497298402196,
      "440": -0.036334422818557435,
      "441": 0.029697557460737482,
      "442": -0.03212049144988937,
      "443": 0.015401224836444532,
      "444": 0.025321932325480086,
      "445": -0.010965707395402697,
      "446": 0.03990384705413162,
      "447": 0.014235211527830029,
      "448": 0.03854094192107069,
      "449": 0.012573978789827165,
      "450": -0.017497223658109153,
      "451": -0.09772049613566547,
      "452": 0.0662235942090526,
      "453": -0.020569464847119905,
      "454": -0.018397444468526872,
      "455": 0.030988272218529938,
      "456": -0.009053572621216715,
      "457": 0.02132436598783122,
      "458": 0.02900491788192985,
      "459": 0.02010736110629777,
      "460": 0.01444928546770889,
      "461": -0.02498420415095395,
      "462": 0.07262462090345656,
      "463": -0.005066246482303675,
      "464": -0.004504027292251177,
      "465": -0.013035091135792029,
      "466": -0.013982686204044298,
      "467": 0.013499016434491456,
      "468": 0.029906212614915103,
      "469": 0.013208445644885722,
      "470": 0.050214174024453814,
      "471": -0.029738360973082675,
      "472": -0.008028686531594012,
      "473": 0.04751688089294457,
      "474": -0.007912800360017926,
      "475": -0.03570229190451295,
      "476": -0.03441495633926009,
      "477": 0.004285765624161926,
      "478": -0.01985493239165172,
      "479": 0.03830700091359129,
      "480": 0.024538187226237074,
      "481": -0.0014216798371764654,
      "482": -0.02782637434768094,
      "483": -0.01602134463541632,
      "484": -0.05763083005936266,
      "485": 0.039509730895152514,
      "486": -0.03854382518384156,
      "487": 0.017475776401843775,
      "488": -0.11971028233505013,
      "489": 0.0038178443476820797,
      "490": 0.011805372843744373,
      "491": -0.010547405033142375,
      "492": 0.030818394098145022,
      "493": 0.012960883597915763,
      "494": -0.027655791854145916,
      "495": -0.024068915734495464,
      "496": -0.03778773329020074,
      "497": -0.013082401154498753,
      "498": 0.009725178911317259,
      "499": -0.015183375311150401,
      "500": -0.04153095587408719,
      "501": 0.04066758028165963,
      "502": -0.009969276204536618,
      "503": -0.0027335655074038896,
      "504": 0.0011714295679261582,
      "505": 0.02930210282737454,
      "506": -0.0016267936859403996,
      "507": -0.03659365458133314,
      "508": -0.0036376450278804372,
      "509": 0.03495401716883931,
      "510": 0.03521606530793177,
      "511": -0.019546906399434166,
      "512": 0.039863803816407826,
      "513": -0.022044963575271862,
      "514": 0.044986248013823914,
      "515": -0.00010566221216534536,
      "516": 0.012854166857791555,
      "517": 0.009645878193140386,
      "518": 0.03111298549569215,
      "519": 0.003243217100998978,
      "520": -0.07484960356740918,
      "521": 0.014073311932391848,
      "522": 0.021401336567662885,
      "523": -0.01462980063170761,
      "524": 0.03358202348890924,
      "525": 0.04442195933281654,
      "526": 0.012619822336806143,
      "527": 0.025932334643146857,
      "528": 0.04604531513713329,
      "529": -0.01524708439796991,
      "530": -0.01945501946623706,
      "531": -0.004572655673380933,
      "532": 0.01273979431790969,
      "533": 0.014036839953816197,
      "534": 0.017896632442740236,
      "535": 0.004346227269435828,
      "536": 0.03809769235193285,
      "537": -0.004134013143239839,
      "538": -0.023182961204129975,
      "539": 0.025239580253203286,
      "540": 0.06215267922511084,
      "541": -0.07334985760091864,
      "542": -0.036980206697288374,
      "543": -0.006411820695088918,
      "544": -0.014572920261919758,
      "545": 0.06690680591341523,
      "546": -0.004773315234654089,
      "547": -0.002585319927957905,
      "548": -0.004778305421216564,
      "549": -0.007444747696104971,
      "550": -0.0286676339707895,
      "551": -0.021943714263673468,
      "552": 0.060304964371092964,
      "553": -0.04356992294628719,
      "554": 0.06751628148542872,
      "555": 0.024555660753760873,
      "556": 0.0052004996114404685,
      "557": 0.054784419972711836,
      "558": -0.061031999513294875,
      "559": -0.005466672234802387,
      "560": -0.010509001541508887,
      "561": 0.02223747152270404,
      "562": -0.02350135382953523,
      "563": -0.0475780152650676,
      "564": -0.010344244561037998,
      "565": 0.020871134508481368,
      "566": 0.018153209405235734,
      "567": 0.04551409498101447,
      "568": -0.053026519118993795,
      "569": -0.005830835497969594,
      "570": -0.010587765733680258,
      "571": 0.05161272298804186,
      "572": -0.03670904499949163,
      "573": -0.03573373649334325,
      "574": -0.026673842000848852,
      "575": 0.018506844761744135,
      "576": -0.05104320031119929,
      "577": 0.002591247521262252,
      "578": -0.03232096944863752,
      "579": 0.028618127291915974,
      "580": -0.0007388160401245299,
      "581": 0.013239763073371833,
      "582": 0.04707080277401765,
      "583": -0.03611499273101544,
      "584": -0.008841176726901583,
      "585": 0.0027252896830749873,
      "586": -0.049762880587820545,
      "587": -0.01592147699552046,
      "588": -0.020768122373536937,
      "589": 0.00030022335703122676,
      "590": -0.03401049215597603,
      "591": -0.05252424630911139,
      "592": -0.038186697079940525,
      "593": -0.018976088568734645,
      "594": 0.04021623105794422,
      "595": -0.04024454805528896,
      "596": -0.027890432925274527,
      "597": -0.010545086662861306,
      "598": 0.05992103568956501,
      "599": 0.032791418023225834,
      "600": -0.033574626631379105,
      "601": 0.016076597772222843,
      "602": 0.007798217516913259,
      "603": 0.050439381753337044,
      "604": 0.04071101769079728,
      "605": -0.0503430546291631,
      "606": 0.02687124522909392,
      "607": -0.044104754606182774,
      "608": 0.007362927675745842,
      "609": 0.03196418922949532,
      "610": 0.06450280216686818,
      "611": 0.013667234236749764,
      "612": 0.023610801419544247,
      "613": 0.03014786161377655,
      "614": 0.02904721670776907,
      "615": -0.0013245855061406245,
      "616": -0.024213125053653087,
      "617": -0.07890881362644327,
      "618": 0.00890711767728209,
      "619": -0.03147113331756875,
      "620": -0.02639966620698892,
      "621": -0.013459165111394633,
      "622": -0.017708110981819004,
      "623": 0.060379651020174126,
      "624": -0.018156823934167395,
      "625": 0.021147350864644168,
      "626": 0.022728860533354055,
      "627": -0.041119142057081094,
      "628": 0.031417762784455974,
      "629": 0.006451939669167214,
      "630": 0.02362307493778081,
      "631": -0.017335144046024372,
      "632": -0.014587147742100976,
      "633": -0.0030736870560664114,
      "634": 0.006557777121486157,
      "635": 0.03653040684614785,
      "636": 0.002597900251959485,
      "637": -0.08693983242367932,
      "638": 0.05348938664825606,
      "639": -0.03223337846954501,
      "640": -0.012514493125739686,
      "641": 0.037832613208641105,
      "642": 0.02608780766351521,
      "643": -0.008504663954735047,
      "644": -0.07903208099636978,
      "645": -0.02210382493568453,
      "646": -0.012716041738029633,
      "647": -0.005708605307783513,
      "648": -0.0037778548495351525,
      "649": -0.00468418902373754,
      "650": -0.052003360333179295,
      "651": 0.056187642680935894,
      "652": -0.0268470384320166,
      "653": 0.021477113060377816,
      "654": 0.0010410179982803655,
      "655": 0.0045022699231383944,
      "656": 0.01250845418471921,
      "657": -0.03398201669780497,
      "658": -0.004007071886879808,
      "659": -0.06373595783584494,
      "660": 0.031510264108395795,
      "661": 0.02434484069881057,
      "662": -0.04812958396631856,
      "663": 0.020510960951411063,
      "664": -0.04804984686248656,
      "665": -0.009927952278326196,
      "666": -0.0008001626306287038,
      "667": 0.022632777033078318,
      "668": -0.007973057696694043,
      "669": -0.0019164410203066874,
      "670": -0.022430255261179578,
      "671": 0.013361497375576289,
      "672": 0.026098485731822073,
      "673": 0.0037751705466990484,
      "674": 0.04561606108466527,
      "675": 0.008879669989232092,
      "676": 0.010936827706761758,
      "677": 0.0017475005179539477,
      "678": -0.008169827590133103,
      "679": -0.04008083825691769,
      "680": 0.0012931600268469518,
      "681": -0.02830791427367272,
      "682": 0.010415683499371367,
      "683": 0.030131497974854753,
      "684": -0.035688240584829896,
      "685": 0.005373425378729427,
      "686": -0.020824635698465686,
      "687": -0.0772910016923846,
      "688": 0.016835707719646823,
      "689": -0.010095735837619286,
      "690": -0.03703434330122663,
      "691": -0.05657427543508073,
      "692": -0.046123520242469254,
      "693": 0.012900925145965128,
      "694": -0.03942409331821913,
      "695": 0.03414840645336769,
      "696": -0.04836560278966733,
      "697": 0.004268762382652859,
      "698": 0.008912353019173144,
      "699": -0.029273731107061555,
      "700": -0.04238144409962231,
      "701": 0.038735189928799624,
      "702": 0.0015695028452811892,
      "703": 0.01709376671622367,
      "704": 0.07026346358741756,
      "705": -0.015120882935685788,
      "706": 0.005019635832451446,
      "707": -0.020172222580877728,
      "708": 0.007714906323357069,
      "709": -0.02018111857662215,
      "710": 0.04527030361563583,
      "711": -0.03661524120782857,
      "712": 0.050626174038603505,
      "713": 0.002450635416111282,
      "714": 0.06886958970445733,
      "715": 0.05195619102898044,
      "716": -0.024908503027157417,
      "717": 0.0015788954379009725,
      "718": 0.027898011835979192,
      "719": 0.05517895106331049,
      "720": -0.018480083146245725,
      "721": -0.02198436654440931,
      "722": 0.05721975374382895,
      "723": -0.011040676120660325,
      "724": 0.03450647315467087,
      "725": 0.0061439250729063265,
      "726": 0.01801262823717708,
      "727": -0.007155756196602909,
      "728": -0.05388601000710131,
      "729": -0.025037055256564834,
      "730": 0.033074697415758934,
      "731": 0.030684443438114054,
      "732": 0.03956078847291976,
      "733": 0.019911051765393508,
      "734": 0.0203759799233756,
      "735": 0.04848778425532926,
      "736": -0.07051181908246576,
      "737": 0.06288354350306584,
      "738": -0.02602843602340373,
      "739": -0.031172584045895842,
      "740": -0.0291427638679494,
      "741": 0.06390776617556816,
      "742": -0.02809286421910684,
      "743": -0.044407121402411875,
      "744": -0.044707449772792306,
      "745": -0.019807030928214685,
      "746": -0.029304958233686836,
      "747": 0.0033433376918001355,
      "748": -0.016122481343390796,
      "749": -0.04114031374068187,
      "750": 0.02440274804126014,
      "751": 0.002655573608899993,
      "752": 0.027164393421815317,
      "753": -0.018362912380008416,
      "754": -0.01295299769153569,
      "755": -0.025978915795544434,
      "756": -0.11354756316540236,
      "757": -0.06358546298970665,
      "758": 0.05271616725176426,
      "759": 0.01614055231211664,
      "760": -0.023991974620201507,
      "761": -0.02407250436080817,
      "762": -0.01160925793888834,
      "763": 0.03400304718453448,
      "764": -0.005430913489137172,
      "765": 0.022629487773784974,
      "766": -0.026861098856183846,
      "767": -0.059518500432059036,
      "768": -0.005246027744092053,
      "769": 0.035521710991989565,
      "770": -0.04459497839232196,
      "771": 0.06493689830628978,
      "772": -0.022922921655384926,
      "773": -0.02621312760209663,
      "774": 0.04233157028102675,
      "775": -0.008855885684548108,
      "776": -0.009511657985200862,
      "777": 0.02861687447502782,
      "778": -0.03017905483796887,
      "779": -0.05235063271998409,
      "780": -0.06855936159508487,
      "781": 0.04321505096243474,
      "782": -0.013451102051239672,
      "783": 0.0339154163553006,
      "784": -0.007490000468055178,
      "785": 0.008553608178467238,
      "786": -0.060973095873733604,
      "787": -0.03827199612646689,
      "788": 0.05353091767099827,
      "789": -0.05091065787205113,
      "790": 0.08089598943820192,
      "791": 0.060380082939878725,
      "792": -0.009503895218440231,
      "793": -0.0026151822729654313,
      "794": 0.022620570837884477,
      "795": 0.0681838387124782,
      "796": 0.007818750702639127,
      "797": -0.03777449682114413,
      "798": 0.053130494195670466,
      "799": -0.004973445745667365,
      "800": 0.006352764573412986,
      "801": -0.010078077364341754,
      "802": -0.04174461068077703,
      "803": 0.013999492525565142,
      "804": -0.058686585927644,
      "805": -0.029953360695693737,
      "806": -0.0015280927782909608,
      "807": 0.0008776903790885379,
      "808": 0.026759721537002464,
      "809": 0.0025523943732967,
      "810": 0.030746230399267178,
      "811": -0.04226844356094966,
      "812": -0.0025289298001176627,
      "813": -0.005322880878788106,
      "814": 0.024802329890547915,
      "815": -0.05151689115131947,
      "816": -0.021507750274491047,
      "817": -0.01761682340656072,
      "818": -0.0951831887589477,
      "819": 0.026587174124971087,
      "820": 0.022685301697605346,
      "821": 0.01627998198529958,
      "822": 0.08874917804091752,
      "823": -0.03901862435578952,
      "824": 0.02082535086692505,
      "825": 0.06418614953888294,
      "826": 0.05822228581953907,
      "827": 0.01382658604872062,
      "828": -0.031171218551107015,
      "829": -0.04246289330195337,
      "830": -0.003501342083031474,
      "831": -0.047291913489083806,
      "832": 0.019272467454681946,
      "833": 0.031112104421262866,
      "834": 0.017117346977638715,
      "835": -0.0034097822616893513,
      "836": -0.02127930833415692,
      "837": -0.018729564423741848
     }
    },
    {
     "sx": 1,
     "sy": 1,
     "depth": 838,
     "w": {
      "0": -0.01761499035351769,
      "1": 0.004283157956427312,
      "2": 0.01248986882560793,
      "3": 0.012961606997783499,
      "4": -0.05723631254157139,
      "5": -0.004686886998134789,
      "6": 0.05961767493795697,
      "7": -0.004003216547783875,
      "8": -0.017237606958556424,
      "9": 0.005386628594015534,
      "10": -0.03140659377108998,
      "11": -0.018542165863738625,
      "12": -0.00917186766000197,
      "13": -0.014288394711811153,
      "14": 0.042630239066187896,
      "15": 0.01697652435682136,
      "16": 0.07265748783999837,
      "17": -0.02388434935763555,
      "18": -0.027769653867498544,
      "19": 0.00915144982247234,
      "20": -0.04513729794255442,
      "21": 0.028597392560140704,
      "22": -0.017087874369503195,
      "23": 0.014642125183482079,
      "24": -0.08792261308967438,
      "25": 0.018490942784730627,
      "26": -0.01441914228839031,
      "27": -0.04939432953609841,
      "28": 0.02483767523534756,
      "29": -0.02121767423255212,
      "30": 0.020975065238235988,
      "31": -0.06639474828246636,
      "32": -0.013840237008236134,
      "33": 0.032470623030610095,
      "34": -0.06372023077150724,
      "35": 0.011928509480427093,
      "36": -0.05344713496543468,
      "37": -0.019312305382680348,
      "38": -0.039695928400347066,
      "39": 0.08003072789428348,
      "40": 0.007409993289267289,
      "41": -0.013858306585320244,
      "42": -0.0656035591114971,
      "43": 0.024933601324778117,
      "44": 0.055668224662043866,
      "45": -0.027790564245602056,
      "46": 0.018813484540816904,
      "47": 0.033153319276202665,
      "48": -0.013941393621625107,
      "49": 0.0029132126630164036,
      "50": -0.053393521451222455,
      "51": 0.0405890668200743,
      "52": -0.028816876362528093,
      "53": 0.00741314578311112,
      "54": 0.06868685093186098,
      "55": -0.05150716456812052,
      "56": 0.00965164659835092,
      "57": 0.05169544160965292,
      "58": 0.08100918507776185,
      "59": -0.049909049077407806,
      "60": -0.0327181073607391,
      "61": 0.017226004576249742,
      "62": -0.020547447804305122,
      "63": -0.016418425307857795,
      "64": -0.0374795417280013,
      "65": 0.05369260375196692,
      "66": 0.009836036068563883,
      "67": -0.0639948272345973,
      "68": -0.038925896406781985,
      "69": 0.01773224731316024,
      "70": 0.05305323124162366,
      "71": 0.01954587915337283,
      "72": -0.014785462418003709,
      "73": 0.007811665042079941,
      "74": 0.005182484172561299,
      "75": -0.07603800938854205,
      "76": 0.06002291013824199,
      "77": -0.040590204000933224,
      "78": -0.03459054206583466,
      "79": 0.0635733975884292,
      "80": 0.0021339922709684212,
      "81": 0.026825553409306386,
      "82": -0.009950241785365256,
      "83": -0.035882492534926154,
      "84": -0.057157543020452506,
      "85": -0.1000178111175598,
      "86": 0.058546275856037215,
      "87": -0.0011052420283185654,
      "88": 0.019656646283710954,
      "89": -0.011334809642314002,
      "90": 0.0540804163154353,
      "91": 0.03303202968444907,
      "92": 0.0032813805340496265,
      "93": 0.006288598737086672,
      "94": -0.010814656531555373,
      "95": -0.036350657509568715,
      "96": 0.003837119284637681,
      "97": 0.004462170079006406,
      "98": 0.041694613470098764,
      "99": -0.046082892576508966,
      "100": 0.022749562955079926,
      "101": -0.011724641665907597,
      "102": -0.05043773689736054,
      "103": -0.02297083327915426,
      "104": -0.045929007165368754,
      "105": 0.0655222747821048,
      "106": -0.03637237108701675,
      "107": 0.02295382391837966,
      "108": 0.011245684471967056,
      "109": 0.005021370928775883,
      "110": 0.02804915841943165,
      "111": 0.04857826541412422,
      "112": -0.022336019895748998,
      "113": 0.03714607134106109,
      "114": 0.014203830237765983,
      "115": 0.08692988926836828,
      "116": 0.009999213435567393,
      "117": 0.006869739305192226,
      "118": -0.05880246136922305,
      "119": 0.01957723160330674,
      "120": 0.04096246170968674,
      "121": 0.007408418718593628,
      "122": -0.015802722441236622,
      "123": -0.03165257819186958,
      "124": -0.0021111381518855023,
      "125": -0.01250784655130185,
      "126": -0.03434540422305851,
      "127": -0.000616024488237715,
      "128": -0.029353838890221584,
      "129": -0.046882716612238695,
      "130": 0.009588067949020007,
      "131": -0.01561991608741655,
      "132": 0.02893978922377729,
      "133": -0.02589412899109719,
      "134": 0.011305881768833433,
      "135": -0.02249513318284888,
      "136": 0.025176082266603214,
      "137": 0.0437787991675736,
      "138": 0.0013916114837268772,
      "139": 0.014723379781028138,
      "140": 0.010925417472774089,
      "141": -0.009615380661286711,
      "142": -0.0063434330281944415,
      "143": -0.04409100290923409,
      "144": -0.06510413849018042,
      "145": -0.0655067277218865,
      "146": 0.015892867891417212,
      "147": -0.01579947396197113,
      "148": -0.014538603722093566,
      "149": -0.04375717622576327,
      "150": -0.05954133715263457,
      "151": 0.027963912549999005,
      "152": 0.05331943854906943,
      "153": -0.015019842504658628,
      "154": 0.027482425527759737,
      "155": -0.03092608406467531,
      "156": -0.003958329141703617,
      "157": 0.012665808996954674,
      "158": -0.028556536160358005,
      "159": -0.017121269100473475,
      "160": -0.00994520962131913,
      "161": 0.07113664801593078,
      "162": 0.028228977036130247,
      "163": -0.0552978141399124,
      "164": -0.03902402285265469,
      "165": -0.003432097202556445,
      "166": -0.013039819383004197,
      "167": -0.058666160649840184,
      "168": -0.0066129706964959895,
      "169": -0.04310730972097714,
      "170": -0.011606945013189955,
      "171": -0.03396280575536931,
      "172": -0.042358590307359216,
      "173": 0.00006185266108501176,
      "174": -0.03491607399754207,
      "175": 0.011020472743220077,
      "176": 0.0034804664058974383,
      "177": -0.03610143272145726,
      "178": 0.044447820802060375,
      "179": 0.0018176594685512242,
      "180": 0.01560534982272569,
      "181": -0.03800980733465012,
      "182": -0.009704519706371534,
      "183": 0.011570507783591095,
      "184": -0.016523335943969156,
      "185": 0.04875741218878152,
      "186": -0.0007010885147371627,
      "187": 0.013713457075047567,
      "188": -0.045852923065655096,
      "189": 0.06372304279301115,
      "190": 0.0005110466124136971,
      "191": 0.028151814485609453,
      "192": 0.025491582244587526,
      "193": -0.026955924356564985,
      "194": -0.0204608668880825,
      "195": -0.031112627552407984,
      "196": -0.016180420812531328,
      "197": -0.043884670702596364,
      "198": 0.0025703169335857838,
      "199": -0.08351430769809691,
      "200": -0.007534016018413082,
      "201": -0.003597526906876027,
      "202": 0.0418903338671059,
      "203": 0.0062361762897830825,
      "204": -0.034439877456089577,
      "205": 0.011171598922322393,
      "206": -0.02198682530454579,
      "207": -0.0027417370601336955,
      "208": -0.01638853774841564,
      "209": 0.0005924704692202981,
      "210": 0.0017775686464472386,
      "211": 0.03065865104465576,
      "212": -0.07075846052546102,
      "213": 0.09347659482145948,
      "214": -0.008061916289053478,
      "215": -0.020548941671279297,
      "216": -0.04791096070435426,
      "217": 0.025810792831493016,
      "218": -0.02699834639009775,
      "219": 0.05160473959908466,
      "220": -0.008352008237638103,
      "221": -0.03561388037075215,
      "222": 0.002597117566245457,
      "223": -0.0065619639127639405,
      "224": -0.0429656026115681,
      "225": 0.045662821215971316,
      "226": -0.018617812614832453,
      "227": 0.006868320348583614,
      "228": 0.0006203501480980786,
      "229": -0.03652138515407833,
      "230": 0.0198059677112287,
      "231": 0.060990121022586996,
      "232": 0.019156841733386703,
      "233": -0.012853506683047319,
      "234": -0.006566672199533622,
      "235": -0.02206236619468503,
      "236": -0.02295490944776334,
      "237": 0.008311367518790235,
      "238": 0.012050116434728178,
      "239": -0.04981464072184986,
      "240": 0.058839899841795114,
      "241": -0.05088274165543219,
      "242": 0.08852569949988226,
      "243": 0.0038136857996301315,
      "244": 0.00952060343605495,
      "245": 0.025264135223785986,
      "246": -0.02773760091222015,
      "247": -0.026664575963598523,
      "248": 0.007215420001871886,
      "249": -0.01022994451559587,
      "250": -0.012489567102978539,
      "251": 0.02302450390072231,
      "252": 0.006853299597858754,
      "253": 0.05590390764764079,
      "254": 0.04734246706390642,
      "255": 0.01382306046374571,
      "256": -0.03559062495801366,
      "257": -0.001071921495758866,
      "258": 0.02958573737656063,
      "259": -0.041695021414582624,
      "260": 0.017910108959733263,
      "261": 0.008874058472169818,
      "262": 0.029143417507304332,
      "263": -0.016739394904289672,
      "264": 0.0017418725516587033,
      "265": -0.03285528159177064,
      "266": -0.053128754917501804,
      "267": 0.05709948779871826,
      "268": 0.04565358511834794,
      "269": 0.004240734057306979,
      "270": -0.019035466513581754,
      "271": -0.06358194950644462,
      "272": 0.0702939799761502,
      "273": 0.06296354544447459,
      "274": -0.013797479911842042,
      "275": -0.00948646730673836,
      "276": -0.030645534595663125,
      "277": 0.036604342712811655,
      "278": -0.008725389253150483,
      "279": -0.03381453263599434,
      "280": -0.009608347446036867,
      "281": 0.012409170004521146,
      "282": 0.058777604370560635,
      "283": 0.005580268672408187,
      "284": 0.02502629453139078,
      "285": -0.029189576279765105,
      "286": -0.02419678272702254,
      "287": 0.019342359363062576,
      "288": -0.0005651332843869086,
      "289": 0.027899226595977614,
      "290": 0.025475263410001052,
      "291": 0.03744749913227619,
      "292": 0.004260797703739461,
      "293": 0.008617380411539855,
      "294": 0.01680284857226091,
      "295": -0.005998597783644703,
      "296": -0.0323429266075319,
      "297": -0.06579063568184153,
      "298": 0.00540062155104439,
      "299": -0.002765219138164961,
      "300": 0.016875509467285246,
      "301": 0.05163723792819227,
      "302": 0.01965581802459253,
      "303": 0.0037939025472007045,
      "304": 0.03799372236254126,
      "305": 0.014081186175055709,
      "306": 0.07331865101313297,
      "307": -0.019972783436129952,
      "308": 0.049924406500127326,
      "309": -0.02178497928941481,
      "310": 0.02252804472709423,
      "311": -0.016347317545391305,
      "312": -0.00956406179911539,
      "313": -0.03427014626089203,
      "314": 0.059845754479468626,
      "315": -0.0017950299935295673,
      "316": -0.009433474548249514,
      "317": -0.055243900754549595,
      "318": -0.04782620982525607,
      "319": 0.019593031891141588,
      "320": 0.05171871954289087,
      "321": 0.052750660129324875,
      "322": 0.052337278933238814,
      "323": -0.06311197448690507,
      "324": -0.009833338290233872,
      "325": 0.017259993204752938,
      "326": 0.01750899301947029,
      "327": -0.023385070935092848,
      "328": 0.007693225164272045,
      "329": -0.011416464812187239,
      "330": 0.027778211809330423,
      "331": 0.0031005480957557643,
      "332": -0.04531895231689566,
      "333": -0.06369848274052234,
      "334": -0.011764027065916161,
      "335": 0.007355754958025409,
      "336": 0.021152659736789665,
      "337": 0.041455777239456745,
      "338": -0.01579686757266827,
      "339": -0.047720271274207755,
      "340": 0.05860587348195688,
      "341": 0.061666502503837296,
      "342": -0.029227566995661373,
      "343": 0.0006971935337732242,
      "344": 0.07547909170946748,
      "345": 0.0034302973902816517,
      "346": -0.0022580533321845675,
      "347": 0.014450738000562654,
      "348": 0.011017984080826625,
      "349": 0.0397052321804303,
      "350": 0.09638882816996706,
      "351": -0.018032568958706446,
      "352": 0.014813591919169741,
      "353": -0.11985527026966522,
      "354": -0.05498265489065343,
      "355": -0.030951486648361552,
      "356": -0.0375027030411451,
      "357": -0.008777760665999551,
      "358": -0.0416775928425232,
      "359": 0.02161260507670877,
      "360": 0.0047893354465145775,
      "361": -0.03719390266183082,
      "362": 0.010303141010311403,
      "363": -0.011212231987027378,
      "364": 0.0333592141942173,
      "365": -0.0021386005072739802,
      "366": -0.01771896465320607,
      "367": -0.0036736469669623115,
      "368": -0.023350464664454063,
      "369": -0.020415981254587712,
      "370": 0.017802819247082245,
      "371": -0.003625719916651017,
      "372": -0.024046027830449603,
      "373": 0.035754262833584606,
      "374": 0.003772808042268023,
      "375": 0.018916667285277376,
      "376": 0.028778102091328497,
      "377": 0.016547605567489434,
      "378": 0.05311255886863997,
      "379": 0.018416638559660137,
      "380": 0.001567623665491365,
      "381": -0.06227485952254746,
      "382": 0.023520318259759716,
      "383": -0.023585702925745702,
      "384": -0.012237146168271722,
      "385": 0.02948855555367071,
      "386": -0.08619374273088201,
      "387": 0.0012983149420947996,
      "388": -0.013244745717856455,
      "389": -0.05531978305801387,
      "390": 0.023069880124120208,
      "391": 0.032543471920015464,
      "392": 0.023021053080873946,
      "393": 0.09339588377364931,
      "394": 0.017041200652351728,
      "395": -0.006216585425469743,
      "396": 0.04608203307696151,
      "397": 0.014059008712140756,
      "398": -0.04061988303954383,
      "399": 0.039841025090057144,
      "400": 0.006039101656649454,
      "401": 0.045404004987922304,
      "402": 0.026425919018358918,
      "403": 0.019941394861897298,
      "404": 0.01764271214813703,
      "405": 0.0009626117324132067,
      "406": 0.006998075035235957,
      "407": 0.028703609877083435,
      "408": -0.02926702425867249,
      "409": 0.009197595086097724,
      "410": -0.020562663709870154,
      "411": 0.008321914444336177,
      "412": -0.026610464964180607,
      "413": -0.039639431253806784,
      "414": -0.06778095702726515,
      "415": -0.013818434311744461,
      "416": 0.015724948419453922,
      "417": -0.03673004356985301,
      "418": 0.01474107297165126,
      "419": 0.02435604067144264,
      "420": 0.027786456462170362,
      "421": -0.03921442115957953,
      "422": 0.07028873288613481,
      "423": -0.04525109574282225,
      "424": -0.02993596004254361,
      "425": -0.03237667497979558,
      "426": -0.02631375681114388,
      "427": 0.035305591505558,
      "428": 0.044237490160080134,
      "429": 0.0006618165932691243,
      "430": -0.012490471099736104,
      "431": -0.004660774344728694,
      "432": 0.02273315149286823,
      "433": 0.027207430494169075,
      "434": 0.0181367294576322,
      "435": 0.02013565436860512,
      "436": -0.057937632309292414,
      "437": -0.056626201578969304,
      "438": -0.06011260439118231,
      "439": -0.038645934944151146,
      "440": 0.008590457085870726,
      "441": 0.01089408574004299,
      "442": -0.0017690133304128061,
      "443": -0.017350008363252328,
      "444": -0.026028080566681377,
      "445": -0.03879239906275884,
      "446": -0.057438058167631874,
      "447": 0.023018098930032687,
      "448": -0.03741009564383071,
      "449": 0.02118753402519909,
      "450": 0.02412203514717403,
      "451": -0.021673331391594882,
      "452": 0.04698465920548015,
      "453": -0.020094915174085178,
      "454": -0.0003173167712896317,
      "455": -0.042647968810444824,
      "456": 0.038021024261141956,
      "457": -0.04950314937709441,
      "458": -0.0381524624236034,
      "459": -0.013642046690675272,
      "460": 0.008167526123371316,
      "461": 0.06596461344360965,
      "462": -0.0075241116928209,
      "463": -0.002735584761284237,
      "464": -0.03950299868523761,
      "465": 0.025312144321710906,
      "466": 0.004969987909634567,
      "467": -0.02249249248611476,
      "468": -0.015401151586331829,
      "469": -0.014770663533792076,
      "470": 0.002991519546919174,
      "471": -0.01368835444278032,
      "472": -0.09733288701532102,
      "473": -0.010432482752889117,
      "474": 0.018160248090945734,
      "475": -0.059399698580059127,
      "476": -0.033647734421503143,
      "477": -0.062440934409130226,
      "478": -0.0163431051425273,
      "479": 0.0019447756358495648,
      "480": -0.050871736950091034,
      "481": 0.04249537266922635,
      "482": -0.02031815761516759,
      "483": -0.015693660815187332,
      "484": -0.058314644565119984,
      "485": -0.021638279475900583,
      "486": -0.007840197724893964,
      "487": 0.03544636261955439,
      "488": -0.0023308970142923843,
      "489": 0.0005333516827589308,
      "490": 0.004612945907584837,
      "491": 0.05927804660357304,
      "492": -0.004851686361102175,
      "493": -0.029438398710539073,
      "494": -0.010425900134114008,
      "495": -0.007457603361997034,
      "496": 0.02324220487056783,
      "497": -0.030765168663310267,
      "498": 0.012656419782241383,
      "499": -0.06670368534285026,
      "500": 0.013545626079345901,
      "501": 0.010015614616711192,
      "502": 0.01512595699392208,
      "503": 0.041925228273498046,
      "504": -0.02283017758667476,
      "505": -0.001196649413905737,
      "506": -0.02624531213726064,
      "507": 0.011000317006787623,
      "508": 0.029573433225067634,
      "509": 0.03900928061351245,
      "510": 0.04152017030198333,
      "511": 0.002454270949711125,
      "512": -0.06512921026119171,
      "513": 0.06650495896609493,
      "514": -0.001422680521138725,
      "515": 0.0005822588906261489,
      "516": 0.02270487154283522,
      "517": -0.048224331514699896,
      "518": 0.018582081371325245,
      "519": -0.007597652713156129,
      "520": -0.033514425413858545,
      "521": -0.050176955318820826,
      "522": -0.014779813402080335,
      "523": 0.014089707052746668,
      "524": 0.014416713205326318,
      "525": -0.0919656420634445,
      "526": -0.043940368115541015,
      "527": -0.03292621185256351,
      "528": -0.039622751245823644,
      "529": -0.0034698229807323773,
      "530": -0.01861586766399315,
      "531": -0.01691334612718513,
      "532": 0.07482717922631672,
      "533": 0.07776467919390155,
      "534": 0.04558295892269588,
      "535": 0.020958517251885904,
      "536": -0.026479271244267782,
      "537": -0.06561852353991104,
      "538": -0.029083143853851863,
      "539": 0.002018725057879602,
      "540": -0.005881434919058673,
      "541": -0.03298622551581678,
      "542": 0.054668628030371764,
      "543": 0.057046996426257206,
      "544": 0.10418156194141982,
      "545": -0.005597643553920046,
      "546": 0.02091744900319229,
      "547": -0.018855803485536,
      "548": 0.002860658436975106,
      "549": 0.003755084114077456,
      "550": 0.04353572907890308,
      "551": -0.02021028763775557,
      "552": -0.028653358194724244,
      "553": 0.03876236211935903,
      "554": -0.021052180682558964,
      "555": 0.009272597665720595,
      "556": 0.0037154591701827203,
      "557": -0.1097017050977258,
      "558": 0.007952231129650418,
      "559": 0.07220530939955594,
      "560": -0.0009347788936981954,
      "561": -0.032512854584387144,
      "562": -0.015675124879512982,
      "563": 0.053103514078728674,
      "564": 0.06859647786849085,
      "565": -0.00311824280772946,
      "566": 0.01657810816191095,
      "567": -0.019243439546235596,
      "568": 0.04155182303625495,
      "569": 0.04956857569279342,
      "570": 0.0036036325578863047,
      "571": 0.0021184026388300654,
      "572": -0.002194331672329286,
      "573": -0.01505706856178225,
      "574": -0.03192439655552016,
      "575": 0.01681648609234082,
      "576": 0.015592064233114676,
      "577": -0.018616811129711884,
      "578": -0.03225513205216568,
      "579": 0.01714833850841431,
      "580": 0.029714972345367695,
      "581": -0.0007807756951838723,
      "582": 0.011055314246494436,
      "583": 0.07730725965642309,
      "584": 0.05582041125667874,
      "585": -0.01130728845403049,
      "586": -0.0016172646170002128,
      "587": -0.028728018727133823,
      "588": -0.015985663362732636,
      "589": 0.005717196785170963,
      "590": -0.0023985092205834222,
      "591": 0.0041354459584468425,
      "592": -0.008790618672154691,
      "593": 0.06480102061376221,
      "594": 0.0815525199913816,
      "595": 0.058808979310564106,
      "596": 0.04154766095229968,
      "597": 0.009820442395672471,
      "598": 0.02080768135394169,
      "599": 0.03315180326509886,
      "600": -0.009033883111005577,
      "601": 0.018083757607828686,
      "602": -0.04235437087023042,
      "603": 0.03945751491777945,
      "604": -0.033754733410629005,
      "605": -0.03198167782062061,
      "606": 0.005647502976213447,
      "607": -0.08180224989677837,
      "608": 0.006322558418589614,
      "609": -0.0635554953000613,
      "610": -0.020398250947652664,
      "611": -0.01658278722455518,
      "612": -0.005082580992809232,
      "613": 0.053880930746916564,
      "614": 0.0426005887048139,
      "615": -0.022089998856187447,
      "616": 0.0623101205678732,
      "617": -0.020481023091397568,
      "618": 0.022485858953268895,
      "619": -0.0013652918523002337,
      "620": -0.0027868071382613642,
      "621": 0.008226068520165523,
      "622": 0.0345912877153908,
      "623": 0.01228767503149575,
      "624": 0.03758990940495999,
      "625": 0.025673534579370823,
      "626": -0.04447541386487501,
      "627": 0.034598578711729076,
      "628": 0.015207637060675789,
      "629": 0.034842798606200806,
      "630": 0.003020040427871301,
      "631": -0.00292850240299696,
      "632": 0.004785279113448238,
      "633": 0.036740744181744334,
      "634": 0.009593964768521535,
      "635": 0.02598793380946095,
      "636": -0.05988530462411668,
      "637": 0.03362151498099494,
      "638": -0.04070527282512492,
      "639": 0.06768902332465407,
      "640": -0.1037051369074289,
      "641": 0.05364949989389,
      "642": 0.016220763949713963,
      "643": -0.022564188642263016,
      "644": 0.01923516276425935,
      "645": -0.0092951004585111,
      "646": -0.003577362048224079,
      "647": 0.018660950890092967,
      "648": -0.07549332133202437,
      "649": 0.046214181999420685,
      "650": -0.008097170383914394,
      "651": 0.005154801861357721,
      "652": 0.037947338424596785,
      "653": -0.045489403662042745,
      "654": 0.04053758417214446,
      "655": -0.06643433315451852,
      "656": 0.020207966695961692,
      "657": -0.00783465318317394,
      "658": -0.03392050352086823,
      "659": 0.010807517478502804,
      "660": 0.004826268906822696,
      "661": 0.03146892833304546,
      "662": -0.0785541143979335,
      "663": 0.08056887973621915,
      "664": 0.006244751374515644,
      "665": 0.008447772285734815,
      "666": -0.0012150754489387962,
      "667": -0.0036826276721255422,
      "668": 0.0690572000452263,
      "669": -0.0343639863514496,
      "670": 0.03864667060249974,
      "671": 0.0098417838614567,
      "672": 0.023691776984639947,
      "673": -0.06892457156906141,
      "674": -0.05779714397782238,
      "675": -0.004564715822936403,
      "676": 0.00009228287233795248,
      "677": -0.031450861124979516,
      "678": 0.04725202743211911,
      "679": -0.05713607198674115,
      "680": -0.005971573379826177,
      "681": 0.0304487214650337,
      "682": -0.03438850055652852,
      "683": 0.012083785132274748,
      "684": 0.006195937410527946,
      "685": 0.06533779960111209,
      "686": 0.003844466552150087,
      "687": 0.005146390166262942,
      "688": -0.03473981531596438,
      "689": -0.010763833172433585,
      "690": -0.0024965336126678206,
      "691": 0.003135770696595813,
      "692": -0.006379209388689556,
      "693": -0.0005388752963160644,
      "694": -0.009927316777171588,
      "695": -0.046338355857844446,
      "696": -0.009491430357816796,
      "697": 0.005231248313018058,
      "698": 0.08965351442717606,
      "699": 0.005344793868883898,
      "700": 0.002957973555331176,
      "701": -0.09171089048975486,
      "702": -0.015412429656687501,
      "703": 0.0038700885001545326,
      "704": -0.04808676790180433,
      "705": -0.04936286445977941,
      "706": 0.015391176867564227,
      "707": -0.0123775918816769,
      "708": -0.04959480224793292,
      "709": 0.006763143917568649,
      "710": 0.013678622855617476,
      "711": 0.0051528968832835875,
      "712": 0.04563852549431945,
      "713": -0.017212708435893957,
      "714": 0.014138728414434736,
      "715": -0.007575012667542211,
      "716": -0.0010631732362329299,
      "717": 0.0055208396301475145,
      "718": 0.06190806642146249,
      "719": 0.0433484339974877,
      "720": 0.058115543765817915,
      "721": -0.04224638491853295,
      "722": -0.022223126429385297,
      "723": 0.02756331682009687,
      "724": -0.027266273152985555,
      "725": -0.012595887436942272,
      "726": -0.009032475597652743,
      "727": -0.027030382214252267,
      "728": -0.004600454832894948,
      "729": 0.042833523418553766,
      "730": -0.0012078163848308746,
      "731": -0.07282703271691154,
      "732": -0.012419561216871471,
      "733": 0.03446881524274348,
      "734": 0.01936816466939974,
      "735": 0.030945831991483607,
      "736": 0.019114048294350594,
      "737": 0.02968556375260705,
      "738": -0.04911849006141865,
      "739": 0.003023893422119395,
      "740": 0.03820955620490887,
      "741": -0.014030135782511959,
      "742": 0.00606976341167367,
      "743": 0.03342464885295249,
      "744": -0.002120184855672204,
      "745": -0.016316223854573136,
      "746": -0.00593577027460674,
      "747": -0.029177034771811026,
      "748": -0.010285949332494469,
      "749": 0.014837456485353836,
      "750": -0.08091430584080571,
      "751": -0.01539164347272239,
      "752": -0.009172317206106109,
      "753": -0.037225683938511556,
      "754": -0.005782370493515157,
      "755": 0.05380449516243597,
      "756": -0.037125246810669,
      "757": 0.031591239150128916,
      "758": -0.016674621956098326,
      "759": -0.04090015376058874,
      "760": -0.0036539732084529494,
      "761": -0.031961787434115284,
      "762": 0.05454338672290292,
      "763": -0.008481734489067881,
      "764": -0.012695574709256887,
      "765": 0.05303508753420518,
      "766": -0.05289547105583609,
      "767": -0.03925566930880115,
      "768": 0.027597538273642117,
      "769": -0.011001439664948867,
      "770": 0.06107330718260244,
      "771": 0.018058239503345994,
      "772": 0.06925656639115005,
      "773": 0.036691976000727454,
      "774": 0.011007313652240482,
      "775": 0.01242588854335798,
      "776": 0.012594392513659292,
      "777": 0.021214261723449097,
      "778": -0.01020786866562131,
      "779": -0.0030944019071224072,
      "780": 0.11118288020747442,
      "781": -0.008099147833189612,
      "782": -0.0132793600327941,
      "783": 0.0162818268275949,
      "784": -0.04216972185033243,
      "785": 0.0020348097228264812,
      "786": 0.021717368598218573,
      "787": -0.0011295423433173562,
      "788": -0.02273982191115272,
      "789": -0.013623011522315591,
      "790": -0.05060778894655726,
      "791": 0.022634851560970184,
      "792": 0.07524191832946658,
      "793": -0.038106917599357484,
      "794": 0.04916198189841202,
      "795": -0.015864205983257287,
      "796": 0.03798530514577071,
      "797": -0.025556418934281493,
      "798": 0.041773224529239414,
      "799": -0.011368923209859393,
      "800": 0.057388053654845984,
      "801": 0.01251759457085941,
      "802": -0.012025681637403873,
      "803": 0.03777137200400075,
      "804": 0.023414624200893547,
      "805": -0.010110393355646273,
      "806": 0.020167066205332665,
      "807": -0.0391240663225503,
      "808": 0.04678872995456471,
      "809": -0.003852898936535703,
      "810": 0.0033574564546613762,
      "811": 0.01640432493757618,
      "812": -0.002285141158848238,
      "813": -0.030407485344878877,
      "814": 0.028982107019661724,
      "815": 0.022863959097730847,
      "816": 0.004525923835554561,
      "817": -0.017878677083967953,
      "818": 0.004530972101609238,
      "819": -0.03519716813361355,
      "820": 0.012140286681307066,
      "821": 0.020434437990551505,
      "822": 0.0033371334546710043,
      "823": 0.008979487555129772,
      "824": -0.008052753127993176,
      "825": 0.0585020228671058,
      "826": -0.02730169318169903,
      "827": -0.03390649603900203,
      "828": -0.03615729798476285,
      "829": -0.02768257330708794,
      "830": -0.019094630219499954,
      "831": 0.01587924551461083,
      "832": 0.018983489106506112,
      "833": 0.0084091942772232,
      "834": -0.0344875619312547,
      "835": -0.028055617536668652,
      "836": -0.0726842439866827,
      "837": -0.002995188744604288
     }
    },
    {
     "sx": 1,
     "sy": 1,
     "depth": 838,
     "w": {
      "0": -4.849166312004157e+205,
      "1": -0.0406332278050586,
      "2": -4.287007139289946e+200,
      "3": -1.4715071239775237e+201,
      "4": -5.081296431637123e+200,
      "5": 9.6594991315403e+200,
      "6": 4.9035648990575554e+200,
      "7": -2.6247370789737356e+199,
      "8": -9.115766075836934e+200,
      "9": -1.8254145298792755e+201,
      "10": -1.7440622042005475e+201,
      "11": -7.673337060350912e+200,
      "12": -8.618874132469645e+200,
      "13": -1.5952757899006648e+201,
      "14": -1.0977332101656468e+201,
      "15": -1.1889864402435066e+201,
      "16": -1.5296272361003013e+201,
      "17": -1.9429918881577396e+201,
      "18": -4.418084120141975e+205,
      "19": 0.01990211890311317,
      "20": -4.287007139289946e+200,
      "21": -1.6865217170183043e+201,
      "22": -5.233282886241877e+200,
      "23": 1.1809645061948103e+201,
      "24": 5.055551353662309e+200,
      "25": -2.6247370789737356e+199,
      "26": -9.096763799390735e+200,
      "27": -1.8366780458536512e+201,
      "28": -1.7226773240375753e+201,
      "29": -7.77818705309378e+200,
      "30": -8.654930205649734e+200,
      "31": -1.5703293134633015e+201,
      "32": -1.0631069513516109e+201,
      "33": -1.1993731994836623e+201,
      "34": -1.5122168640481148e+201,
      "35": -1.9429918881577396e+201,
      "36": -0.0373625229746591,
      "37": 3016382265420056.5,
      "38": 9.144457240759202e+179,
      "39": -2.0604878074182844e+202,
      "40": 0.02511883537293293,
      "41": 1.8696166632279223e+202,
      "42": -0.028601881879609777,
      "43": -4.581676855838671e+202,
      "44": 3.996014721122283e+201,
      "45": 5.385906818785218e+201,
      "46": 3053030771840592.5,
      "47": -1.3377683035550847e+202,
      "48": 4.720540857584558e+202,
      "49": 2.407363716551122e+202,
      "50": -2.7315322288725e+179,
      "51": 1.942448415602059e+179,
      "52": -6.6803071666950395e+202,
      "53": 3.608930991361979e+179,
      "54": -8947782286394196,
      "55": -5.402738084788701e+178,
      "56": -0.006263745397080074,
      "57": 2687348842787647.5,
      "58": -1662950374190312.5,
      "59": -4.364408292944455e+205,
      "60": 0.03841813581404878,
      "61": -4.287007139289946e+200,
      "62": -1.874871584868773e+201,
      "63": -4.742758423361072e+200,
      "64": 1.36931437404528e+201,
      "65": 4.5650268907815036e+200,
      "66": -2.6247370789737356e+199,
      "67": -9.118963881174757e+200,
      "68": -1.8341797729003252e+201,
      "69": -1.7127411939440247e+201,
      "70": -7.92399811489336e+200,
      "71": -8.667407556446585e+200,
      "72": -1.576585730119477e+201,
      "73": -1.0631069513516109e+201,
      "74": -1.2009379858994204e+201,
      "75": -1.4963436221218973e+201,
      "76": -1.9429918881577396e+201,
      "77": -0.00528380951632566,
      "78": -1.3377683035550847e+202,
      "79": 4.720540857584558e+202,
      "80": 3.996014721122283e+201,
      "81": 0.025181043267971846,
      "82": 3.252217842899076e+179,
      "83": -0.061809246580091695,
      "84": -2.0604878074182844e+202,
      "85": -5.402738084788701e+178,
      "86": 2.407363716551122e+202,
      "87": 2225701835502453.5,
      "88": -0.05517949510686158,
      "89": 5.385906818785218e+201,
      "90": -6.6803071666950395e+202,
      "91": 9.144457240759202e+179,
      "92": 2141328234901949.5,
      "93": 1.942448415602059e+179,
      "94": 1.8696166632279223e+202,
      "95": 1536327962268834.5,
      "96": -4.581676855838671e+202,
      "97": 0.011384231938737601,
      "98": 4066699834848036.5,
      "99": 4457171174262786.5,
      "100": -3.8557207684274454e+205,
      "101": 0.007105596123696402,
      "102": -4.30510048657995e+200,
      "103": -3.795457151352625e+200,
      "104": -4.3974145525174984e+200,
      "105": -2.6101400870069524e+200,
      "106": 4.218932902609256e+200,
      "107": -2.6247370789737356e+199,
      "108": -9.230505066708294e+200,
      "109": -1.7979123540507318e+201,
      "110": -1.6872874336338102e+201,
      "111": -8.061375397155343e+200,
      "112": -8.615287176921982e+200,
      "113": -1.590116009892518e+201,
      "114": -1.0631069513516109e+201,
      "115": -1.1756346247606404e+201,
      "116": -1.49272632130443e+201,
      "117": -1.9429918881577396e+201,
      "118": -0.002049552919780229,
      "119": -1296038855374243.2,
      "120": 5.385906818785218e+201,
      "121": -5.402738084788701e+178,
      "122": -0.07470450605714049,
      "123": -4.810690503467115e+202,
      "124": 0.019337220539825103,
      "125": -0.03134616164238171,
      "126": -4.581676855838671e+202,
      "127": 4.720540857584558e+202,
      "128": -1841478459348544.2,
      "129": 3.996014721122283e+201,
      "130": -1.3377683035550847e+202,
      "131": 1.942448415602059e+179,
      "132": 1282337760471387.8,
      "133": 5216549420836995,
      "134": 0.037870450694667664,
      "135": -3.567131484628964e+178,
      "136": 2.407363716551122e+202,
      "137": -2.0604878074182844e+202,
      "138": -0.03412514273048704,
      "139": -2760727846562660.5,
      "140": 3052589763230466.5,
      "141": -3.4703733395035023e+205,
      "142": 0.010754625421666563,
      "143": -4.307164849234237e+200,
      "144": 4.75033873692046e+200,
      "145": -4.601557862523359e+200,
      "146": -1.1309967256297044e+201,
      "147": 4.4229906278874884e+200,
      "148": -2.6247370789737356e+199,
      "149": -8.998168706769892e+200,
      "150": -1.7960196003535012e+201,
      "151": -1.6776056792069577e+201,
      "152": -8.079650532564328e+200,
      "153": -8.585484671937226e+200,
      "154": -1.5918406486935664e+201,
      "155": -1.0631069513516109e+201,
      "156": -1.1756346247606404e+201,
      "157": -1.49272632130443e+201,
      "158": -1.9429918881577396e+201,
      "159": 0.014593195850779244,
      "160": 3.996014721122283e+201,
      "161": 1.8696166632279223e+202,
      "162": -2.174313139287553e+202,
      "163": 0.005561359374480338,
      "164": 1.585735267139163e+179,
      "165": -0.011035024498748734,
      "166": -0.02296381379606901,
      "167": -2.0604878074182844e+202,
      "168": 5.385906818785218e+201,
      "169": 2013716253108568.5,
      "170": -1.3377683035550847e+202,
      "171": 9.144457240759202e+179,
      "172": 4.720540857584558e+202,
      "173": 3.608930991361979e+179,
      "174": 5369696082715890,
      "175": -0.002470825256680199,
      "176": -6.6803071666950395e+202,
      "177": -7.910946586716602e+179,
      "178": 322040189647857.56,
      "179": -0.013145133675761898,
      "180": 1440788908842730.5,
      "181": 3323214490575115,
      "182": -3.26333589880575e+205,
      "183": -0.024306977964759443,
      "184": -4.307164849234237e+200,
      "185": 4.711357881593715e+200,
      "186": -4.6326607789546105e+200,
      "187": -1.1270986400970301e+201,
      "188": 4.454093544318739e+200,
      "189": -2.6247370789737356e+199,
      "190": -8.883697161913322e+200,
      "191": -1.7818053912154785e+201,
      "192": -1.6892145220178816e+201,
      "193": -8.14217761183536e+200,
      "194": -8.410170458847546e+200,
      "195": -1.583729794919831e+201,
      "196": -1.0631069513516109e+201,
      "197": -1.1787029763180701e+201,
      "198": -1.5018743034273225e+201,
      "199": -1.9429918881577396e+201,
      "200": 0.023241616131282276,
      "201": -5.402738084788701e+178,
      "202": -1.3377683035550847e+202,
      "203": -2.0604878074182844e+202,
      "204": -0.04462525463012882,
      "205": -6.6803071666950395e+202,
      "206": 0.01871958775634126,
      "207": 2.407363716551122e+202,
      "208": -9463336044817380,
      "209": 4.720540857584558e+202,
      "210": 1097777472372347.2,
      "211": -4.581676855838671e+202,
      "212": 3.996014721122283e+201,
      "213": 5.385906818785218e+201,
      "214": 1.8696166632279223e+202,
      "215": 1211552312492047.8,
      "216": 0.029273072732335023,
      "217": 1.942448415602059e+179,
      "218": 0.018710405215359285,
      "219": 5157710500322005,
      "220": 0.005952709047751618,
      "221": 4118330939854521,
      "222": 7494385735197980,
      "223": -3.3447848725905665e+205,
      "224": -0.0452930194020108,
      "225": -4.308900902990569e+200,
      "226": 5.856028847412991e+200,
      "227": -4.893430950253248e+200,
      "228": -1.2415657366789584e+201,
      "229": 4.714863715617375e+200,
      "230": -2.6247370789737356e+199,
      "231": -9.102415554981409e+200,
      "232": -1.7818053912154785e+201,
      "233": -1.6817824758870197e+201,
      "234": -8.148452654150354e+200,
      "235": -8.308132644928008e+200,
      "236": -1.5825050719392702e+201,
      "237": -1.0631069513516109e+201,
      "238": -1.2022099356904422e+201,
      "239": -1.506100564174158e+201,
      "240": -1.9429918881577396e+201,
      "241": 0.06218798246306618,
      "242": -4.581676855838671e+202,
      "243": -6.6803071666950395e+202,
      "244": 2723126669314117,
      "245": -0.04304810300803937,
      "246": 1.942448415602059e+179,
      "247": 0.037937813027258946,
      "248": -1.3377683035550847e+202,
      "249": 4588917725499301,
      "250": 2.408207345106444e+202,
      "251": 3016382265420056.5,
      "252": -1.660886335306056e+202,
      "253": 3.0686571828831024e+179,
      "254": -2.7315322288725e+179,
      "255": -3.567131484628964e+178,
      "256": 2943379233236778.5,
      "257": -0.03327775446447219,
      "258": -0.032541225493501795,
      "259": 4.720540857584558e+202,
      "260": 2.407363716551122e+202,
      "261": 0.036230280106098287,
      "262": 4746865327742742,
      "263": -8216776110872467,
      "264": -3.03909350820819e+205,
      "265": -0.022700644988769392,
      "266": -4.308900902990569e+200,
      "267": -5.582929613135637e+200,
      "268": -5.056599913615879e+200,
      "269": -9.766989062409647e+199,
      "270": 4.878032678980007e+200,
      "271": -2.6247370789737356e+199,
      "272": -9.170904133372838e+200,
      "273": -1.7818053912154785e+201,
      "274": -1.698618448718979e+201,
      "275": -7.972361352287395e+200,
      "276": -7.893158459273113e+200,
      "277": -1.5574351554592946e+201,
      "278": -1.0631069513516109e+201,
      "279": -1.2048520222021016e+201,
      "280": -1.506100564174158e+201,
      "281": -1.9429918881577396e+201,
      "282": 0.005976329102769241,
      "283": -2.0604878074182844e+202,
      "284": 3.996014721122283e+201,
      "285": 4.720540857584558e+202,
      "286": -0.01905206071466011,
      "287": 0.06621289162324916,
      "288": -0.004496356841928206,
      "289": 0.005301448752681574,
      "290": 2.407363716551122e+202,
      "291": -3.088245377335397e+179,
      "292": -0.005590662119715455,
      "293": -5.402738084788701e+178,
      "294": -2.712060192610747e+202,
      "295": -1.3377683035550847e+202,
      "296": -6.6803071666950395e+202,
      "297": 538636773495190.94,
      "298": 0.0017201473067502858,
      "299": 1065741176624054.8,
      "300": 5.385906818785218e+201,
      "301": -7.910946586716602e+179,
      "302": 0.025041853092428408,
      "303": 9265078746567186,
      "304": 5603027797116870,
      "305": -3.1479781263474118e+205,
      "306": -0.015448396712129013,
      "307": -4.308382330652703e+200,
      "308": -1.4490277611303936e+201,
      "309": -5.6453636708188435e+200,
      "310": 7.930649091927326e+200,
      "311": 5.466796436182971e+200,
      "312": -2.6247370789737356e+199,
      "313": -9.309613565025224e+200,
      "314": -1.7818053912154785e+201,
      "315": -1.7239969204217743e+201,
      "316": -7.986359584196717e+200,
      "317": -7.589678516282425e+200,
      "318": -1.5601876466579356e+201,
      "319": -1.0631069513516109e+201,
      "320": -1.2048520222021016e+201,
      "321": -1.5240386194329792e+201,
      "322": -1.9429918881577396e+201,
      "323": -0.014547754356584923,
      "324": 4493819680683324,
      "325": 1.8696166632279223e+202,
      "326": 2.945954398429643e+202,
      "327": -0.011226859474824472,
      "328": -0.006202368439516423,
      "329": 0.014171402810011906,
      "330": 5.120142329696788e+202,
      "331": -7.910946586716602e+179,
      "332": -6.6803071666950395e+202,
      "333": -1296038855374243.2,
      "334": -5.9194451593937535e+202,
      "335": -2.0604878074182844e+202,
      "336": 1536327962268834.5,
      "337": 1.942448415602059e+179,
      "338": 7717447361316270,
      "339": -0.023829785951837018,
      "340": 127611981793381.38,
      "341": -2.7315322288725e+179,
      "342": -559140698877156.25,
      "343": -0.0862933276888665,
      "344": -8678423118157658,
      "345": 4047201425958610.5,
      "346": -3.171450868162063e+205,
      "347": 0.023911733933813906,
      "348": -4.3155483789102074e+200,
      "349": -8.952709430108168e+200,
      "350": -5.3347496947759756e+200,
      "351": 1.8583901718510855e+200,
      "352": 5.1558853687899005e+200,
      "353": -2.6247370789737356e+199,
      "354": -9.309613565025224e+200,
      "355": -1.7818053912154785e+201,
      "356": -1.7265941243766128e+201,
      "357": -7.879422902609755e+200,
      "358": -7.522757406130461e+200,
      "359": -1.5515883976493402e+201,
      "360": -1.0631069513516109e+201,
      "361": -1.2048520222021016e+201,
      "362": -1.534372435751876e+201,
      "363": -1.935559842026878e+201,
      "364": -0.011979413987075568,
      "365": 5278291598732920,
      "366": -4.581676855838671e+202,
      "367": -1.0642478815589085e+180,
      "368": -0.01583865864646455,
      "369": 0.06864658677763555,
      "370": -0.02216405463397974,
      "371": 5.385906818785218e+201,
      "372": -10904124953660110,
      "373": 1.8696166632279223e+202,
      "374": 1282337760471387.8,
      "375": 3.4687590913283706e+201,
      "376": -6.6803071666950395e+202,
      "377": 3.996014721122283e+201,
      "378": 4746865327742742,
      "379": 5164477307220383,
      "380": -0.012805412954681997,
      "381": 3053030771840592.5,
      "382": 9.144457240759202e+179,
      "383": 4.720540857584558e+202,
      "384": -0.008889432211030597,
      "385": -305150497079709.44,
      "386": -1.3377683035550847e+202,
      "387": -3.052845717838253e+205,
      "388": 0.031417004009380384,
      "389": -4.3214941299754304e+200,
      "390": -3.0206326384445165e+201,
      "391": -5.6196322395565054e+200,
      "392": 2.311200712618807e+201,
      "393": 5.440767913570428e+200,
      "394": -2.6247370789737356e+199,
      "395": -9.309613565025224e+200,
      "396": -1.7818053912154785e+201,
      "397": -1.7273655910529771e+201,
      "398": -7.711660872057266e+200,
      "399": -7.54495748791447e+200,
      "400": -1.5419196891351034e+201,
      "401": -1.0631069513516109e+201,
      "402": -1.2048520222021016e+201,
      "403": -1.535317961615619e+201,
      "404": -1.935559842026878e+201,
      "405": 0.01470510734496968,
      "406": 2.407363716551122e+202,
      "407": -8.740794974113323e+202,
      "408": 9.144457240759202e+179,
      "409": -0.019984433243082772,
      "410": 0.02984206135444059,
      "411": 0.08771276783490771,
      "412": -4.581676855838671e+202,
      "413": 4.720540857584558e+202,
      "414": -1.3377683035550847e+202,
      "415": 2687348842787647.5,
      "416": 3.996014721122283e+201,
      "417": 1.942448415602059e+179,
      "418": 1.8696166632279223e+202,
      "419": 9265078746567186,
      "420": -1040384436516849,
      "421": -0.1108585512007358,
      "422": 2225701835502453.5,
      "423": 0.01863665368888537,
      "424": 5.385906818785218e+201,
      "425": 0.008837243296549892,
      "426": 8821645525629837,
      "427": 3052589763230466.5,
      "428": -2.986474467000916e+205,
      "429": -0.02478796935237488,
      "430": -4.298563144164822e+200,
      "431": -2.4316113211052886e+201,
      "432": -6.638610042514385e+200,
      "433": 1.9132291674153225e+201,
      "434": 6.46080725043254e+200,
      "435": -2.6247370789737356e+199,
      "436": -9.571865834891032e+200,
      "437": -1.7818053912154785e+201,
      "438": -1.718910607022201e+201,
      "439": -7.631585070040118e+200,
      "440": -7.678699916611763e+200,
      "441": -1.5040702477489115e+201,
      "442": -1.0631069513516109e+201,
      "443": -1.2060672730331999e+201,
      "444": -1.535317961615619e+201,
      "445": -1.930347804074417e+201,
      "446": -0.07428164168652424,
      "447": -7.910946586716602e+179,
      "448": 1.942448415602059e+179,
      "449": 4.720540857584558e+202,
      "450": -0.012128405857825717,
      "451": -0.0004712464119866794,
      "452": 0.013047694581447175,
      "453": -2.0604878074182844e+202,
      "454": 5.385906818785218e+201,
      "455": -4.810690503467115e+202,
      "456": 4066699834848036.5,
      "457": -5.402738084788701e+178,
      "458": 2.407363716551122e+202,
      "459": -4.581676855838671e+202,
      "460": -8678423118157658,
      "461": 2723126669314117,
      "462": -0.009635756017171588,
      "463": -1841478459348544.2,
      "464": 3.608930991361979e+179,
      "465": -2.7315322288725e+179,
      "466": 0.024257856506093654,
      "467": 3054120139638262,
      "468": -9.381668314428562e+201,
      "469": -2.991937905506152e+205,
      "470": -0.00030590022925194643,
      "471": -4.298563144164822e+200,
      "472": -5.27643627129218e+201,
      "473": -8.538569141469731e+200,
      "474": 4.7580541176022136e+201,
      "475": 8.360766349387887e+200,
      "476": -2.6247370789737356e+199,
      "477": -9.688413111502731e+200,
      "478": -1.7818053912154785e+201,
      "479": -1.718910607022201e+201,
      "480": -7.647847101009291e+200,
      "481": -7.74004529728303e+200,
      "482": -1.4920292881817694e+201,
      "483": -1.0631069513516109e+201,
      "484": -1.2152387814422572e+201,
      "485": -1.5278859154847583e+201,
      "486": -1.930347804074417e+201,
      "487": 0.015382770955348766,
      "488": -9806347481287760,
      "489": 2225701835502453.5,
      "490": 5.385906818785218e+201,
      "491": -0.03186439643336185,
      "492": -0.02830666277729628,
      "493": 0.009106296305856219,
      "494": 127611981793381.45,
      "495": -2.7315322288725e+179,
      "496": 3.996014721122283e+201,
      "497": -2760727846562660.5,
      "498": 2.546227718297013e+202,
      "499": -7.910946586716602e+179,
      "500": -8.740794974113323e+202,
      "501": -305150497079709.4,
      "502": 4443899750643866.5,
      "503": 0.009891800055018229,
      "504": 2013716253108568.5,
      "505": 1.8696166632279223e+202,
      "506": -1.3377683035550847e+202,
      "507": 0.028391079788957937,
      "508": 3016382265420056.5,
      "509": -5.402738084788701e+178,
      "510": -2.5046714550689877e+205,
      "511": -0.013729485119965433,
      "512": -4.298563144164822e+200,
      "513": -3.8744670632134534e+201,
      "514": -6.601248170531851e+200,
      "515": 3.356084909523487e+201,
      "516": 6.423445378450006e+200,
      "517": -2.6247370789737356e+199,
      "518": -9.70565513184139e+200,
      "519": -1.7818053912154785e+201,
      "520": -1.7202816592419016e+201,
      "521": -7.46191188486961e+200,
      "522": -7.655495456975262e+200,
      "523": -1.4920292881817694e+201,
      "524": -1.0631069513516109e+201,
      "525": -1.2108965817839055e+201,
      "526": -1.5276406579624394e+201,
      "527": -1.9071140519426033e+201,
      "528": 0.009542868648243361,
      "529": 3.382772554029475e+202,
      "530": 2.407363716551122e+202,
      "531": 1.8696166632279223e+202,
      "532": -0.04574361814787129,
      "533": -0.043560457832597606,
      "534": -0.02294139444916808,
      "535": 3.608930991361979e+179,
      "536": 9.144457240759202e+179,
      "537": -6.6803071666950395e+202,
      "538": 1440788908842730.5,
      "539": -1.5218971255397625e+202,
      "540": -0.0295584412377385,
      "541": 1.942448415602059e+179,
      "542": 8821645525629837,
      "543": 9968290941268778,
      "544": 0.008844234782888082,
      "545": 1097777472372347.2,
      "546": -3.567131484628964e+178,
      "547": -1004176938706437.4,
      "548": 0.03540898697696431,
      "549": 0.0028007461642889633,
      "550": -4.182075383726444e+202,
      "551": -2.279190810098158e+205,
      "552": 0.0013914272311075933,
      "553": -4.2954390509927326e+200,
      "554": -2.577617828527696e+201,
      "555": -5.560679900339842e+200,
      "556": 2.059235674837731e+201,
      "557": 5.382877108257997e+200,
      "558": -2.6247370789737356e+199,
      "559": -9.396134233117852e+200,
      "560": -1.7818053912154785e+201,
      "561": -1.739446101111291e+201,
      "562": -7.207374281767466e+200,
      "563": -7.917747726841068e+200,
      "564": -1.4920292881817694e+201,
      "565": -1.0631069513516109e+201,
      "566": -1.1781259638495068e+201,
      "567": -1.5333680991337695e+201,
      "568": -1.895666897456947e+201,
      "569": 0.09338313190748938,
      "570": 5.385906818785218e+201,
      "571": -7.910946586716602e+179,
      "572": 8.787744092296306e+179,
      "573": 0.007720275241736011,
      "574": 0.05026430966163665,
      "575": 1065741176624054.8,
      "576": 4.276980379779042e+202,
      "577": -1841478459348544.2,
      "578": -4.581676855838671e+202,
      "579": 3052589763230466.5,
      "580": -2.7315322288725e+179,
      "581": 4.720540857584558e+202,
      "582": 0.03609992242179321,
      "583": 3054120139638262,
      "584": 6138668970951577,
      "585": 0.03125233627439553,
      "586": 3016382265420056.5,
      "587": -6.6803071666950395e+202,
      "588": -9.381668314428562e+201,
      "589": 0.029588747152105202,
      "590": -1296038855374243.2,
      "591": -2.0604878074182844e+202,
      "592": -2.1009239850892213e+205,
      "593": -0.0016893693028382447,
      "594": -4.2954390509927326e+200,
      "595": -2.048721414765176e+201,
      "596": -7.319522019931156e+200,
      "597": 1.5303392610752098e+201,
      "598": 7.141719227849312e+200,
      "599": -2.6247370789737356e+199,
      "600": -9.334526955913887e+200,
      "601": -1.7818053912154785e+201,
      "602": -1.73034067107898e+201,
      "603": -7.053364251494709e+200,
      "604": -8.052832591606067e+200,
      "605": -1.5054035310514984e+201,
      "606": -1.0631069513516109e+201,
      "607": -1.1781259638495068e+201,
      "608": -1.5367235753235463e+201,
      "609": -1.8702131371467326e+201,
      "610": 0.034346428227992415,
      "611": 3.996014721122283e+201,
      "612": 1097777472372347.2,
      "613": -6.6803071666950395e+202,
      "614": -0.001722814424162635,
      "615": 0.007340661880681647,
      "616": 127611981793381.44,
      "617": -1.3377683035550847e+202,
      "618": 3.608930991361979e+179,
      "619": -2.0604878074182844e+202,
      "620": 4619253345949358,
      "621": 4.720540857584558e+202,
      "622": 5.385906818785218e+201,
      "623": 2.407363716551122e+202,
      "624": 3016382265420056.5,
      "625": -5396636209969346,
      "626": 0.024514864044138062,
      "627": -0.021754976480316632,
      "628": 1.942448415602059e+179,
      "629": 1.8696166632279223e+202,
      "630": -0.005186607375283166,
      "631": 1282337760471387.8,
      "632": -4.581676855838671e+202,
      "633": -1.6419714688360217e+205,
      "634": -0.016519580064494808,
      "635": -4.2954390509927326e+200,
      "636": -4.230768263575721e+201,
      "637": -7.582392507787825e+200,
      "638": 3.7123861098857534e+201,
      "639": 7.404589715705977e+200,
      "640": -2.6247370789737356e+199,
      "641": -9.334526955913887e+200,
      "642": -1.7818053912154785e+201,
      "643": -1.7062514801772603e+201,
      "644": -7.01858227560228e+200,
      "645": -8.198573623827427e+200,
      "646": -1.5054035310514984e+201,
      "647": -1.0631069513516109e+201,
      "648": -1.1781259638495068e+201,
      "649": -1.4869591317382345e+201,
      "650": -1.8587659826610756e+201,
      "651": 0.04326274212867776,
      "652": 8.604183432280333e+179,
      "653": 4.720540857584558e+202,
      "654": 5.551379406964032e+179,
      "655": -0.0006020604115606318,
      "656": 0.03160537959116808,
      "657": 3053030771840592.5,
      "658": -6.6803071666950395e+202,
      "659": 1.8696166632279223e+202,
      "660": 3666490744345182,
      "661": -1.3377683035550847e+202,
      "662": 2.945954398429643e+202,
      "663": -2.7315322288725e+179,
      "664": -7.910946586716602e+179,
      "665": -0.026243415482998883,
      "666": 1828189878936641.2,
      "667": 0.07522132082791308,
      "668": -1296038855374243.2,
      "669": 0.08589913544148624,
      "670": -4.182075383726444e+202,
      "671": 0.008617556024838564,
      "672": 2687348842787647.5,
      "673": -2.0604878074182844e+202,
      "674": -1.886425394273859e+205,
      "675": 0.03821055170452287,
      "676": -4.289313092808526e+200,
      "677": -6.512766116889594e+201,
      "678": -8.573208165338133e+200,
      "679": 5.994383963199626e+201,
      "680": 8.395405373256291e+200,
      "681": -2.6247370789737356e+199,
      "682": -9.399970869818882e+200,
      "683": -1.7818053912154785e+201,
      "684": -1.729526693682749e+201,
      "685": -7.030392719111371e+200,
      "686": -8.198573623827427e+200,
      "687": -1.5054035310514984e+201,
      "688": -1.0631069513516109e+201,
      "689": -1.1781259638495068e+201,
      "690": -1.4629443528030326e+201,
      "691": -1.872140225530803e+201,
      "692": -0.017249557883768356,
      "693": -4.581676855838671e+202,
      "694": 5.385906818785218e+201,
      "695": 1.8696166632279223e+202,
      "696": 0.030932713756383953,
      "697": -0.0008026677713764502,
      "698": 2225701835502453.5,
      "699": 5.120142329696788e+202,
      "700": -1.3377683035550847e+202,
      "701": 1211111303881922.2,
      "702": -10904124953660110,
      "703": -7.03354782422713e+179,
      "704": 9.144457240759202e+179,
      "705": 0.015744441091389467,
      "706": -1296038855374243.2,
      "707": 12867971527313356,
      "708": 0.0017843242359512782,
      "709": 1282337760471387.8,
      "710": 0.014236524399105343,
      "711": -8.740794974113323e+202,
      "712": 0.042778492902683464,
      "713": 4066699834848036.5,
      "714": 2.407363716551122e+202,
      "715": -1.9347613916706616e+205,
      "716": -0.04660345919887175,
      "717": -4.2886141508662534e+200,
      "718": -3.1169110676194267e+201,
      "719": -6.900978910941813e+200,
      "720": 2.598528913929459e+201,
      "721": 6.723176118859966e+200,
      "722": -2.6247370789737356e+199,
      "723": -9.3975182945957e+200,
      "724": -1.7818053912154785e+201,
      "725": -1.6853225981196722e+201,
      "726": -7.174524786083576e+200,
      "727": -8.302441216228978e+200,
      "728": -1.5316287580380775e+201,
      "729": -1.0631069513516109e+201,
      "730": -1.1781259638495068e+201,
      "731": -1.45024697671486e+201,
      "732": -1.872140225530803e+201,
      "733": 0.0030358086586879324,
      "734": -2.0604878074182844e+202,
      "735": -1.3377683035550847e+202,
      "736": -3.567131484628964e+178,
      "737": -0.05112504881314281,
      "738": 0.000012514281823465314,
      "739": -1841478459348544.2,
      "740": 5.385906818785218e+201,
      "741": -6.6803071666950395e+202,
      "742": 2.407363716551122e+202,
      "743": 3.996014721122283e+201,
      "744": 1.8696166632279223e+202,
      "745": -0.02532740056627704,
      "746": 4.720540857584558e+202,
      "747": 1282337760471387.8,
      "748": 11220980405222972,
      "749": -0.04212049592522946,
      "750": 2687348842787647.5,
      "751": -0.024956511283971698,
      "752": -4.581676855838671e+202,
      "753": -0.008556049463708061,
      "754": -2760727846562660.5,
      "755": -7.910946586716602e+179,
      "756": -1.7753918571763446e+205,
      "757": 0.028999449493276746,
      "758": -4.2886141508662534e+200,
      "759": 1.3641726760977827e+201,
      "760": -2.5698715495196097e+200,
      "761": -1.8825548297877482e+201,
      "762": 2.3920687574377646e+200,
      "763": -2.6247370789737356e+199,
      "764": -9.004423353361655e+200,
      "765": -1.7818053912154785e+201,
      "766": -1.6672042293662898e+201,
      "767": -7.008936673941934e+200,
      "768": -8.564693486094785e+200,
      "769": -1.534620928492959e+201,
      "770": -1.0631069513516109e+201,
      "771": -1.1781259638495068e+201,
      "772": -1.444706553943804e+201,
      "773": -1.8855144684005324e+201,
      "774": 0.038375581430784594,
      "775": 1.8696166632279223e+202,
      "776": 9.144457240759202e+179,
      "777": -8.018075470250122e+202,
      "778": -0.014884412513253687,
      "779": -0.00105441059201315,
      "780": 2013716253108568.5,
      "781": -4.581676855838671e+202,
      "782": 3.996014721122283e+201,
      "783": -7.910946586716602e+179,
      "784": -5.402738084788701e+178,
      "785": 4.720540857584558e+202,
      "786": 3.608930991361979e+179,
      "787": 5.385906818785218e+201,
      "788": 2687348842787647.5,
      "789": -6284871607710754,
      "790": 0.019559625171814796,
      "791": 4066699834848036.5,
      "792": 0.02547874157005573,
      "793": -2.0604878074182844e+202,
      "794": -0.022072846506763475,
      "795": 1440788908842730.5,
      "796": 2.407363716551122e+202,
      "797": -1.6990058615759786e+205,
      "798": 0.049111310254803565,
      "799": -4.2886141508662534e+200,
      "800": -4.420377531047451e+200,
      "801": -4.7106271633255764e+200,
      "802": -7.634440058522171e+199,
      "803": 4.532824371243734e+200,
      "804": -2.6247370789737356e+199,
      "805": -9.005155956060529e+200,
      "806": -1.7818053912154785e+201,
      "807": -1.6496782079527743e+201,
      "808": -6.784767859809117e+200,
      "809": -8.327354607117642e+200,
      "810": -1.534620928492959e+201,
      "811": -1.0631069513516109e+201,
      "812": -1.1781259638495068e+201,
      "813": -1.4580807968135327e+201,
      "814": -1.9117396953871123e+201,
      "815": 0.024107250040917204,
      "816": -3.567131484628964e+178,
      "817": 3.996014721122283e+201,
      "818": 1.942448415602059e+179,
      "819": -0.04057862283416277,
      "820": 0.022116282973488964,
      "821": 1097777472372347.2,
      "822": -2.0604878074182844e+202,
      "823": -5.402738084788701e+178,
      "824": -1.3377683035550847e+202,
      "825": -4.581676855838671e+202,
      "826": -6.141716484816516e+202,
      "827": 1.8696166632279223e+202,
      "828": -2.7315322288725e+179,
      "829": 4066699834848036.5,
      "830": 7748375936995427,
      "831": 0.03829073813552608,
      "832": -2760727846562660.5,
      "833": 0.027234148955076715,
      "834": 2.407363716551122e+202,
      "835": 0.01185199363719331,
      "836": 3052589763230466.5,
      "837": 4.720540857584558e+202
     }
    },
    {
     "sx": 1,
     "sy": 1,
     "depth": 838,
     "w": {
      "0": 0.010918021424106139,
      "1": -0.05781118630165922,
      "2": 0.006382288593607028,
      "3": -0.031507309077586455,
      "4": 0.018836657639981116,
      "5": -0.05853802363152784,
      "6": 0.03457343179644817,
      "7": 0.09173270003427479,
      "8": 0.014291941826618082,
      "9": -0.012922191680892073,
      "10": -0.020943099686504086,
      "11": -0.005652168793179136,
      "12": 0.05207512571336009,
      "13": -0.03997896177760158,
      "14": 0.02776827068837617,
      "15": 0.0016974669386548803,
      "16": -0.02845533152334946,
      "17": 0.017075338363438577,
      "18": 0.02579950229448492,
      "19": 0.04924216176467054,
      "20": 0.05703029256749252,
      "21": -0.007121841932354211,
      "22": 0.010190175824498889,
      "23": 0.018826141564211814,
      "24": 0.020383131178643293,
      "25": -0.023533878803129432,
      "26": -0.016284210553243444,
      "27": 0.018348328160822647,
      "28": -0.03747611574641245,
      "29": 0.08098236358265631,
      "30": -0.022120517562296278,
      "31": -0.05727648536045152,
      "32": -0.02158126116059449,
      "33": -0.0025238726669693685,
      "34": -0.01435864117758143,
      "35": -0.006572884991425538,
      "36": -0.006832341896901017,
      "37": 0.005544770681170521,
      "38": 0.026746302433170006,
      "39": 0.023242654375674757,
      "40": 0.019477874495206396,
      "41": 0.02884252466971992,
      "42": -0.050441624734753235,
      "43": -0.023040997211042497,
      "44": 0.00869724522456742,
      "45": -0.018745333650963668,
      "46": -0.010150251201476099,
      "47": -0.038820397499689255,
      "48": 0.024896032671759865,
      "49": 0.04598794309852483,
      "50": 0.10085431203874665,
      "51": 0.10049638789682887,
      "52": -0.005639740049745394,
      "53": -0.0030222176118768554,
      "54": 0.0003319744982039,
      "55": -0.04540998954996452,
      "56": 0.08758305438174455,
      "57": 0.018080423205896094,
      "58": 0.0778453367629484,
      "59": -0.07306818718460394,
      "60": 0.023641672413021432,
      "61": 0.03416508754504115,
      "62": 0.022316471519335777,
      "63": 0.018622128507775317,
      "64": 0.019582843597306703,
      "65": -0.00008036710841259043,
      "66": 0.013528712572213237,
      "67": 0.046551152541355376,
      "68": 0.07801646186072163,
      "69": 0.005659539258004651,
      "70": 0.008394289812039718,
      "71": -0.02902692764825417,
      "72": 0.02572096626044478,
      "73": -0.040387156563182695,
      "74": -0.01256252822258697,
      "75": -0.008293022665334535,
      "76": -0.02295515379263288,
      "77": 0.003597723328690929,
      "78": -0.00047127672405022805,
      "79": 0.018782517760593254,
      "80": 0.02370648770044241,
      "81": 0.0012431484364593083,
      "82": 0.0018072522073890695,
      "83": 0.007285015005584573,
      "84": 0.007909212538810217,
      "85": 0.004607854350728929,
      "86": -0.056449523712600834,
      "87": 0.006987543316405891,
      "88": -0.023275990519783914,
      "89": 0.030915807995613817,
      "90": -0.012061390454969933,
      "91": 0.06656243031701961,
      "92": 0.028845816702435172,
      "93": 0.027750486344318058,
      "94": 0.004236219385833879,
      "95": -0.005807761422194828,
      "96": -0.009431235485847523,
      "97": 0.06724872176922289,
      "98": -0.0004790410814054534,
      "99": -0.011968248841642383,
      "100": 0.0392191325127994,
      "101": 0.022984368022373247,
      "102": 0.046221049604893476,
      "103": -0.02375784454734886,
      "104": 0.03551952206484825,
      "105": -0.01762837087992683,
      "106": -0.014591190770083334,
      "107": 0.033892049168823594,
      "108": 0.0217772091824863,
      "109": -0.0002918149243878496,
      "110": 0.011225026580513808,
      "111": -0.0052718769118251,
      "112": -0.005771144545797479,
      "113": 0.020992319542417783,
      "114": 0.00318262526025497,
      "115": 0.006786872652400685,
      "116": -0.057724282094111574,
      "117": -0.02134275247151296,
      "118": 0.018010856956004226,
      "119": -0.0064538570164190115,
      "120": -0.017203019015755633,
      "121": 0.05609261903006808,
      "122": 0.003308544233548295,
      "123": -0.03750918315576983,
      "124": 0.02147343227424846,
      "125": -0.011661286477580725,
      "126": 0.06837057081182933,
      "127": -0.05351153875702455,
      "128": -0.02414256420785333,
      "129": 0.03347164984705768,
      "130": -0.11971390970744604,
      "131": -0.032145550760047346,
      "132": -0.010349299169824812,
      "133": 0.01952020408363401,
      "134": 0.0152264538450613,
      "135": -0.011923593504054522,
      "136": 0.026539657521592055,
      "137": 0.04714761514893447,
      "138": -0.059559080861822586,
      "139": 0.005592774137040882,
      "140": -0.0396726805386701,
      "141": -0.01289288593623392,
      "142": 0.017927262015522995,
      "143": 0.005401229179509583,
      "144": 0.08218743724350788,
      "145": -0.027929158540393087,
      "146": -0.0809791717613372,
      "147": -0.004321200360951261,
      "148": -0.018369212885568635,
      "149": -0.0032985943395329883,
      "150": -0.014438551103933052,
      "151": -0.013286591701446346,
      "152": -0.00470839191467942,
      "153": 0.025919282558025572,
      "154": 0.018641741939709647,
      "155": 0.018318453714774273,
      "156": -0.0493373925326356,
      "157": 0.04546981906584709,
      "158": -0.011445902705475365,
      "159": -0.011965146240507778,
      "160": 0.025512047391627986,
      "161": -0.0006339619780107666,
      "162": -0.014581808999906326,
      "163": 0.004942276979127002,
      "164": -0.028312019401690966,
      "165": -0.036926751279168245,
      "166": 0.00199797499624948,
      "167": 0.0022220977442157746,
      "168": -0.023132637551192603,
      "169": -0.02006213979266707,
      "170": 0.0016381836378556302,
      "171": 0.04060873046858738,
      "172": -0.053212207171554025,
      "173": 0.020663393743406585,
      "174": 0.05078277848066415,
      "175": -0.014894428619337862,
      "176": 0.03618551551595362,
      "177": 0.05872310851106782,
      "178": 0.003732128862081873,
      "179": -0.04777521367353944,
      "180": 0.05207801184337628,
      "181": 0.009358357544760797,
      "182": -0.0002578489485139075,
      "183": -0.03462512336492606,
      "184": -0.05218299285047498,
      "185": 0.010768757058107595,
      "186": -0.01860841231970646,
      "187": 0.009999250644630904,
      "188": 0.033127002064023636,
      "189": 0.010268057132501979,
      "190": 0.0016065310162867474,
      "191": -0.008314069597796764,
      "192": -0.053593985689790846,
      "193": -0.058205015949467476,
      "194": -0.028315602733174572,
      "195": 0.002051884931508245,
      "196": -0.02160173022710763,
      "197": 0.00972076219217149,
      "198": -0.018754116034389236,
      "199": -0.020602804587430436,
      "200": -0.04033187074818888,
      "201": -0.00380689323183271,
      "202": -0.0046290251188164915,
      "203": 0.006465981672896522,
      "204": -0.01239201259198555,
      "205": -0.011106680680824233,
      "206": -0.032743921696733284,
      "207": 0.05159004803419895,
      "208": 0.01738256142123176,
      "209": -0.017515434934287692,
      "210": 0.03912899408562538,
      "211": 0.003751935079623255,
      "212": -0.03692788141631117,
      "213": -0.011177921978646586,
      "214": 0.09208162256460256,
      "215": 0.05482324740218998,
      "216": 0.041613507130100626,
      "217": 0.0028081204191911166,
      "218": -0.025739167793038236,
      "219": 0.002694667058965222,
      "220": -0.03786676979217385,
      "221": 0.022710304572585906,
      "222": 0.0027186933221995916,
      "223": -0.026817127883544865,
      "224": 0.007356742787889811,
      "225": 0.08301394648486489,
      "226": -0.01727832785577549,
      "227": -0.005826561595391495,
      "228": 0.06037552498717,
      "229": -0.04382171144619085,
      "230": -0.07874666833552346,
      "231": -0.01471499110999896,
      "232": -0.042222121075838115,
      "233": -0.06135966518413408,
      "234": -0.028056168590301803,
      "235": -0.008921290468524834,
      "236": 0.038020984379662594,
      "237": -0.0045507174092625415,
      "238": -0.037058720171748244,
      "239": 0.026020119640629075,
      "240": -0.017519584020503673,
      "241": 0.05904577796856265,
      "242": -0.035263319704936014,
      "243": 0.026546379859455654,
      "244": -0.013156272581148157,
      "245": -0.00407275865142232,
      "246": 0.02786754578258933,
      "247": 0.014881736446126661,
      "248": 0.039007612051247864,
      "249": -0.03435495402881299,
      "250": -0.013258087800789914,
      "251": -0.011941040133711016,
      "252": 0.010137214658037354,
      "253": -0.006869471793095574,
      "254": 0.03698074103102274,
      "255": -0.0509468823355952,
      "256": -0.025797828770999832,
      "257": 0.010407660334999,
      "258": 0.005958768081588921,
      "259": -0.018774707670867606,
      "260": 0.034028767687115026,
      "261": -0.05029267626113507,
      "262": 0.004106300183454197,
      "263": 0.0009996923782885972,
      "264": -0.019161870764693112,
      "265": 0.03494467620758209,
      "266": -0.06462665402808271,
      "267": -0.013420909279639973,
      "268": 0.011926778383638748,
      "269": 0.04179474423625761,
      "270": 0.02191027886512059,
      "271": -0.01348698498526618,
      "272": -0.0009786073641175016,
      "273": 0.02477128249265526,
      "274": 0.01920249491116044,
      "275": -0.040173107425946805,
      "276": 0.018997824097237746,
      "277": -0.03616957838188611,
      "278": -0.0055763762585879315,
      "279": -0.03350153686527639,
      "280": 0.055369740323981474,
      "281": 0.06877936151187744,
      "282": -0.04713257339613956,
      "283": 0.0009133458686299297,
      "284": -0.05566525512162227,
      "285": -0.05735222493477431,
      "286": -0.025973965596686646,
      "287": 0.04144150574761379,
