{
 "layers": [
  {
   "out_depth": 838,
   "out_sx": 1,
   "out_sy": 1,
   "layer_type": "input"
  },
  {
   "out_depth": 25,
   "out_sx": 1,
   "out_sy": 1,
   "layer_type": "fc",
   "num_inputs": 838,
   "l1_decay_mul": 0,
   "l2_decay_mul": 1,
   "filters": [
    {
     "sx": 1,
     "sy": 1,
     "depth": 838,
     "w": {
      "0": -361.3489668841222,
      "1": -0.000120255978987954,
      "2": -1.7399896832798414,
      "3": -5.3269565100630345,
      "4": -2.6336402964815884,
      "5": -2.6690134362071363,
      "6": -0.03297573385258107,
      "7": -0.04046899848659284,
      "8": -0.04592107888784559,
      "9": 0.020382283715403352,
      "10": -0.051291963655580794,
      "11": -0.0617720459404196,
      "12": -0.12325889265578274,
      "13": 0.029445281013513964,
      "14": 0.006398624928638165,
      "15": 0.03323555044195262,
      "16": -0.0200061605324309,
      "17": -0.006717461894130724,
      "18": -352.4220103782039,
      "19": 0.05170244161667335,
      "20": -1.3038648667472825,
      "21": -5.2690597268682575,
      "22": -2.6283189976451067,
      "23": -2.632107702057486,
      "24": 0.023880531670143885,
      "25": 0.009552209301075294,
      "26": 0.04204415774844909,
      "27": 0.014044870438280455,
      "28": -0.07704592139489376,
      "29": -0.05125491195577118,
      "30": 0.04824438479656659,
      "31": -0.025318831807427895,
      "32": -0.059867950293911426,
      "33": -0.03767370272523728,
      "34": -0.007478045432642389,
      "35": 0.00038931485329716294,
      "36": 0.010076872707089674,
      "37": 0.07483006022001451,
      "38": -0.025865828403404796,
      "39": -0.17349291411536286,
      "40": 0.0246321646741517,
      "41": 0.063274962551012,
      "42": -0.0036064978703321485,
      "43": -0.06064255215118623,
      "44": -0.04827256835100412,
      "45": 0.10505823519185989,
      "46": -0.05808928460928984,
      "47": -0.01794262949614969,
      "48": -0.03493140444077256,
      "49": -0.015104827294510481,
      "50": 0.05388930572295633,
      "51": 0.01412916320173515,
      "52": -0.08981883676563746,
      "53": -0.006913913502162957,
      "54": -0.020535879290866834,
      "55": -0.0753494113183221,
      "56": 0.003929595566057934,
      "57": 0.03213083297024359,
      "58": 0.22187016806369977,
      "59": -345.7680564551115,
      "60": 0.026116869385635528,
      "61": -3.080001530250343,
      "62": -5.286526722049294,
      "63": -2.727561514465543,
      "64": -2.7282838028730825,
      "65": -0.03290226538411483,
      "66": -0.02848515892901296,
      "67": 0.0443328946728478,
      "68": -0.03826127785086098,
      "69": -0.005436668921900616,
      "70": -0.0038351273311042914,
      "71": 0.019276839503060646,
      "72": -0.019052594705117793,
      "73": 0.016863225762858414,
      "74": -0.016696121318108718,
      "75": -0.03887123361133897,
      "76": -0.025050952236506448,
      "77": 0.017047769112141176,
      "78": -0.003297593277354238,
      "79": -0.020477448064542624,
      "80": -0.011821883003613294,
      "81": 0.017273066195213817,
      "82": -0.07357556354603272,
      "83": -0.13113553211031562,
      "84": 0.06540386081719604,
      "85": -0.020599102490706792,
      "86": 0.18762946530899663,
      "87": -0.0011292835497250266,
      "88": 0.029918332023963757,
      "89": -0.022793630781244585,
      "90": 0.021382733810382144,
      "91": -0.05547392652685437,
      "92": -0.013966939264727586,
      "93": 0.10423784375853747,
      "94": 0.034082106262894825,
      "95": -0.0182050955566461,
      "96": -0.11841561283827527,
      "97": 0.08492365140292982,
      "98": 0.044268735719656956,
      "99": -0.08783644365550294,
      "100": -340.8911200225702,
      "101": -0.048267679131837146,
      "102": -6.402533493504175,
      "103": -5.249269064743482,
      "104": -2.616615779205164,
      "105": -2.6223598850181897,
      "106": -0.06209169194186022,
      "107": 0.029212573306676006,
      "108": -0.012650292431417564,
      "109": -0.008456057673086943,
      "110": -0.01760903209207281,
      "111": 0.01599307494264727,
      "112": -0.0040389023110536815,
      "113": 0.051780661663698074,
      "114": -0.001151693039768178,
      "115": 0.02453569243507429,
      "116": -0.009655307354763302,
      "117": -0.03846504441505036,
      "118": 0.015775336650786117,
      "119": 0.011983740677379392,
      "120": -0.021677198884313974,
      "121": 0.16927472118568762,
      "122": -0.012515999710602988,
      "123": 0.04747719899500446,
      "124": 0.03910878615160789,
      "125": -0.23988701701192602,
      "126": 0.020190770508499732,
      "127": 0.07642262955601457,
      "128": 0.10092501539810671,
      "129": 0.009121062897983928,
      "130": 0.06025197018089138,
      "131": 0.008580891421264667,
      "132": -0.02216069156530327,
      "133": -0.013622613843448145,
      "134": 0.04048647208296711,
      "135": -0.13242353172208474,
      "136": -0.08189148428805419,
      "137": 0.0096529953057354,
      "138": 0.0627000856719841,
      "139": -0.00335130567017169,
      "140": -0.07343266122573602,
      "141": -334.35277113665546,
      "142": 0.016046933866179253,
      "143": -3.0267075319104904,
      "144": -5.314915468907396,
      "145": -2.6719475828184955,
      "146": -2.692307529046899,
      "147": -0.003251532627590646,
      "148": 0.012077909153523596,
      "149": 0.012530661306071304,
      "150": -0.03674938218401751,
      "151": -0.005053948624562209,
      "152": 0.0036576461803842593,
      "153": 0.012123766077140954,
      "154": -0.06313656983726576,
      "155": 0.007395480985683235,
      "156": 0.028209181152224105,
      "157": -0.030770053056226713,
      "158": 0.04111154622197878,
      "159": 0.006549340226233432,
      "160": 0.04558364991581528,
      "161": 0.03355514591320467,
      "162": 0.08626672614810708,
      "163": -0.014011010629160138,
      "164": 0.0021007741847379057,
      "165": 0.07346282980804213,
      "166": 0.028329918427477813,
      "167": 0.03013072942025587,
      "168": 0.0013345299224300936,
      "169": -0.02330076902012764,
      "170": 0.01971876365556944,
      "171": 0.0021137248947581985,
      "172": -0.004394716557194744,
      "173": -0.012472815605620252,
      "174": -0.034097177197659305,
      "175": -0.223564168446358,
      "176": -0.08709650873459185,
      "177": 0.02517098409925624,
      "178": -0.07293810389776846,
      "179": -0.09189010180457613,
      "180": 0.02296079898733639,
      "181": 0.006295492433614434,
      "182": -330.8154363133597,
      "183": -0.00042538208851693226,
      "184": 3.041502065037155,
      "185": -5.302337162284864,
      "186": -2.641679692184045,
      "187": -2.7467732586119626,
      "188": -0.019026838824773337,
      "189": -0.05068762129838112,
      "190": 0.0013629448131828848,
      "191": 0.007973016179765568,
      "192": -0.025128943239797356,
      "193": 0.047998292868163595,
      "194": -0.005817021512023056,
      "195": -0.01185261150874881,
      "196": 0.014663283460103883,
      "197": 0.024421415397465153,
      "198": 0.05650616017534513,
      "199": 0.07231466403197474,
      "200": -0.004137306240656164,
      "201": -0.016191032946141097,
      "202": 0.02047482170434861,
      "203": 0.08107219802993294,
      "204": 0.03923492199903602,
      "205": 0.0035705987953651374,
      "206": 0.032235062040840076,
      "207": 0.06540388325709803,
      "208": 0.04152110117878534,
      "209": 0.04940515070779607,
      "210": 0.06886811031726178,
      "211": 0.027254350983478552,
      "212": -0.04292722878649318,
      "213": 0.032447989585161346,
      "214": -0.13045070812579648,
      "215": -0.05503937905360353,
      "216": -0.16966544155293609,
      "217": -0.03188657320381328,
      "218": -0.07948025386356312,
      "219": -0.043460975826113725,
      "220": -0.047216100521595514,
      "221": 0.04397156743368093,
      "222": 0.04369016880048256,
      "223": -329.75832031301326,
      "224": -0.03525937996770858,
      "225": 3.674987915007743,
      "226": -5.259673646221637,
      "227": -2.697561613144714,
      "228": -2.7068936925297287,
      "229": 0.06721130996397111,
      "230": -0.0008806037102502366,
      "231": -0.022739609936875883,
      "232": 0.024401906550649572,
      "233": -0.011380792431705039,
      "234": -0.02880318856585137,
      "235": -0.01241782228798845,
      "236": 0.00907379296828629,
      "237": -0.0592851801731969,
      "238": -0.007907573001194542,
      "239": 0.01708267859560779,
      "240": -0.0072407662513854455,
      "241": 0.032263252980401155,
      "242": -0.1049785340730088,
      "243": -0.008206041412670676,
      "244": -0.09538406080772295,
      "245": -0.033425021859590176,
      "246": 0.007312750954317886,
      "247": -0.12957881958918438,
      "248": 0.16869332266325215,
      "249": 0.029410611716835094,
      "250": -0.041075028832948675,
      "251": 0.10537185028695914,
      "252": 0.04166067726697487,
      "253": 0.0037247408039176393,
      "254": 0.038863943911421235,
      "255": -0.07834806113632259,
      "256": 0.03634701104693845,
      "257": 0.07705326700617134,
      "258": 0.0059035645956338105,
      "259": -0.21875169008924428,
      "260": -0.03265410573106845,
      "261": -0.05067946327463635,
      "262": 0.038666838039019887,
      "263": -0.057910034920527015,
      "264": -325.68257512768025,
      "265": 0.06504520212940747,
      "266": -1.5656817079341183,
      "267": -5.335700266449981,
      "268": -2.614661335921785,
      "269": -2.6680674616440685,
      "270": -0.0033600208115991802,
      "271": -0.03628997296990601,
      "272": 0.010203469347350221,
      "273": -0.028566028726001745,
      "274": -0.009846674712022102,
      "275": -0.019588067101219315,
      "276": -0.03696095232490037,
      "277": 0.024523556380282127,
      "278": -0.03601990378865683,
      "279": -0.0016151600410279471,
      "280": 0.09428791790517378,
      "281": 0.009339584192155683,
      "282": -0.028435028770162858,
      "283": -0.0640921487691185,
      "284": 0.0547235526587861,
      "285": 0.018978089089766174,
      "286": -0.014702836278177379,
      "287": 0.01446437500968597,
      "288": -0.03236039596793702,
      "289": -0.01911598036840627,
      "290": 0.10278090369439669,
      "291": -0.03100961582922786,
      "292": -0.05061203282693011,
      "293": -0.012041680527270676,
      "294": -0.04742774318552681,
      "295": 0.015335854578537034,
      "296": -0.20161269100549445,
      "297": 0.044421238738880924,
      "298": 0.24414134501745127,
      "299": 0.015546403474005717,
      "300": -0.025685831512905356,
      "301": -0.0310191812293757,
      "302": -0.03986775728054169,
      "303": -0.008774007587303323,
      "304": 0.06179644144926635,
      "305": -329.8422028616727,
      "306": -0.016608876835657586,
      "307": -3.9802595719204725,
      "308": -5.337895019335302,
      "309": -2.66556648030635,
      "310": -2.6832772299141365,
      "311": 0.040739965657208756,
      "312": -0.03095086928613056,
      "313": 0.003063846661331014,
      "314": 0.00888649019842456,
      "315": -0.0026864200896804177,
      "316": 0.012523871538890312,
      "317": 0.02279369656221967,
      "318": 0.0062152095524656975,
      "319": 0.013322206677838507,
      "320": 0.020353050113412346,
      "321": 0.07058673451292884,
      "322": -0.01654238480178565,
      "323": 0.01899047432487976,
      "324": -0.1687007402085,
      "325": 0.07386992857012156,
      "326": -0.08219380567449974,
      "327": -0.028201634995354222,
      "328": 0.03112370516296633,
      "329": 0.10363541738129302,
      "330": -0.1498469136681751,
      "331": -0.036210871166844405,
      "332": -0.01623367653559038,
      "333": 0.005259016916054704,
      "334": -0.013622747337572844,
      "335": 0.01307745411568182,
      "336": -0.06249922351939316,
      "337": 0.006433676150319576,
      "338": 0.07093296845531427,
      "339": 0.04761027659684838,
      "340": -0.002953339387246591,
      "341": 0.08944556130073772,
      "342": -0.04709111539264747,
      "343": 0.02299364102503479,
      "344": 0.06907137090513175,
      "345": -0.04639391320515565,
      "346": -323.5172853182127,
      "347": -0.001755672851459303,
      "348": -4.566314890327985,
      "349": -5.329483110283926,
      "350": -2.6448204096602823,
      "351": -2.618172109831422,
      "352": 0.004924671677822814,
      "353": 0.003686139982808895,
      "354": -0.023666260118643274,
      "355": -0.06736803072526752,
      "356": -0.04627058095818742,
      "357": 0.012799838835598112,
      "358": 0.03880649958590711,
      "359": 0.01954138219784568,
      "360": -0.0196267493917258,
      "361": -0.03715656693125028,
      "362": -0.04314542859605072,
      "363": 0.002806867213401839,
      "364": -0.023270360040876268,
      "365": -0.006139082917906895,
      "366": -0.009021467216608594,
      "367": -0.16455792757619883,
      "368": 0.0119089299309257,
      "369": -0.25901457537038924,
      "370": 0.10393953539994133,
      "371": 0.019913711552933182,
      "372": -0.04533659099298781,
      "373": 0.03161379340098888,
      "374": 0.0019050145993243326,
      "375": 0.13370105730970958,
      "376": 0.03171007261356631,
      "377": 0.026988735201940204,
      "378": 0.09893410049744407,
      "379": 0.025465759195309686,
      "380": -0.06721514110987084,
      "381": -0.021681506918149327,
      "382": 0.14147724516215973,
      "383": 0.07473338248438398,
      "384": -0.0014734853332531112,
      "385": 0.016902788475995672,
      "386": -0.04820803993182909,
      "387": -311.47170072817255,
      "388": -0.0027217478739462015,
      "389": -7.405779267334984,
      "390": -5.284342345602029,
      "391": -2.6062229004573427,
      "392": -2.701242341377036,
      "393": -0.038655659306442325,
      "394": 0.014963350227235796,
      "395": -0.04956174133387193,
      "396": 0.023091488414561823,
      "397": -0.03058681029163257,
      "398": -0.017319105452578823,
      "399": 0.017553893718238806,
      "400": 0.015791509782963162,
      "401": 0.00411849493589028,
      "402": -0.05017371953466972,
      "403": 0.0025643173949372487,
      "404": -0.0370099965639291,
      "405": 0.051246292108284165,
      "406": 0.1364855627970196,
      "407": -0.009275011764434215,
      "408": -0.049324613428934266,
      "409": 0.0913440802979693,
      "410": -0.05626857331383901,
      "411": -0.04060112362410596,
      "412": -0.01955804545273613,
      "413": 0.036514034533446,
      "414": 0.040643127457950276,
      "415": -0.1386602052947863,
      "416": -0.0772720906047459,
      "417": -0.057162801315529574,
      "418": -0.042800928729413754,
      "419": -0.10594448369452472,
      "420": 0.05975016456527745,
      "421": -0.07704781956284384,
      "422": -0.05064925364271509,
      "423": 0.018972849296242513,
      "424": -0.08604617469081621,
      "425": 0.00585622222758387,
      "426": -0.017085992590551487,
      "427": 0.07283863422079619,
      "428": -298.5752533145949,
      "429": -0.060620143003394356,
      "430": -9.852828248625336,
      "431": -5.292317517003367,
      "432": -2.711167617236634,
      "433": -2.5437721316632405,
      "434": -0.026428781391635108,
      "435": -0.021819550800462512,
      "436": 0.03385247443690339,
      "437": 0.037321253964556045,
      "438": -0.011938486969155353,
      "439": -0.03484481318132724,
      "440": -0.007724065948868306,
      "441": -0.038473381494297736,
      "442": 0.014618585119886887,
      "443": 0.019878211810119083,
      "444": -0.04959548688300394,
      "445": 0.02273467986245012,
      "446": 0.0270000231225807,
      "447": 0.13997730947063866,
      "448": -0.01497640746611475,
      "449": 0.021350496363859345,
      "450": -0.03730979254724022,
      "451": 0.04105695768311048,
      "452": 0.09859445697222424,
      "453": 0.005049755831867071,
      "454": -0.016939927175584645,
      "455": 0.016457833102034677,
      "456": -0.29921927837241225,
      "457": 0.012631657413820512,
      "458": -0.0020797363057651476,
      "459": -0.12300219391619352,
      "460": 0.083304775289684,
      "461": -0.035625805039901814,
      "462": -0.0364460027080521,
      "463": 0.012872332852656343,
      "464": -0.02532192914752765,
      "465": -0.018996848223432453,
      "466": -0.06162233682372954,
      "467": 0.017595659642979877,
      "468": -0.020132132664996017,
      "469": -289.8557886837527,
      "470": 0.028743322318041938,
      "471": -8.41460941094764,
      "472": -5.313539535272273,
      "473": -2.6601585362729416,
      "474": -2.2339254913068416,
      "475": -0.09858370627900305,
      "476": 0.010079249406934344,
      "477": -0.012913715068947172,
      "478": -0.02178289634449212,
      "479": 0.003815573332313117,
      "480": 0.017561313415710815,
      "481": 0.0033722753481432604,
      "482": -0.005207022277033488,
      "483": -0.009509071365726991,
      "484": -0.030560918998671527,
      "485": -0.014933183384968489,
      "486": -0.006866344724970963,
      "487": 0.009570933430499527,
      "488": 0.020874687235529828,
      "489": -0.015734594241347797,
      "490": 0.021548597897109986,
      "491": 0.019418670437234622,
      "492": 0.21996995422821133,
      "493": 0.08568980906453723,
      "494": 0.0019253879448501293,
      "495": -0.10698276533699437,
      "496": 0.02655273906303555,
      "497": -0.22283370384728127,
      "498": 0.09677034158379569,
      "499": 0.018716061943766273,
      "500": -0.03830867929274494,
      "501": 0.010595178902095628,
      "502": 0.025595994016738288,
      "503": 0.04208350398823095,
      "504": -0.0837508867995719,
      "505": -0.039575144959568674,
      "506": -0.01063072800528584,
      "507": -0.040660931877472405,
      "508": 0.013557343147192513,
      "509": -0.037440101463041615,
      "510": -282.8838116150835,
      "511": -0.005324035446842749,
      "512": -7.854292220952777,
      "513": -5.340571872705187,
      "514": -2.633092258607845,
      "515": -2.1904603604737556,
      "516": -0.01324512669191625,
      "517": -0.00756809665389167,
      "518": 0.00720050707840639,
      "519": 0.03273334845540614,
      "520": -0.0061297174550652474,
      "521": -0.02525910069283645,
      "522": -0.017731483819469533,
      "523": -0.028720205181897215,
      "524": -0.023130382847538825,
      "525": -0.004148227761859957,
      "526": -0.017320474679953145,
      "527": -0.005820354164707421,
      "528": 0.0014904483474737398,
      "529": 0.03246702538912743,
      "530": 0.009112159063142446,
      "531": 0.04436855764750907,
      "532": 0.07032728225627359,
      "533": -0.02803626493341725,
      "534": -0.03610061285454717,
      "535": 0.1352526891329184,
      "536": -0.06123782622914981,
      "537": -0.09408787503654835,
      "538": 0.07910499740540734,
      "539": -0.010149907463796272,
      "540": -0.0749318758494462,
      "541": 0.005173017701132852,
      "542": 0.16160630555874522,
      "543": 0.003281747165102958,
      "544": -0.07581326374975209,
      "545": -0.055029086445381126,
      "546": -0.009568625541126875,
      "547": -0.22129366532895803,
      "548": -0.09912136921633512,
      "549": 0.011174052249984716,
      "550": 0.025958827116977994,
      "551": -276.71428133096697,
      "552": 0.03219657513757874,
      "553": -3.98872030946108,
      "554": -5.28237636533636,
      "555": -2.623270310904002,
      "556": -2.1836799805399782,
      "557": -0.02066942630891661,
      "558": 0.01822592615400164,
      "559": 0.003253123036356369,
      "560": 0.026096132170609666,
      "561": -0.041925121580853486,
      "562": 0.026521023008365435,
      "563": 0.0031352789721819973,
      "564": -0.051560881594174136,
      "565": 0.01814300990165113,
      "566": -0.02032995428883327,
      "567": -0.03709511860983789,
      "568": 0.013953632643540792,
      "569": -0.01776558938049057,
      "570": 0.05614974876372758,
      "571": 0.00781351969131458,
      "572": 0.046007254828012864,
      "573": 0.08804344394992404,
      "574": -0.2744691056199706,
      "575": 0.03365794601281272,
      "576": -0.01303740476926729,
      "577": 0.05191925980513973,
      "578": 0.03699573625019429,
      "579": 0.2508838763341907,
      "580": 0.026351224506490974,
      "581": -0.05303113860408985,
      "582": -0.015353398932280594,
      "583": -0.070406436032398,
      "584": 0.06236342361536025,
      "585": -0.05063156871640715,
      "586": 0.026884937057121104,
      "587": 0.104913601499266,
      "588": -0.04718598021814857,
      "589": -0.025155766984263455,
      "590": -0.0284984440896906,
      "591": 0.052238869550202516,
      "592": -271.526268091945,
      "593": 0.030795794197319336,
      "594": 0.5234541430675371,
      "595": -5.361838975358404,
      "596": -2.6667805612524806,
      "597": -2.6190068370486226,
      "598": -0.04840824468256783,
      "599": 0.0029287002045612185,
      "600": 0.00621806915351585,
      "601": -0.006637503390007404,
      "602": -0.031113079238928233,
      "603": -0.030744092345013692,
      "604": -0.018303472680432704,
      "605": -0.02765631029258546,
      "606": 0.030685968958535287,
      "607": -0.055531998553229094,
      "608": 0.013603092467070433,
      "609": -0.022580444115340596,
      "610": -0.0353305952753558,
      "611": 0.02254677303033166,
      "612": -0.03163791055894856,
      "613": 0.12534533841922046,
      "614": 0.0017590064674986932,
      "615": 0.029343165052652925,
      "616": -0.03457639769898552,
      "617": -0.038108078415506424,
      "618": -0.04408232130249302,
      "619": 0.003403650682124905,
      "620": 0.18718896255297787,
      "621": -0.03863447594569641,
      "622": 0.09042552930549186,
      "623": -0.024455834842901873,
      "624": -0.0044356296286563275,
      "625": 0.04366802946112265,
      "626": -0.011805515524416194,
      "627": -0.16667876377380397,
      "628": -0.06390625214713315,
      "629": 0.040944791883799715,
      "630": 0.02700623062889127,
      "631": -0.03374299169690492,
      "632": -0.10992013811545097,
      "633": -265.1258042413206,
      "634": -0.0069990901999577885,
      "635": 8.952100511535507,
      "636": -5.3239571497028635,
      "637": -2.6119854894506105,
      "638": -2.6250048518793165,
      "639": -0.04237403450901513,
      "640": -0.026198719388712724,
      "641": -0.09029769265470756,
      "642": -0.0846983428227385,
      "643": -0.017822822714125677,
      "644": -0.03416459351952619,
      "645": -0.015021239205196697,
      "646": -0.047073710659120915,
      "647": 0.01812939590706672,
      "648": -0.06946628634650309,
      "649": -0.015125453575385223,
      "650": -0.0017064126304354595,
      "651": 0.0393046374479391,
      "652": 0.038368884510971736,
      "653": -0.011155979621411955,
      "654": -0.13353768016893205,
      "655": 0.03321559897132932,
      "656": 0.181725521710049,
      "657": -0.029060099807208327,
      "658": -0.0221677135031377,
      "659": -0.07604798940129996,
      "660": -0.01622486399098521,
      "661": -0.0003876723397611754,
      "662": 0.017182890324583408,
      "663": 0.0018418042041559114,
      "664": 0.011875784145941226,
      "665": 0.0005868560965283858,
      "666": -0.005518113649332643,
      "667": -0.20775314842795242,
      "668": -0.01209286130554961,
      "669": 0.017728852625295916,
      "670": 0.2021369516049166,
      "671": 0.02262214641381105,
      "672": 0.009544111890049122,
      "673": 0.013197351033761217,
      "674": -256.1608868020544,
      "675": 0.037003425400366476,
      "676": 17.531281546269213,
      "677": -5.282851228906327,
      "678": -2.700560102686578,
      "679": -2.5793183602004404,
      "680": 0.01666163484744635,
      "681": -0.05999848226396454,
      "682": -0.022226213024187282,
      "683": 0.008392071463446194,
      "684": -0.0039346493669486175,
      "685": -0.03672310399524718,
      "686": -0.006334353009871375,
      "687": 0.01918853976386143,
      "688": 0.01696515676350377,
      "689": 0.022326396978827812,
      "690": -0.006702818129875521,
      "691": 0.025626666363413993,
      "692": 0.009945623445088961,
      "693": 0.04525664115413643,
      "694": 0.028796626866252294,
      "695": -0.05910889815437873,
      "696": 0.018555689429993267,
      "697": 0.08486852146214226,
      "698": 0.015192716573391971,
      "699": -0.061001332801757145,
      "700": -0.020741368914183315,
      "701": 0.05150620471865008,
      "702": -0.020892509749789016,
      "703": 0.021655662315674208,
      "704": -0.03466243550866545,
      "705": 0.06735046834580198,
      "706": -0.18063827232696447,
      "707": -0.010477792188876452,
      "708": 0.003584598445338381,
      "709": 0.0357848070862896,
      "710": -0.033897737682218224,
      "711": 0.007929080193999384,
      "712": 0.08054081237098132,
      "713": -0.05504382807418318,
      "714": 0.03540411155064911,
      "715": -257.8832147082907,
      "716": -0.07111528920316099,
      "717": 14.745782968159055,
      "718": -5.323736863697382,
      "719": -2.637624990883628,
      "720": -2.95836801930479,
      "721": -0.01654253442882772,
      "722": 0.009621194324225044,
      "723": -0.03702548478263181,
      "724": 0.007307211565465895,
      "725": -0.027346821020627438,
      "726": -0.05120446663755564,
      "727": 0.033969267815447984,
      "728": -0.006111678150127337,
      "729": -0.06258906411040806,
      "730": -0.0035248213474774626,
      "731": -0.007614745110337204,
      "732": 0.058691886140598316,
      "733": 0.019011038121675195,
      "734": -0.11308845020073471,
      "735": 0.030010953702377177,
      "736": -0.10944888460889145,
      "737": -0.02877168374570026,
      "738": -0.09266277248855062,
      "739": -0.2326908334858021,
      "740": -0.04515243700411385,
      "741": 0.07383818354051466,
      "742": -0.017183571115299445,
      "743": 0.03879631529269824,
      "744": -0.045659346476927744,
      "745": -0.021219179063905833,
      "746": 0.005506380717411091,
      "747": 0.034758066719378936,
      "748": 0.0023366499864658956,
      "749": 0.05666328176669871,
      "750": 0.19448234120945573,
      "751": -0.015360704004595434,
      "752": -0.035512389433665775,
      "753": 0.1436614828564437,
      "754": -0.03474189652031807,
      "755": 0.035977349220701636,
      "756": -256.6835134028219,
      "757": -0.003173977752240177,
      "758": 5.611283683910099,
      "759": -5.316399362197953,
      "760": -2.680286429164226,
      "761": -2.9825435152073556,
      "762": -0.010716431352662703,
      "763": -0.0013447559961122112,
      "764": -0.026071687820739934,
      "765": -0.028002161417703564,
      "766": -0.004836054921002279,
      "767": -0.026990010889271582,
      "768": 0.05517796595621755,
      "769": 0.004767389019067863,
      "770": 0.05695010542514487,
      "771": -0.046788574402186346,
      "772": 0.00875948377929753,
      "773": 0.024635924375020584,
      "774": 0.03880124003441448,
      "775": -0.05444544969078188,
      "776": -0.03280558762890693,
      "777": -0.07202602488982397,
      "778": -0.018046552366642137,
      "779": -0.016919516947514868,
      "780": 0.07018624953723278,
      "781": -0.15310426423657691,
      "782": 0.027786602077355897,
      "783": -0.002453924111135461,
      "784": 0.013605223052006456,
      "785": -0.038205877398828025,
      "786": 0.0900245582163081,
      "787": 0.005362019181075538,
      "788": 0.08950750423119735,
      "789": -0.07224506958652557,
      "790": 0.2191126538696898,
      "791": 0.05314368025718209,
      "792": -0.024346471501079846,
      "793": -0.22106308584247933,
      "794": -0.017354803835013387,
      "795": 0.012875908708095084,
      "796": -0.05615006809917001,
      "797": -249.17389445317454,
      "798": 0.06612600173455682,
      "799": -6.17024011105658,
      "800": -5.2643712126314215,
      "801": -2.6020932963788437,
      "802": -2.9447375218389857,
      "803": -0.026516884235779442,
      "804": -0.08437437919251535,
      "805": 0.004317526971587494,
      "806": -0.0012944927591467723,
      "807": -0.07902490271503543,
      "808": -0.01941305755535825,
      "809": 0.02989429982537991,
      "810": -0.05292929162496847,
      "811": -0.0067567793794363245,
      "812": -0.04735980819768889,
      "813": -0.005463714656946314,
      "814": -0.055825276110027036,
      "815": -0.00434316964007599,
      "816": 0.0006910685264880422,
      "817": -0.02942765484955629,
      "818": -0.33041338142425747,
      "819": 0.008086518024801972,
      "820": -0.017800720099135827,
      "821": 0.03203349384946763,
      "822": 0.014810708498292403,
      "823": 0.018246339262600587,
      "824": 0.01594736177586098,
      "825": -0.01628987348965916,
      "826": -0.04407205747663834,
      "827": -0.1096922570495186,
      "828": 0.02818583604411362,
      "829": 0.1713107071764574,
      "830": 0.029594908447739935,
      "831": 0.05667865069831779,
      "832": -0.01883203457263666,
      "833": -0.03846483882703463,
      "834": 0.012401147243900377,
      "835": 0.07365125843078174,
      "836": -0.023648531832735246,
      "837": 0.019091385558592223
     }
    },
    {
     "sx": 1,
     "sy": 1,
     "depth": 838,
     "w": {
      "0": 0,
      "1": 0,
      "2": 0,
      "3": 0,
      "4": 0,
      "5": 0,
      "6": 0,
      "7": 0,
      "8": 0,
      "9": 0,
      "10": 0,
      "11": 0,
      "12": 0,
      "13": 0,
      "14": 0,
      "15": 0,
      "16": 0,
      "17": 0,
      "18": 0,
      "19": 0,
      "20": 0,
      "21": 0,
      "22": 0,
      "23": 0,
      "24": 0,
      "25": 0,
      "26": 0,
      "27": 0,
      "28": 0,
      "29": 0,
      "30": 0,
      "31": 0,
      "32": 0,
      "33": 0,
      "34": 0,
      "35": 0,
      "36": 0,
      "37": 0,
      "38": 0,
      "39": 0,
      "40": 0,
      "41": 0,
      "42": 0,
      "43": 0,
      "44": 0,
      "45": 0,
      "46": 0,
      "47": 0,
      "48": 0,
      "49": 0,
      "50": 0,
      "51": 0,
      "52": 0,
      "53": 0,
      "54": 0,
      "55": 0,
      "56": 0,
      "57": 0,
      "58": 0,
      "59": 0,
      "60": 0,
      "61": 0,
      "62": 0,
      "63": 0,
      "64": 0,
      "65": 0,
      "66": 0,
      "67": 0,
      "68": 0,
      "69": 0,
      "70": 0,
      "71": 0,
      "72": 0,
      "73": 0,
      "74": 0,
      "75": 0,
      "76": 0,
      "77": 0,
      "78": 0,
      "79": 0,
      "80": 0,
      "81": 0,
      "82": 0,
      "83": 0,
      "84": 0,
      "85": 0,
      "86": 0,
      "87": 0,
      "88": 0,
      "89": 0,
      "90": 0,
      "91": 0,
      "92": 0,
      "93": 0,
      "94": 0,
      "95": 0,
      "96": 0,
      "97": 0,
      "98": 0,
      "99": 0,
      "100": 0,
      "101": 0,
      "102": 0,
      "103": 0,
      "104": 0,
      "105": 0,
      "106": 0,
      "107": 0,
      "108": 0,
      "109": 0,
      "110": 0,
      "111": 0,
      "112": 0,
      "113": 0,
      "114": 0,
      "115": 0,
      "116": 0,
      "117": 0,
      "118": 0,
      "119": 0,
      "120": 0,
      "121": 0,
      "122": 0,
      "123": 0,
      "124": 0,
      "125": 0,
      "126": 0,
      "127": 0,
      "128": 0,
      "129": 0,
      "130": 0,
      "131": 0,
      "132": 0,
      "133": 0,
      "134": 0,
      "135": 0,
      "136": 0,
      "137": 0,
      "138": 0,
      "139": 0,
      "140": 0,
      "141": 0,
      "142": 0,
      "143": 0,
      "144": 0,
      "145": 0,
      "146": 0,
      "147": 0,
      "148": 0,
      "149": 0,
      "150": 0,
      "151": 0,
      "152": 0,
      "153": 0,
      "154": 0,
      "155": 0,
      "156": 0,
      "157": 0,
      "158": 0,
      "159": 0,
      "160": 0,
      "161": 0,
      "162": 0,
      "163": 0,
      "164": 0,
      "165": 0,
      "166": 0,
      "167": 0,
      "168": 0,
      "169": 0,
      "170": 0,
      "171": 0,
      "172": 0,
      "173": 0,
      "174": 0,
      "175": 0,
      "176": 0,
      "177": 0,
      "178": 0,
      "179": 0,
      "180": 0,
      "181": 0,
      "182": 0,
      "183": 0,
      "184": 0,
      "185": 0,
      "186": 0,
      "187": 0,
      "188": 0,
      "189": 0,
      "190": 0,
      "191": 0,
      "192": 0,
      "193": 0,
      "194": 0,
      "195": 0,
      "196": 0,
      "197": 0,
      "198": 0,
      "199": 0,
      "200": 0,
      "201": 0,
      "202": 0,
      "203": 0,
      "204": 0,
      "205": 0,
      "206": 0,
      "207": 0,
      "208": 0,
      "209": 0,
      "210": 0,
      "211": 0,
      "212": 0,
      "213": 0,
      "214": 0,
      "215": 0,
      "216": 0,
      "217": 0,
      "218": 0,
      "219": 0,
      "220": 0,
      "221": 0,
      "222": 0,
      "223": 0,
      "224": 0,
      "225": 0,
      "226": 0,
      "227": 0,
      "228": 0,
      "229": 0,
      "230": 0,
      "231": 0,
      "232": 0,
      "233": 0,
      "234": 0,
      "235": 0,
      "236": 0,
      "237": 0,
      "238": 0,
      "239": 0,
      "240": 0,
      "241": 0,
      "242": 0,
      "243": 0,
      "244": 0,
      "245": 0,
      "246": 0,
      "247": 0,
      "248": 0,
      "249": 0,
      "250": 0,
      "251": 0,
      "252": 0,
      "253": 0,
      "254": 0,
      "255": 0,
      "256": 0,
      "257": 0,
      "258": 0,
      "259": 0,
      "260": 0,
      "261": 0,
      "262": 0,
      "263": 0,
      "264": 0,
      "265": 0,
      "266": 0,
      "267": 0,
      "268": 0,
      "269": 0,
      "270": 0,
      "271": 0,
      "272": 0,
      "273": 0,
      "274": 0,
      "275": 0,
      "276": 0,
      "277": 0,
      "278": 0,
      "279": 0,
      "280": 0,
      "281": 0,
      "282": 0,
      "283": 0,
      "284": 0,
      "285": 0,
      "286": 0,
      "287": 0,
      "288": 0,
      "289": 0,
      "290": 0,
      "291": 0,
      "292": 0,
      "293": 0,
      "294": 0,
      "295": 0,
      "296": 0,
      "297": 0,
      "298": 0,
      "299": 0,
      "300": 0,
      "301": 0,
      "302": 0,
      "303": 0,
      "304": 0,
      "305": 0,
      "306": 0,
      "307": 0,
      "308": 0,
      "309": 0,
      "310": 0,
      "311": 0,
      "312": 0,
      "313": 0,
      "314": 0,
      "315": 0,
      "316": 0,
      "317": 0,
      "318": 0,
      "319": 0,
      "320": 0,
      "321": 0,
      "322": 0,
      "323": 0,
      "324": 0,
      "325": 0,
      "326": 0,
      "327": 0,
      "328": 0,
      "329": 0,
      "330": 0,
      "331": 0,
      "332": 0,
      "333": 0,
      "334": 0,
      "335": 0,
      "336": 0,
      "337": 0,
      "338": 0,
      "339": 0,
      "340": 0,
      "341": 0,
      "342": 0,
      "343": 0,
      "344": 0,
      "345": 0,
      "346": 0,
      "347": 0,
      "348": 0,
      "349": 0,
      "350": 0,
      "351": 0,
      "352": 0,
      "353": 0,
      "354": 0,
      "355": 0,
      "356": 0,
      "357": 0,
      "358": 0,
      "359": 0,
      "360": 0,
      "361": 0,
      "362": 0,
      "363": 0,
      "364": 0,
      "365": 0,
      "366": 0,
      "367": 0,
      "368": 0,
      "369": 0,
      "370": 0,
      "371": 0,
      "372": 0,
      "373": 0,
      "374": 0,
      "375": 0,
      "376": 0,
      "377": 0,
      "378": 0,
      "379": 0,
      "380": 0,
      "381": 0,
      "382": 0,
      "383": 0,
      "384": 0,
      "385": 0,
      "386": 0,
      "387": 0,
      "388": 0,
      "389": 0,
      "390": 0,
      "391": 0,
      "392": 0,
      "393": 0,
      "394": 0,
      "395": 0,
      "396": 0,
      "397": 0,
      "398": 0,
      "399": 0,
      "400": 0,
      "401": 0,
      "402": 0,
      "403": 0,
      "404": 0,
      "405": 0,
      "406": 0,
      "407": 0,
      "408": 0,
      "409": 0,
      "410": 0,
      "411": 0,
      "412": 0,
      "413": 0,
      "414": 0,
      "415": 0,
      "416": 0,
      "417": 0,
      "418": 0,
      "419": 0,
      "420": 0,
      "421": 0,
      "422": 0,
      "423": 0,
      "424": 0,
      "425": 0,
      "426": 0,
      "427": 0,
      "428": 0,
      "429": 0,
      "430": 0,
      "431": 0,
      "432": 0,
      "433": 0,
      "434": 0,
      "435": 0,
      "436": 0,
      "437": 0,
      "438": 0,
      "439": 0,
      "440": 0,
      "441": 0,
      "442": 0,
      "443": 0,
      "444": 0,
      "445": 0,
      "446": 0,
      "447": 0,
      "448": 0,
      "449": 0,
      "450": 0,
      "451": 0,
      "452": 0,
      "453": 0,
      "454": 0,
      "455": 0,
      "456": 0,
      "457": 0,
      "458": 0,
      "459": 0,
      "460": 0,
      "461": 0,
      "462": 0,
      "463": 0,
      "464": 0,
      "465": 0,
      "466": 0,
      "467": 0,
      "468": 0,
      "469": 0,
      "470": 0,
      "471": 0,
      "472": 0,
      "473": 0,
      "474": 0,
      "475": 0,
      "476": 0,
      "477": 0,
      "478": 0,
      "479": 0,
      "480": 0,
      "481": 0,
      "482": 0,
      "483": 0,
      "484": 0,
      "485": 0,
      "486": 0,
      "487": 0,
      "488": 0,
      "489": 0,
      "490": 0,
      "491": 0,
      "492": 0,
      "493": 0,
      "494": 0,
      "495": 0,
      "496": 0,
      "497": 0,
      "498": 0,
      "499": 0,
      "500": 0,
      "501": 0,
      "502": 0,
      "503": 0,
      "504": 0,
      "505": 0,
      "506": 0,
      "507": 0,
      "508": 0,
      "509": 0,
      "510": 0,
      "511": 0,
      "512": 0,
      "513": 0,
      "514": 0,
      "515": 0,
      "516": 0,
      "517": 0,
      "518": 0,
      "519": 0,
      "520": 0,
      "521": 0,
      "522": 0,
      "523": 0,
      "524": 0,
      "525": 0,
      "526": 0,
      "527": 0,
      "528": 0,
      "529": 0,
      "530": 0,
      "531": 0,
      "532": 0,
      "533": 0,
      "534": 0,
      "535": 0,
      "536": 0,
      "537": 0,
      "538": 0,
      "539": 0,
      "540": 0,
      "541": 0,
      "542": 0,
      "543": 0,
      "544": 0,
      "545": 0,
      "546": 0,
      "547": 0,
      "548": 0,
      "549": 0,
      "550": 0,
      "551": 0,
      "552": 0,
      "553": 0,
      "554": 0,
      "555": 0,
      "556": 0,
      "557": 0,
      "558": 0,
      "559": 0,
      "560": 0,
      "561": 0,
      "562": 0,
      "563": 0,
      "564": 0,
      "565": 0,
      "566": 0,
      "567": 0,
      "568": 0,
      "569": 0,
      "570": 0,
      "571": 0,
      "572": 0,
      "573": 0,
      "574": 0,
      "575": 0,
      "576": 0,
      "577": 0,
      "578": 0,
      "579": 0,
      "580": 0,
      "581": 0,
      "582": 0,
      "583": 0,
      "584": 0,
      "585": 0,
      "586": 0,
      "587": 0,
      "588": 0,
      "589": 0,
      "590": 0,
      "591": 0,
      "592": 0,
      "593": 0,
      "594": 0,
      "595": 0,
      "596": 0,
      "597": 0,
      "598": 0,
      "599": 0,
      "600": 0,
      "601": 0,
      "602": 0,
      "603": 0,
      "604": 0,
      "605": 0,
      "606": 0,
      "607": 0,
      "608": 0,
      "609": 0,
      "610": 0,
      "611": 0,
      "612": 0,
      "613": 0,
      "614": 0,
      "615": 0,
      "616": 0,
      "617": 0,
      "618": 0,
      "619": 0,
      "620": 0,
      "621": 0,
      "622": 0,
      "623": 0,
      "624": 0,
      "625": 0,
      "626": 0,
      "627": 0,
      "628": 0,
      "629": 0,
      "630": 0,
      "631": 0,
      "632": 0,
      "633": 0,
      "634": 0,
      "635": 0,
      "636": 0,
      "637": 0,
      "638": 0,
      "639": 0,
      "640": 0,
      "641": 0,
      "642": 0,
      "643": 0,
      "644": 0,
      "645": 0,
      "646": 0,
      "647": 0,
      "648": 0,
      "649": 0,
      "650": 0,
      "651": 0,
      "652": 0,
      "653": 0,
      "654": 0,
      "655": 0,
      "656": 0,
      "657": 0,
      "658": 0,
      "659": 0,
      "660": 0,
      "661": 0,
      "662": 0,
      "663": 0,
      "664": 0,
      "665": 0,
      "666": 0,
      "667": 0,
      "668": 0,
      "669": 0,
      "670": 0,
      "671": 0,
      "672": 0,
      "673": 0,
      "674": 0,
      "675": 0,
      "676": 0,
      "677": 0,
      "678": 0,
      "679": 0,
      "680": 0,
      "681": 0,
      "682": 0,
      "683": 0,
      "684": 0,
      "685": 0,
      "686": 0,
      "687": 0,
      "688": 0,
      "689": 0,
      "690": 0,
      "691": 0,
      "692": 0,
      "693": 0,
      "694": 0,
      "695": 0,
      "696": 0,
      "697": 0,
      "698": 0,
      "699": 0,
      "700": 0,
      "701": 0,
      "702": 0,
      "703": 0,
      "704": 0,
      "705": 0,
      "706": 0,
      "707": 0,
      "708": 0,
      "709": 0,
      "710": 0,
      "711": 0,
      "712": 0,
      "713": 0,
      "714": 0,
      "715": 0,
      "716": 0,
      "717": 0,
      "718": 0,
      "719": 0,
      "720": 0,
      "721": 0,
      "722": 0,
      "723": 0,
      "724": 0,
      "725": 0,
      "726": 0,
      "727": 0,
      "728": 0,
      "729": 0,
      "730": 0,
      "731": 0,
      "732": 0,
      "733": 0,
      "734": 0,
      "735": 0,
      "736": 0,
      "737": 0,
      "738": 0,
      "739": 0,
      "740": 0,
      "741": 0,
      "742": 0,
      "743": 0,
      "744": 0,
      "745": 0,
      "746": 0,
      "747": 0,
      "748": 0,
      "749": 0,
      "750": 0,
      "751": 0,
      "752": 0,
      "753": 0,
      "754": 0,
      "755": 0,
      "756": 0,
      "757": 0,
      "758": 0,
      "759": 0,
      "760": 0,
      "761": 0,
      "762": 0,
      "763": 0,
      "764": 0,
      "765": 0,
      "766": 0,
      "767": 0,
      "768": 0,
      "769": 0,
      "770": 0,
      "771": 0,
      "772": 0,
      "773": 0,
      "774": 0,
      "775": 0,
      "776": 0,
      "777": 0,
      "778": 0,
      "779": 0,
      "780": 0,
      "781": 0,
      "782": 0,
      "783": 0,
      "784": 0,
      "785": 0,
      "786": 0,
      "787": 0,
      "788": 0,
      "789": 0,
      "790": 0,
      "791": 0,
      "792": 0,
      "793": 0,
      "794": 0,
      "795": 0,
      "796": 0,
      "797": 0,
      "798": 0,
      "799": 0,
      "800": 0,
      "801": 0,
      "802": 0,
      "803": 0,
      "804": 0,
      "805": 0,
      "806": 0,
      "807": 0,
      "808": 0,
      "809": 0,
      "810": 0,
      "811": 0,
      "812": 0,
      "813": 0,
      "814": 0,
      "815": 0,
      "816": 0,
      "817": 0,
      "818": 0,
      "819": 0,
      "820": 0,
      "821": 0,
      "822": 0,
      "823": 0,
      "824": 0,
      "825": 0,
      "826": 0,
      "827": 0,
      "828": 0,
      "829": 0,
      "830": 0,
      "831": 0,
      "832": 0,
      "833": 0,
      "834": 0,
      "835": 0,
      "836": 0,
      "837": 0
     }
    },
    {
     "sx": 1,
     "sy": 1,
     "depth": 838,
     "w": {
      "0": 0,
      "1": 0,
      "2": 0,
      "3": 0,
      "4": 0,
      "5": 0,
      "6": 0,
      "7": 0,
      "8": 0,
      "9": 0,
      "10": 0,
      "11": 0,
      "12": 0,
      "13": 0,
      "14": 0,
      "15": 0,
      "16": 0,
      "17": 0,
      "18": 0,
      "19": 0,
      "20": 0,
      "21": 0,
      "22": 0,
      "23": 0,
      "24": 0,
      "25": 0,
      "26": 0,
      "27": 0,
      "28": 0,
      "29": 0,
      "30": 0,
      "31": 0,
      "32": 0,
      "33": 0,
      "34": 0,
      "35": 0,
      "36": 0,
      "37": 0,
      "38": 0,
      "39": 0,
      "40": 0,
      "41": 0,
      "42": 0,
      "43": 0,
      "44": 0,
      "45": 0,
      "46": 0,
      "47": 0,
      "48": 0,
      "49": 0,
      "50": 0,
      "51": 0,
      "52": 0,
      "53": 0,
      "54": 0,
      "55": 0,
      "56": 0,
      "57": 0,
      "58": 0,
      "59": 0,
      "60": 0,
      "61": 0,
      "62": 0,
      "63": 0,
      "64": 0,
      "65": 0,
      "66": 0,
      "67": 0,
      "68": 0,
      "69": 0,
      "70": 0,
      "71": 0,
      "72": 0,
      "73": 0,
      "74": 0,
      "75": 0,
      "76": 0,
      "77": 0,
      "78": 0,
      "79": 0,
      "80": 0,
      "81": 0,
      "82": 0,
      "83": 0,
      "84": 0,
      "85": 0,
      "86": 0,
      "87": 0,
      "88": 0,
      "89": 0,
      "90": 0,
      "91": 0,
      "92": 0,
      "93": 0,
      "94": 0,
      "95": 0,
      "96": 0,
      "97": 0,
      "98": 0,
      "99": 0,
      "100": 0,
      "101": 0,
      "102": 0,
      "103": 0,
      "104": 0,
      "105": 0,
      "106": 0,
      "107": 0,
      "108": 0,
      "109": 0,
      "110": 0,
      "111": 0,
      "112": 0,
      "113": 0,
      "114": 0,
      "115": 0,
      "116": 0,
      "117": 0,
      "118": 0,
      "119": 0,
      "120": 0,
      "121": 0,
      "122": 0,
      "123": 0,
      "124": 0,
      "125": 0,
      "126": 0,
      "127": 0,
      "128": 0,
      "129": 0,
      "130": 0,
      "131": 0,
      "132": 0,
      "133": 0,
      "134": 0,
      "135": 0,
      "136": 0,
      "137": 0,
      "138": 0,
      "139": 0,
      "140": 0,
      "141": 0,
      "142": 0,
      "143": 0,
      "144": 0,
      "145": 0,
      "146": 0,
      "147": 0,
      "148": 0,
      "149": 0,
      "150": 0,
      "151": 0,
      "152": 0,
      "153": 0,
      "154": 0,
      "155": 0,
      "156": 0,
      "157": 0,
      "158": 0,
      "159": 0,
      "160": 0,
      "161": 0,
      "162": 0,
      "163": 0,
      "164": 0,
      "165": 0,
      "166": 0,
      "167": 0,
      "168": 0,
      "169": 0,
      "170": 0,
      "171": 0,
      "172": 0,
      "173": 0,
      "174": 0,
      "175": 0,
      "176": 0,
      "177": 0,
      "178": 0,
      "179": 0,
      "180": 0,
      "181": 0,
      "182": 0,
      "183": 0,
      "184": 0,
      "185": 0,
      "186": 0,
      "187": 0,
      "188": 0,
      "189": 0,
      "190": 0,
      "191": 0,
      "192": 0,
      "193": 0,
      "194": 0,
      "195": 0,
      "196": 0,
      "197": 0,
      "198": 0,
      "199": 0,
      "200": 0,
      "201": 0,
      "202": 0,
      "203": 0,
      "204": 0,
      "205": 0,
      "206": 0,
      "207": 0,
      "208": 0,
      "209": 0,
      "210": 0,
      "211": 0,
      "212": 0,
      "213": 0,
      "214": 0,
      "215": 0,
      "216": 0,
      "217": 0,
      "218": 0,
      "219": 0,
      "220": 0,
      "221": 0,
      "222": 0,
      "223": 0,
      "224": 0,
      "225": 0,
      "226": 0,
      "227": 0,
      "228": 0,
      "229": 0,
      "230": 0,
      "231": 0,
      "232": 0,
      "233": 0,
      "234": 0,
      "235": 0,
      "236": 0,
      "237": 0,
      "238": 0,
      "239": 0,
      "240": 0,
      "241": 0,
      "242": 0,
      "243": 0,
      "244": 0,
      "245": 0,
      "246": 0,
      "247": 0,
      "248": 0,
      "249": 0,
      "250": 0,
      "251": 0,
      "252": 0,
      "253": 0,
      "254": 0,
      "255": 0,
      "256": 0,
      "257": 0,
      "258": 0,
      "259": 0,
      "260": 0,
      "261": 0,
      "262": 0,
      "263": 0,
      "264": 0,
      "265": 0,
      "266": 0,
      "267": 0,
      "268": 0,
      "269": 0,
      "270": 0,
      "271": 0,
      "272": 0,
      "273": 0,
      "274": 0,
      "275": 0,
      "276": 0,
      "277": 0,
      "278": 0,
      "279": 0,
      "280": 0,
      "281": 0,
      "282": 0,
      "283": 0,
      "284": 0,
      "285": 0,
      "286": 0,
      "287": 0,
      "288": 0,
      "289": 0,
      "290": 0,
      "291": 0,
      "292": 0,
      "293": 0,
      "294": 0,
      "295": 0,
      "296": 0,
      "297": 0,
      "298": 0,
      "299": 0,
      "300": 0,
      "301": 0,
      "302": 0,
      "303": 0,
      "304": 0,
      "305": 0,
      "306": 0,
      "307": 0,
      "308": 0,
      "309": 0,
      "310": 0,
      "311": 0,
      "312": 0,
      "313": 0,
      "314": 0,
      "315": 0,
      "316": 0,
      "317": 0,
      "318": 0,
      "319": 0,
      "320": 0,
      "321": 0,
      "322": 0,
      "323": 0,
      "324": 0,
      "325": 0,
      "326": 0,
      "327": 0,
      "328": 0,
      "329": 0,
      "330": 0,
      "331": 0,
      "332": 0,
      "333": 0,
      "334": 0,
      "335": 0,
      "336": 0,
      "337": 0,
      "338": 0,
      "339": 0,
      "340": 0,
      "341": 0,
      "342": 0,
      "343": 0,
      "344": 0,
      "345": 0,
      "346": 0,
      "347": 0,
      "348": 0,
      "349": 0,
      "350": 0,
      "351": 0,
      "352": 0,
      "353": 0,
      "354": 0,
      "355": 0,
      "356": 0,
      "357": 0,
      "358": 0,
      "359": 0,
      "360": 0,
      "361": 0,
      "362": 0,
      "363": 0,
      "364": 0,
      "365": 0,
      "366": 0,
      "367": 0,
      "368": 0,
      "369": 0,
      "370": 0,
      "371": 0,
      "372": 0,
      "373": 0,
      "374": 0,
      "375": 0,
      "376": 0,
      "377": 0,
      "378": 0,
      "379": 0,
      "380": 0,
      "381": 0,
      "382": 0,
      "383": 0,
      "384": 0,
      "385": 0,
      "386": 0,
      "387": 0,
      "388": 0,
      "389": 0,
      "390": 0,
      "391": 0,
      "392": 0,
      "393": 0,
      "394": 0,
      "395": 0,
      "396": 0,
      "397": 0,
      "398": 0,
      "399": 0,
      "400": 0,
      "401": 0,
      "402": 0,
      "403": 0,
      "404": 0,
      "405": 0,
      "406": 0,
      "407": 0,
      "408": 0,
      "409": 0,
      "410": 0,
      "411": 0,
      "412": 0,
      "413": 0,
      "414": 0,
      "415": 0,
      "416": 0,
      "417": 0,
      "418": 0,
      "419": 0,
      "420": 0,
      "421": 0,
      "422": 0,
      "423": 0,
      "424": 0,
      "425": 0,
      "426": 0,
      "427": 0,
      "428": 0,
      "429": 0,
      "430": 0,
      "431": 0,
      "432": 0,
      "433": 0,
      "434": 0,
      "435": 0,
      "436": 0,
      "437": 0,
      "438": 0,
      "439": 0,
      "440": 0,
      "441": 0,
      "442": 0,
      "443": 0,
      "444": 0,
      "445": 0,
      "446": 0,
      "447": 0,
      "448": 0,
      "449": 0,
      "450": 0,
      "451": 0,
      "452": 0,
      "453": 0,
      "454": 0,
      "455": 0,
      "456": 0,
      "457": 0,
      "458": 0,
      "459": 0,
      "460": 0,
      "461": 0,
      "462": 0,
      "463": 0,
      "464": 0,
      "465": 0,
      "466": 0,
      "467": 0,
      "468": 0,
      "469": 0,
      "470": 0,
      "471": 0,
      "472": 0,
      "473": 0,
      "474": 0,
      "475": 0,
      "476": 0,
      "477": 0,
      "478": 0,
      "479": 0,
      "480": 0,
      "481": 0,
      "482": 0,
      "483": 0,
      "484": 0,
      "485": 0,
      "486": 0,
      "487": 0,
      "488": 0,
      "489": 0,
      "490": 0,
      "491": 0,
      "492": 0,
      "493": 0,
      "494": 0,
      "495": 0,
      "496": 0,
      "497": 0,
      "498": 0,
      "499": 0,
      "500": 0,
      "501": 0,
      "502": 0,
      "503": 0,
      "504": 0,
      "505": 0,
      "506": 0,
      "507": 0,
      "508": 0,
      "509": 0,
      "510": 0,
      "511": 0,
      "512": 0,
      "513": 0,
      "514": 0,
      "515": 0,
      "516": 0,
      "517": 0,
      "518": 0,
      "519": 0,
      "520": 0,
      "521": 0,
      "522": 0,
      "523": 0,
      "524": 0,
      "525": 0,
      "526": 0,
      "527": 0,
      "528": 0,
      "529": 0,
      "530": 0,
      "531": 0,
      "532": 0,
      "533": 0,
      "534": 0,
      "535": 0,
      "536": 0,
      "537": 0,
      "538": 0,
      "539": 0,
      "540": 0,
      "541": 0,
      "542": 0,
      "543": 0,
      "544": 0,
      "545": 0,
      "546": 0,
      "547": 0,
      "548": 0,
      "549": 0,
      "550": 0,
      "551": 0,
      "552": 0,
      "553": 0,
      "554": 0,
      "555": 0,
      "556": 0,
      "557": 0,
      "558": 0,
      "559": 0,
      "560": 0,
      "561": 0,
      "562": 0,
      "563": 0,
      "564": 0,
      "565": 0,
      "566": 0,
      "567": 0,
      "568": 0,
      "569": 0,
      "570": 0,
      "571": 0,
      "572": 0,
      "573": 0,
      "574": 0,
      "575": 0,
      "576": 0,
      "577": 0,
      "578": 0,
      "579": 0,
      "580": 0,
      "581": 0,
      "582": 0,
      "583": 0,
      "584": 0,
      "585": 0,
      "586": 0,
      "587": 0,
      "588": 0,
      "589": 0,
      "590": 0,
      "591": 0,
      "592": 0,
      "593": 0,
      "594": 0,
      "595": 0,
      "596": 0,
      "597": 0,
      "598": 0,
      "599": 0,
      "600": 0,
      "601": 0,
      "602": 0,
      "603": 0,
      "604": 0,
      "605": 0,
      "606": 0,
      "607": 0,
      "608": 0,
      "609": 0,
      "610": 0,
      "611": 0,
      "612": 0,
      "613": 0,
      "614": 0,
      "615": 0,
      "616": 0,
      "617": 0,
      "618": 0,
      "619": 0,
      "620": 0,
      "621": 0,
      "622": 0,
      "623": 0,
      "624": 0,
      "625": 0,
      "626": 0,
      "627": 0,
      "628": 0,
      "629": 0,
      "630": 0,
      "631": 0,
      "632": 0,
      "633": 0,
      "634": 0,
      "635": 0,
      "636": 0,
      "637": 0,
      "638": 0,
      "639": 0,
      "640": 0,
      "641": 0,
      "642": 0,
      "643": 0,
      "644": 0,
      "645": 0,
      "646": 0,
      "647": 0,
      "648": 0,
      "649": 0,
      "650": 0,
      "651": 0,
      "652": 0,
      "653": 0,
      "654": 0,
      "655": 0,
      "656": 0,
      "657": 0,
      "658": 0,
      "659": 0,
      "660": 0,
      "661": 0,
      "662": 0,
      "663": 0,
      "664": 0,
      "665": 0,
      "666": 0,
      "667": 0,
      "668": 0,
      "669": 0,
      "670": 0,
      "671": 0,
      "672": 0,
      "673": 0,
      "674": 0,
      "675": 0,
      "676": 0,
      "677": 0,
      "678": 0,
      "679": 0,
      "680": 0,
      "681": 0,
      "682": 0,
      "683": 0,
      "684": 0,
      "685": 0,
      "686": 0,
      "687": 0,
      "688": 0,
      "689": 0,
      "690": 0,
      "691": 0,
      "692": 0,
      "693": 0,
      "694": 0,
      "695": 0,
      "696": 0,
      "697": 0,
      "698": 0,
      "699": 0,
      "700": 0,
      "701": 0,
      "702": 0,
      "703": 0,
      "704": 0,
      "705": 0,
      "706": 0,
      "707": 0,
      "708": 0,
      "709": 0,
      "710": 0,
      "711": 0,
      "712": 0,
      "713": 0,
      "714": 0,
      "715": 0,
      "716": 0,
      "717": 0,
      "718": 0,
      "719": 0,
      "720": 0,
      "721": 0,
      "722": 0,
      "723": 0,
      "724": 0,
      "725": 0,
      "726": 0,
      "727": 0,
      "728": 0,
      "729": 0,
      "730": 0,
      "731": 0,
      "732": 0,
      "733": 0,
      "734": 0,
      "735": 0,
      "736": 0,
      "737": 0,
      "738": 0,
      "739": 0,
      "740": 0,
      "741": 0,
      "742": 0,
      "743": 0,
      "744": 0,
      "745": 0,
      "746": 0,
      "747": 0,
      "748": 0,
      "749": 0,
      "750": 0,
      "751": 0,
      "752": 0,
      "753": 0,
      "754": 0,
      "755": 0,
      "756": 0,
      "757": 0,
      "758": 0,
      "759": 0,
      "760": 0,
      "761": 0,
      "762": 0,
      "763": 0,
      "764": 0,
      "765": 0,
      "766": 0,
      "767": 0,
      "768": 0,
      "769": 0,
      "770": 0,
      "771": 0,
      "772": 0,
      "773": 0,
      "774": 0,
      "775": 0,
      "776": 0,
      "777": 0,
      "778": 0,
      "779": 0,
      "780": 0,
      "781": 0,
      "782": 0,
      "783": 0,
      "784": 0,
      "785": 0,
      "786": 0,
      "787": 0,
      "788": 0,
      "789": 0,
      "790": 0,
      "791": 0,
      "792": 0,
      "793": 0,
      "794": 0,
      "795": 0,
      "796": 0,
      "797": 0,
      "798": 0,
      "799": 0,
      "800": 0,
      "801": 0,
      "802": 0,
      "803": 0,
      "804": 0,
      "805": 0,
      "806": 0,
      "807": 0,
      "808": 0,
      "809": 0,
      "810": 0,
      "811": 0,
      "812": 0,
      "813": 0,
      "814": 0,
      "815": 0,
      "816": 0,
      "817": 0,
      "818": 0,
      "819": 0,
      "820": 0,
      "821": 0,
      "822": 0,
      "823": 0,
      "824": 0,
      "825": 0,
      "826": 0,
      "827": 0,
      "828": 0,
      "829": 0,
      "830": 0,
      "831": 0,
      "832": 0,
      "833": 0,
      "834": 0,
      "835": 0,
      "836": 0,
      "837": 0
     }
    },
    {
     "sx": 1,
     "sy": 1,
     "depth": 838,
     "w": {
      "0": 0,
      "1": 0,
      "2": 0,
      "3": 0,
      "4": 0,
      "5": 0,
      "6": 0,
      "7": 0,
      "8": 0,
      "9": 0,
      "10": 0,
      "11": 0,
      "12": 0,
      "13": 0,
      "14": 0,
      "15": 0,
      "16": 0,
      "17": 0,
      "18": 0,
      "19": 0,
      "20": 0,
      "21": 0,
      "22": 0,
      "23": 0,
      "24": 0,
      "25": 0,
      "26": 0,
      "27": 0,
      "28": 0,
      "29": 0,
      "30": 0,
      "31": 0,
      "32": 0,
      "33": 0,
      "34": 0,
      "35": 0,
      "36": 0,
      "37": 0,
      "38": 0,
      "39": 0,
      "40": 0,
      "41": 0,
      "42": 0,
      "43": 0,
      "44": 0,
      "45": 0,
      "46": 0,
      "47": 0,
      "48": 0,
      "49": 0,
      "50": 0,
      "51": 0,
      "52": 0,
      "53": 0,
      "54": 0,
      "55": 0,
      "56": 0,
      "57": 0,
      "58": 0,
      "59": 0,
      "60": 0,
      "61": 0,
      "62": 0,
      "63": 0,
      "64": 0,
      "65": 0,
      "66": 0,
      "67": 0,
      "68": 0,
      "69": 0,
      "70": 0,
      "71": 0,
      "72": 0,
      "73": 0,
      "74": 0,
      "75": 0,
      "76": 0,
      "77": 0,
      "78": 0,
      "79": 0,
      "80": 0,
      "81": 0,
      "82": 0,
      "83": 0,
      "84": 0,
      "85": 0,
      "86": 0,
      "87": 0,
      "88": 0,
      "89": 0,
      "90": 0,
      "91": 0,
      "92": 0,
      "93": 0,
      "94": 0,
      "95": 0,
      "96": 0,
      "97": 0,
      "98": 0,
      "99": 0,
      "100": 0,
      "101": 0,
      "102": 0,
      "103": 0,
      "104": 0,
      "105": 0,
      "106": 0,
      "107": 0,
      "108": 0,
      "109": 0,
      "110": 0,
      "111": 0,
      "112": 0,
      "113": 0,
      "114": 0,
      "115": 0,
      "116": 0,
      "117": 0,
      "118": 0,
      "119": 0,
      "120": 0,
      "121": 0,
      "122": 0,
      "123": 0,
      "124": 0,
      "125": 0,
      "126": 0,
      "127": 0,
      "128": 0,
      "129": 0,
      "130": 0,
      "131": 0,
      "132": 0,
      "133": 0,
      "134": 0,
      "135": 0,
      "136": 0,
      "137": 0,
      "138": 0,
      "139": 0,
      "140": 0,
      "141": 0,
      "142": 0,
      "143": 0,
      "144": 0,
      "145": 0,
      "146": 0,
      "147": 0,
      "148": 0,
      "149": 0,
      "150": 0,
      "151": 0,
      "152": 0,
      "153": 0,
      "154": 0,
      "155": 0,
      "156": 0,
      "157": 0,
      "158": 0,
      "159": 0,
      "160": 0,
      "161": 0,
      "162": 0,
      "163": 0,
      "164": 0,
      "165": 0,
      "166": 0,
      "167": 0,
      "168": 0,
      "169": 0,
      "170": 0,
      "171": 0,
      "172": 0,
      "173": 0,
      "174": 0,
      "175": 0,
      "176": 0,
      "177": 0,
      "178": 0,
      "179": 0,
      "180": 0,
      "181": 0,
      "182": 0,
      "183": 0,
      "184": 0,
      "185": 0,
      "186": 0,
      "187": 0,
      "188": 0,
      "189": 0,
      "190": 0,
      "191": 0,
      "192": 0,
      "193": 0,
      "194": 0,
      "195": 0,
      "196": 0,
      "197": 0,
      "198": 0,
      "199": 0,
      "200": 0,
      "201": 0,
      "202": 0,
      "203": 0,
      "204": 0,
      "205": 0,
      "206": 0,
      "207": 0,
      "208": 0,
      "209": 0,
      "210": 0,
      "211": 0,
      "212": 0,
      "213": 0,
      "214": 0,
      "215": 0,
      "216": 0,
      "217": 0,
      "218": 0,
      "219": 0,
      "220": 0,
      "221": 0,
      "222": 0,
      "223": 0,
      "224": 0,
      "225": 0,
      "226": 0,
      "227": 0,
      "228": 0,
      "229": 0,
      "230": 0,
      "231": 0,
      "232": 0,
      "233": 0,
      "234": 0,
      "235": 0,
      "236": 0,
      "237": 0,
      "238": 0,
      "239": 0,
      "240": 0,
      "241": 0,
      "242": 0,
      "243": 0,
      "244": 0,
      "245": 0,
      "246": 0,
      "247": 0,
      "248": 0,
      "249": 0,
      "250": 0,
      "251": 0,
      "252": 0,
      "253": 0,
      "254": 0,
      "255": 0,
      "256": 0,
      "257": 0,
      "258": 0,
      "259": 0,
      "260": 0,
      "261": 0,
      "262": 0,
      "263": 0,
      "264": 0,
      "265": 0,
      "266": 0,
      "267": 0,
      "268": 0,
      "269": 0,
      "270": 0,
      "271": 0,
      "272": 0,
      "273": 0,
      "274": 0,
      "275": 0,
      "276": 0,
      "277": 0,
      "278": 0,
      "279": 0,
      "280": 0,
      "281": 0,
      "282": 0,
      "283": 0,
      "284": 0,
      "285": 0,
      "286": 0,
      "287": 0,
      "288": 0,
      "289": 0,
      "290": 0,
      "291": 0,
      "292": 0,
      "293": 0,
      "294": 0,
      "295": 0,
      "296": 0,
      "297": 0,
      "298": 0,
      "299": 0,
      "300": 0,
      "301": 0,
      "302": 0,
      "303": 0,
      "304": 0,
      "305": 0,
      "306": 0,
      "307": 0,
      "308": 0,
      "309": 0,
      "310": 0,
      "311": 0,
      "312": 0,
      "313": 0,
      "314": 0,
      "315": 0,
      "316": 0,
      "317": 0,
      "318": 0,
      "319": 0,
      "320": 0,
      "321": 0,
      "322": 0,
      "323": 0,
      "324": 0,
      "325": 0,
      "326": 0,
      "327": 0,
      "328": 0,
      "329": 0,
      "330": 0,
      "331": 0,
      "332": 0,
      "333": 0,
      "334": 0,
      "335": 0,
      "336": 0,
      "337": 0,
      "338": 0,
      "339": 0,
      "340": 0,
      "341": 0,
      "342": 0,
      "343": 0,
      "344": 0,
      "345": 0,
      "346": 0,
      "347": 0,
      "348": 0,
      "349": 0,
      "350": 0,
      "351": 0,
      "352": 0,
      "353": 0,
      "354": 0,
      "355": 0,
      "356": 0,
      "357": 0,
      "358": 0,
      "359": 0,
      "360": 0,
      "361": 0,
      "362": 0,
      "363": 0,
      "364": 0,
      "365": 0,
      "366": 0,
      "367": 0,
      "368": 0,
      "369": 0,
      "370": 0,
      "371": 0,
      "372": 0,
      "373": 0,
      "374": 0,
      "375": 0,
      "376": 0,
      "377": 0,
      "378": 0,
      "379": 0,
      "380": 0,
      "381": 0,
      "382": 0,
      "383": 0,
      "384": 0,
      "385": 0,
      "386": 0,
      "387": 0,
      "388": 0,
      "389": 0,
      "390": 0,
      "391": 0,
      "392": 0,
      "393": 0,
      "394": 0,
      "395": 0,
      "396": 0,
      "397": 0,
      "398": 0,
      "399": 0,
      "400": 0,
      "401": 0,
      "402": 0,
      "403": 0,
      "404": 0,
      "405": 0,
      "406": 0,
      "407": 0,
      "408": 0,
      "409": 0,
      "410": 0,
      "411": 0,
      "412": 0,
      "413": 0,
      "414": 0,
      "415": 0,
      "416": 0,
      "417": 0,
      "418": 0,
      "419": 0,
      "420": 0,
      "421": 0,
      "422": 0,
      "423": 0,
      "424": 0,
      "425": 0,
      "426": 0,
      "427": 0,
      "428": 0,
      "429": 0,
      "430": 0,
      "431": 0,
      "432": 0,
      "433": 0,
      "434": 0,
      "435": 0,
      "436": 0,
      "437": 0,
      "438": 0,
      "439": 0,
      "440": 0,
      "441": 0,
      "442": 0,
      "443": 0,
      "444": 0,
      "445": 0,
      "446": 0,
      "447": 0,
      "448": 0,
      "449": 0,
      "450": 0,
      "451": 0,
      "452": 0,
      "453": 0,
      "454": 0,
      "455": 0,
      "456": 0,
      "457": 0,
      "458": 0,
      "459": 0,
      "460": 0,
      "461": 0,
      "462": 0,
      "463": 0,
      "464": 0,
      "465": 0,
      "466": 0,
      "467": 0,
      "468": 0,
      "469": 0,
      "470": 0,
      "471": 0,
      "472": 0,
      "473": 0,
      "474": 0,
      "475": 0,
      "476": 0,
      "477": 0,
      "478": 0,
      "479": 0,
      "480": 0,
      "481": 0,
      "482": 0,
      "483": 0,
      "484": 0,
      "485": 0,
      "486": 0,
      "487": 0,
      "488": 0,
      "489": 0,
      "490": 0,
      "491": 0,
      "492": 0,
      "493": 0,
      "494": 0,
      "495": 0,
      "496": 0,
      "497": 0,
      "498": 0,
      "499": 0,
      "500": 0,
      "501": 0,
      "502": 0,
      "503": 0,
      "504": 0,
      "505": 0,
      "506": 0,
      "507": 0,
      "508": 0,
      "509": 0,
      "510": 0,
      "511": 0,
      "512": 0,
      "513": 0,
      "514": 0,
      "515": 0,
      "516": 0,
      "517": 0,
      "518": 0,
      "519": 0,
      "520": 0,
      "521": 0,
      "522": 0,
      "523": 0,
      "524": 0,
      "525": 0,
      "526": 0,
      "527": 0,
      "528": 0,
      "529": 0,
      "530": 0,
      "531": 0,
      "532": 0,
      "533": 0,
      "534": 0,
      "535": 0,
      "536": 0,
      "537": 0,
      "538": 0,
      "539": 0,
      "540": 0,
      "541": 0,
      "542": 0,
      "543": 0,
      "544": 0,
      "545": 0,
      "546": 0,
      "547": 0,
      "548": 0,
      "549": 0,
      "550": 0,
      "551": 0,
      "552": 0,
      "553": 0,
      "554": 0,
      "555": 0,
      "556": 0,
      "557": 0,
      "558": 0,
      "559": 0,
      "560": 0,
      "561": 0,
      "562": 0,
      "563": 0,
      "564": 0,
      "565": 0,
      "566": 0,
      "567": 0,
      "568": 0,
      "569": 0,
      "570": 0,
      "571": 0,
      "572": 0,
      "573": 0,
      "574": 0,
      "575": 0,
      "576": 0,
      "577": 0,
      "578": 0,
      "579": 0,
      "580": 0,
      "581": 0,
      "582": 0,
      "583": 0,
      "584": 0,
      "585": 0,
      "586": 0,
      "587": 0,
      "588": 0,
      "589": 0,
      "590": 0,
      "591": 0,
      "592": 0,
      "593": 0,
      "594": 0,
      "595": 0,
      "596": 0,
      "597": 0,
      "598": 0,
      "599": 0,
      "600": 0,
      "601": 0,
      "602": 0,
      "603": 0,
      "604": 0,
      "605": 0,
      "606": 0,
      "607": 0,
      "608": 0,
      "609": 0,
      "610": 0,
      "611": 0,
      "612": 0,
      "613": 0,
      "614": 0,
      "615": 0,
      "616": 0,
      "617": 0,
      "618": 0,
      "619": 0,
      "620": 0,
      "621": 0,
      "622": 0,
      "623": 0,
      "624": 0,
      "625": 0,
      "626": 0,
      "627": 0,
      "628": 0,
      "629": 0,
      "630": 0,
      "631": 0,
      "632": 0,
      "633": 0,
      "634": 0,
      "635": 0,
      "636": 0,
      "637": 0,
      "638": 0,
      "639": 0,
      "640": 0,
      "641": 0,
      "642": 0,
      "643": 0,
      "644": 0,
      "645": 0,
      "646": 0,
      "647": 0,
      "648": 0,
      "649": 0,
      "650": 0,
      "651": 0,
      "652": 0,
      "653": 0,
      "654": 0,
      "655": 0,
      "656": 0,
      "657": 0,
      "658": 0,
      "659": 0,
      "660": 0,
      "661": 0,
      "662": 0,
      "663": 0,
      "664": 0,
      "665": 0,
      "666": 0,
      "667": 0,
      "668": 0,
      "669": 0,
      "670": 0,
      "671": 0,
      "672": 0,
      "673": 0,
      "674": 0,
      "675": 0,
      "676": 0,
      "677": 0,
      "678": 0,
      "679": 0,
      "680": 0,
      "681": 0,
      "682": 0,
      "683": 0,
      "684": 0,
      "685": 0,
      "686": 0,
      "687": 0,
      "688": 0,
      "689": 0,
      "690": 0,
      "691": 0,
      "692": 0,
      "693": 0,
      "694": 0,
      "695": 0,
      "696": 0,
      "697": 0,
      "698": 0,
      "699": 0,
      "700": 0,
      "701": 0,
      "702": 0,
      "703": 0,
      "704": 0,
      "705": 0,
      "706": 0,
      "707": 0,
      "708": 0,
      "709": 0,
      "710": 0,
      "711": 0,
      "712": 0,
      "713": 0,
      "714": 0,
      "715": 0,
      "716": 0,
      "717": 0,
      "718": 0,
      "719": 0,
      "720": 0,
      "721": 0,
      "722": 0,
      "723": 0,
      "724": 0,
      "725": 0,
      "726": 0,
      "727": 0,
      "728": 0,
      "729": 0,
      "730": 0,
      "731": 0,
      "732": 0,
      "733": 0,
      "734": 0,
      "735": 0,
      "736": 0,
      "737": 0,
      "738": 0,
      "739": 0,
      "740": 0,
      "741": 0,
      "742": 0,
      "743": 0,
      "744": 0,
      "745": 0,
      "746": 0,
      "747": 0,
      "748": 0,
      "749": 0,
      "750": 0,
      "751": 0,
      "752": 0,
      "753": 0,
      "754": 0,
      "755": 0,
      "756": 0,
      "757": 0,
      "758": 0,
      "759": 0,
      "760": 0,
      "761": 0,
      "762": 0,
      "763": 0,
      "764": 0,
      "765": 0,
      "766": 0,
      "767": 0,
      "768": 0,
      "769": 0,
      "770": 0,
      "771": 0,
      "772": 0,
      "773": 0,
      "774": 0,
      "775": 0,
      "776": 0,
      "777": 0,
      "778": 0,
      "779": 0,
      "780": 0,
      "781": 0,
      "782": 0,
      "783": 0,
      "784": 0,
      "785": 0,
      "786": 0,
      "787": 0,
      "788": 0,
      "789": 0,
      "790": 0,
      "791": 0,
      "792": 0,
      "793": 0,
      "794": 0,
      "795": 0,
      "796": 0,
      "797": 0,
      "798": 0,
      "799": 0,
      "800": 0,
      "801": 0,
      "802": 0,
      "803": 0,
      "804": 0,
      "805": 0,
      "806": 0,
      "807": 0,
      "808": 0,
      "809": 0,
      "810": 0,
      "811": 0,
      "812": 0,
      "813": 0,
      "814": 0,
      "815": 0,
      "816": 0,
      "817": 0,
      "818": 0,
      "819": 0,
      "820": 0,
      "821": 0,
      "822": 0,
      "823": 0,
      "824": 0,
      "825": 0,
      "826": 0,
      "827": 0,
      "828": 0,
      "829": 0,
      "830": 0,
      "831": 0,
      "832": 0,
      "833": 0,
      "834": 0,
      "835": 0,
      "836": 0,
      "837": 0
     }
    },
    {
     "sx": 1,
     "sy": 1,
     "depth": 838,
     "w": {
      "0": 0,
      "1": 0,
      "2": 0,
      "3": 0,
      "4": 0,
      "5": 0,
      "6": 0,
      "7": 0,
      "8": 0,
      "9": 0,
      "10": 0,
      "11": 0,
      "12": 0,
      "13": 0,
      "14": 0,
      "15": 0,
      "16": 0,
      "17": 0,
      "18": 0,
      "19": 0,
      "20": 0,
      "21": 0,
      "22": 0,
      "23": 0,
      "24": 0,
      "25": 0,
      "26": 0,
      "27": 0,
      "28": 0,
      "29": 0,
      "30": 0,
      "31": 0,
      "32": 0,
      "33": 0,
      "34": 0,
      "35": 0,
      "36": 0,
      "37": 0,
      "38": 0,
      "39": 0,
      "40": 0,
      "41": 0,
      "42": 0,
      "43": 0,
      "44": 0,
      "45": 0,
      "46": 0,
      "47": 0,
      "48": 0,
      "49": 0,
      "50": 0,
      "51": 0,
      "52": 0,
      "53": 0,
      "54": 0,
      "55": 0,
      "56": 0,
      "57": 0,
      "58": 0,
      "59": 0,
      "60": 0,
      "61": 0,
      "62": 0,
      "63": 0,
      "64": 0,
      "65": 0,
      "66": 0,
      "67": 0,
      "68": 0,
      "69": 0,
      "70": 0,
      "71": 0,
      "72": 0,
      "73": 0,
      "74": 0,
      "75": 0,
      "76": 0,
      "77": 0,
      "78": 0,
      "79": 0,
      "80": 0,
      "81": 0,
      "82": 0,
      "83": 0,
      "84": 0,
      "85": 0,
      "86": 0,
      "87": 0,
      "88": 0,
      "89": 0,
      "90": 0,
      "91": 0,
      "92": 0,
      "93": 0,
      "94": 0,
      "95": 0,
      "96": 0,
      "97": 0,
      "98": 0,
      "99": 0,
      "100": 0,
      "101": 0,
      "102": 0,
      "103": 0,
      "104": 0,
      "105": 0,
      "106": 0,
      "107": 0,
      "108": 0,
      "109": 0,
      "110": 0,
      "111": 0,
      "112": 0,
      "113": 0,
      "114": 0,
      "115": 0,
      "116": 0,
      "117": 0,
      "118": 0,
      "119": 0,
      "120": 0,
      "121": 0,
      "122": 0,
      "123": 0,
      "124": 0,
      "125": 0,
      "126": 0,
      "127": 0,
      "128": 0,
      "129": 0,
      "130": 0,
      "131": 0,
      "132": 0,
      "133": 0,
      "134": 0,
      "135": 0,
      "136": 0,
      "137": 0,
      "138": 0,
      "139": 0,
      "140": 0,
      "141": 0,
      "142": 0,
      "143": 0,
      "144": 0,
      "145": 0,
      "146": 0,
      "147": 0,
      "148": 0,
      "149": 0,
      "150": 0,
      "151": 0,
      "152": 0,
      "153": 0,
      "154": 0,
      "155": 0,
      "156": 0,
      "157": 0,
      "158": 0,
      "159": 0,
      "160": 0,
      "161": 0,
      "162": 0,
      "163": 0,
      "164": 0,
      "165": 0,
      "166": 0,
      "167": 0,
      "168": 0,
      "169": 0,
      "170": 0,
      "171": 0,
      "172": 0,
      "173": 0,
      "174": 0,
      "175": 0,
      "176": 0,
      "177": 0,
      "178": 0,
      "179": 0,
      "180": 0,
      "181": 0,
      "182": 0,
      "183": 0,
      "184": 0,
      "185": 0,
      "186": 0,
      "187": 0,
      "188": 0,
      "189": 0,
      "190": 0,
      "191": 0,
      "192": 0,
      "193": 0,
      "194": 0,
      "195": 0,
      "196": 0,
      "197": 0,
      "198": 0,
      "199": 0,
      "200": 0,
      "201": 0,
      "202": 0,
      "203": 0,
      "204": 0,
      "205": 0,
      "206": 0,
      "207": 0,
      "208": 0,
      "209": 0,
      "210": 0,
      "211": 0,
      "212": 0,
      "213": 0,
      "214": 0,
      "215": 0,
      "216": 0,
      "217": 0,
      "218": 0,
      "219": 0,
      "220": 0,
      "221": 0,
      "222": 0,
      "223": 0,
      "224": 0,
      "225": 0,
      "226": 0,
      "227": 0,
      "228": 0,
      "229": 0,
      "230": 0,
      "231": 0,
      "232": 0,
      "233": 0,
      "234": 0,
      "235": 0,
      "236": 0,
      "237": 0,
      "238": 0,
      "239": 0,
      "240": 0,
      "241": 0,
      "242": 0,
      "243": 0,
      "244": 0,
      "245": 0,
      "246": 0,
      "247": 0,
      "248": 0,
      "249": 0,
      "250": 0,
      "251": 0,
      "252": 0,
      "253": 0,
      "254": 0,
      "255": 0,
      "256": 0,
      "257": 0,
      "258": 0,
      "259": 0,
      "260": 0,
      "261": 0,
      "262": 0,
      "263": 0,
      "264": 0,
      "265": 0,
      "266": 0,
      "267": 0,
      "268": 0,
      "269": 0,
      "270": 0,
      "271": 0,
      "272": 0,
      "273": 0,
      "274": 0,
      "275": 0,
      "276": 0,
      "277": 0,
      "278": 0,
      "279": 0,
      "280": 0,
      "281": 0,
      "282": 0,
      "283": 0,
      "284": 0,
      "285": 0,
      "286": 0,
      "287": 0,
      "288": 0,
      "289": 0,
      "290": 0,
      "291": 0,
      "292": 0,
      "293": 0,
      "294": 0,
      "295": 0,
      "296": 0,
      "297": 0,
      "298": 0,
      "299": 0,
      "300": 0,
      "301": 0,
      "302": 0,
      "303": 0,
      "304": 0,
      "305": 0,
      "306": 0,
      "307": 0,
      "308": 0,
      "309": 0,
      "310": 0,
      "311": 0,
      "312": 0,
      "313": 0,
      "314": 0,
      "315": 0,
      "316": 0,
      "317": 0,
      "318": 0,
      "319": 0,
      "320": 0,
      "321": 0,
      "322": 0,
      "323": 0,
      "324": 0,
      "325": 0,
      "326": 0,
      "327": 0,
      "328": 0,
      "329": 0,
      "330": 0,
      "331": 0,
      "332": 0,
      "333": 0,
      "334": 0,
      "335": 0,
      "336": 0,
      "337": 0,
      "338": 0,
      "339": 0,
      "340": 0,
      "341": 0,
      "342": 0,
      "343": 0,
      "344": 0,
      "345": 0,
      "346": 0,
      "347": 0,
      "348": 0,
      "349": 0,
      "350": 0,
      "351": 0,
      "352": 0,
      "353": 0,
      "354": 0,
      "355": 0,
      "356": 0,
      "357": 0,
      "358": 0,
      "359": 0,
      "360": 0,
      "361": 0,
      "362": 0,
      "363": 0,
      "364": 0,
      "365": 0,
      "366": 0,
      "367": 0,
      "368": 0,
      "369": 0,
      "370": 0,
      "371": 0,
      "372": 0,
      "373": 0,
      "374": 0,
      "375": 0,
      "376": 0,
      "377": 0,
      "378": 0,
      "379": 0,
      "380": 0,
      "381": 0,
      "382": 0,
      "383": 0,
      "384": 0,
      "385": 0,
      "386": 0,
      "387": 0,
      "388": 0,
      "389": 0,
      "390": 0,
      "391": 0,
      "392": 0,
      "393": 0,
      "394": 0,
      "395": 0,
      "396": 0,
      "397": 0,
      "398": 0,
      "399": 0,
      "400": 0,
      "401": 0,
      "402": 0,
      "403": 0,
      "404": 0,
      "405": 0,
      "406": 0,
      "407": 0,
      "408": 0,
      "409": 0,
      "410": 0,
      "411": 0,
      "412": 0,
      "413": 0,
      "414": 0,
      "415": 0,
      "416": 0,
      "417": 0,
      "418": 0,
      "419": 0,
      "420": 0,
      "421": 0,
      "422": 0,
      "423": 0,
      "424": 0,
      "425": 0,
      "426": 0,
      "427": 0,
      "428": 0,
      "429": 0,
      "430": 0,
      "431": 0,
      "432": 0,
      "433": 0,
      "434": 0,
      "435": 0,
      "436": 0,
      "437": 0,
      "438": 0,
      "439": 0,
      "440": 0,
      "441": 0,
      "442": 0,
      "443": 0,
      "444": 0,
      "445": 0,
      "446": 0,
      "447": 0,
      "448": 0,
      "449": 0,
      "450": 0,
      "451": 0,
      "452": 0,
      "453": 0,
      "454": 0,
      "455": 0,
      "456": 0,
      "457": 0,
      "458": 0,
      "459": 0,
      "460": 0,
      "461": 0,
      "462": 0,
      "463": 0,
      "464": 0,
      "465": 0,
      "466": 0,
      "467": 0,
      "468": 0,
      "469": 0,
      "470": 0,
      "471": 0,
      "472": 0,
      "473": 0,
      "474": 0,
      "475": 0,
      "476": 0,
      "477": 0,
      "478": 0,
      "479": 0,
      "480": 0,
      "481": 0,
      "482": 0,
      "483": 0,
      "484": 0,
      "485": 0,
      "486": 0,
      "487": 0,
      "488": 0,
      "489": 0,
      "490": 0,
      "491": 0,
      "492": 0,
      "493": 0,
      "494": 0,
      "495": 0,
      "496": 0,
      "497": 0,
      "498": 0,
      "499": 0,
      "500": 0,
      "501": 0,
      "502": 0,
      "503": 0,
      "504": 0,
      "505": 0,
      "506": 0,
      "507": 0,
      "508": 0,
      "509": 0,
      "510": 0,
      "511": 0,
      "512": 0,
      "513": 0,
      "514": 0,
      "515": 0,
      "516": 0,
      "517": 0,
      "518": 0,
      "519": 0,
      "520": 0,
      "521": 0,
      "522": 0,
      "523": 0,
      "524": 0,
      "525": 0,
      "526": 0,
      "527": 0,
      "528": 0,
      "529": 0,
      "530": 0,
      "531": 0,
      "532": 0,
      "533": 0,
      "534": 0,
      "535": 0,
      "536": 0,
      "537": 0,
      "538": 0,
      "539": 0,
      "540": 0,
      "541": 0,
      "542": 0,
      "543": 0,
      "544": 0,
      "545": 0,
      "546": 0,
      "547": 0,
      "548": 0,
      "549": 0,
      "550": 0,
      "551": 0,
      "552": 0,
      "553": 0,
      "554": 0,
      "555": 0,
      "556": 0,
      "557": 0,
      "558": 0,
      "559": 0,
      "560": 0,
      "561": 0,
      "562": 0,
      "563": 0,
      "564": 0,
      "565": 0,
      "566": 0,
      "567": 0,
      "568": 0,
      "569": 0,
      "570": 0,
      "571": 0,
      "572": 0,
      "573": 0,
      "574": 0,
      "575": 0,
      "576": 0,
      "577": 0,
      "578": 0,
      "579": 0,
      "580": 0,
      "581": 0,
      "582": 0,
      "583": 0,
      "584": 0,
      "585": 0,
      "586": 0,
      "587": 0,
      "588": 0,
      "589": 0,
      "590": 0,
      "591": 0,
      "592": 0,
      "593": 0,
      "594": 0,
      "595": 0,
      "596": 0,
      "597": 0,
      "598": 0,
      "599": 0,
      "600": 0,
      "601": 0,
      "602": 0,
      "603": 0,
      "604": 0,
      "605": 0,
      "606": 0,
      "607": 0,
      "608": 0,
      "609": 0,
      "610": 0,
      "611": 0,
      "612": 0,
      "613": 0,
      "614": 0,
      "615": 0,
      "616": 0,
      "617": 0,
      "618": 0,
      "619": 0,
      "620": 0,
      "621": 0,
      "622": 0,
      "623": 0,
      "624": 0,
      "625": 0,
      "626": 0,
      "627": 0,
      "628": 0,
      "629": 0,
      "630": 0,
      "631": 0,
      "632": 0,
      "633": 0,
      "634": 0,
      "635": 0,
      "636": 0,
      "637": 0,
      "638": 0,
      "639": 0,
      "640": 0,
      "641": 0,
      "642": 0,
      "643": 0,
      "644": 0,
      "645": 0,
      "646": 0,
      "647": 0,
      "648": 0,
      "649": 0,
      "650": 0,
      "651": 0,
      "652": 0,
      "653": 0,
      "654": 0,
      "655": 0,
      "656": 0,
      "657": 0,
      "658": 0,
      "659": 0,
      "660": 0,
      "661": 0,
      "662": 0,
      "663": 0,
      "664": 0,
      "665": 0,
      "666": 0,
      "667": 0,
      "668": 0,
      "669": 0,
      "670": 0,
      "671": 0,
      "672": 0,
      "673": 0,
      "674": 0,
      "675": 0,
      "676": 0,
      "677": 0,
      "678": 0,
      "679": 0,
      "680": 0,
      "681": 0,
      "682": 0,
      "683": 0,
      "684": 0,
      "685": 0,
      "686": 0,
      "687": 0,
      "688": 0,
      "689": 0,
      "690": 0,
      "691": 0,
      "692": 0,
      "693": 0,
      "694": 0,
      "695": 0,
      "696": 0,
      "697": 0,
      "698": 0,
      "699": 0,
      "700": 0,
      "701": 0,
      "702": 0,
      "703": 0,
      "704": 0,
      "705": 0,
      "706": 0,
      "707": 0,
      "708": 0,
      "709": 0,
      "710": 0,
      "711": 0,
      "712": 0,
      "713": 0,
      "714": 0,
      "715": 0,
      "716": 0,
      "717": 0,
      "718": 0,
      "719": 0,
      "720": 0,
      "721": 0,
      "722": 0,
      "723": 0,
      "724": 0,
      "725": 0,
      "726": 0,
      "727": 0,
      "728": 0,
      "729": 0,
      "730": 0,
      "731": 0,
      "732": 0,
      "733": 0,
      "734": 0,
      "735": 0,
      "736": 0,
      "737": 0,
      "738": 0,
      "739": 0,
      "740": 0,
      "741": 0,
      "742": 0,
      "743": 0,
      "744": 0,
      "745": 0,
      "746": 0,
      "747": 0,
      "748": 0,
      "749": 0,
      "750": 0,
      "751": 0,
      "752": 0,
      "753": 0,
      "754": 0,
      "755": 0,
      "756": 0,
      "757": 0,
      "758": 0,
      "759": 0,
      "760": 0,
      "761": 0,
      "762": 0,
      "763": 0,
      "764": 0,
      "765": 0,
      "766": 0,
      "767": 0,
      "768": 0,
      "769": 0,
      "770": 0,
      "771": 0,
      "772": 0,
      "773": 0,
      "774": 0,
      "775": 0,
      "776": 0,
      "777": 0,
      "778": 0,
      "779": 0,
      "780": 0,
      "781": 0,
      "782": 0,
      "783": 0,
      "784": 0,
      "785": 0,
      "786": 0,
      "787": 0,
      "788": 0,
      "789": 0,
      "790": 0,
      "791": 0,
      "792": 0,
      "793": 0,
      "794": 0,
      "795": 0,
      "796": 0,
      "797": 0,
      "798": 0,
      "799": 0,
      "800": 0,
      "801": 0,
      "802": 0,
      "803": 0,
      "804": 0,
      "805": 0,
      "806": 0,
      "807": 0,
      "808": 0,
      "809": 0,
      "810": 0,
      "811": 0,
      "812": 0,
      "813": 0,
      "814": 0,
      "815": 0,
      "816": 0,
      "817": 0,
      "818": 0,
      "819": 0,
      "820": 0,
      "821": 0,
      "822": 0,
      "823": 0,
      "824": 0,
      "825": 0,
      "826": 0,
      "827": 0,
      "828": 0,
      "829": 0,
      "830": 0,
      "831": 0,
      "832": 0,
      "833": 0,
      "834": 0,
      "835": 0,
      "836": 0,
      "837": 0
     }
    },
    {
     "sx": 1,
     "sy": 1,
     "depth": 838,
     "w": {
      "0": -1454.7623709872898,
      "1": 0.022029173071451393,
      "2": -35.87990724073283,
      "3": -19.664786532119876,
      "4": -9.838947253718002,
      "5": -9.842264465545565,
      "6": 0.034817756194881644,
      "7": -0.002418679107499417,
      "8": 0.029253480801848128,
      "9": -0.014906480550139807,
      "10": -0.03741756968859726,
      "11": -0.0054585126425156704,
      "12": -0.01803534731214844,
      "13": -0.07211451495028956,
      "14": 0.08898926425721623,
      "15": -0.02105947592699955,
      "16": -0.016156803615965838,
      "17": -0.06795871051319682,
      "18": -1430.7364417371643,
      "19": 0.01341058447477961,
      "20": -33.1892344149165,
      "21": -19.65123629159418,
      "22": -9.837760919552698,
      "23": -9.826923718330947,
      "24": 0.032871294868904735,
      "25": 0.018618222102443596,
      "26": -0.0002624230864298317,
      "27": -0.007487136127303375,
      "28": 0.014710237696414271,
      "29": -0.05882805093191827,
      "30": -0.07731293845615148,
      "31": -0.04791850083357869,
      "32": -0.0005779916140366342,
      "33": -0.03537930398799366,
      "34": -0.0216688561258294,
      "35": -0.03446070339512003,
      "36": 0.0325276196809325,
      "37": 0.0021068085531445284,
      "38": -0.021055786408232004,
      "39": -0.27630217328862133,
      "40": 0.07727948831456677,
      "41": 0.09719777980792328,
      "42": -0.0974365539886963,
      "43": -0.06516919039594285,
      "44": -0.005484814894617539,
      "45": -0.011272257432908437,
      "46": -0.06527104444795781,
      "47": -0.0148899672490691,
      "48": -0.07302733521913216,
      "49": -0.007841803414825047,
      "50": 0.0013756738690072882,
      "51": 0.0674094359990446,
      "52": -0.015719753023256587,
      "53": -0.008185166055490984,
      "54": 0.04265135819251448,
      "55": -0.08162797697163418,
      "56": 0.020206266646557967,
      "57": -0.04415404709171727,
      "58": 0.0530995430940675,
      "59": -1413.0293605515776,
      "60": 0.018988325408410757,
      "61": -33.974016466752204,
      "62": -19.677949267158333,
      "63": -9.793620117037563,
      "64": -9.811111739910938,
      "65": 0.006165297233855873,
      "66": -0.02940413098593971,
      "67": -0.005592271558778703,
      "68": -0.0015540028129265252,
      "69": -0.026727293950904035,
      "70": -0.0017257470802287719,
      "71": -0.0045888638913038765,
      "72": -0.06592583511099316,
      "73": -0.07213591657060585,
      "74": 0.056519632828988184,
      "75": -0.014285253863233474,
      "76": 0.04945733534305742,
      "77": 0.028178884571863575,
      "78": 0.005297629644085736,
      "79": -0.014343819115816902,
      "80": 0.027283720818195294,
      "81": 0.017477485450037026,
      "82": -0.04302842271391814,
      "83": -0.15382253880688637,
      "84": 0.04349680353717217,
      "85": 0.0031058728809935043,
      "86": -0.0537669626672423,
      "87": -0.054674958993232194,
      "88": 0.03526636748373504,
      "89": 0.015287514531833055,
      "90": -0.06073864800251081,
      "91": 0.07610213060623909,
      "92": -0.047774753117160534,
      "93": -0.0012970442503809287,
      "94": 0.13029406462294713,
      "95": 0.04713499447345321,
      "96": 0.031158405391726894,
      "97": -0.003078075739641509,
      "98": 0.02859601340736809,
      "99": -0.12189286004628101,
      "100": -1391.2522664239154,
      "101": -0.033836309061519215,
      "102": -34.295695509094124,
      "103": -19.659511414089607,
      "104": -9.864894406926332,
      "105": -9.829928198639205,
      "106": 0.03217447725155368,
      "107": -0.04099493931928892,
      "108": -0.020816193032479908,
      "109": -0.04659012736158131,
      "110": -0.04737575123047836,
      "111": -0.014323584546757296,
      "112": -0.00675428162338252,
      "113": 0.026493375528250474,
      "114": -0.024135736773845017,
      "115": -0.10509814768366481,
      "116": -0.0389322672959357,
      "117": -0.006261678291901865,
      "118": -0.025911647819593337,
      "119": 0.06991310028482015,
      "120": 0.0054797935596144305,
      "121": 0.004139275272698694,
      "122": 0.08619897460790513,
      "123": -0.023965153235998276,
      "124": -0.11092736572219195,
      "125": -0.14492334559945907,
      "126": -0.00354759672272499,
      "127": 0.06091812910510741,
      "128": 0.014804761502132857,
      "129": 0.0756760269992759,
      "130": 0.018512028612565633,
      "131": 0.04814245785716564,
      "132": 0.06394399134787081,
      "133": 0.03847213693093966,
      "134": 0.06683279448814743,
      "135": -0.05584309783781413,
      "136": -0.07143533600493977,
      "137": 0.06871102534255631,
      "138": 0.04937602894049749,
      "139": -0.11980867425970149,
      "140": -0.1637033701338047,
      "141": -1366.5905484582966,
      "142": -0.009523227616017553,
      "143": -35.82800495133822,
      "144": -19.630413035023896,
      "145": -9.820607594028688,
      "146": -9.817074804346602,
      "147": -0.0026537666960261665,
      "148": 0.01655878111279074,
      "149": -0.04647388120935928,
      "150": -0.04044124362543599,
      "151": -0.03509598859788087,
      "152": 0.007130843803537579,
      "153": 0.0008168036537999186,
      "154": 0.03411417225092423,
      "155": -0.031286660739322,
      "156": 0.01687331657162312,
      "157": 0.028820454623341075,
      "158": 0.019476523361968007,
      "159": -0.04234388816994193,
      "160": 0.09928884693403234,
      "161": -0.03246139217571954,
      "162": 0.012686921271712445,
      "163": -0.011193092204276466,
      "164": 0.04649838708079496,
      "165": -0.02354918276382779,
      "166": -0.05459910564373209,
      "167": -0.02935604798974548,
      "168": -0.20283985168642538,
      "169": 0.06403874592649876,
      "170": -0.011742880869532946,
      "171": -0.08644359197318537,
      "172": -0.004023025210338491,
      "173": 0.005565567514370251,
      "174": -0.1429655726630754,
      "175": -0.20267993711839274,
      "176": -0.03360569523049186,
      "177": 0.023903973090932548,
      "178": -0.05969374288610124,
      "179": -0.04725939329503039,
      "180": 0.022682907048978716,
      "181": 0.006663759387728494,
      "182": -1345.1516418687322,
      "183": 0.01444870872795146,
      "184": -32.83331830107491,
      "185": -19.621017175686248,
      "186": -9.822731178779744,
      "187": -9.807009620642203,
      "188": -0.0047693376469473735,
      "189": 0.046276439255342174,
      "190": 0.011729826051903806,
      "191": -0.026785435791930243,
      "192": -0.03026726772190253,
      "193": 0.05619620736589917,
      "194": 0.039250938022337666,
      "195": 0.0016913942020975988,
      "196": 0.008801392698485068,
      "197": 0.0010225663268773597,
      "198": -0.018681629504573537,
      "199": -0.004130429849247277,
      "200": 0.03036855044869322,
      "201": -0.027779731472052618,
      "202": -0.07123720664365776,
      "203": 0.14551755565148058,
      "204": 0.012795972973128414,
      "205": 0.027305909082509437,
      "206": -0.10841118551431243,
      "207": -0.04931319636544818,
      "208": 0.003052737567029382,
      "209": 0.004159296741252524,
      "210": -0.242757532508631,
      "211": 0.003217570269575479,
      "212": -0.05454521258491706,
      "213": 0.057466236998068604,
      "214": -0.10587253817334687,
      "215": -0.022791616248178843,
      "216": -0.054212241745506914,
      "217": 0.00435788010171148,
      "218": -0.005594508005563302,
      "219": 0.13298641430848798,
      "220": 0.04632481036965146,
      "221": 0.06674125638269622,
      "222": 0.03025841363981467,
      "223": -1323.2704913466341,
      "224": -0.02241137721176993,
      "225": -30.553195222149544,
      "226": -19.624236049511776,
      "227": -9.815189639685954,
      "228": -9.864939843814438,
      "229": 0.017731639531981515,
      "230": -0.01441385063999533,
      "231": -0.007306613967501011,
      "232": 0.008414239155657855,
      "233": 0.004680367633993379,
      "234": -0.035678353188187906,
      "235": -0.0008946466774138169,
      "236": -0.023144620177164506,
      "237": -0.021189860147947045,
      "238": -0.026320155027260973,
      "239": 0.008028229137408915,
      "240": -0.04695327188528407,
      "241": -0.00042563107007910576,
      "242": -0.02101977576332601,
      "243": 0.045574596278661,
      "244": -0.32052075942491814,
      "245": 0.004887264687739628,
      "246": 0.07062490780198397,
      "247": -0.01825015271262934,
      "248": 0.011166198562468048,
      "249": 0.05296723350302615,
      "250": -0.00767681277127394,
      "251": -0.034688493679335394,
      "252": 0.008798345047998287,
      "253": 0.10258540649203911,
      "254": 0.011251075743570925,
      "255": -0.12064203510012948,
      "256": -0.03169166326365957,
      "257": -0.008207423559890448,
      "258": 0.009509131040492879,
      "259": -0.1280253339883639,
      "260": 0.02948153284355274,
      "261": 0.002937594729689899,
      "262": 0.03033834075946008,
      "263": -0.07051674471560679,
      "264": -1302.584918460019,
      "265": -0.020809520361172257,
      "266": -28.654402723341974,
      "267": -19.60400594169142,
      "268": -9.844110889752203,
      "269": -9.793197245118495,
      "270": -0.009889835748380814,
      "271": 0.05400128613983264,
      "272": -0.043603211890596176,
      "273": 0.04981209489623028,
      "274": -0.019216258819853616,
      "275": -0.016426192320182734,
      "276": 0.04234417157639035,
      "277": 0.044696141417684875,
      "278": 0.007788681066969902,
      "279": -0.00496064936398375,
      "280": -0.04682421470191942,
      "281": 0.02724935514867328,
      "282": -0.025878131620288743,
      "283": -0.020468170833637386,
      "284": -0.011616634732490232,
      "285": 0.05854158665049838,
      "286": 0.02270956683677282,
      "287": 0.027784132176906853,
      "288": -0.2538790704639399,
      "289": -0.1137995293916622,
      "290": -0.010052775271351908,
      "291": 0.03496333892117712,
      "292": 0.04346410047178334,
      "293": 0.017201931661059707,
      "294": 0.044462500476534994,
      "295": -0.018406918342198687,
      "296": -0.12378851128664727,
      "297": -0.01543775609168398,
      "298": -0.022119735741407087,
      "299": 0.09000389887980385,
      "300": 0.048973426067522925,
      "301": 0.08460366791616847,
      "302": -0.07700143597923217,
      "303": -0.007376432715732488,
      "304": 0.011863746826536596,
      "305": -1288.0106652535483,
      "306": -0.05154862790873258,
      "307": -28.243927029547738,
      "308": -19.69953562552495,
      "309": -9.87285553254174,
      "310": -9.82460946818084,
      "311": -0.04507421603299035,
      "312": 0.007035027601215811,
      "313": 0.030526183832408692,
      "314": -0.060890758369304694,
      "315": 0.009854186203891245,
      "316": -0.005286175666156987,
      "317": -0.05113483495909046,
      "318": -0.004040807481553811,
      "319": -0.013868174562841581,
      "320": 0.03607091299437601,
      "321": -0.04406042496036265,
      "322": 0.035063922102364094,
      "323": 0.03575441693195021,
      "324": -0.1693518278906949,
      "325": 0.02178489148590846,
      "326": -0.02074758680983766,
      "327": -0.03378494649518952,
      "328": -0.1186057129061596,
      "329": -0.24297651031022227,
      "330": -0.21015711666507894,
      "331": 0.015381846125203309,
      "332": -0.009126573482897388,
      "333": 0.01776160456474177,
      "334": -0.0058128068271185804,
      "335": 0.24999862296422898,
      "336": 0.008686159246359067,
      "337": 0.009483841498604439,
      "338": 0.05115141280503679,
      "339": 0.17168866987836112,
      "340": 0.07897288384163884,
      "341": -0.05813274122199774,
      "342": 0.10758258198301776,
      "343": 0.002695999635030662,
      "344": 0.018472124846564467,
      "345": -0.0027078325083828873,
      "346": -1265.2704857292504,
      "347": 0.05206488740239486,
      "348": -28.645908111868827,
      "349": -19.63757639977435,
      "350": -9.786059928287566,
      "351": -9.829205740544129,
      "352": -0.009321313477301507,
      "353": -0.03613463214828812,
      "354": -0.01456305736076332,
      "355": -0.0642345344108149,
      "356": -0.011645689440622806,
      "357": -0.012759373046529262,
      "358": -0.05138175868751101,
      "359": 0.026507579581560716,
      "360": -0.0166500973551832,
      "361": 0.032638981506783196,
      "362": -0.015129970745042012,
      "363": -0.03971762943641554,
      "364": -0.03474386101274202,
      "365": 0.012826571754583058,
      "366": 0.04490972024151367,
      "367": -0.16213514287141545,
      "368": -0.06197411470846973,
      "369": -0.08852307563679718,
      "370": 0.09454937130707645,
      "371": 0.05337763354998851,
      "372": 0.025834989197865157,
      "373": -0.01613622621056441,
      "374": -0.008435814415890336,
      "375": 0.018026018249993215,
      "376": -0.04134428480886181,
      "377": 0.009527563994898193,
      "378": -0.04344541667943022,
      "379": -0.06812356673437346,
      "380": -0.15358832767989247,
      "381": -0.0927311968165717,
      "382": -0.03660003368697665,
      "383": 0.09168569682960247,
      "384": 0.0435481069757102,
      "385": 0.05691957526587341,
      "386": 0.0655683180189308,
      "387": -1245.240357487352,
      "388": -0.057505725444041075,
      "389": -30.669526213239095,
      "390": -19.702723964979175,
      "391": -9.790278406396103,
      "392": -9.89078791172466,
      "393": -0.07686529481212648,
      "394": -0.009581044382920945,
      "395": -0.04708203984677462,
      "396": 0.00943829674472524,
      "397": 0.011019481714241101,
      "398": 0.04847041560764196,
      "399": -0.021172971994208166,
      "400": -0.010380447110477897,
      "401": 0.0009678547676242085,
      "402": -0.009127200383207414,
      "403": 0.02532926762303538,
      "404": -0.004712538454810463,
      "405": -0.024907962194406667,
      "406": 0.028351413337697987,
      "407": 0.010077223395211716,
      "408": 0.0025957157351403325,
      "409": -0.1019091494000505,
      "410": -0.027898885575572935,
      "411": -0.17500749139104782,
      "412": 0.022475518543187953,
      "413": 0.04333150133243918,
      "414": -0.0821902427932162,
      "415": -0.0857726717457376,
      "416": -0.025202008207138065,
      "417": 0.023467730114062033,
      "418": 0.10099600521556466,
      "419": -0.248275116633569,
      "420": -0.031510718340591444,
      "421": 0.08953145443536943,
      "422": 0.06574383122071707,
      "423": 0.009780800010665173,
      "424": -0.005240045583190534,
      "425": -0.0507817506586945,
      "426": -0.04418013171888561,
      "427": 0.09829963358721999,
      "428": -1230.152654211051,
      "429": -0.03502100010597126,
      "430": -32.515524100306614,
      "431": -19.715712079167623,
      "432": -9.826011579552663,
      "433": -9.740916691543065,
      "434": 0.03815982229660136,
      "435": 0.06226161095891975,
      "436": -0.04368152911977576,
      "437": 0.013531716038818186,
      "438": 0.017507010026878853,
      "439": -0.03625845390247385,
      "440": -0.01583315736143404,
      "441": -0.03492072947187002,
      "442": -0.004110613287833812,
      "443": -0.03139930795234636,
      "444": -0.08999541261588254,
      "445": -0.010083618261739001,
      "446": 0.04856944004458199,
      "447": -0.13052040196642462,
      "448": -0.005519234158945042,
      "449": 0.01838724051651559,
      "450": 0.002566103095675087,
      "451": 0.009875862051845858,
      "452": 0.00565776746633184,
      "453": 0.003032310388888996,
      "454": 0.10510855663823228,
      "455": 0.0015205377319995272,
      "456": -0.35581414209461343,
      "457": -0.07344879669431235,
      "458": -0.061758320819717376,
      "459": -0.11801455497963681,
      "460": 0.009768817128054705,
      "461": 0.0036897782258237524,
      "462": 0.00791957877121831,
      "463": -0.027135715471805877,
      "464": -0.30124990239134897,
      "465": 0.029617728027959332,
      "466": 0.1321124890771946,
      "467": -0.0732344826653104,
      "468": 0.010752582366519338,
      "469": -1206.5340613992742,
      "470": -0.08504954430835887,
      "471": -31.911972901636965,
      "472": -19.629183488571126,
      "473": -9.841034655938573,
      "474": -9.470062645135847,
      "475": 0.01477196603423342,
      "476": -0.016818181687118062,
      "477": -0.0346583256483281,
      "478": 0.03928271268042229,
      "479": -0.020032958102186898,
      "480": -0.03192637710318959,
      "481": -0.00190397917829728,
      "482": -0.002600355223738398,
      "483": 0.02060597313481543,
      "484": -0.011486663788178753,
      "485": -0.035293474245182185,
      "486": 0.025332820703914304,
      "487": -0.04063640967575864,
      "488": 0.028519660377940265,
      "489": -0.007132918594448576,
      "490": 0.10092831409008998,
      "491": 0.07766039335033834,
      "492": 0.04784224462885492,
