{
 "layers": [
  {
   "out_depth": 838,
   "out_sx": 1,
   "out_sy": 1,
   "layer_type": "input"
  },
  {
   "out_depth": 25,
   "out_sx": 1,
   "out_sy": 1,
   "layer_type": "fc",
   "num_inputs": 838,
   "l1_decay_mul": 0,
   "l2_decay_mul": 1,
   "filters": [
    {
     "sx": 1,
     "sy": 1,
     "depth": 838,
     "w": {
      "0": 0.011829929603349127,
      "1": 0.009648215574985115,
      "2": 0.009608460749347313,
      "3": -0.017015153363793865,
      "4": -0.035698589866988706,
      "5": 0.021811116272976282,
      "6": 0.05522480733149436,
      "7": -0.05843680921761054,
      "8": -0.008115171258043742,
      "9": -0.057149271921258994,
      "10": -0.05940861411243097,
      "11": 0.010169192710749097,
      "12": 0.003681515238200608,
      "13": -0.07251557592535682,
      "14": -0.025279874321440708,
      "15": 0.015784722769491978,
      "16": 0.018340507343384705,
      "17": -0.04451193646090495,
      "18": -0.02454373314074701,
      "19": 0.02239520989729047,
      "20": -0.018685372974183954,
      "21": -0.0235767321263402,
      "22": -0.011590861013690055,
      "23": -0.0013037552566485021,
      "24": 0.018443143132525486,
      "25": -0.013611034114163917,
      "26": -0.029446160636436878,
      "27": 0.0035539981375959716,
      "28": 0.06795010285572506,
      "29": -0.001403368391487391,
      "30": -0.04156287613563903,
      "31": -0.03219433743964299,
      "32": 0.03047870874430606,
      "33": -0.01656160720906948,
      "34": 0.008345028295272122,
      "35": 0.0328865974935462,
      "36": 0.04783823204807125,
      "37": 0.006574805573447854,
      "38": 0.01812899128937927,
      "39": 0.028599819701898257,
      "40": -0.011654946419571866,
      "41": 0.021578773712561145,
      "42": 0.0256597235258616,
      "43": -0.02359143851001564,
      "44": -0.02252741345058421,
      "45": -0.0011668372093883033,
      "46": 0.047179388790307766,
      "47": -0.0073071229572391596,
      "48": 0.020463450207893016,
      "49": -0.020137068558640295,
      "50": 0.02435962935034213,
      "51": -0.004187234899126424,
      "52": -0.0303261152944994,
      "53": -0.04599912779649357,
      "54": -0.006175287189013157,
      "55": 0.02518116815151,
      "56": -0.0027112824857024377,
      "57": 0.00276644004007995,
      "58": -0.006444124172377038,
      "59": 0.026257731995294818,
      "60": -0.013474137868928746,
      "61": -0.056069451219914974,
      "62": -0.020068228680893613,
      "63": 0.0641217919715158,
      "64": 0.013865287673271953,
      "65": -0.004344499675120322,
      "66": -0.022657229975018598,
      "67": -0.02045452465991667,
      "68": 0.010744664277457015,
      "69": 0.07384193935417703,
      "70": -0.00040975484140155343,
      "71": 0.026194149967269056,
      "72": -0.040317906585842986,
      "73": 0.02464151799637934,
      "74": -0.020404959334093423,
      "75": 0.05007898314271887,
      "76": -0.02226681503012567,
      "77": -0.04487867669378819,
      "78": 0.031198013311956416,
      "79": -0.0039697832325536935,
      "80": -0.021666242293192185,
      "81": 0.026725235037016747,
      "82": -0.023945435998135402,
      "83": -0.01263920120911256,
      "84": -0.044956923111015394,
      "85": 0.016643672568443305,
      "86": 0.01625622799257187,
      "87": 0.0422000907958244,
      "88": -0.036752568328506215,
      "89": 0.06345155359181012,
      "90": 0.009762048383825654,
      "91": -0.015615776045448782,
      "92": 0.04107793092547676,
      "93": -0.01770214893946398,
      "94": 0.02722716063155304,
      "95": 0.056893352174113516,
      "96": 0.011386248686555928,
      "97": 0.04831069267149771,
      "98": 0.06061862328400867,
      "99": -0.015813284479111237,
      "100": -0.00410275640599181,
      "101": -0.02994774441336515,
      "102": 0.06071078783159261,
      "103": 0.02765042414764475,
      "104": -0.04354535001044723,
      "105": -0.024070672765045476,
      "106": 0.002002277686715667,
      "107": -0.01378298867514455,
      "108": 0.04243424045530922,
      "109": 0.008496001321626938,
      "110": 0.05051096374103172,
      "111": -0.010727909417897398,
      "112": -0.0072164866068265485,
      "113": 0.08838261546158072,
      "114": 0.02949687741973263,
      "115": 0.07333715773498765,
      "116": 0.007188329708714606,
      "117": -0.029275688678241575,
      "118": -0.0032845227324153074,
      "119": 0.0010479806990195803,
      "120": 0.0030919257636926995,
      "121": -0.040508413174290984,
      "122": 0.03545496902114216,
      "123": -0.06967757016066362,
      "124": -0.03697686275604411,
      "125": 0.0002854925043158434,
      "126": -0.02961956532562149,
      "127": 0.018776992811065946,
      "128": 0.04516092163050042,
      "129": -0.009091517997738266,
      "130": 0.02006922653201495,
      "131": 0.0100187701998939,
      "132": -0.06842285009657945,
      "133": 0.01275172740848388,
      "134": 0.008002335985275211,
      "135": -0.01847198938967651,
      "136": 0.027552814194636947,
      "137": 0.021302588961686884,
      "138": 0.015158992831776078,
      "139": -0.028069902760536457,
      "140": -0.047656487363950735,
      "141": -0.03083625302479913,
      "142": 0.05425045278938969,
      "143": -0.046169567638088195,
      "144": -0.04717483276840136,
      "145": 0.029917981606383984,
      "146": 0.015018267728638148,
      "147": 0.023581228168793163,
      "148": 0.02090880358828826,
      "149": 0.03486341893904744,
      "150": -0.0105923423699554,
      "151": -0.03536903429210143,
      "152": -0.02245887500308093,
      "153": 0.05125970046198499,
      "154": 0.010797008536555077,
      "155": 0.017045186165662703,
      "156": 0.02742249119997479,
      "157": 0.005729418438394261,
      "158": 0.01818149513024538,
      "159": -0.04279264922195021,
      "160": -0.013321609205548217,
      "161": 0.005124420441408675,
      "162": 0.009287607087304193,
      "163": 0.038169762208569755,
      "164": -0.017207263027350147,
      "165": -0.04943898311859074,
      "166": -0.011600534831799672,
      "167": -0.01620776785365839,
      "168": 0.013931839283616885,
      "169": 0.08977445767875171,
      "170": 0.03395415201421515,
      "171": 0.053396014025152594,
      "172": 0.013111592793938457,
      "173": -0.025970328554077278,
      "174": 0.03760325539493196,
      "175": 0.01378218644147609,
      "176": -0.008789892466310966,
      "177": 0.015142695531076849,
      "178": -0.004124316561281918,
      "179": 0.022847205003132004,
      "180": 0.01370411484452543,
      "181": 0.005843576973638313,
      "182": -0.04606064811839328,
      "183": 0.0022691905483705572,
      "184": -0.03898675735030469,
      "185": -0.01408799324172031,
      "186": 0.0702249852386772,
      "187": 0.0011169876581603123,
      "188": 0.03660335010580261,
      "189": 0.017704862241931008,
      "190": -0.032462199655648595,
      "191": -0.06220549831231089,
      "192": -0.0070851474116341686,
      "193": 0.04130235099265996,
      "194": 0.002934491055704338,
      "195": -0.004799794017124665,
      "196": 0.039938390067788494,
      "197": 0.053545492008516604,
      "198": -0.01160814183881587,
      "199": 0.03067203702520065,
      "200": -0.02679301041555435,
      "201": -0.03481996171055577,
      "202": -0.05068193556361474,
      "203": -0.008090995545058485,
      "204": 0.005515442003981616,
      "205": 0.01914826342839589,
      "206": 0.021841355841091332,
      "207": -0.04724501577559983,
      "208": -0.09228479689592237,
      "209": -0.023906543775209923,
      "210": -0.006393081327986885,
      "211": 0.035527123618964124,
      "212": -0.030898123968594936,
      "213": -0.04670752240686495,
      "214": 0.03922686340452379,
      "215": -0.022184544668071793,
      "216": -0.03012514594636861,
      "217": 0.02643924001116447,
      "218": 0.032409876182634564,
      "219": 0.0820650024867763,
      "220": 0.00037962345036592516,
      "221": 0.06296999862281784,
      "222": 0.040827496090898335,
      "223": 0.0009017250806460445,
      "224": -0.02125555725813659,
      "225": -0.03556707962159681,
      "226": 0.01955539640427728,
      "227": 0.015844785829875134,
      "228": 0.0427258588505906,
      "229": 0.0843790757194752,
      "230": -0.0034573923869484395,
      "231": 0.019754943015905503,
      "232": 0.03350335510214805,
      "233": -0.020388645869799493,
      "234": 0.021224258162864496,
      "235": 0.010329832925291512,
      "236": 0.00191291539644474,
      "237": -0.031117594230446143,
      "238": 0.02995304597934789,
      "239": -0.00046082998337452873,
      "240": 0.057606218439704586,
      "241": 0.005116636771611303,
      "242": -0.0002903546947213064,
      "243": -0.05524219708687351,
      "244": 0.03439010566380514,
      "245": 0.0010194006107192436,
      "246": -0.028718567662513135,
      "247": 0.04005911265273154,
      "248": -0.05221614700357788,
      "249": 0.005625096470309245,
      "250": 0.01878544279536392,
      "251": 0.012751055464333999,
      "252": 0.017524848964983707,
      "253": 0.05189704275996447,
      "254": 0.014260329676686744,
      "255": 0.04227190328281386,
      "256": 0.007220012869518186,
      "257": 0.01768426577941164,
      "258": 0.012696998823625384,
      "259": -0.0091349932147989,
      "260": -0.0390106834460365,
      "261": 0.026778818035965272,
      "262": -0.025953771075152957,
      "263": -0.014334855290044265,
      "264": -0.004535632282103144,
      "265": 0.049754876551204315,
      "266": 0.06064008302218663,
      "267": -0.01773406871874785,
      "268": 0.03331177021705226,
      "269": 0.02236120637152547,
      "270": 0.034114478415985215,
      "271": -0.022800180258442843,
      "272": -0.01969686683492331,
      "273": 0.002646136525452965,
      "274": 0.0032146686083137773,
      "275": -0.025124201431099114,
      "276": -0.022240840584605345,
      "277": -0.03246476709381147,
      "278": 0.013116009323387124,
      "279": -0.011106735850334457,
      "280": -0.017675886149242998,
      "281": 0.03288956675137643,
      "282": 0.013781349494741609,
      "283": 0.010363203399030522,
      "284": 0.001955344420245163,
      "285": 0.028344260180942844,
      "286": -0.0003310185286150618,
      "287": -0.09724553673264531,
      "288": 0.040301286338597364,
      "289": -0.027292738150187186,
      "290": -0.04966953324560275,
      "291": -0.013817008187893115,
      "292": 0.0364459183806989,
      "293": -0.04415601461481376,
      "294": -0.0019082411684538314,
      "295": 0.01179023228664875,
      "296": -0.026684053276432883,
      "297": 0.02053750542337559,
      "298": -0.036748085308488006,
      "299": -0.07337127123106049,
      "300": 0.015240224923349793,
      "301": 0.056052408141820054,
      "302": 0.020876543312851978,
      "303": 0.02996089855198597,
      "304": -0.00007908815952606088,
      "305": 0.05187177479960002,
      "306": -0.01502030526267122,
      "307": -0.010868426508607176,
      "308": 0.03544093264725399,
      "309": -0.011996461097764668,
      "310": -0.04309288379776021,
      "311": 0.027542589173567895,
      "312": 0.029689675250625304,
      "313": -0.08657632443265896,
      "314": -0.025094176845933746,
      "315": 0.02108620988396977,
      "316": -0.0072975759297582545,
      "317": -0.03837740243485817,
      "318": 0.0482760878124642,
      "319": -0.008794020140430346,
      "320": 0.06981993873198339,
      "321": -0.025168967473448312,
      "322": 0.024026820669306344,
      "323": 0.05486091781052937,
      "324": 0.07733815407001916,
      "325": -0.07475912481724102,
      "326": 0.01531199434850842,
      "327": -0.006000244510263773,
      "328": 0.005212307241370322,
      "329": -0.02074881228276482,
      "330": 0.03287736883359279,
      "331": -0.010541762815126017,
      "332": -0.06059531683039254,
      "333": 0.08212216406319858,
      "334": -0.06295619834024489,
      "335": 0.025712336508225613,
      "336": 0.0076976153412897895,
      "337": 0.029482764957367492,
      "338": 0.008807412612238314,
      "339": 0.018032225630283137,
      "340": 0.022386144520143134,
      "341": -0.014723158966113191,
      "342": 0.07584733228846706,
      "343": 0.006389065731911618,
      "344": -0.00989514252058537,
      "345": -0.018250132874458178,
      "346": 0.03142826679150425,
      "347": -0.004580226569892832,
      "348": 0.08957333614750679,
      "349": -0.007315075070247153,
      "350": -0.009934556186596421,
      "351": -0.034804785050232864,
      "352": -0.021193145207559355,
      "353": 0.024441942765231442,
      "354": 0.02502547552721468,
      "355": -0.007796921260537807,
      "356": -0.0035191704073160766,
      "357": 0.009182535831119807,
      "358": 0.014086054327304438,
      "359": 0.002973000177762712,
      "360": 0.04640819921964781,
      "361": 0.0048878537966866205,
      "362": -0.004348589498248942,
      "363": 0.04593423563621854,
      "364": -0.023261413202757184,
      "365": -0.003999327770741028,
      "366": 0.03128455740111368,
      "367": -0.018434528694274945,
      "368": -0.013994847569084187,
      "369": -0.026489133190230624,
      "370": -0.013118817655991901,
      "371": 0.0203961083310433,
      "372": 0.0019261424809991425,
      "373": 0.004789869926406629,
      "374": 0.014589146687573015,
      "375": 0.03485351710109174,
      "376": 0.008547790146290578,
      "377": 0.013991958615805034,
      "378": 0.009241803561210292,
      "379": 0.0485879465342413,
      "380": -0.049600870506352646,
      "381": 0.03869562109471653,
      "382": -0.04776922820479971,
      "383": 0.004225351146264469,
      "384": 0.06417167840273666,
      "385": 0.018901366561195045,
      "386": 0.03188559457481235,
      "387": -0.10129348533868322,
      "388": -0.0006518041999050839,
      "389": 0.0026358143641981593,
      "390": -0.00913779273798951,
      "391": 0.049125312932173114,
      "392": 0.04451186781315522,
      "393": -0.031457305822233154,
      "394": 0.02994159021286138,
      "395": 0.01532438500932049,
      "396": -0.010868703870899148,
      "397": 0.009364690787936395,
      "398": 0.06159424835353982,
      "399": -0.09091913358178198,
      "400": -0.04450070316062952,
      "401": 0.013396788057725375,
      "402": 0.00598011687081818,
      "403": 0.009077736950643678,
      "404": 0.01876791619880343,
      "405": -0.06030421304185172,
      "406": -0.006533659676331858,
      "407": 0.02414440037501921,
      "408": -0.014060359912050875,
      "409": -0.0362952166676182,
      "410": -0.038366961994149275,
      "411": 0.02938991679558366,
      "412": -0.008821059059904976,
      "413": -0.03664029041960535,
      "414": -0.041139104003155666,
      "415": 0.023315439937141,
      "416": -0.018789306047357172,
      "417": 0.09153122091173348,
      "418": 0.024997114317714897,
      "419": -0.008319929222851784,
      "420": -0.004908779987038526,
      "421": -0.0480086347871893,
      "422": -0.04656254771759553,
      "423": 0.06048207511078971,
      "424": -0.00960904350489961,
      "425": 0.07533025855750054,
      "426": -0.010597965696219094,
      "427": -0.01034425365532066,
      "428": -0.028749346526080636,
      "429": -0.04910632625958986,
      "430": 0.03372632498827675,
      "431": 0.06069349037525927,
      "432": 0.009697251484601137,
      "433": -0.010894438089397654,
      "434": 0.005527148231416287,
      "435": 0.02018197895397294,
      "436": -0.006242546425206123,
      "437": 0.03822511450232809,
      "438": -0.04327098238420007,
      "439": 0.029658582539650147,
      "440": -0.031115002484940344,
      "441": -0.007040194632141731,
      "442": -0.07047955434051466,
      "443": 0.018744774691944053,
      "444": -0.06026507692669846,
      "445": -0.02844486690690934,
      "446": 0.06215038960919062,
      "447": 0.022169021710227704,
      "448": -0.01416629478442346,
      "449": 0.0067720746547852585,
      "450": 0.0005012193009623857,
      "451": 0.035363920758819604,
      "452": 0.00842655782759226,
      "453": 0.01768832566753228,
      "454": -0.03051212447026644,
      "455": 0.06927376708439606,
      "456": -0.012858345492612918,
      "457": 0.039589321332436,
      "458": -0.0022240693284254326,
      "459": 0.068479108467249,
      "460": -0.0024271818346708798,
      "461": -0.0396181266776683,
      "462": 0.031366617824686645,
      "463": -0.016596175133454353,
      "464": 0.02928528895876759,
      "465": -0.023320877022758715,
      "466": 0.004467101115682983,
      "467": -0.02921213734835993,
      "468": -0.030852616906491666,
      "469": 0.019229997528048146,
      "470": 0.05094610242960131,
      "471": -0.005817390680272696,
      "472": -0.014909154536915199,
      "473": -0.0037521053818316066,
      "474": 0.05656502255207129,
      "475": -0.01702413163210403,
      "476": 0.01600077350539922,
      "477": 0.021995257899221767,
      "478": 0.0020359815180503466,
      "479": -0.007678849249559308,
      "480": 0.017474241899708188,
      "481": 0.021340384919557878,
      "482": 0.012551253511933983,
      "483": 0.02261406542750539,
      "484": -0.0930429478705914,
      "485": 0.019709593591800974,
      "486": -0.02894837228841819,
      "487": 0.003063387504303852,
      "488": 0.043274536193901134,
      "489": 0.019890580861246846,
      "490": 0.010029906739624221,
      "491": 0.00983168274725037,
      "492": 0.035108317570589985,
      "493": -0.021868104777080958,
      "494": -0.05650107810075946,
      "495": -0.026825797475832913,
      "496": 0.022509950596110804,
      "497": 0.007074336163157313,
      "498": -0.030035554189851352,
      "499": 0.003476152589686228,
      "500": -0.046582271427444547,
      "501": 0.051738580684421,
      "502": 0.023284932755017133,
      "503": -0.03557812546817881,
      "504": -0.023871592630034837,
      "505": -0.021922258571159047,
      "506": -0.010951019746056901,
      "507": -0.04328132165197914,
      "508": -0.04781757556277005,
      "509": 0.03562904629885535,
      "510": 0.0004853483620012532,
      "511": 0.07689639969693642,
      "512": 0.030368104846385403,
      "513": 0.0036263917702399977,
      "514": 0.02580604470376484,
      "515": -0.009165136958192273,
      "516": 0.03395912881793866,
      "517": 0.1088680908685253,
      "518": 0.01260880638512891,
      "519": 0.01657002957027231,
      "520": 0.01107561474338694,
      "521": -0.08207538803438287,
      "522": -0.04191667465974545,
      "523": 0.023755797936056013,
      "524": -0.005364804272726688,
      "525": -0.027005335238801793,
      "526": 0.0461818631155333,
      "527": -0.004931273692237398,
      "528": 0.02311485864739751,
      "529": 0.018514417311253275,
      "530": -0.025355764910404883,
      "531": 0.02262161169176799,
      "532": 0.02379091674677939,
      "533": -0.0008141763356237645,
      "534": -0.04497999238371401,
      "535": 0.039480833887183646,
      "536": 0.006291751393854292,
      "537": 0.015329986807870406,
      "538": 0.004591842429648491,
      "539": -0.04469874368415375,
      "540": -0.04699447291504135,
      "541": 0.058833515293898506,
      "542": -0.0033954699353259546,
      "543": -0.0041948899327568035,
      "544": 0.023623031619720646,
      "545": -0.03312119370149913,
      "546": 0.06223208058687288,
      "547": 0.0243639608169292,
      "548": 0.06401408317896323,
      "549": 0.0013772781821251394,
      "550": 0.004544713660525096,
      "551": 0.018216108223482203,
      "552": 0.03197709783994698,
      "553": 0.040235564030435364,
      "554": -0.01698066437541658,
      "555": 0.04340760403812839,
      "556": 0.025520442290543018,
      "557": -0.028697671701282276,
      "558": -0.02580614533842932,
      "559": 0.04039050355451817,
      "560": -0.04536081963394282,
      "561": -0.05757703418664279,
      "562": 0.02155131914619295,
      "563": -0.014801904391585883,
      "564": 0.03517202394612889,
      "565": 0.0348948084019105,
      "566": -0.08623812001470975,
      "567": 0.09990413513849317,
      "568": 0.06702647049931555,
      "569": 0.010534787770139147,
      "570": -0.007560813438743077,
      "571": -0.005642486896936897,
      "572": -0.012237364283532464,
      "573": 0.03173497415120259,
      "574": -0.0030893945619419726,
      "575": -0.0740041996116096,
      "576": -0.005863543825109072,
      "577": 0.0005220909320907232,
      "578": -0.008686848191012468,
      "579": -0.06473801424932679,
      "580": -0.0389288686823484,
      "581": -0.09091065031361743,
      "582": 0.0009397167005199376,
      "583": 0.0015258692035403452,
      "584": 0.03816852502720753,
      "585": -0.016654400784655427,
      "586": -0.000679929247214566,
      "587": -0.02513892650052597,
      "588": -0.014735092671352956,
      "589": 0.07895275499170915,
      "590": -0.04314222931442073,
      "591": 0.0051275821594216255,
      "592": -0.01961657643886643,
      "593": 0.005913316552214552,
      "594": 0.0035483069777105564,
      "595": 0.045128418998015396,
      "596": -0.005823399467816731,
      "597": -0.0810448641332377,
      "598": -0.06937201856860759,
      "599": -0.002617073229202712,
      "600": 0.00315029469509727,
      "601": 0.029403299954340063,
      "602": -0.009470006991182039,
      "603": 0.015218038972780713,
      "604": -0.02829250043875813,
      "605": -0.049824923384163576,
      "606": 0.0014669974250471258,
      "607": 0.029441918520439862,
      "608": -0.02677273849622259,
      "609": 0.0030064998598539746,
      "610": 0.03337832818714382,
      "611": -0.010014297295741052,
      "612": 0.053168852031848346,
      "613": 0.06186631052357037,
      "614": -0.03559317473137748,
      "615": 0.004677486541888253,
      "616": 0.039658689227568114,
      "617": -0.03508063015933477,
      "618": -0.06831406343546759,
      "619": 0.03005603497406776,
      "620": -0.0007352485819372782,
      "621": -0.05563300489124888,
      "622": 0.013279196290801439,
      "623": -0.023467086179686472,
      "624": 0.011565121224613985,
      "625": 0.06579747272703393,
      "626": 0.05281737079085239,
      "627": 0.035635135226855234,
      "628": -0.07279145032693643,
      "629": -0.011314851819424241,
      "630": 0.024986477411186505,
      "631": -0.02346520065069055,
      "632": 0.0024559973781610603,
      "633": 0.006894654968774068,
      "634": -0.03408455126057328,
      "635": -0.013684090843566024,
      "636": 0.03488519705703388,
      "637": 0.0069832208140171385,
      "638": -0.02744323947220581,
      "639": 0.0027850629698021566,
      "640": -0.04062776428690357,
      "641": -0.06818799681034642,
      "642": 0.0042453326361598775,
      "643": -0.050924406536716524,
      "644": -0.007528548470658462,
      "645": -0.009705230427657623,
      "646": 0.03230519928332118,
      "647": 0.077988736246677,
      "648": 0.0021057628619659007,
      "649": -0.006223691624519594,
      "650": -0.009201430390213415,
      "651": 0.0003185446132798533,
      "652": -0.028150144133620617,
      "653": -0.05496586379614209,
      "654": -0.015078698084666364,
      "655": -0.017313559659518276,
      "656": -0.002681085769989262,
      "657": -0.005994343587249906,
      "658": 0.03094342441203507,
      "659": 0.021213144096270755,
      "660": 0.02130644205291931,
      "661": -0.0028592406638553204,
      "662": -0.01031081037673759,
      "663": -0.018073061041809307,
      "664": 0.009898852359205143,
      "665": 0.007542608295105172,
      "666": -0.025672237183940218,
      "667": 0.024732435057488886,
      "668": -0.0023061294880362205,
      "669": 0.020039281761826757,
      "670": -0.021169158564902625,
      "671": 0.03131246085874413,
      "672": -0.06110621146552691,
      "673": -0.0022659024106463023,
      "674": 0.05211118203756288,
      "675": -0.004583558042679528,
      "676": 0.004740256732196091,
      "677": -0.005117257383905718,
      "678": -0.09349743751226974,
      "679": 0.0511354382616699,
      "680": -0.008822716273315984,
      "681": -0.012819956511861744,
      "682": 0.022577337551266615,
      "683": 0.0005038069335066195,
      "684": -0.013782162906320929,
      "685": -0.02568113201800741,
      "686": -0.015291765404487461,
      "687": -0.031317541423040544,
      "688": -0.025136195939429454,
      "689": -0.010169857262808592,
      "690": 0.030762286594694484,
      "691": -0.057454162135915386,
      "692": -0.009717917528569023,
      "693": -0.03157801028744066,
      "694": -0.02468167510579645,
      "695": 0.009750841524130588,
      "696": 0.019446827317656387,
      "697": 0.036533741835689845,
      "698": 0.03595751872928514,
      "699": -0.030222042018256536,
      "700": -0.01535982899501766,
      "701": -0.004834667978315866,
      "702": -0.02997737171631602,
      "703": -0.001746935465980337,
      "704": 0.019507786598374304,
      "705": 0.026349897072791395,
      "706": 0.015596638562619327,
      "707": 0.03594875418344322,
      "708": -0.04130986421002517,
      "709": -0.003811841803038405,
      "710": 0.01572237234649667,
      "711": -0.04747464228253887,
      "712": 0.006206933301388387,
      "713": 0.06935856671963968,
      "714": -0.04876305025148484,
      "715": 0.03158243973053548,
      "716": -0.012543506965262845,
      "717": 0.01820462317244733,
      "718": -0.03479740123748568,
      "719": 0.03488114594655757,
      "720": -0.06193082013734412,
      "721": 0.013832482951827698,
      "722": 0.02815842653091534,
      "723": -0.041887051935590065,
      "724": 0.013087528535044975,
      "725": 0.048453185576801804,
      "726": -0.01923564146592421,
      "727": -0.04663449817597869,
      "728": 0.0037286583964812156,
      "729": -0.0077291088902283625,
      "730": 0.01382666834608401,
      "731": 0.006981279442861832,
      "732": -0.05815360489519329,
      "733": -0.03324291435255939,
      "734": -0.006770014560796727,
      "735": 0.040052928863777114,
      "736": 0.011107041477566979,
      "737": 0.01025526620002049,
      "738": -0.0074606867160977195,
      "739": 0.01016286239614826,
      "740": -0.040746985661467505,
      "741": -0.053380197048096795,
      "742": -0.018716199513686933,
      "743": 0.04935692274202581,
      "744": 0.014078376083425348,
      "745": 0.0848153440294483,
      "746": -0.02770858503253725,
      "747": 0.02203025099445306,
      "748": -0.035302402927961066,
      "749": 0.05950471561059256,
      "750": 0.022490929573752295,
      "751": -0.0073976117580884454,
      "752": 0.042368978841249294,
      "753": -0.04918005471683876,
      "754": 0.015474951208124598,
      "755": 0.02707782794726291,
      "756": -0.0037630927289308146,
      "757": 0.04670068938023492,
      "758": 0.03812709085144448,
      "759": 0.015620558976936968,
      "760": 0.00876890714438653,
      "761": 0.053793029355186844,
      "762": 0.07070488423642284,
      "763": 0.024239402890413073,
      "764": -0.004344247764020925,
      "765": -0.04066887983756513,
      "766": -0.0034616927957153215,
      "767": -0.004602521285134366,
      "768": -0.06605866014508897,
      "769": -0.06067910381270371,
      "770": 0.03146703711100539,
      "771": -0.026874650912056673,
      "772": -0.016597547741771735,
      "773": 0.012579707280239908,
      "774": -0.016905322217506995,
      "775": -0.008162144224068815,
      "776": -0.0015119764404269733,
      "777": -0.01606937178695443,
      "778": -0.010568342811796468,
      "779": 0.009890436439218626,
      "780": -0.01054556339129649,
      "781": -0.008365130726354352,
      "782": 0.008102119782532884,
      "783": 0.011458690947583566,
      "784": -0.026755045670763852,
      "785": 0.002863903611171192,
      "786": -0.033651821097094456,
      "787": 0.014058820974178064,
      "788": 0.037640146243257115,
      "789": 0.0060442409497967215,
      "790": 0.03557378707137589,
      "791": -0.04563376027741911,
      "792": 0.007168183297413545,
      "793": 0.0490359085850325,
      "794": -0.011929298886273922,
      "795": -0.05051283534337533,
      "796": 0.03288960772540706,
      "797": -0.029273587372428782,
      "798": -0.05738083665979487,
      "799": -0.009314485547839185,
      "800": 0.018256124185334743,
      "801": 0.03968832713941068,
      "802": 0.018847426488635126,
      "803": 0.029035715570336712,
      "804": 0.0041301672626709515,
      "805": 0.011607548814645556,
      "806": -0.032098363545787004,
      "807": -0.03807110959397064,
      "808": -0.03596011317487026,
      "809": -0.019485233488811406,
      "810": 0.021071547717578694,
      "811": -0.004084318733449741,
      "812": 0.04174447307595067,
      "813": -0.0008810828468368452,
      "814": 0.013902082070636548,
      "815": -0.0175627871265526,
      "816": 0.010177579547526105,
      "817": -0.012160900337980068,
      "818": -0.04792955112996692,
      "819": -0.0027969358246486362,
      "820": -0.019849960855307054,
      "821": -0.0069122543490100444,
      "822": 0.0201843740962266,
      "823": -0.017151772308638513,
      "824": 0.07088065066007981,
      "825": -0.03810138775512856,
      "826": -0.008065237161066802,
      "827": 0.013907261321823822,
      "828": -0.021046295160104842,
      "829": 0.012610047161216288,
      "830": -0.006121954639872942,
      "831": 0.008347575098946942,
      "832": 0.006627387823579809,
      "833": -0.03209509963724916,
      "834": 0.024061242831031417,
      "835": 0.013875719304400335,
      "836": 0.018655679414613574,
      "837": -0.015903114956944842
     }
    },
    {
     "sx": 1,
     "sy": 1,
     "depth": 838,
     "w": {
      "0": -2893.631220887394,
      "1": 0.02198468744374449,
      "2": 0.012844163485886486,
      "3": -0.03107023698825921,
      "4": 0.011822086819834725,
      "5": -0.028099659180351406,
      "6": -0.042462982916008626,
      "7": 0.026902340662890174,
      "8": -0.05454080470484026,
      "9": -0.14279659036136916,
      "10": -0.09674172257528828,
      "11": -0.008054698400389228,
      "12": -0.032822102584181556,
      "13": -0.0440591168529529,
      "14": -0.058085161393545345,
      "15": -0.0019277385458315703,
      "16": -0.012398409745109704,
      "17": -0.06697346925213976,
      "18": -2787.3635422115753,
      "19": -0.030705358275706758,
      "20": -0.050882695050094635,
      "21": -0.08154414295745853,
      "22": -0.03839539319268104,
      "23": 0.014105826473098318,
      "24": 0.025092955336164492,
      "25": 0.011867569230569636,
      "26": -0.025982590941828594,
      "27": -0.02439033064643984,
      "28": -0.07709628658061508,
      "29": -0.12180773994986067,
      "30": -0.020621171982219584,
      "31": -0.047187432461831796,
      "32": -0.08335824061171404,
      "33": -0.06633272099376951,
      "34": -0.11828050095147287,
      "35": -0.06193022215189431,
      "36": 0.041450139528648344,
      "37": -0.20720096145059902,
      "38": -0.004321097523916044,
      "39": -0.053761495736983404,
      "40": -0.00146802883958539,
      "41": -0.0418334899628562,
      "42": -0.17573196831948368,
      "43": 0.011024822055642265,
      "44": 0.05296543868063925,
      "45": -0.34914290910936574,
      "46": 0.02311037755027546,
      "47": -0.04905827878111828,
      "48": -0.058285836235756734,
      "49": -0.5513480347279531,
      "50": -0.03680097380460656,
      "51": 0.0422092375596941,
      "52": 0.008554090521454599,
      "53": 0.02439488429132186,
      "54": -0.032637258697201424,
      "55": -0.03759850731300301,
      "56": -0.043248907464020325,
      "57": -0.3968233225444345,
      "58": 0.05012813427727792,
      "59": -2726.7447115654945,
      "60": 0.0005111209411117532,
      "61": -0.010944128120030755,
      "62": -0.08958472584173803,
      "63": -0.02687364280591629,
      "64": 0.03928566194353278,
      "65": 0.011867270649651193,
      "66": 0.00015680707459116987,
      "67": -0.06870953186152896,
      "68": -0.12370221943856158,
      "69": -0.06336699898749665,
      "70": -0.038143643623915556,
      "71": 0.0227483770858434,
      "72": -0.0543533181066152,
      "73": -0.1074663104969422,
      "74": -0.10428188044735998,
      "75": -0.09829406381654106,
      "76": -0.09335763509524003,
      "77": -0.6384431351441567,
      "78": 0.019210350491297976,
      "79": -0.4789052166781925,
      "80": 0.04716931320002571,
      "81": -0.023267965920219544,
      "82": 0.014361805946648197,
      "83": -0.2405184407642587,
      "84": -0.1894230856886966,
      "85": 0.18007099684631986,
      "86": -0.07884818807377433,
      "87": -0.05175281228616035,
      "88": -0.06560064080697173,
      "89": -0.005367637401049349,
      "90": -0.001694552582780358,
      "91": 0.06492959100173203,
      "92": 0.012454148844917584,
      "93": -0.22104919673358603,
      "94": -0.04855740822001498,
      "95": 0.047922049731523614,
      "96": -0.008132722591634738,
      "97": -0.028999544889573223,
      "98": -0.36690737768273557,
      "99": 0.006606451961350123,
      "100": -2641.9617572431903,
      "101": 0.01476242265835936,
      "102": -0.009573510196632247,
      "103": -0.0796831989907815,
      "104": -0.038191818585736614,
      "105": 0.06976284618052843,
      "106": 0.012555787119645605,
      "107": -0.0447754558713821,
      "108": -0.10218806479034737,
      "109": -0.08239091600821646,
      "110": 0.015062120892781626,
      "111": -0.08378509312419742,
      "112": -0.035135945503644336,
      "113": -0.1133236667739836,
      "114": -0.01858863029960234,
      "115": -0.06342312645197049,
      "116": -0.06695330089065349,
      "117": -0.1264391749988913,
      "118": 0.0016647801572357234,
      "119": 0.03369374272984954,
      "120": -0.5203256720212632,
      "121": 0.10669139155130258,
      "122": -0.3555110113331625,
      "123": -0.035937997910263635,
      "124": -0.09698372852385717,
      "125": -0.19348107344170218,
      "126": -0.598549213225825,
      "127": 0.03649445526755665,
      "128": -0.04558215905842278,
      "129": -0.0690726578403482,
      "130": -0.0015001870292249565,
      "131": 0.026670109401900885,
      "132": 0.008059660589677168,
      "133": 0.011177662375174207,
      "134": -0.19705014235241786,
      "135": -0.0014173268428189735,
      "136": -0.00011036473581176617,
      "137": 0.033333236103483065,
      "138": 0.01437917039220529,
      "139": -0.04293633879176091,
      "140": -0.03529357464803793,
      "141": -2557.111876728895,
      "142": 0.021452521581200035,
      "143": -0.05410651469935032,
      "144": -0.09399372346757043,
      "145": -0.049719949468124386,
      "146": 0.03788891797844541,
      "147": 0.06280145797846473,
      "148": -0.003941015253172103,
      "149": -0.0827430914074935,
      "150": -0.17843008830875726,
      "151": -0.057423069854810146,
      "152": 0.011173086748458638,
      "153": -0.1462340199330672,
      "154": -0.0505326658685282,
      "155": 0.009823683009110074,
      "156": -0.055785564338993725,
      "157": -0.07332085943683683,
      "158": -0.04955798259324524,
      "159": 0.06959089400557314,
      "160": -0.19891812148982707,
      "161": -0.26038895799394335,
      "162": -0.58107560279048,
      "163": -0.2908861800587185,
      "164": 0.04290182761390353,
      "165": -0.0920978878177109,
      "166": 0.02931898691704093,
      "167": -0.046179839958829155,
      "168": 0.021240185067981202,
      "169": -0.011693297482016599,
      "170": 0.010698474685345932,
      "171": 0.022227651940737735,
      "172": -0.4254705538327357,
      "173": 0.01236933821331537,
      "174": -0.14540379289223712,
      "175": 0.07718733497546162,
      "176": -0.004360482074184424,
      "177": 0.009317010903054498,
      "178": 0.053890556069083974,
      "179": 0.13042088063988933,
      "180": -0.09188104913353932,
      "181": 0.015529286454963782,
      "182": -2484.094117946897,
      "183": -0.01139063023021655,
      "184": 0.06834803545062046,
      "185": -0.08964621575534852,
      "186": 0.0027496288057884005,
      "187": 0.023231430941279958,
      "188": 0.0023703340219987895,
      "189": -0.013714324688949146,
      "190": -0.07393965809847212,
      "191": -0.07735245296481136,
      "192": -0.012611449341219546,
      "193": -0.07983233362150761,
      "194": -0.07401753366100718,
      "195": 0.017359290142506666,
      "196": -0.04677892482295856,
      "197": -0.04691967737458172,
      "198": -0.05506821103508779,
      "199": -0.0503195695671743,
      "200": -0.5188500945373477,
      "201": -0.22616123127925045,
      "202": -0.03264438214913405,
      "203": -0.024005597138534406,
      "204": -0.05557997661126864,
      "205": 0.02421554347682209,
      "206": -0.020388031373317624,
      "207": 0.018770150349784208,
      "208": -0.00023846616018685388,
      "209": 0.016333972849980633,
      "210": -0.00755059592928287,
      "211": 0.1470521205746828,
      "212": 0.03844766423178193,
      "213": -0.25295134633371674,
      "214": 0.003304935609259419,
      "215": -0.15436279068782002,
      "216": 0.03249867826508453,
      "217": 0.010896416466547574,
      "218": -0.03290351848318095,
      "219": -0.17388677863410412,
      "220": -0.6623601157198309,
      "221": -0.016612967693121976,
      "222": -0.033370523051508075,
      "223": -2393.20537201755,
      "224": 0.0684401083468211,
      "225": 0.04551649002085925,
      "226": -0.03286725096825561,
      "227": -0.0012279938728058997,
      "228": 0.030298602675877483,
      "229": 0.002357979941603555,
      "230": -0.008351753060045508,
      "231": 0.025334268789728453,
      "232": -0.10398198849466966,
      "233": -0.012810340888451443,
      "234": -0.062147183328004355,
      "235": -0.08608835619975573,
      "236": -0.051183990660296344,
      "237": -0.029308393209910084,
      "238": -0.007713115192567413,
      "239": -0.03991762759211755,
      "240": -0.03769456670409936,
      "241": -0.4214294243178462,
      "242": 0.008618357711859943,
      "243": 0.046429491377556226,
      "244": 0.020016946629688035,
      "245": 0.01729917496481047,
      "246": 0.02440101019914884,
      "247": 0.012929140761248539,
      "248": -0.03574254722563485,
      "249": -0.33814750360896445,
      "250": 0.004002700228137006,
      "251": -0.017370554209011655,
      "252": -0.5857005573670501,
      "253": 0.04620294441660802,
      "254": -0.03522771782741962,
      "255": -0.003390132776357113,
      "256": 0.020097238939573204,
      "257": -0.002595623295876507,
      "258": 0.03735889765070095,
      "259": -0.003686384210816631,
      "260": -0.1499014013031986,
      "261": -0.023069127793558204,
      "262": 0.00658787133065543,
      "263": -0.18397860621225737,
      "264": -2287.9952796168486,
      "265": 0.019945687434565606,
      "266": 0.011114350127214881,
      "267": -0.11504432893312362,
      "268": -0.024144923056128142,
      "269": 0.052570930376417434,
      "270": -0.06237218980455498,
      "271": 0.002697460333395051,
      "272": -0.036595108604587444,
      "273": -0.13316160375140088,
      "274": -0.03553318562119894,
      "275": -0.02629738969723704,
      "276": 0.010737256750504881,
      "277": -0.07405695722573004,
      "278": -0.03135409094114248,
      "279": -0.050075109010898726,
      "280": -0.11118222593044039,
      "281": -0.06976216046172949,
      "282": -0.08429641323361883,
      "283": 0.032279776923991116,
      "284": -0.0036218795587188287,
      "285": -0.4182558887222378,
      "286": 0.012086446080731991,
      "287": -0.047806552283517385,
      "288": -0.4717641787205982,
      "289": -0.13857313130120233,
      "290": -0.422923964951046,
      "291": -0.02890139312407836,
      "292": 0.01351146906744231,
      "293": 0.030872195976015385,
      "294": -0.03757227901253101,
      "295": -0.12867107154258198,
      "296": -0.005208536812288225,
      "297": -0.011662385450316885,
      "298": -0.10348346596387381,
      "299": -0.006764044612657566,
      "300": 0.02517842642383542,
      "301": -0.059688922328979724,
      "302": -0.020265127674928225,
      "303": -0.02989871625512606,
      "304": -0.23517693903670972,
      "305": -2183.077111801661,
      "306": -0.008591892870474165,
      "307": 0.017790072147090517,
      "308": -0.16045340747773956,
      "309": 0.04013698730796514,
      "310": 0.03172265154616984,
      "311": 0.06056853670134193,
      "312": 0.058537073276391835,
      "313": -0.00881472619844836,
      "314": -0.11620954925647507,
      "315": -0.059534534954144076,
      "316": -0.06089514654503,
      "317": -0.08808163927204721,
      "318": -0.06445182948313893,
      "319": -0.0010758982288729805,
      "320": -0.07324344509294373,
      "321": -0.03332327631763604,
      "322": -0.030793800785604637,
      "323": 0.07938974305392524,
      "324": 0.04594278705414295,
      "325": -0.13250851910348777,
      "326": -0.35874412032176295,
      "327": 0.010173771115298649,
      "328": -0.1775564321112505,
      "329": -0.6670887849209601,
      "330": -0.08846060370686532,
      "331": -0.08336892390587267,
      "332": -0.006073952325075375,
      "333": -0.04171913798707109,
      "334": 0.004412943124042138,
      "335": 0.032614224003855836,
      "336": -0.10534331990066192,
      "337": -0.09538114307734831,
      "338": 0.01033537449565705,
      "339": -0.08047408588219943,
      "340": 0.05637830574943578,
      "341": 0.006149545485917588,
      "342": -0.01565713173681326,
      "343": -0.36510595407888957,
      "344": 0.027106052821829225,
      "345": 0.014656652165363148,
      "346": -2110.532910694107,
      "347": -0.039360404609298266,
      "348": 0.031093287787035,
      "349": -0.02001380829267022,
      "350": -0.06724974280997971,
      "351": 0.01240825261001311,
      "352": 0.011346512028380868,
      "353": -0.0084735488835488,
      "354": -0.07430723086332289,
      "355": -0.0542932784576539,
      "356": -0.0046754542854106846,
      "357": -0.051861394441640084,
      "358": -0.12036085573163244,
      "359": -0.10332077875134257,
      "360": 0.027285106027440734,
      "361": -0.004343326466119312,
      "362": -0.06541449069748283,
      "363": -0.09112055384738986,
      "364": 0.10411334654253067,
      "365": -0.7864730999632771,
      "366": 0.032786660578332544,
      "367": -0.023449099223982556,
      "368": -0.004734607461502226,
      "369": -0.1634475915986478,
      "370": 0.0807512583790017,
      "371": 0.04439391011549567,
      "372": -0.03639460100910445,
      "373": 0.022558754000030913,
      "374": 0.010817930648507806,
      "375": -0.4169151150775867,
      "376": 0.04480357950482611,
      "377": 0.00563190174786073,
      "378": -0.019147692710503796,
      "379": -0.13513709935685195,
      "380": -0.026183925464203794,
      "381": -0.0076573340538147435,
      "382": -0.1656755609652194,
      "383": 0.030578879636280393,
      "384": -0.2787319100859132,
      "385": -0.04702768779614278,
      "386": -0.011262791628660465,
      "387": -2040.3868324503783,
      "388": 0.005487930155392057,
      "389": -0.009163082054561013,
      "390": -0.08994438532694511,
      "391": -0.07169894999812294,
      "392": 0.024939756298030125,
      "393": 0.018010491291743765,
      "394": 0.03211439646210294,
      "395": 0.013427168594981057,
      "396": -0.040835229123705206,
      "397": -0.049452378208022604,
      "398": -0.08335965341265919,
      "399": -0.05046414599845109,
      "400": -0.011475864742550367,
      "401": -0.06244723820843382,
      "402": -0.014268440313272193,
      "403": -0.04892662738160668,
      "404": -0.07708655755091849,
      "405": -0.683379134867592,
      "406": -0.16393726704938913,
      "407": 0.003308492938067073,
      "408": -0.017725973050131325,
      "409": 0.0025146852937130947,
      "410": 0.08769741301971455,
      "411": -0.42496186657403795,
      "412": 0.11582794982549847,
      "413": 0.03929360095690579,
      "414": -0.0176395007841205,
      "415": -0.16952905237294796,
      "416": -0.2849137587281748,
      "417": -0.012728659850009006,
      "418": -0.0020593038012629754,
      "419": 0.004512717813114614,
      "420": 0.034675287123847445,
      "421": 0.0032099155636883922,
      "422": 0.045579034916710295,
      "423": -0.22808674918337155,
      "424": -0.17161029871750458,
      "425": -0.07647296315745106,
      "426": -0.020550190888331547,
      "427": 0.010332688459233878,
      "428": -1930.2786527147407,
      "429": 0.030498720693922503,
      "430": -0.08804958996426733,
      "431": -0.03816706806750501,
      "432": -0.029312816153611018,
      "433": 0.06529943878605617,
      "434": -0.018495221656170728,
      "435": -0.011833445033676254,
      "436": -0.0073038052482816375,
      "437": -0.0896703536793186,
      "438": -0.001194234567159494,
      "439": -0.08273569151110939,
      "440": -0.09622182166066752,
      "441": -0.03189625531150979,
      "442": -0.07325450184778876,
      "443": -0.12039584724258996,
      "444": -0.10762351646806133,
      "445": -0.06102484345637836,
      "446": -0.012029467744069608,
      "447": 0.011540452475445627,
      "448": 0.0477451568997446,
      "449": 0.041959873598040105,
      "450": 0.02189494739655696,
      "451": 0.008600779238464163,
      "452": -0.7836008677381263,
      "453": -0.4631103808243481,
      "454": 0.06927249578933134,
      "455": 0.017856857478917184,
      "456": -0.16141587200846072,
      "457": -0.06860343831384569,
      "458": 0.020998320677386675,
      "459": 0.014018704793829844,
      "460": -0.042711144781774034,
      "461": -0.01577618580500251,
      "462": -0.08351232292550402,
      "463": -0.1898310675165899,
      "464": 0.0670056361208343,
      "465": -0.05019674120956628,
      "466": -0.003985750343924055,
      "467": -0.011360459068404553,
      "468": -0.08983675550435671,
      "469": -1851.2286740826544,
      "470": -0.013677235728755155,
      "471": 0.013814941912436995,
      "472": -0.06984313416998089,
      "473": -0.05912447438582636,
      "474": 0.003271792223808379,
      "475": 0.0495754569183765,
      "476": -0.026092058892725124,
      "477": -0.0276402460948226,
      "478": -0.06123295751013155,
      "479": -0.035898688976076926,
      "480": -0.027399158030406108,
      "481": 0.0013865452509184053,
      "482": -0.0559372836384983,
      "483": -0.027696219029583632,
      "484": -0.05998220961293544,
      "485": -0.0299882583106503,
      "486": -0.08717913440717524,
      "487": -0.02432032922889402,
      "488": -0.38940610342668264,
      "489": -0.07182488323571869,
      "490": 0.04196534583815741,
      "491": 0.03726340104653074,
      "492": 0.029899211481973546,
      "493": -0.4501206163237218,
      "494": -0.6930240433724798,
      "495": -0.019053768808010362,
      "496": -0.06787404748450221,
      "497": 0.07469050172498785,
      "498": 0.044061504307597,
      "499": -0.012104418807021148,
      "500": -0.1714337714646795,
      "501": -0.03563157428866594,
      "502": -0.03480024576670655,
      "503": -0.06193632614808874,
      "504": -0.14660319091411766,
      "505": 0.01021636701625962,
      "506": 0.01835397694762508,
      "507": 0.09127022783805655,
      "508": -0.02627827659664237,
      "509": -0.014210350163980083,
      "510": -1836.6328852473534,
      "511": 0.013337525555937046,
      "512": 0.006721078219742731,
      "513": -0.07199924468956641,
      "514": -0.002185596405509213,
      "515": -0.006565855005869496,
      "516": 0.010968486306779835,
      "517": 0.024339944252834218,
      "518": -0.0896680058827,
      "519": -0.10895392270385482,
      "520": -0.10799556217995797,
      "521": -0.05980843732330739,
      "522": -0.12912031430938864,
      "523": -0.013207318239774939,
      "524": -0.01496083100654907,
      "525": -0.007769402886352093,
      "526": -0.07230773593484771,
      "527": -0.04102695097854014,
      "528": -0.40838595191263555,
      "529": -0.947370913425948,
      "530": -0.2899185902381345,
      "531": -0.0436655972057488,
      "532": 0.042767663969288286,
      "533": -0.18264171611160965,
      "534": 0.005685450721181175,
      "535": -0.03319830546880594,
      "536": 0.020210518311063973,
      "537": -0.02826011862885894,
      "538": 0.025474484939074345,
      "539": -0.02453186591774443,
      "540": -0.02741610985835106,
      "541": 0.016581942784981357,
      "542": -0.0014275314809738503,
      "543": -0.03901533269558591,
      "544": 0.032810483186323854,
      "545": 0.016922116375083174,
      "546": 0.06064044076973879,
      "547": 0.02511207386065543,
      "548": -0.014285999198654043,
      "549": -0.05060052125495814,
      "550": 0.0015248313872855644,
      "551": -1792.736911092458,
      "552": -0.018938963135264823,
      "553": -0.015109247825848804,
      "554": -0.04712649381874819,
      "555": -0.054249858239961424,
      "556": -0.037515653536360785,
      "557": 0.1050719160501168,
      "558": -0.009445064549186147,
      "559": -0.07585638269958667,
      "560": -0.08923698495151812,
      "561": -0.044221048884578056,
      "562": -0.02099274075012199,
      "563": -0.07241887713115681,
      "564": -0.10022367811803173,
      "565": -0.018708250361538933,
      "566": -0.060099121407108394,
      "567": -0.07826054655986882,
      "568": -0.04284983462137203,
      "569": -0.331530218725472,
      "570": -0.6146945913237084,
      "571": -0.15666959860930865,
      "572": 0.0024865603244668254,
      "573": 0.002994348520189194,
      "574": -0.021177870095388365,
      "575": 0.14760556868864616,
      "576": -0.4180663236473438,
      "577": 0.027000383481539,
      "578": -0.04678179274493152,
      "579": -0.01794711281269661,
      "580": 0.08936804879534689,
      "581": 0.0007115282158558426,
      "582": 0.0019186913463065506,
      "583": -0.10301543914051914,
      "584": -0.029194671952981522,
      "585": 0.07532260592649395,
      "586": -0.006168070697158477,
      "587": -0.19027963996514624,
      "588": -0.05794144025372723,
      "589": -0.15676654889042588,
      "590": -0.001448054170913468,
      "591": 0.007227012404541489,
      "592": -1667.8940173889139,
      "593": 0.036647415664736276,
      "594": -0.046803030671827034,
      "595": -0.001161406347829221,
      "596": -0.03634692258745746,
      "597": -0.01841522046765054,
      "598": 0.043201152433781836,
      "599": -0.030036261680760977,
      "600": -0.11584719132364406,
      "601": -0.053140948701516456,
      "602": -0.0735615137412691,
      "603": -0.08291067139586396,
      "604": -0.07121685843936859,
      "605": -0.05203461370522091,
      "606": 0.0035411049065363688,
      "607": -0.05564438847744879,
      "608": -0.10552395482075146,
      "609": -0.02151530396725136,
      "610": -0.06524213192121767,
      "611": -0.03527419072808796,
      "612": 0.029369023675407988,
      "613": -0.029985814151500072,
      "614": 0.049954504995346406,
      "615": 0.020197150771983693,
      "616": -0.5623951732695945,
      "617": -0.7288979069496204,
      "618": 0.023630100858632732,
      "619": 0.10915042888735342,
      "620": -0.29497330270764355,
      "621": 0.005034322998929121,
      "622": 0.007625408804045624,
      "623": -0.01787196535317562,
      "624": 0.020347517468585034,
      "625": -0.0006357042912568882,
      "626": 0.1144840643752377,
      "627": 0.05602020418373881,
      "628": -0.013747231847987528,
      "629": -0.06358597509396992,
      "630": -0.18412024446252687,
      "631": 0.016704707941529378,
      "632": -0.07469356500736593,
      "633": -1576.9201948252598,
      "634": -0.0482239548225888,
      "635": -0.0045509486559266255,
      "636": -0.015577571291857356,
      "637": -0.053102804452612125,
      "638": 0.0018363504758509256,
      "639": 0.06408073541533034,
      "640": -0.041921931186552235,
      "641": -0.012615943411803426,
      "642": -0.11746604671441266,
      "643": -0.0575803801806299,
      "644": -0.048040770682281395,
      "645": -0.04562287161671957,
      "646": -0.08098242779026626,
      "647": -0.013445169781306245,
      "648": -0.02168282714470085,
      "649": -0.030648193614484856,
      "650": -0.02693691501688768,
      "651": -0.007544404460129311,
      "652": -0.4036041164963645,
      "653": 0.190307922130327,
      "654": -0.043862000549260684,
      "655": 0.006567201839863229,
      "656": 0.043516114769430445,
      "657": 0.016390684934269383,
      "658": -0.43668880842053626,
      "659": 0.03314357321850841,
      "660": -0.17644654022874634,
      "661": -0.1986009567573118,
      "662": 0.009113372729528188,
      "663": -0.022041202982663335,
      "664": -0.05044540549121866,
      "665": 0.0067389187662332106,
      "666": 0.027558660925600845,
      "667": -0.5722281068568983,
      "668": -0.09989875994112021,
      "669": 0.01324717805112162,
      "670": -0.049322693712955515,
      "671": 0.03878969933380878,
      "672": -0.024935142100971572,
      "673": -0.11194141146573049,
      "674": -1549.655214204484,
      "675": 0.014999713081839644,
      "676": -0.038719425750638824,
      "677": -0.015233674478306418,
      "678": -0.10220635581036684,
      "679": 0.031006917513520596,
      "680": 0.06161002980038271,
      "681": 0.0003964311012093964,
      "682": -0.10652217467431047,
      "683": -0.07093196468942443,
      "684": -0.05850824117667168,
      "685": -0.04761231024203283,
      "686": 0.05818594341416645,
      "687": -0.059515316678826924,
      "688": 0.02977761028648601,
      "689": -0.062296541465275336,
      "690": -0.05603112500495853,
      "691": -0.04553345489073817,
      "692": 0.025856747848470387,
      "693": -0.8885922971895726,
      "694": -0.55390872934173,
      "695": 0.037250760171005204,
      "696": 0.08412537523805241,
      "697": -0.06842073498693302,
      "698": -0.01213458486936049,
      "699": -0.1899778070320696,
      "700": -0.016961538435996053,
      "701": -0.1899275085349407,
      "702": 0.02515068466580485,
      "703": 0.028108196155798095,
      "704": -0.06804409126326176,
      "705": -0.08278951582369104,
      "706": 0.02816012359631141,
      "707": 0.187091043429981,
      "708": 0.0035173817291231785,
      "709": -0.06693882510089107,
      "710": -0.01644840066827611,
      "711": 0.01811712240143576,
      "712": 0.01333979550262423,
      "713": 0.02385320007748644,
      "714": -0.022237872725874505,
      "715": -1457.0290097512236,
      "716": -0.025149067692663757,
      "717": -0.028734683930071513,
      "718": -0.022773427824722754,
      "719": -0.07961395316282274,
      "720": -0.011970530291824426,
      "721": 0.049806859076105055,
      "722": -0.016929461861899055,
      "723": -0.06964373218439876,
      "724": -0.09741537573919348,
      "725": -0.03014630558788114,
      "726": -0.05438147013991137,
      "727": -0.07821967831828595,
      "728": -0.027623632740783177,
      "729": 0.029166378804903522,
      "730": -0.05876586758739413,
      "731": -0.07071559684251481,
      "732": -0.03368164551340204,
      "733": -0.02706242505988025,
      "734": -0.44770761827365596,
      "735": -0.14077674714737892,
      "736": 0.00398713084441001,
      "737": 0.01537795090386374,
      "738": -0.12764005781189056,
      "739": -0.4628456781172039,
      "740": -0.14570061266192005,
      "741": 0.029939862523494763,
      "742": -0.003156462568932342,
      "743": 0.03338573469097223,
      "744": 0.009913371244456057,
      "745": 0.016328032199363483,
      "746": -0.07588753056238604,
      "747": -0.000015046866185263092,
      "748": -0.6472775811310215,
      "749": 0.022563315095376322,
      "750": -0.0540014612467663,
      "751": -0.2547605861306417,
      "752": 0.15626786721098662,
      "753": 0.03237316925561541,
      "754": -0.029766254404945486,
      "755": 0.11228103732959101,
      "756": -1344.4297575567164,
      "757": -0.05446434607159915,
      "758": -0.012096112995858678,
      "759": -0.034623570909382846,
      "760": -0.01312542836796589,
      "761": 0.027988112432282285,
      "762": 0.03913860669689084,
      "763": 0.01722897178699789,
      "764": -0.0401374130747854,
      "765": -0.04476872851724874,
      "766": -0.02469276893230168,
      "767": -0.08381691867004076,
      "768": -0.025600707047700528,
      "769": -0.05653896996019331,
      "770": 0.03452443835333218,
      "771": -0.05515427228883947,
      "772": -0.06310609753748792,
      "773": -0.0415247655782792,
      "774": 0.009421561844746157,
      "775": -0.06417700091453327,
      "776": -0.00968505229343935,
      "777": -0.04367020405715033,
      "778": 0.016206077829324417,
      "779": 0.03440681363050591,
      "780": -0.343105153472429,
      "781": 0.029968749839463373,
      "782": 0.029799470780137373,
      "783": -0.02579973868293376,
      "784": -0.08046737921272584,
      "785": 0.027486082532744146,
      "786": -0.020600680166139744,
      "787": -0.003987698539425099,
      "788": -0.13894713254050292,
      "789": 0.047736230095233444,
      "790": -0.40484209269744986,
      "791": 0.016750716416669864,
      "792": -0.19666288165150017,
      "793": -0.5417234821792096,
      "794": -0.16882606059937044,
      "795": 0.006325525522520565,
      "796": 0.12251440026774386,
      "797": -1258.46419139591,
      "798": 0.028724642234728037,
      "799": -0.047172298301060296,
      "800": -0.03189829026770629,
      "801": -0.05316736818872935,
      "802": 0.004317459267610705,
      "803": 0.006598649692978572,
      "804": 0.006725066774429067,
      "805": -0.06404007268421914,
      "806": -0.06744582349347904,
      "807": -0.04833385826676697,
      "808": -0.04667555541724635,
      "809": -0.11448857424877919,
      "810": -0.06276283361265546,
      "811": 0.021023597956023037,
      "812": -0.03120667927600157,
      "813": -0.11504637447016486,
      "814": -0.09751743976244802,
      "815": 0.021142016194923556,
      "816": 0.042305779241384296,
      "817": -0.3879413306177077,
      "818": 0.011885523995014025,
      "819": 0.011881480381248153,
      "820": -0.09833102477200807,
      "821": -0.1466505550124078,
      "822": -0.02024329583986136,
      "823": 0.022142081901821528,
      "824": -0.0096792829887224,
      "825": -0.21053405954550955,
      "826": 0.04402855274727821,
      "827": 0.032830004480041294,
      "828": 0.18011025311456064,
      "829": -0.17135212142513168,
      "830": -0.07695534912351819,
      "831": -0.3830437263932241,
      "832": -0.01700021510858821,
      "833": -0.0026144053456385818,
      "834": 0.00362255212163546,
      "835": -0.046376168265838756,
      "836": 0.04835857544575174,
      "837": -0.6175046394092131
     }
    },
    {
     "sx": 1,
     "sy": 1,
     "depth": 838,
     "w": {
      "0": -0.06281461045850735,
      "1": 0.0004469606717179845,
      "2": -0.047140721132575746,
      "3": 0.040059735533850185,
      "4": 0.03196220634982424,
      "5": 0.035806946289754324,
      "6": -0.009795300343026368,
      "7": -0.00020781259602232826,
      "8": 0.00794047160022401,
      "9": -0.0398177803686756,
      "10": 0.029746066889613773,
      "11": -0.02188347709602945,
      "12": -0.052124502952536275,
      "13": -0.0055293902130151605,
      "14": 0.0475321539447205,
      "15": -0.0038126883905997225,
      "16": 0.012011883290228384,
      "17": 0.03131793808202985,
      "18": -0.01111428363919392,
      "19": -0.02042694974131363,
      "20": 0.017937824332715624,
      "21": 0.02764078491370405,
      "22": -0.0007516320947226175,
      "23": 0.012513258014188884,
      "24": -0.010417555841346982,
      "25": 0.000528112444358786,
      "26": -0.003641471780926912,
      "27": 0.05199250087889697,
      "28": 0.021391981236592156,
      "29": -0.023035448944282975,
      "30": -0.00464573718778591,
      "31": 0.02962343022451959,
      "32": -0.06394807192912849,
      "33": 0.011024286231117796,
      "34": -0.014945200810174,
      "35": -0.006123567245042373,
      "36": 0.008893410792245234,
      "37": 0.030552760653044842,
      "38": 0.03244873192682891,
      "39": 0.024955410314019932,
      "40": 0.0019311385775702776,
      "41": 0.004808253593418228,
      "42": -0.05269670604359549,
      "43": 0.0027840176800406073,
      "44": 0.04237585900002906,
      "45": -0.0023969495892858877,
      "46": 0.09077055571674857,
      "47": -0.05845767372944118,
      "48": -0.012801944027553068,
      "49": 0.0017498791385206754,
      "50": -0.017879146046816157,
      "51": 0.038704107401651325,
      "52": -0.022232860214759714,
      "53": -0.03383332928009344,
      "54": 0.01834271963088126,
      "55": -0.0019225649676398054,
      "56": -0.06341066789799993,
      "57": 0.007923539049702397,
      "58": 0.010797007276907534,
      "59": 0.026937108804262283,
      "60": -0.07390741205057107,
      "61": -0.0010792479739019046,
      "62": 0.006017897445131244,
      "63": 0.04234384791624792,
      "64": 0.01638588823768145,
      "65": 0.008578024233281727,
      "66": -0.03769175101339965,
      "67": -0.014499027056272436,
      "68": 0.011995520972498473,
      "69": 0.04176433943612311,
      "70": -0.013453171572582204,
      "71": -0.07173832866452638,
      "72": 0.028599772912398947,
      "73": -0.013441035625260587,
      "74": -0.011757414222327931,
      "75": -0.003315270554752707,
      "76": 0.029205394835736715,
      "77": 0.02002382966905257,
      "78": -0.015257688316447445,
      "79": -0.0007177511621909717,
      "80": 0.009118154656897269,
      "81": 0.008734597821157992,
      "82": -0.061328235962977755,
      "83": 0.06992991343338538,
      "84": -0.011717108707944632,
      "85": -0.028204126515323127,
      "86": 0.10641699936072752,
      "87": -0.0015072390461234543,
      "88": -0.03275996074886027,
      "89": 0.006032347569503056,
      "90": -0.02205523952671079,
      "91": -0.009724506093827905,
      "92": -0.019317186539497464,
      "93": -0.02127871081779938,
      "94": -0.004813775890170808,
      "95": 0.04259483987962592,
      "96": -0.01968537387506139,
      "97": 0.05586051059480804,
      "98": 0.006879739792677748,
      "99": -0.042339135363281044,
      "100": -0.019852006035259166,
      "101": -0.022102030224664733,
      "102": 0.03447129907352519,
      "103": -0.04119212640008166,
      "104": -0.008430634729496948,
      "105": 0.02439791634921926,
      "106": 0.014930164567545248,
      "107": -0.03339584081585183,
      "108": 0.00871550163875808,
      "109": -0.03531299806300479,
      "110": 0.03213577929073605,
      "111": -0.07449615595089681,
      "112": -0.006218227061205625,
      "113": -0.011020629396912628,
      "114": -0.016292823342004215,
      "115": 0.03520074077557683,
      "116": -0.03772088115173636,
      "117": 0.04978319180610857,
      "118": 0.027463956112632477,
      "119": -0.05628956825977723,
      "120": -0.043817517536233884,
      "121": -0.015980950857815583,
      "122": -0.02967967190665467,
      "123": -0.03995075512070526,
      "124": 0.0034910526209518326,
      "125": -0.01857402593844353,
      "126": -0.05721726204158552,
      "127": -0.021172082847644384,
      "128": 0.0035452190388164974,
      "129": -0.01945774130731646,
      "130": -0.03577777991293634,
      "131": 0.0030664503203662553,
      "132": -0.03445322128817601,
      "133": 0.02906988837999978,
      "134": -0.039452422008700604,
      "135": -0.08117659817673431,
      "136": 0.059267051250883836,
      "137": 0.0054978468676076106,
      "138": 0.013808676236861625,
      "139": 0.05840158357717132,
      "140": -0.03599719699134683,
      "141": -0.06478301006339575,
      "142": 0.053567090730330016,
      "143": -0.020057266571953166,
      "144": 0.024553918971336006,
      "145": 0.05715139678906286,
      "146": 0.017321109378528963,
      "147": 0.009864186874153892,
      "148": 0.04916878930892636,
      "149": -0.0017890876298118634,
      "150": -0.012635470831452349,
      "151": -0.008578922475543413,
      "152": 0.03127075644705732,
      "153": -0.04165517019640662,
      "154": 0.04778511626479056,
      "155": 0.05148808175867548,
      "156": -0.04096288503125418,
      "157": -0.02955220615245844,
      "158": 0.029116934849280098,
      "159": 0.007378791576906297,
      "160": 0.00043983036423489815,
      "161": 0.028078221584320332,
      "162": -0.06942083044687511,
      "163": -0.0143479040885627,
      "164": -0.016945155115388858,
      "165": 0.031861230528330904,
      "166": -0.0724910035667241,
      "167": 0.04265849847445165,
      "168": 0.00858313137277661,
      "169": 0.010457977127383916,
      "170": -0.014011402960591984,
      "171": -0.038592695273354835,
      "172": 0.042772422366728624,
      "173": -0.03447236388980347,
      "174": 0.027745569711536414,
      "175": 0.0318726226065026,
      "176": -0.013443469310422255,
      "177": -0.04529069685788635,
      "178": -0.03227828962828639,
      "179": -0.037207191046999065,
      "180": 0.03616461458816712,
      "181": -0.02255447429419399,
      "182": 0.008447667730938432,
      "183": 0.011087547681995246,
      "184": -0.0034709227740857187,
      "185": -0.04704977694212305,
      "186": 0.05554800205266265,
      "187": 0.010649201113547058,
      "188": -0.02997209315582023,
      "189": 0.022366432137268858,
      "190": 0.03452816192055551,
      "191": -0.045550835436241284,
      "192": -0.008630955886172187,
      "193": -0.0153645077070003,
      "194": 0.03335119922774668,
      "195": -0.02400477503847183,
      "196": -0.02381201768424368,
      "197": 0.038468765507520174,
      "198": -0.001951718107426217,
      "199": -0.04806945503380031,
      "200": -0.04397886266571052,
      "201": -0.031324465318833074,
      "202": 0.02444702608892089,
      "203": -0.017442345316769307,
      "204": -0.042115370883629016,
      "205": -0.011106523348408037,
      "206": 0.0276004263808602,
      "207": 0.039920373151685715,
      "208": -0.0027410503752820915,
      "209": -0.040148230752374746,
      "210": -0.014462240018761967,
      "211": 0.0013881357944302856,
      "212": -0.032551101101891286,
      "213": 0.01751372479554852,
      "214": -0.022410336231212143,
      "215": -0.0016215899093263548,
      "216": -0.02066888814845636,
      "217": -0.032029329225372424,
      "218": -0.01750099379381945,
      "219": -0.01291952545776221,
      "220": 0.0029542118741397623,
      "221": 0.045160302974514406,
      "222": 0.0011968097528209422,
      "223": -0.004486085802035421,
      "224": 0.03151201929095603,
      "225": 0.06269755883578597,
      "226": -0.01074768458934692,
      "227": -0.026025142967020288,
      "228": 0.004719675538495774,
      "229": 0.04188886983018982,
      "230": -0.03464197407576504,
      "231": 0.032035557481858386,
      "232": 0.04240553407289873,
      "233": 0.039011440130611516,
      "234": -0.019962039144608187,
      "235": -0.07565913931940356,
      "236": 0.12393443194184943,
      "237": 0.03621244149373696,
      "238": -0.031265125019538716,
      "239": 0.00023122167433438847,
      "240": -0.00616469356314887,
      "241": 0.031886644786650105,
      "242": 0.04199191325910836,
      "243": 0.0005988446010168162,
      "244": 0.059666926205982594,
      "245": 0.02323513208276325,
      "246": -0.009607646005232303,
      "247": 0.03704410446126567,
      "248": 0.017098429805160128,
      "249": -0.009083213779939339,
      "250": 0.025918227834892817,
      "251": -0.05214516041759108,
      "252": -0.05734522026773496,
      "253": -0.03437182438540757,
      "254": 0.03924913940763324,
      "255": -0.0768846596934606,
      "256": -0.03911963828767974,
      "257": 0.0059313602651520905,
      "258": -0.02351220182426358,
      "259": -0.06601840918412645,
      "260": 0.024145339237471964,
      "261": 0.003678777963068497,
      "262": -0.0047911012073586804,
      "263": 0.009509237776134731,
      "264": -0.004494755123908696,
      "265": -0.04831639485064842,
      "266": 0.06374728666151853,
      "267": 0.027030459741788825,
      "268": -0.014921643218041921,
      "269": 0.02561341483302069,
      "270": 0.00019934098101769514,
      "271": 0.017308232421790994,
      "272": 0.035909307618785975,
      "273": 0.027336847028142566,
      "274": 0.038251711440929745,
      "275": 0.04445626229431839,
      "276": 0.009192460455794017,
      "277": 0.034511716229954664,
      "278": -0.03315337642497953,
      "279": -0.017783872160889287,
      "280": -0.004238513667550798,
      "281": -0.046879018171931866,
      "282": 0.030702535948440853,
      "283": 0.07124577765479399,
      "284": -0.05512122837309332,
      "285": -0.04720271469999691,
      "286": 0.028609369087113576,
      "287": -0.03584338910843749,
      "288": -0.02125713746741542,
      "289": 0.058516041613759374,
      "290": 0.06912177042183411,
      "291": 0.021190392255980846,
      "292": 0.05438405919671955,
      "293": -0.014449150472895472,
      "294": -0.025877429671780083,
      "295": -0.02583931942354308,
      "296": 0.0022463894549913307,
      "297": -0.043601612698420625,
      "298": 0.034365309606335874,
      "299": -0.0016711546971756109,
      "300": 0.015263732052244145,
      "301": 0.047070349412249586,
      "302": 0.019988251457128757,
      "303": 0.01613026049914888,
      "304": -0.03148716962343115,
      "305": 0.023336395902833134,
      "306": -0.011681802003908805,
      "307": -0.011367390854378198,
      "308": -0.055361099792035594,
      "309": -0.05870786685586041,
      "310": 0.011467124042859694,
      "311": -0.08868414765935635,
      "312": -0.05069771737786955,
      "313": -0.040555038167953306,
      "314": 0.039926632523716796,
      "315": 0.001875492507959988,
      "316": -0.016706474606231637,
      "317": 0.07678592666636876,
      "318": 0.01191864345951751,
      "319": -0.0014156750904294156,
      "320": -0.03441491928595758,
      "321": -0.02563400923211116,
      "322": 0.03881041527213284,
      "323": -0.008263675241383363,
      "324": -0.041405524857376586,
      "325": -0.04302297903949519,
      "326": -0.05713329213403952,
      "327": -0.03454631113948718,
      "328": -0.010295605279637004,
      "329": -0.010336998297114394,
      "330": -0.0035281084935529757,
      "331": -0.04601952912537012,
      "332": 0.03428552469571452,
      "333": -0.009041943940096957,
      "334": 0.01569117047119067,
      "335": 0.004633494588062445,
      "336": -0.004979125907928218,
      "337": 0.08807586970445115,
      "338": 0.011376158307615406,
      "339": 0.03623617353980057,
      "340": -0.059940384783036434,
      "341": -0.01190893815374355,
      "342": 0.005238013870032753,
      "343": -0.06807812342058146,
      "344": 0.05002554157153501,
      "345": -0.017039837516912317,
      "346": -0.0538228919203566,
      "347": -0.009556890791460226,
      "348": 0.026846530495763802,
      "349": 0.04139129794285041,
      "350": 0.020561760985733594,
      "351": 0.03129218636061048,
      "352": -0.018444833870544367,
      "353": -0.023140983773680568,
      "354": 0.0031615099649355714,
      "355": -0.027052911939262743,
      "356": -0.009001641033161437,
      "357": 0.023711998090938116,
      "358": -0.03382428854515458,
      "359": -0.005439504452841128,
      "360": 0.0027721906976627218,
      "361": -0.02144139336862132,
      "362": -0.027808017539368842,
      "363": -0.06158992614564018,
      "364": 0.020112261779480778,
      "365": -0.07096246406379066,
      "366": -0.018192686138085775,
      "367": 0.026460917666930258,
      "368": 0.014474688837981196,
      "369": 0.0277139336328524,
      "370": 0.05262266109312503,
      "371": -0.09103272659433877,
      "372": 0.027193309478317773,
      "373": 0.05270742094850285,
      "374": 0.01377976546282682,
      "375": 0.02633901107156582,
      "376": 0.012055888701378976,
      "377": -0.0353246732295632,
      "378": -0.022960155640490903,
      "379": -0.023114049620443233,
      "380": -0.01686353076005388,
      "381": 0.03836281654246675,
      "382": -0.040880617341010145,
      "383": 0.027498969472061447,
      "384": 0.038695069554785556,
      "385": -0.04780648450013437,
      "386": -0.010376976823374873,
      "387": 0.03591731327283284,
      "388": -0.03860902783613176,
      "389": 0.03306051649093854,
      "390": -0.023957416844781452,
      "391": -0.025058791877529105,
      "392": -0.03606531707366834,
      "393": 0.10260308888254897,
      "394": 0.017886229259936826,
      "395": -0.006356208097374799,
      "396": 0.00457944613551801,
      "397": -0.00411871544613622,
      "398": 0.03698824316657325,
      "399": 0.0165341064393132,
      "400": 0.0450493813735118,
      "401": 0.004123434047356223,
      "402": -0.03523449784112914,
      "403": -0.03510871743037475,
      "404": 0.013038652395156012,
      "405": 0.008133987992003574,
      "406": 0.00500849874916886,
      "407": -0.004161372537108732,
      "408": 0.024368319407672565,
      "409": 0.02972855836268735,
      "410": -0.06794933264002907,
      "411": -0.0032436079640494,
      "412": 0.02319291374511576,
      "413": 0.045910671485316516,
      "414": 0.02536501538690348,
      "415": -0.024721124787301655,
      "416": -0.029555713714548612,
      "417": -0.007643126226153247,
      "418": 0.0042376289807733725,
      "419": -0.023049115666986704,
      "420": -0.025804980428897818,
      "421": 0.03533361439588396,
      "422": 0.02000805061835812,
      "423": 0.012904158751434655,
      "424": 0.014144812865086332,
      "425": -0.011051410812059646,
      "426": -0.012519481753259256,
      "427": -0.039975739632228585,
      "428": 0.05597359804571554,
      "429": 0.04871340712521367,
      "430": 0.03752804677667145,
      "431": -0.0890495716039429,
      "432": 0.01563603300346834,
      "433": -0.004199142851399012,
      "434": 0.04478053624623324,
      "435": -0.01191135347987277,
      "436": 0.012102486862528876,
      "437": -0.047082278803438404,
      "438": -0.0012108427689598382,
      "439": 0.02506927824991704,
      "440": -0.04152086167696856,
      "441": 0.03684056265487073,
      "442": 0.004540686786253609,
      "443": -0.007421266247408063,
      "444": -0.028180700353566873,
      "445": -0.06653057759944797,
      "446": 0.012049501210385803,
      "447": -0.027357123531534078,
      "448": -0.025731139701515363,
      "449": 0.09197223599717262,
      "450": -0.010356432750218615,
      "451": 0.04359041260450882,
      "452": -0.036671747995576424,
      "453": -0.0006468781212298675,
      "454": 0.02050302290584254,
      "455": 0.04151644862338451,
      "456": 0.0023894846172410095,
      "457": 0.016637455919482857,
      "458": 0.027946346397130725,
      "459": 0.034279461399973885,
      "460": -0.0664301472390288,
      "461": 0.017852713535190804,
      "462": 0.05392484150529137,
      "463": 0.04404339052282014,
      "464": -0.0009906811652802064,
      "465": -0.06202255520526806,
      "466": 0.06373962512251882,
      "467": 0.03000232694492802,
      "468": -0.02865424370453542,
      "469": -0.04577694086904788,
      "470": -0.0025876980488112504,
      "471": 0.0023725141377863353,
      "472": 0.018650850201929695,
      "473": -0.04057448538035486,
      "474": -0.019190855469288802,
      "475": -0.07231277528945676,
      "476": 0.06272927093742917,
      "477": 0.0013450288381531732,
      "478": -0.0098016762239897,
      "479": 0.017904801556680266,
      "480": 0.05211160648528289,
      "481": -0.0004471890738984557,
      "482": -0.03589712624494084,
      "483": -0.02476924845074623,
      "484": 0.0021678433470769154,
      "485": 0.036636103243424666,
      "486": -0.03677669555592903,
      "487": 0.0038825913582092096,
      "488": -0.006398918396001991,
      "489": 0.042356537346577225,
      "490": 0.015274082848316328,
      "491": 0.021376764156963896,
      "492": -0.03700066695454679,
      "493": 0.024786289696597685,
      "494": -0.03982550934844473,
      "495": -0.02023565177729856,
      "496": -0.050470041498714154,
      "497": -0.00745978870600365,
      "498": -0.020506525911142603,
      "499": 0.00802527982968298,
      "500": -0.03651649238453911,
      "501": 0.024366147833491142,
      "502": 0.0007409428098627028,
      "503": -0.018219326795619044,
      "504": -0.032555004382367296,
      "505": -0.02771124054018363,
      "506": -0.05118156033112379,
      "507": 0.03738439862385363,
      "508": 0.015491786281216391,
      "509": 0.009564939599420159,
      "510": -0.0360514595071889,
      "511": -0.030331041742616787,
      "512": -0.02336548704444911,
      "513": -0.00787135240257046,
      "514": -0.002980890618065907,
      "515": -0.024617566166011223,
      "516": -0.020016057250670388,
      "517": 0.02988058982158211,
      "518": -0.043977591734447756,
      "519": -0.05814429851217424,
      "520": 0.011563310391704868,
      "521": -0.04930970835497226,
      "522": 0.03196116148126817,
      "523": 0.03711127685727579,
      "524": 0.06198059041757154,
      "525": 0.0828095980198028,
      "526": 0.017061451331496683,
      "527": -0.009383473479618383,
      "528": 0.03761404814288504,
      "529": 0.01640853897945625,
      "530": 0.0016157557939090867,
      "531": -0.013019705784425288,
      "532": -0.04073255817463418,
      "533": -0.01995545447701948,
      "534": 0.004714669364425257,
      "535": 0.006717438061071745,
      "536": -0.025133741703180192,
      "537": -0.04892932527583865,
      "538": -0.017131731140679042,
      "539": 0.010935947238829052,
      "540": 0.009752199432690145,
      "541": -0.009825442655654555,
      "542": 0.04910384260185419,
      "543": -0.01657995706915512,
      "544": 0.014589903867985492,
      "545": 0.05635777557843545,
      "546": 0.01881539553159349,
      "547": -0.014134281814894251,
      "548": -0.04801432708463587,
      "549": -0.0340933514266973,
      "550": 0.039065800998811885,
      "551": -0.07288237566167044,
      "552": 0.004430416587252684,
      "553": 0.0035410293815003203,
      "554": 0.03693395052193816,
      "555": 0.0035896722928263126,
      "556": 0.04281195674364936,
      "557": -0.01609995677948082,
      "558": 0.02025087477537863,
      "559": -0.024469107129192966,
      "560": 0.07792222723498905,
      "561": 0.03979830167854034,
      "562": 0.02838719527404346,
      "563": -0.01760017056228357,
      "564": 0.023342485409681746,
      "565": 0.001548394161318974,
      "566": 0.05704994602097109,
      "567": -0.04366259113984109,
      "568": 0.03510271736060078,
      "569": 0.051583846565777754,
      "570": 0.02680776267022626,
      "571": 0.03131758625466646,
      "572": -0.012286413851783619,
      "573": 0.064109500975043,
      "574": -0.021972007580679992,
      "575": -0.02403604098688554,
      "576": -0.003564449485616616,
      "577": 0.04974888466238286,
      "578": -0.047494566598372104,
      "579": 0.016038953326268656,
      "580": -0.016645054078538734,
      "581": 0.004625728180292437,
      "582": -0.008369828631127323,
      "583": -0.006985083720747512,
      "584": 0.021212706538781625,
      "585": -0.030404281379267175,
      "586": 0.027912370125790474,
      "587": -0.024060040465662753,
      "588": 0.004574582485881133,
      "589": -0.011282382849239577,
      "590": 0.005804162680642272,
      "591": -0.06433582387384688,
      "592": -0.024518570359286854,
      "593": 0.005299999716949424,
      "594": 0.04221294636907293,
      "595": -0.05620889679343843,
      "596": -0.052792550744898324,
      "597": 0.007102048702663886,
      "598": -0.009901891497719577,
      "599": 0.000921794143248915,
      "600": 0.013434248114703834,
      "601": 0.004948023777686898,
      "602": -0.020487575407204656,
      "603": 0.020763209393163083,
      "604": -0.022114278575175523,
      "605": -0.0018532349310210763,
      "606": -0.012242256556608447,
      "607": -0.0019194682853682548,
      "608": -0.05424108934550594,
      "609": 0.0009464778974606929,
      "610": -0.03241101150067323,
      "611": 0.007458090424128846,
      "612": 0.038884484470196885,
      "613": 0.005227357248810685,
      "614": -0.007412666319397637,
      "615": -0.03979874154073752,
      "616": 0.01661707624678948,
      "617": -0.0018381573573263792,
      "618": 0.0045248962910657085,
      "619": 0.018155758351178726,
      "620": 0.09008275584341283,
      "621": 0.02223910074828921,
      "622": 0.021750018218084217,
      "623": -0.02119462037560365,
      "624": -0.01736622569831582,
      "625": -0.021425048109846877,
      "626": 0.02012651864400829,
      "627": -0.003048318540271134,
      "628": 0.023652865248085034,
      "629": -0.005084299731735029,
      "630": -0.03477742166070201,
      "631": -0.0318410632761757,
      "632": 0.014992363695021271,
      "633": 0.005482851027815433,
      "634": 0.023990520034435622,
      "635": 0.016203631741318083,
      "636": 0.03598838831559632,
      "637": 0.015894251998094026,
      "638": -0.0037080050658509236,
      "639": -0.03434665599891146,
      "640": -0.007694560828009267,
      "641": -0.03484018227283123,
      "642": -0.004738298264027092,
      "643": 0.046918631616619355,
      "644": 0.01017641276097232,
      "645": 0.01961131106899167,
      "646": -0.06872253887073475,
      "647": -0.1033700032098394,
      "648": 0.02139892863716282,
      "649": 0.02017979332119082,
      "650": 0.057848640706888194,
      "651": -0.015596548482181248,
      "652": 0.06377340933637449,
      "653": 0.005011196415422838,
      "654": -0.09398049231568156,
      "655": 0.027463035988058056,
      "656": 0.0037439003985624184,
      "657": 0.01076786818383878,
      "658": 0.03261114738086323,
      "659": -0.06414778514810043,
      "660": 0.01552658831286059,
      "661": -0.03713294349113938,
      "662": -0.09025069893848046,
      "663": -0.03834251588441037,
      "664": 0.02552652623144722,
      "665": -0.0027325524252112257,
      "666": -0.019351866414602622,
      "667": -0.022675312490483775,
      "668": 0.016569326443556676,
      "669": 0.04154244789299366,
      "670": -0.048343609117874546,
      "671": 0.07076094839719282,
      "672": -0.002484128196894191,
      "673": 0.012226016334732283,
      "674": 0.020146246066610876,
      "675": -0.025262268905128796,
      "676": 0.0291021174868834,
      "677": -0.008926986389696752,
      "678": -0.007034462831424468,
      "679": -0.017733070491706113,
      "680": -0.031076734607344746,
      "681": -0.03095505354290473,
      "682": -0.002924670000423267,
      "683": 0.03262856078681131,
      "684": -0.03774229105971518,
      "685": -0.021591462601065623,
      "686": 0.014338012518337334,
      "687": 0.00915829005338052,
      "688": 0.026321673428205294,
      "689": 0.02927320810051411,
      "690": -0.017083211084380774,
      "691": -0.06157232047966561,
      "692": 0.019496941674360536,
      "693": -0.030506217112296823,
      "694": -0.07477486123407048,
      "695": 0.011846218135258504,
      "696": 0.0346611286661065,
      "697": 0.04776621965730396,
      "698": -0.03768695533365337,
      "699": -0.03716368049861851,
      "700": -0.04225314465661907,
      "701": -0.07844780411784315,
      "702": 0.06064570560720065,
      "703": -0.033082442715361864,
      "704": -0.0028441246826069145,
      "705": -0.0297108868028989,
      "706": 0.04998211262068849,
      "707": -0.0018778878596639463,
      "708": -0.04275336468638565,
      "709": -0.04854820829061355,
      "710": 0.0548153595934116,
      "711": 0.05871341220426195,
      "712": -0.03828500690919565,
      "713": 0.03884577342376072,
      "714": -0.025025704708527323,
      "715": -0.017685976927950472,
      "716": 0.019434794169053304,
      "717": -0.005145435743669597,
      "718": -0.05194155177626457,
      "719": -0.013493407380015277,
      "720": 0.03891986274617977,
      "721": 0.06481751389509387,
      "722": 0.022751305719887715,
      "723": 0.03624572150990916,
      "724": -0.01880779472647122,
      "725": 0.06723325298919779,
      "726": 0.012099846309208514,
      "727": -0.030981170200479535,
      "728": 0.030106125121233673,
      "729": -0.0008325299294735332,
      "730": -0.009875571435880675,
      "731": -0.03821193512441622,
      "732": 0.02302421789759191,
      "733": 0.054992173360017764,
      "734": -0.026489866712578664,
      "735": 0.06600402571344924,
      "736": -0.015381270222354528,
      "737": -0.035708869686064265,
      "738": -0.030496588595550683,
      "739": 0.07134878118015567,
      "740": -0.019788046623238874,
      "741": 0.04616206536338255,
      "742": 0.0023542199331982134,
      "743": -0.008336209109924081,
      "744": -0.006591213694176517,
      "745": 0.03974513030801355,
      "746": 0.03001285659296599,
      "747": 0.0071408287110225135,
      "748": -0.04956106005592857,
      "749": -0.024014033022912138,
      "750": 0.01046168455611707,
      "751": -0.015340332676318093,
      "752": -0.022160956050981104,
      "753": 0.013229460298165043,
      "754": 0.01979368308130847,
      "755": 0.0189157391906586,
      "756": 0.010893817635596046,
      "757": 0.04238184114793258,
      "758": 0.00959706699495126,
      "759": -0.024068029408736254,
      "760": 0.06002589555188994,
      "761": -0.06712696414403779,
      "762": -0.07212924111771,
      "763": 0.020671192908628223,
      "764": -0.0528687442505237,
      "765": 0.022880824474812156,
      "766": 0.0030792373524956796,
      "767": -0.04119752598016661,
      "768": -0.02543216480954963,
      "769": 0.019014017697018673,
      "770": 0.009682193653670339,
      "771": 0.031278632618033805,
      "772": 0.05650055308152906,
      "773": 0.0499119201517654,
      "774": 0.04926475463213046,
      "775": 0.007574345902177663,
      "776": 0.04047132009952948,
      "777": 0.007845220366542555,
      "778": -0.005659500720652405,
      "779": 0.02713168488679318,
      "780": -0.04227297103965828,
      "781": -0.0008042673630095847,
      "782": -0.028587891437834644,
      "783": 0.011234012686830138,
      "784": 0.012059892607446025,
      "785": 0.006452635778057539,
      "786": -0.015199918368794262,
      "787": 0.02001829609386468,
      "788": -0.09721788034903638,
      "789": 0.003484146078060781,
      "790": -0.013201564397407462,
      "791": -0.026235850671533327,
      "792": -0.032711989525406424,
      "793": 0.014249921728786087,
      "794": 0.04968250914946064,
      "795": 0.001733142455393932,
      "796": 0.02556911058858404,
      "797": 0.0019510427402711556,
      "798": -0.03967753999846591,
      "799": -0.06004858532196706,
      "800": -0.007110378891833491,
      "801": 0.026190538438002346,
      "802": -0.015240951244553349,
      "803": -0.06987417716947217,
      "804": 0.016787558649173463,
      "805": 0.02292314525364439,
      "806": -0.026346432219485665,
      "807": -0.05977019117252616,
      "808": -0.011050236382412256,
      "809": 0.02610766157371734,
      "810": 0.062494914588838296,
      "811": 0.04909687406224222,
      "812": -0.017538412910668356,
      "813": 0.0010421238467829316,
      "814": -0.0480729261976531,
      "815": 0.018189757001902188,
      "816": -0.03719853115711893,
      "817": -0.003898646262710081,
      "818": 0.010268280540847632,
      "819": 0.01801199687295238,
      "820": 0.0060662565803419844,
      "821": 0.002875283719176745,
      "822": -0.002125164080028028,
      "823": -0.028437945644335865,
      "824": 0.03820927404741849,
      "825": 0.03182784929754506,
      "826": 0.039562611615426846,
      "827": 0.03783275907998381,
      "828": -0.012477285646352773,
      "829": -0.03502216814566248,
      "830": -0.004051351102243635,
      "831": -0.04901201089671251,
      "832": -0.00839493199694285,
      "833": -0.007344177656558288,
      "834": -0.019212634329361787,
      "835": -0.06464475282286841,
      "836": -0.01291274581535625,
      "837": 0.01799307947581158
     }
    },
    {
     "sx": 1,
     "sy": 1,
     "depth": 838,
     "w": {
      "0": 0.008957440614163635,
      "1": -0.03904881804871298,
      "2": -0.01564974925830882,
      "3": 0.010662529328839852,
      "4": 0.008999539462125379,
      "5": -0.026910189977848647,
      "6": -0.06882796373977729,
      "7": 0.01258160564102768,
      "8": 0.028940967565784747,
      "9": -0.0322759654916865,
      "10": -0.01407859253310211,
      "11": -0.014976948702275592,
      "12": -0.026086314398197672,
      "13": 0.013431807229067467,
      "14": -0.006318208530758043,
      "15": 0.040060158111754264,
      "16": -0.025707982148691848,
      "17": -0.016877723213351313,
      "18": 0.009139231173933891,
      "19": -0.02502148827911484,
      "20": -0.001912661572103903,
      "21": -0.07692690725034843,
      "22": 0.021489151051164234,
      "23": 0.010103576403878267,
      "24": -0.0004921860500802827,
      "25": -0.015656725853614748,
      "26": 0.04403119404141199,
      "27": 0.06923896287055398,
      "28": -0.02458664939815954,
      "29": -0.012394163479177728,
      "30": 0.0692864681806698,
      "31": -0.0510394539907751,
      "32": -0.009417076270920869,
      "33": -0.057046595375824474,
      "34": 0.007367695387471945,
      "35": -0.03429024159250116,
      "36": 0.01587041345071316,
      "37": 0.024154507080701403,
      "38": -0.013192312379794315,
      "39": 0.016864668218515035,
      "40": -0.001859666145870903,
      "41": -0.03859241722421289,
      "42": -0.08070604044236614,
      "43": 0.034049943162598365,
      "44": 0.010975713252190964,
      "45": -0.019235336827449774,
      "46": -0.009610710734008286,
      "47": 0.003986520423519426,
      "48": -0.020495641371034087,
      "49": -0.008557526221735723,
      "50": -0.00992284779382833,
      "51": -0.012217215758275585,
      "52": -0.07824368477322262,
      "53": 0.016442641907214724,
      "54": 0.01195565534248335,
      "55": -0.02942438054831801,
      "56": -0.009563843916300975,
      "57": -0.07662304267568303,
      "58": 0.04841235198135166,
      "59": 0.02113803129186584,
      "60": 0.04832551976671462,
      "61": -0.018770699128688614,
      "62": -0.022849631365818763,
      "63": 0.0019700166920731004,
      "64": 0.006349328880907095,
      "65": 0.068678392437294,
      "66": 0.01755637010581149,
      "67": -0.059891070556354266,
      "68": -0.022081668077212818,
      "69": 0.015852466676419475,
      "70": 0.02113465757771139,
      "71": 0.02164348662321725,
      "72": 0.05707194710596047,
      "73": -0.042560222191285475,
      "74": -0.0016161062097201592,
      "75": 0.02150624095960823,
      "76": 0.02316669448876089,
      "77": 0.018986767235261867,
      "78": 0.03238199569109587,
      "79": 0.007374784939659412,
      "80": -0.02950770417548542,
      "81": 0.004406173641256122,
      "82": -0.03463427391753087,
      "83": -0.053327047120715954,
      "84": -0.041908282640969984,
      "85": 0.006266396721980032,
      "86": 0.04023012362321959,
      "87": -0.03584742637340014,
      "88": -0.019661794766775823,
      "89": -0.004861658705389309,
      "90": -0.04111228673530707,
      "91": 0.030339682401837507,
      "92": -0.02205350892865508,
      "93": -0.014893611725790533,
      "94": -0.0001884040696521205,
      "95": 0.017513681872752544,
      "96": -0.08043469394451017,
      "97": -0.012890360247972922,
      "98": -0.024145668658134656,
      "99": -0.04023426680011965,
      "100": 0.06836610487319504,
      "101": 0.03037728348266139,
      "102": 0.011207866114040956,
      "103": 0.014285859136964285,
      "104": 0.011704314858881355,
      "105": -0.08405865542942455,
      "106": -0.013716628116502524,
      "107": 0.011331003398005537,
      "108": -0.04322298734015777,
      "109": 0.014771660797056113,
      "110": 0.009675281458435783,
      "111": -0.01052020156974072,
      "112": 0.036041020909471054,
      "113": 0.0776002064076847,
      "114": -0.008040858659014563,
      "115": 0.04675029479923491,
      "116": -0.05224809667604396,
      "117": 0.03458296439480841,
      "118": -0.0065872546398026005,
      "119": -0.027429347313274042,
      "120": -0.003971864536574298,
      "121": -0.030904165467303304,
      "122": 0.05842158526014849,
      "123": -0.062443027037899126,
      "124": -0.010034197142968871,
      "125": -0.025791421000997378,
      "126": -0.0007360090937392425,
      "127": -0.03252256931131829,
      "128": -0.0035856527050661616,
      "129": 0.009530187530234855,
      "130": -0.01632712966788115,
      "131": 0.07061992874990222,
      "132": 0.017481206890697227,
      "133": -0.017678424758003377,
      "134": -0.003185791135801111,
      "135": 0.013157813749456853,
      "136": -0.0025093620706537834,
      "137": -0.001776494174538779,
      "138": -0.019373265439375488,
      "139": 0.020900761487508645,
      "140": -0.0011757159913719515,
      "141": -0.03014876601378989,
      "142": 0.004905657987563276,
      "143": 0.041079063236115036,
      "144": 0.05684188180415099,
      "145": -0.049176299161253476,
      "146": 0.043176574402173755,
      "147": 0.06707992497208391,
      "148": -0.08838819496345844,
      "149": 0.004918110411076971,
      "150": 0.04187146741999628,
      "151": 0.04047376930844422,
      "152": -0.050034337243781216,
      "153": -0.014054825671324916,
      "154": 0.013215433369544508,
      "155": 0.008996795949296726,
      "156": -0.03260364952181975,
      "157": 0.07551928883930353,
      "158": 0.04173774732349043,
      "159": 0.01199610711770793,
      "160": -0.03209299027117326,
      "161": -0.079034926883313,
      "162": -0.0694047078126663,
      "163": 0.0035750412278835876,
      "164": -0.014266164059406174,
      "165": 0.00040919654505330145,
      "166": -0.03405797383071871,
      "167": 0.03905969928034793,
      "168": 0.006536420068388899,
      "169": 0.017041559130752705,
      "170": -0.0046657133567975535,
      "171": -0.00819833832214755,
      "172": -0.10116892138783114,
      "173": -0.0024566350774708643,
      "174": -0.005137103511643068,
      "175": 0.011849744397723084,
      "176": 0.058562955091978085,
      "177": 0.017693661447401903,
      "178": -0.04209356812564296,
      "179": 0.017948791463173873,
      "180": -0.027778231644390923,
      "181": -0.10311883790711467,
      "182": 0.00016345636039422862,
      "183": -0.0011572089097875355,
      "184": 0.018239390529036215,
      "185": 0.011750412327385159,
      "186": 0.012212354410273064,
      "187": -0.03355641171232805,
      "188": -0.014379175165909462,
      "189": 0.011013088267704384,
      "190": -0.043857678367204736,
      "191": 0.06104732792445752,
      "192": 0.05271332495778049,
      "193": 0.027409464077953073,
      "194": -0.06896967850234484,
      "195": 0.028226067997733126,
      "196": -0.01218800923539451,
      "197": -0.005916521972598949,
      "198": -0.0009950678873305151,
      "199": 0.02726350901476287,
      "200": -0.049163725595584254,
      "201": 0.0062310940431331155,
      "202": 0.051044992439967164,
      "203": -0.0286418111370519,
      "204": -0.017146431502307772,
      "205": -0.05484198671223932,
      "206": 0.01334166760023659,
      "207": -0.024367743013280412,
      "208": 0.004029870933039292,
      "209": 0.046555705153259325,
      "210": 0.034474643403962654,
      "211": 0.03943096903640916,
      "212": -0.03363104013199326,
      "213": -0.013874979520959778,
      "214": 0.03321046987655774,
      "215": -0.01686464666582943,
      "216": 0.048042407029632195,
      "217": -0.0146841311578273,
      "218": 0.0075819876119808385,
      "219": 0.05944369425546365,
      "220": 0.015764348600725498,
      "221": -0.059357037116815815,
      "222": -0.014289216934216325,
      "223": 0.01277194650117757,
      "224": -0.019073227779719495,
      "225": -0.011551105658791992,
      "226": 0.02342719533489878,
      "227": 0.023146072301456214,
      "228": 0.0016191422931676187,
      "229": -0.045148755758785374,
      "230": 0.05181809873699865,
      "231": 0.0561407040709923,
      "232": 0.038268675223227064,
      "233": 0.05853383377285342,
      "234": 0.05270031233775238,
      "235": -0.053535879186644424,
      "236": -0.013158550572436908,
      "237": -0.0006387808818411039,
      "238": 0.011692428909149207,
      "239": -0.06757203216623463,
      "240": 0.02583272717765002,
      "241": -0.03197546796760545,
      "242": -0.029117255087840296,
      "243": 0.03562693708344942,
      "244": 0.024101659807031137,
      "245": -0.025174523131406775,
      "246": 0.03331696867376187,
      "247": 0.019568605200996105,
      "248": 0.012034241735710166,
      "249": -0.0166632256358421,
      "250": -0.002584625432918001,
      "251": -0.04424313287952532,
      "252": 0.00092131174111684,
      "253": -0.03978930352532051,
      "254": 0.014257727632695373,
      "255": 0.041427258911273364,
      "256": -0.013793121496147311,
      "257": -0.04027630722193175,
      "258": -0.004838379765789635,
      "259": -0.0005651425015986155,
      "260": -0.01921630612041327,
      "261": 0.048048150064996714,
      "262": -0.04364224067422811,
      "263": 0.010529067036460869,
      "264": -0.028515782430992023,
      "265": 0.04882485838911752,
      "266": -0.033522507413676614,
      "267": -0.0766741663144976,
      "268": -0.012980781911100112,
      "269": -0.004118891657011481,
      "270": 0.01295006144169183,
      "271": -0.07727283866331863,
      "272": 0.056483073934267866,
      "273": -0.05067723384405495,
      "274": 0.048928203177836714,
      "275": 0.009629635056131724,
      "276": -0.058278200458894154,
      "277": -0.029571917625151288,
      "278": -0.015952155508191856,
      "279": 0.001820105840237807,
      "280": -0.02993995035951552,
      "281": 0.031385475797714765,
      "282": -0.057352201647020644,
      "283": -0.00970895552471693,
      "284": -0.047921522899247185,
      "285": -0.0017224646931805556,
      "286": -0.04113564700979155,
      "287": -0.01363582446263321,
      "288": 0.023677339614603617,
      "289": -0.02558076681848526,
      "290": -0.013007153691082756,
      "291": -0.03149107917857822,
      "292": 0.011799307566255038,
      "293": -0.015551994877356682,
      "294": -0.07130460660525201,
      "295": 0.007966449426409361,
      "296": 0.0006027614126371938,
      "297": 0.02615240490047035,
      "298": -0.02398013788134026,
      "299": 0.005693434734780383,
      "300": -0.00002789160090133499,
      "301": 0.0366111764427558,
      "302": 0.00337866598741592,
      "303": 0.013955022955427396,
      "304": -0.04518738462097802,
      "305": -0.027842996552371112,
      "306": 0.029411269489150037,
      "307": -0.07311164794213473,
      "308": 0.012920188713014312,
      "309": 0.024140310938407128,
      "310": -0.0029809734563096433,
      "311": 0.1472509896111107,
      "312": -0.05702615527642295,
      "313": -0.03324015735123951,
      "314": -0.004101423092843002,
      "315": -0.002757509627468764,
      "316": -0.028390653647037713,
      "317": -0.03293855623464223,
      "318": -0.06365474654167615,
      "319": 0.03542108942697835,
      "320": -0.016701004660408674,
      "321": -0.07240250513796032,
      "322": -0.008170537513150939,
      "323": 0.03892959521151068,
      "324": -0.01170806015177209,
      "325": 0.020253539312192172,
      "326": -0.006516817667987554,
      "327": 0.0023382325834813036,
      "328": 0.05606652341026796,
      "329": -0.013371655015149714,
      "330": 0.00999958849279515,
      "331": -0.03646138864934939,
      "332": 0.041632112083323555,
      "333": -0.0035019049569252037,
      "334": 0.0008472767913108545,
