{
 "layers": [
  {
   "out_depth": 838,
   "out_sx": 1,
   "out_sy": 1,
   "layer_type": "input"
  },
  {
   "out_depth": 25,
   "out_sx": 1,
   "out_sy": 1,
   "layer_type": "fc",
   "num_inputs": 838,
   "l1_decay_mul": 0,
   "l2_decay_mul": 1,
   "filters": [
    {
     "sx": 1,
     "sy": 1,
     "depth": 838,
     "w": {
      "0": -0.023746025452506665,
      "1": 0.030020862904019306,
      "2": 0.026488844531305903,
      "3": 0.05076172774500551,
      "4": 0.0039056308711754267,
      "5": 0.06549105338610743,
      "6": 0.03246284179037832,
      "7": 0.06200222573950727,
      "8": 0.030633530822313373,
      "9": 0.014570463170172332,
      "10": 0.04967715724223246,
      "11": -0.0791809743062179,
      "12": 0.009998959287172168,
      "13": -0.021995681968698288,
      "14": 0.010513575966253807,
      "15": -0.005941074896944834,
      "16": -0.03199288302113718,
      "17": 0.008707926459396378,
      "18": -0.09116461701446626,
      "19": -0.005632784688415906,
      "20": 0.03681519523389721,
      "21": 0.04873024915165381,
      "22": -0.01287089435162798,
      "23": -0.007017949734562315,
      "24": 0.0027336941959573697,
      "25": 0.004473743207671971,
      "26": -0.030355547991165428,
      "27": 0.0403247142184648,
      "28": 0.03413539727224494,
      "29": -0.009044497843874427,
      "30": 0.01274371039196614,
      "31": 0.04564346625084738,
      "32": 0.02255787353050008,
      "33": 0.004518698877824332,
      "34": -0.08849138525700297,
      "35": -0.04253673289028407,
      "36": 0.015502218782161289,
      "37": -0.010378005626030777,
      "38": 0.030692707581923644,
      "39": -0.04360141820392489,
      "40": -0.09942657204823381,
      "41": -0.017493269588300043,
      "42": 0.001014820714108637,
      "43": -0.012754259382150301,
      "44": 0.015849926531836124,
      "45": 0.008687754326821147,
      "46": 0.0033726543754489468,
      "47": -0.003163516547889266,
      "48": 0.03938129805011098,
      "49": -0.003295622688291026,
      "50": 0.03888543837707877,
      "51": -0.020174775874332203,
      "52": -0.0017901076702337118,
      "53": 0.02444094289796998,
      "54": -0.024021549125346382,
      "55": 0.07328695173021987,
      "56": 0.0012975987772605713,
      "57": 0.05475522366654764,
      "58": 0.00451938368127401,
      "59": -0.0152597797267128,
      "60": 0.010959291570133924,
      "61": -0.021790585735294115,
      "62": 0.012487711186101143,
      "63": 0.09194999125929433,
      "64": 0.06151258626658678,
      "65": -0.012790389112429917,
      "66": -0.03265575196781975,
      "67": 0.08152313361782818,
      "68": -0.0409966829880617,
      "69": -0.04449147267219988,
      "70": -0.055130395319374914,
      "71": -0.028898450489420833,
      "72": 0.009667263154739427,
      "73": -0.03256186489573119,
      "74": 0.07264737486034499,
      "75": -0.04095973193947847,
      "76": -0.01704129240975269,
      "77": 0.030123636961694986,
      "78": -0.07608234444656087,
      "79": 0.00435830066731038,
      "80": -0.0287409291062046,
      "81": -0.031689546772603626,
      "82": 0.005431102535158394,
      "83": -0.0037445166299739964,
      "84": -0.03287784816625154,
      "85": -0.04553260147517439,
      "86": 0.05436467572213917,
      "87": 0.05091966630624409,
      "88": 0.03743712574071389,
      "89": -0.0361073422850175,
      "90": 0.03727363426816642,
      "91": 0.00891081206280741,
      "92": -0.03811990471240134,
      "93": -0.003217939458041732,
      "94": -0.030284348286072606,
      "95": 0.04035971993128168,
      "96": 0.01026812119983912,
      "97": -0.014871410930179274,
      "98": 0.01941882485200882,
      "99": 0.012842400263060818,
      "100": -0.001286647235983238,
      "101": 0.016979291444803386,
      "102": 0.008981206835238648,
      "103": 0.015317920777654712,
      "104": 0.035964242284034977,
      "105": -0.01811389010583451,
      "106": -0.02149579193869014,
      "107": -0.07521367314760338,
      "108": -0.028116379877757402,
      "109": -0.04566293163524237,
      "110": 0.021657434576649252,
      "111": 0.005930685316266428,
      "112": 0.025305062340515234,
      "113": 0.01343191202417014,
      "114": -0.025603257145374526,
      "115": 0.02126259124787409,
      "116": -0.05556180817437123,
      "117": -0.03402104146347635,
      "118": 0.03414085152931718,
      "119": 0.029247193201879216,
      "120": -0.05018733329647257,
      "121": -0.02933034688114655,
      "122": 0.009159515796180994,
      "123": -0.0035400082367902327,
      "124": -0.018029316831686272,
      "125": -0.03235384374972716,
      "126": -0.008604895278216586,
      "127": -0.0008106210877699845,
      "128": 0.004378372986099402,
      "129": 0.017597122801270723,
      "130": 0.04030942232966861,
      "131": 0.06159508647058879,
      "132": -0.008618502437757714,
      "133": -0.026117213180704212,
      "134": -0.038467810164620295,
      "135": 0.04777649874199495,
      "136": -0.029315225891671494,
      "137": 0.043299623522594824,
      "138": -0.021222055958956487,
      "139": 0.014104178771720795,
      "140": -0.020786490005315236,
      "141": 0.03474217944639439,
      "142": -0.02319313126872947,
      "143": -0.09731654193073688,
      "144": 0.07535385745026382,
      "145": -0.07232698740317041,
      "146": 0.03085442249296337,
      "147": 0.06694754657405326,
      "148": 0.03937045941214213,
      "149": 0.013807229103877524,
      "150": -0.020452404490372483,
      "151": -0.03461072487875032,
      "152": 0.023669679658548912,
      "153": 0.02016301220517494,
      "154": 0.027701378621078163,
      "155": 0.016446430716751614,
      "156": -0.01605390940145985,
      "157": 0.06443938948438456,
      "158": -0.03633641466664431,
      "159": 0.0434679189345208,
      "160": -0.01992774456251793,
      "161": -0.01465610352128277,
      "162": -0.031642074426074536,
      "163": -0.024119834623606187,
      "164": 0.036406003588362046,
      "165": -0.04083877327445128,
      "166": 0.04898515889348465,
      "167": 0.01945779323336646,
      "168": -0.016630556695978457,
      "169": 0.023571729181679643,
      "170": 0.012305900259705384,
      "171": -0.007681501429249836,
      "172": 0.06117301304365439,
      "173": 0.026330780709608214,
      "174": 0.03995428366266777,
      "175": -0.009538460968916158,
      "176": -0.01873771622608652,
      "177": -0.006874222747081801,
      "178": -0.031676335655161675,
      "179": 0.03988558687984856,
      "180": 0.02818182813332651,
      "181": 0.03367446692716386,
      "182": -0.08396286562882135,
      "183": -0.0021155568168058298,
      "184": 0.0472916940455965,
      "185": -0.07364571005842706,
      "186": -0.04693191728158691,
      "187": -0.026532286110444538,
      "188": -0.05495936587675518,
      "189": 0.017608635623599763,
      "190": 0.06319988092113199,
      "191": 0.02174577356594782,
      "192": -0.03237069773439245,
      "193": -0.03174173566911883,
      "194": 0.038924093803343,
      "195": -0.06910044080331287,
      "196": 0.0050798375241837695,
      "197": -0.043510448138518204,
      "198": 0.01597769912320335,
      "199": 0.005576056767068706,
      "200": -0.033623743910517936,
      "201": -0.014684324483849587,
      "202": -0.057175993034618434,
      "203": -0.032846254670685755,
      "204": -0.040191066937351166,
      "205": 0.028044510823137067,
      "206": -0.02201721221118651,
      "207": 0.015420086549610095,
      "208": 0.06785162190336183,
      "209": -0.024848669712606346,
      "210": 0.0463280997051969,
      "211": -0.006353041368753477,
      "212": -0.04214372033359406,
      "213": 0.016532704591351147,
      "214": 0.01983838516053042,
      "215": -0.005811868873956363,
      "216": 0.009584814509986671,
      "217": 0.06356550843860072,
      "218": -0.02293663866851282,
      "219": 0.01129823605889013,
      "220": 0.03403292100734282,
      "221": 0.013067043551542484,
      "222": 0.037920325431507224,
      "223": -0.009598434996031132,
      "224": 0.0008972316804570268,
      "225": 0.05619367809557442,
      "226": 0.022267607838551272,
      "227": -0.013933926885306083,
      "228": 0.012246415061032941,
      "229": 0.03631690805314872,
      "230": 0.01682376959164921,
      "231": 0.017491586636147576,
      "232": 0.014087872553499222,
      "233": 0.0010577679680244785,
      "234": -0.021966101201602577,
      "235": -0.0068987678529402,
      "236": -0.06264678429656384,
      "237": 0.036134626970786184,
      "238": -0.013443049857870945,
      "239": 0.03639287370386601,
      "240": 0.007833729700868009,
      "241": 0.00003257386715287971,
      "242": -0.009470753343873654,
      "243": 0.0186865931386836,
      "244": -0.0032727094165804537,
      "245": 0.02241657858143374,
      "246": 0.03417398843482953,
      "247": -0.018101097423801844,
      "248": 0.021320600768698773,
      "249": 0.003176077375715347,
      "250": 0.09413905814217179,
      "251": 0.08362025707781245,
      "252": -0.01634669141754422,
      "253": 0.011048677198216394,
      "254": -0.0385389917398649,
      "255": -0.04964344927145045,
      "256": 0.03687329843195351,
      "257": -0.0029177546641296517,
      "258": 0.07023724207259065,
      "259": -0.06130367001795258,
      "260": -0.02169885974358926,
      "261": -0.030030966915775194,
      "262": -0.033422619079871776,
      "263": 0.0026512164005493837,
      "264": 0.05220524720530157,
      "265": 0.010929067082500275,
      "266": -0.04838503768875843,
      "267": -0.0366001832852941,
      "268": 0.05431595379722801,
      "269": -0.033594672271346555,
      "270": -0.02306003940512356,
      "271": 0.01594146785654987,
      "272": 0.021195609885606658,
      "273": -0.04482545472846818,
      "274": -0.06532023850636985,
      "275": -0.029202693312116182,
      "276": -0.017309982977393175,
      "277": 0.022686741832777874,
      "278": -0.017347838548125317,
      "279": 0.06856584326059866,
      "280": -0.020017302465379656,
      "281": 0.04317848780445645,
      "282": 0.015379302256353127,
      "283": -0.0020797144201976183,
      "284": -0.008713067078726761,
      "285": 0.024999582849324933,
      "286": 0.020839112871113452,
      "287": -0.0019363581648285163,
      "288": 0.01834507160038759,
      "289": -0.0010686019759802337,
      "290": 0.005343287471893258,
      "291": 0.04233460422095564,
      "292": 0.032378459326660704,
      "293": 0.01619388859154203,
      "294": 0.027818457850333288,
      "295": 0.05361792669495557,
      "296": -0.011360623424473552,
      "297": 0.014251591617611995,
      "298": -0.058049857338478984,
      "299": -0.026366320686601354,
      "300": 0.0024355669433492122,
      "301": -0.016793974207673944,
      "302": 0.022180805605980434,
      "303": -0.03009537223675709,
      "304": 0.029367091977808547,
      "305": -0.018295468859874556,
      "306": -0.00956776777440179,
      "307": 0.02665119043570541,
      "308": 0.016881952851867877,
      "309": -0.056710503028862685,
      "310": 0.04181300862237054,
      "311": 0.016599227923162978,
      "312": 0.029008109890376745,
      "313": 0.008823664609140889,
      "314": 0.014752212404510523,
      "315": 0.023930756554198983,
      "316": 0.03206335048572392,
      "317": -0.011851171895366679,
      "318": -0.019375463925314973,
      "319": -0.01781843975627303,
      "320": -0.012456401379172493,
      "321": -0.03558672187904487,
      "322": 0.03893387761736468,
      "323": 0.014100381325450472,
      "324": -0.038226266942964396,
      "325": -0.07713819736760574,
      "326": -0.054796636613577185,
      "327": -0.013385951493742656,
      "328": -0.016504864776353476,
      "329": 0.005603172140277099,
      "330": -0.014722346636339796,
      "331": 0.0751622315107231,
      "332": -0.01279195474542729,
      "333": 0.033681402446893195,
      "334": -0.003125568565986469,
      "335": 0.0008849550652034304,
      "336": -0.06614366035638113,
      "337": 0.061530884760606135,
      "338": -0.01997878571270887,
      "339": -0.0016039953546719966,
      "340": 0.02350865668586291,
      "341": -0.08362881846371457,
      "342": 0.05059080984597141,
      "343": -0.04224050561881003,
      "344": 0.032376420968083366,
      "345": -0.04513100469858471,
      "346": -0.026208933217040858,
      "347": -0.008877249828726378,
      "348": -0.011629192390400512,
      "349": -0.043299730765304204,
      "350": -0.005983066581379041,
      "351": 0.012534107874623376,
      "352": -0.011340250474108266,
      "353": 0.0062174013004770955,
      "354": -0.02781972297301634,
      "355": 0.058332189949594465,
      "356": -0.04031447628498422,
      "357": 0.001771880390652357,
      "358": -0.03229992491859855,
      "359": -0.0636708989427537,
      "360": -0.00810759788992764,
      "361": -0.02751750789605134,
      "362": -0.03159334074572677,
      "363": -0.018471215381134096,
      "364": 0.02215952424762733,
      "365": -0.010586544486856085,
      "366": 0.0026563764898778815,
      "367": 0.09899547920599047,
      "368": -0.06032953934879301,
      "369": -0.02506714683923581,
      "370": 0.023653387706069246,
      "371": -0.04375951420711303,
      "372": -0.04377332645034359,
      "373": 0.06568633515953919,
      "374": 0.030656937694945263,
      "375": 0.037434728757440645,
      "376": 0.029935747580899487,
      "377": -0.014796857723703944,
      "378": 0.019372381929047226,
      "379": 0.03714944014595129,
      "380": -0.007239074539978,
      "381": -0.04275544013199901,
      "382": -0.012290144628613381,
      "383": -0.029772119501040212,
      "384": 0.0029203620126660923,
      "385": -0.014776812544239041,
      "386": 0.0025031431267142495,
      "387": 0.012614280404795283,
      "388": 0.0227085572763221,
      "389": 0.014417354937058067,
      "390": 0.010698312522768415,
      "391": 0.0034474198214530407,
      "392": -0.042753505352797795,
      "393": 0.01684949783330661,
      "394": 0.008920397918854468,
      "395": -0.04070813431471831,
      "396": 0.0004936198159360632,
      "397": 0.01316454346729142,
      "398": -0.04038325379016464,
      "399": 0.018053630719671282,
      "400": 0.021284104953993292,
      "401": -0.07533398922395096,
      "402": 0.02413202819159567,
      "403": -0.029793056435053523,
      "404": 0.020442354960172604,
      "405": 0.036264903040342265,
      "406": 0.010000286416160164,
      "407": 0.032540449198918,
      "408": -0.03183361399512433,
      "409": 0.002411137296783324,
      "410": 0.008204147083951951,
      "411": 0.058716321287958326,
      "412": -0.022264917961650574,
      "413": -0.016494581336372906,
      "414": -0.02461040830982607,
      "415": -0.06946408258602427,
      "416": -0.017394554888234853,
      "417": -0.014217176410067341,
      "418": 0.011598386086441493,
      "419": 0.01077855874386452,
      "420": -0.02017786205579183,
      "421": 0.01332549552289961,
      "422": 0.007931413147871026,
      "423": -0.003934652418614555,
      "424": 0.002604877584634224,
      "425": -0.008114988466346212,
      "426": 0.010554341116069727,
      "427": 0.0005567201411854326,
      "428": -0.010564614648543573,
      "429": -0.036751308470613225,
      "430": 0.01987129188870677,
      "431": 0.020773588033342075,
      "432": 0.008024289830968026,
      "433": -0.010242987454951006,
      "434": 0.023593611154840273,
      "435": -0.06977718873525217,
      "436": 0.0617792490690037,
      "437": 0.026615139346382946,
      "438": 0.018275751385422454,
      "439": 0.001015481756791865,
      "440": 0.02490753432165656,
      "441": -0.030090157754742414,
      "442": -0.005755073280025581,
      "443": 0.02059743658725387,
      "444": 0.00985485444598625,
      "445": 0.016368245041899473,
      "446": 0.06909930274819405,
      "447": -0.04176875102085554,
      "448": 0.07053906349374445,
      "449": 0.01499841538781828,
      "450": 0.0305364119089046,
      "451": -0.0018936957730234748,
      "452": 0.01097995832880679,
      "453": 0.05924655397653373,
      "454": -0.029006359526373718,
      "455": 0.011963455721989705,
      "456": -0.004303227006058045,
      "457": -0.04182903270127455,
      "458": 0.037728020471746275,
      "459": -0.009034835444417948,
      "460": 0.007564990249318558,
      "461": 0.04648488628632841,
      "462": 0.006288661609033269,
      "463": -0.029090268108854483,
      "464": -0.07101586333368028,
      "465": -0.04901929820129761,
      "466": 0.004254204516619315,
      "467": 0.037290523347113316,
      "468": 0.09016238995528922,
      "469": -0.026396495965571143,
      "470": 0.01900935540289366,
      "471": -0.0012546914849889108,
      "472": -0.022294804043638792,
      "473": -0.025880531379349092,
      "474": -0.02133851504735252,
      "475": 0.004593626199837001,
      "476": 0.07405112616739856,
      "477": 0.023700481232433658,
      "478": -0.0026108923775542666,
      "479": 0.005374156305323302,
      "480": -0.019189437649567428,
      "481": -0.04172387764856433,
      "482": -0.03867085889161866,
      "483": 0.026044361063394958,
      "484": -0.012052854757947162,
      "485": -0.006374447868953135,
      "486": -0.014474508370810725,
      "487": -0.005571512934620749,
      "488": 0.05394714425321027,
      "489": -0.02017735138578495,
      "490": 0.07619726143663881,
      "491": 0.048729533805554934,
      "492": 0.024094087512641478,
      "493": -0.023010350178400762,
      "494": 0.010389165999464382,
      "495": -0.037821893412943015,
      "496": 0.0009769613871738075,
      "497": -0.06262532090184005,
      "498": 0.019783040871740588,
      "499": -0.08290750755748133,
      "500": 0.010933670153628054,
      "501": 0.07293855148668528,
      "502": 0.002256822169809813,
      "503": 0.015082230486837859,
      "504": -0.030049324495608938,
      "505": 0.036045630986238475,
      "506": -0.0012738271953251284,
      "507": 0.01173818099843064,
      "508": -0.015880743785705,
      "509": -0.03890874506483548,
      "510": -0.026768913867710527,
      "511": -0.046799280466635236,
      "512": -0.017781289797567226,
      "513": 0.014957623644249057,
      "514": 0.0386823508250913,
      "515": -0.013163220538280807,
      "516": -0.08354251341670234,
      "517": -0.029683664339675318,
      "518": 0.07116000435840289,
      "519": 0.025396921911959608,
      "520": -0.005545100088808372,
      "521": 0.02137801919740749,
      "522": 0.020315671993278547,
      "523": 0.006636351418789055,
      "524": 0.01753481555712201,
      "525": 0.02307448958584921,
      "526": 0.041682243082519575,
      "527": 0.009999832192061095,
      "528": 0.004092943295767326,
      "529": 0.05045793696116049,
      "530": 0.09089703181973974,
      "531": 0.007928520340373712,
      "532": -0.04553211943411275,
      "533": 0.007490312776845091,
      "534": 0.034103986371594286,
      "535": 0.047348627990556905,
      "536": 0.0012452413030448277,
      "537": -0.01147845234000037,
      "538": -0.02655361867008382,
      "539": -0.07875839965515122,
      "540": -0.026693070610632218,
      "541": 0.029426297235719674,
      "542": -0.02811442713347103,
      "543": -0.03586750870136918,
      "544": -0.02132201507710755,
      "545": 0.03595399313751087,
      "546": 0.023042187202306965,
      "547": -0.04804767004945348,
      "548": -0.040561226832728184,
      "549": 0.0016323518158133188,
      "550": -0.049166023235339154,
      "551": 0.03485889850592861,
      "552": 0.05266705594845273,
      "553": 0.00994170245000792,
      "554": -0.037816975207963316,
      "555": -0.023708060772210018,
      "556": -0.0668686386029458,
      "557": -0.015825254950611954,
      "558": 0.011795291180534294,
      "559": -0.02434071599630437,
      "560": 0.08080587602209242,
      "561": 0.05771357154414457,
      "562": 0.0053145186322619605,
      "563": 0.008424281518405779,
      "564": 0.0641950923523315,
      "565": 0.06594579619954964,
      "566": 0.07260773767935991,
      "567": -0.006438238485778175,
      "568": 0.009641643699143894,
      "569": 0.007450944419167697,
      "570": 0.020891498287505517,
      "571": 0.05183266829239578,
      "572": 0.030969471722448974,
      "573": -0.029697128233861402,
      "574": -0.056335256032971966,
      "575": -0.05728407670165614,
      "576": -0.01593195835803058,
      "577": -0.048196576540210104,
      "578": 0.011257176957334416,
      "579": 0.024621442579804864,
      "580": -0.03014742994710712,
      "581": 0.03355052163558574,
      "582": -0.029219425687469547,
      "583": 0.004582098787327168,
      "584": -0.007134634927738173,
      "585": -0.012733303765105453,
      "586": 0.07072843626141721,
      "587": 0.003348177079655115,
      "588": -0.014775572318086133,
      "589": -0.018360089809922535,
      "590": -0.04581132265766067,
      "591": -0.005248455984934376,
      "592": -0.009060993130503778,
      "593": -0.04673945996605882,
      "594": 0.020122915172907183,
      "595": -0.0007529240953803787,
      "596": -0.06857384916575268,
      "597": -0.018411465637727085,
      "598": 0.062316879314960785,
      "599": -0.004966626570920558,
      "600": 0.004825102248774737,
      "601": 0.08979493374401254,
      "602": 0.02125620689317533,
      "603": 0.0034215642563909083,
      "604": 0.06377443179551755,
      "605": -0.0006985616710764726,
      "606": -0.036002221936635076,
      "607": 0.01881559527846994,
      "608": 0.00821878024708577,
      "609": -0.003913693047568904,
      "610": -0.0613844860211673,
      "611": 0.012914063481785523,
      "612": 0.03331961670089589,
      "613": -0.04733803752184013,
      "614": 0.05448393049423627,
      "615": -0.01752846080687817,
      "616": -0.00777455744867779,
      "617": -0.0031270770394134146,
      "618": 0.006206996608417931,
      "619": -0.02288498971319001,
      "620": -0.04918803884809374,
      "621": -0.05368925320661107,
      "622": -0.001498193354064388,
      "623": -0.06844855346996526,
      "624": 0.06878630961557067,
      "625": -0.01982239574217161,
      "626": 0.040140530417896544,
      "627": 0.024000761610678663,
      "628": 0.027053647709238578,
      "629": 0.025625848720538767,
      "630": -0.025336931181627508,
      "631": 0.054701845605783825,
      "632": 0.014460898202009565,
      "633": -0.024022257325509826,
      "634": -0.01559040189084093,
      "635": -0.022270637404485615,
      "636": -0.002083466743645935,
      "637": -0.05407145228807141,
      "638": 0.010807418459543292,
      "639": -0.04607795214649708,
      "640": 0.011466362840552314,
      "641": 0.0482282246406114,
      "642": 0.014064887565067385,
      "643": 0.006344177868887509,
      "644": -0.027884667395310096,
      "645": -0.009230420058445082,
      "646": 0.04532167853533997,
      "647": 0.028905652297362968,
      "648": -0.06538086031744515,
      "649": -0.012942288328072298,
      "650": -0.006103912027233311,
      "651": -0.009579099240745756,
      "652": -0.013280081075286707,
      "653": -0.0410748110738848,
      "654": 0.05075094759856174,
      "655": -0.03191711432843691,
      "656": -0.0234514637353689,
      "657": -0.003355406016490307,
      "658": -0.039461989996177615,
      "659": 0.04820017958779903,
      "660": 0.011858295529352967,
      "661": -0.0417182853699455,
      "662": 0.07521282264521763,
      "663": 0.03996845631185314,
      "664": 0.07314939341147511,
      "665": 0.013837754927567529,
      "666": -0.029040415379409275,
      "667": -0.017939059440765237,
      "668": -0.02782225007774829,
      "669": -0.03488613987552493,
      "670": -0.061677205988635964,
      "671": -0.006252880401755615,
      "672": 0.016466774930857356,
      "673": -0.05396868208724757,
      "674": -0.010259471876662587,
      "675": -0.029166444180067943,
      "676": 0.036970953426954195,
      "677": -0.035470341657600594,
      "678": 0.012877597527009656,
      "679": 0.013297321906571307,
      "680": -0.04205197977645508,
      "681": 0.0267664283069469,
      "682": -0.027205799609421894,
      "683": -0.0050725156189034585,
      "684": 0.05093009359749228,
      "685": 0.03548165852643481,
      "686": 0.04668694416507591,
      "687": -0.028559848584773492,
      "688": -0.05797752265649296,
      "689": -0.00004428177317280789,
      "690": -0.03047292478092693,
      "691": -0.04410862604254505,
      "692": 0.04277895466093854,
      "693": -0.04697780052718518,
      "694": 0.02360415632859245,
      "695": 0.060688206821602766,
      "696": -0.04159255557444285,
      "697": 0.040769118359951645,
      "698": -0.011898092746165405,
      "699": 0.026433967877666154,
      "700": 0.004574456638934136,
      "701": 0.032004724915351,
      "702": 0.033175620385115,
      "703": -0.07252790128635983,
      "704": 0.02893996102594983,
      "705": -0.007321118782470577,
      "706": 0.027371867360704162,
      "707": -0.0802770618275538,
      "708": -0.05427203043555512,
      "709": 0.021082923565533197,
      "710": 0.01214265627910001,
      "711": -0.027222030778643193,
      "712": 0.03589397524015424,
      "713": -0.00029189406240633174,
      "714": 0.00617420824602427,
      "715": -0.018378751078536083,
      "716": -0.005472461517923774,
      "717": -0.009036540742034194,
      "718": 0.038607837533968674,
      "719": -0.03031433967034015,
      "720": 0.010732227988996543,
      "721": 0.008581729477250223,
      "722": -0.020149965636251047,
      "723": 0.02866083028336599,
      "724": 0.09113223062634919,
      "725": -0.006876149703533936,
      "726": -0.014026544959455956,
      "727": 0.040709496319404695,
      "728": 0.04449868709242868,
      "729": 0.023672057900107082,
      "730": 0.004894020043599379,
      "731": 0.008538949516560186,
      "732": 0.014993462949865184,
      "733": 0.038463986188952616,
      "734": -0.04045112669408507,
      "735": 0.020703179225608367,
      "736": -0.04913001012344964,
      "737": -0.011178710148585564,
      "738": -0.007746880435924479,
      "739": -0.010852599007774959,
      "740": 0.007382653237085903,
      "741": 0.01894565380701402,
      "742": 0.037088476094552306,
      "743": -0.012149834325325695,
      "744": -0.030893634307243366,
      "745": 0.05514924590855328,
      "746": -0.05485652436480879,
      "747": -0.03652780285033009,
      "748": -0.02976591938346255,
      "749": 0.008783019408919972,
      "750": -0.02533675177459957,
      "751": -0.004580402516842285,
      "752": -0.016875959959037602,
      "753": 0.020225951602449048,
      "754": 0.035209794604066175,
      "755": 0.002103236434608165,
      "756": -0.035855682954677295,
      "757": -0.016650833045261593,
      "758": 0.01475802555220547,
      "759": 0.0022844612124221955,
      "760": -0.016768009520393548,
      "761": -0.014277776379947331,
      "762": -0.00598489230401832,
      "763": -0.04078263347028515,
      "764": 0.031054860037611896,
      "765": -0.022237723164979156,
      "766": -0.0192147130955439,
      "767": 0.11991195946347416,
      "768": -0.04652631373900042,
      "769": -0.009104740110385413,
      "770": 0.05825249248600392,
      "771": 0.04665312607939197,
      "772": -0.02914443562656062,
      "773": -0.043913494117068894,
      "774": -0.0526072520862159,
      "775": 0.028547603835529522,
      "776": 0.020328026779272416,
      "777": 0.022950589175975124,
      "778": -0.010495839824880691,
      "779": -0.008125589533969179,
      "780": 0.025163825387287647,
      "781": -0.05788610617630704,
      "782": 0.015480493084777565,
      "783": -0.01049214920995761,
      "784": -0.0143056810656679,
      "785": 0.015176911090611008,
      "786": -0.016827907604379338,
      "787": 0.010790628852318037,
      "788": -0.014646928964112885,
      "789": -0.015292755260580753,
      "790": -0.015317875900464522,
      "791": 0.010821807364964194,
      "792": -0.08633765265464764,
      "793": 0.03052622890293168,
      "794": 0.025602683113483456,
      "795": 0.028972572871206435,
      "796": 0.013665032520480217,
      "797": 0.005846884066815291,
      "798": -0.03128090052894541,
      "799": -0.02258116166764055,
      "800": -0.01662189859354054,
      "801": 0.046707421093556155,
      "802": -0.016076477850679175,
      "803": -0.010600360616614369,
      "804": 0.01802980278836437,
      "805": 0.010262698906711089,
      "806": -0.023483235934156594,
      "807": -0.004907042259745976,
      "808": 0.002760891438945268,
      "809": 0.026707161364469486,
      "810": -0.006167383417634114,
      "811": 0.0019256353078232623,
      "812": 0.004727451577014523,
      "813": -0.011851646988958315,
      "814": -0.003795584024348407,
      "815": 0.005487845010019183,
      "816": -0.08088054391681533,
      "817": 0.01768993546776236,
      "818": -0.016631950835640688,
      "819": 0.05266497589680066,
      "820": 0.013572045057939295,
      "821": 0.010022135781370813,
      "822": 0.007148426246279013,
      "823": -0.013206914041616958,
      "824": -0.0292574615383776,
      "825": 0.03348116106651328,
      "826": 0.02105030603209561,
      "827": 0.043313598776947446,
      "828": 0.06272966120355608,
      "829": -0.016624861777542646,
      "830": -0.016496148071229934,
      "831": 0.03316688202744074,
      "832": -0.01562361192559101,
      "833": -0.09375804908851224,
      "834": -0.028579971620643668,
      "835": -0.04963633689010749,
      "836": -0.03428744113409182,
      "837": 0.008129434845978549
     }
    },
    {
     "sx": 1,
     "sy": 1,
     "depth": 838,
     "w": {
      "0": -3433971217905724000,
      "1": 0.026940423679737945,
      "2": -19113805980696268,
      "3": -149155008837270800,
      "4": -95935381270920600,
      "5": -85672038021288430,
      "6": -0.011399625269750906,
      "7": -2000737878434.2407,
      "8": -101036453120834.38,
      "9": -107748181835801.84,
      "10": -97994409885308.34,
      "11": -97076862378790.55,
      "12": -95475826851984.92,
      "13": -106494517052257.44,
      "14": -90683383831484.16,
      "15": -91845213997493.84,
      "16": -100289054329195.33,
      "17": -93703154279586.19,
      "18": -3430359277793412000,
      "19": -0.03525651946037232,
      "20": -17184752902300878,
      "21": -149155008837270800,
      "22": -95935381270920600,
      "23": -85672038021288430,
      "24": -0.035273876080140584,
      "25": -2000737878434.3064,
      "26": -101036453169031.86,
      "27": -107748193000773.75,
      "28": -97994261366530.44,
      "29": -97076463707634.58,
      "30": -95475747377417.23,
      "31": -106494542098684.2,
      "32": -90683369755615.8,
      "33": -91845211410681.52,
      "34": -100289053920357.25,
      "35": -93703232101578.81,
      "36": -1611103785667753.2,
      "37": -1509911166555118.8,
      "38": 0.007715762043171829,
      "39": -19102543004369.04,
      "40": 159660124211300.22,
      "41": 1816577355563716.8,
      "42": 83850664836060.88,
      "43": 61665856289777.71,
      "44": 244268843414328.6,
      "45": -633420691141504.8,
      "46": 197198150178090.62,
      "47": 988603209433539,
      "48": 51680926150179.09,
      "49": 180736212381215.75,
      "50": 1559614601531192.5,
      "51": 959283804070188.1,
      "52": 49120460584424.59,
      "53": 791909639708829.9,
      "54": 161615361930769.06,
      "55": -2562015488524605,
      "56": -4354367010833442,
      "57": -1038720485712777.1,
      "58": 821527779974371.6,
      "59": -3427845360283627500,
      "60": -0.02160413110034778,
      "61": -25095944493127444,
      "62": -149155008837270800,
      "63": -95935381270920600,
      "64": -85672038021288430,
      "65": 0.045454341324663174,
      "66": -2000737878434.2478,
      "67": -101036455737320.98,
      "68": -107748182265121.38,
      "69": -97993909359626.39,
      "70": -97076098149100.92,
      "71": -95475668051741.1,
      "72": -106494489849127.23,
      "73": -90683320837979.38,
      "74": -91845203545353.02,
      "75": -100289057882616.75,
      "76": -93703237729952.22,
      "77": -1025399646918673.6,
      "78": 1118762942472098.5,
      "79": 781276189572842,
      "80": 641662994386781.4,
      "81": -1426060501719058,
      "82": 657145650808450.1,
      "83": -1294954564978865.2,
      "84": 303172977571365.94,
      "85": 985860771962179,
      "86": -2593927007508116,
      "87": -0.05173437186179779,
      "88": 148939841744039.84,
      "89": 130079873071765.55,
      "90": 168243979153721.84,
      "91": 0.019079467419692676,
      "92": 218818715405020.22,
      "93": -640741660552808.1,
      "94": 88956502466024,
      "95": 35891723846267.64,
      "96": 2083769329810866.5,
      "97": 159199601620298.3,
      "98": -4489595683291508,
      "99": 347569789895721,
      "100": -3414276065366544400,
      "101": -0.02531603046835033,
      "102": -41291001663307770,
      "103": -149155008837270800,
      "104": -95935381270920600,
      "105": -85672038021288430,
      "106": 0.0013610078575404167,
      "107": -2000737878434.187,
      "108": -101036459288367.9,
      "109": -107748100225715.81,
      "110": -97993466101991.95,
      "111": -97075794286418.56,
      "112": -95475538008791.92,
      "113": -106494401069849.42,
      "114": -90683303172897.84,
      "115": -91845176909707.23,
      "116": -100289048321255.97,
      "117": -93703275739160.39,
      "118": 334480788310384.44,
      "119": 237837300031298.84,
      "120": 595314261084726.9,
      "121": 889863595724998.1,
      "122": 78597512182462.45,
      "123": -5855328978809247,
      "124": 106881971256931.1,
      "125": 218818715405020.2,
      "126": 818709596742224,
      "127": 385644929805522.1,
      "128": -0.005721323810034729,
      "129": 525561351720832.6,
      "130": 75231792767082.16,
      "131": -0.050484262935242864,
      "132": -1584998253706019.8,
      "133": 143927523598541.6,
      "134": 114559546498617.02,
      "135": 393580238285657.25,
      "136": -2826631263676247,
      "137": -73315702135989.97,
      "138": 51862898055784.484,
      "139": 83850664836060.8,
      "140": 1684223330839770.5,
      "141": -3395421695692535300,
      "142": -0.059716970829247096,
      "143": -44055701015231170,
      "144": -149155008837270800,
      "145": -95935381270920600,
      "146": -85672038021288430,
      "147": -0.02413966519012611,
      "148": -2000737878434.2483,
      "149": -101036463149394.92,
      "150": -107748120145775.06,
      "151": -97993517180400.33,
      "152": -97074860184860.31,
      "153": -95475503897694.39,
      "154": -106494317362824.06,
      "155": -90683237811118.28,
      "156": -91845165814563.73,
      "157": -100289160936884.31,
      "158": -93703023616430.72,
      "159": 797221652261737.2,
      "160": -1426060501719058,
      "161": 0.013992379701417833,
      "162": 870350876861165.1,
      "163": -1586366217101366,
      "164": 860661699773091.1,
      "165": 120349959389062.6,
      "166": -0.012282204179589595,
      "167": 1034981232546603.8,
      "168": -969495112335116.4,
      "169": 66519303442999.84,
      "170": 231613211155232.72,
      "171": 8581344834370.476,
      "172": 405807161467.4915,
      "173": 2056101239740261.2,
      "174": 450156491674745.5,
      "175": 414508148735285,
      "176": 218818715405020.22,
      "177": -4489595683291508,
      "178": 86121355290659.31,
      "179": -461621524673526.25,
      "180": 689588187987288.4,
      "181": -2574168368320004.5,
      "182": -3393161301582563300,
      "183": -0.000962347827024176,
      "184": -45430999729563140,
      "185": -149155008837270800,
      "186": -95935381270920600,
      "187": -85672038021288430,
      "188": 0.014197513546662557,
      "189": -2000737878434.1982,
      "190": -101036474570105.06,
      "191": -107748123909625.6,
      "192": -97993410033309.81,
      "193": -97074673553213.27,
      "194": -95475496026873.67,
      "195": -106494249503584.17,
      "196": -90683176632160.47,
      "197": -91845160460296.47,
      "198": -100289324442395.31,
      "199": -93702979193705.58,
      "200": 745393894606233.9,
      "201": 159082457603142.94,
      "202": -4400910188934854.5,
      "203": 905343612283478,
      "204": -1520229416843924,
      "205": -1491468006082964.8,
      "206": 0.0058469566961173326,
      "207": -1166072030449519.2,
      "208": 1026223439776110.6,
      "209": -0.028988137292830025,
      "210": 1000927226155786.2,
      "211": -0.022372944253746245,
      "212": 515602058623240.8,
      "213": 5838907363010.491,
      "214": 1071218601357763.4,
      "215": 801803528506276.2,
      "216": 177980016208974.53,
      "217": 405807161467.41406,
      "218": 0.053067094330640864,
      "219": 1257496055292279.2,
      "220": -2394816495749998.5,
      "221": 991626439118834.4,
      "222": -1286774087176923.2,
      "223": -3391304807652918000,
      "224": -0.03333530450770463,
      "225": -47319605345163576,
      "226": -149155008837270800,
      "227": -95935381270920600,
      "228": -85672038021288430,
      "229": -0.008549153204788596,
      "230": -2000737878434.1736,
      "231": -101036510105440.52,
      "232": -107748134706784.4,
      "233": -97993405352763.83,
      "234": -97074607123532.73,
      "235": -95475471885562.06,
      "236": -106494184311403.86,
      "237": -90683189747010.9,
      "238": -91845234121290.25,
      "239": -100289506639137.77,
      "240": -93702934386176.5,
      "241": 145092876552572.3,
      "242": 821527779974371.6,
      "243": 95659181212357.34,
      "244": 92722505405807.67,
      "245": 815664812733891.2,
      "246": 1000549438884294.4,
      "247": 746102153274474,
      "248": 540521950811541,
      "249": 141330623613288.97,
      "250": -1163329592978160.5,
      "251": 521592751787269.6,
      "252": 203149292509136.2,
      "253": -4193795808140096.5,
      "254": -1586366217101366,
      "255": 1913114275874826.8,
      "256": 144177871037381.2,
      "257": -0.047741930871612284,
      "258": 308747745279275.4,
      "259": 291411652122500.9,
      "260": -3240593940180531.5,
      "261": -1313167080353036.5,
      "262": -0.01299130835431448,
      "263": 114559546498617.08,
      "264": -3370972551810353700,
      "265": 0.00901512005172364,
      "266": -49060683149194744,
      "267": -149155008837270800,
      "268": -95935381270920600,
      "269": -85672038021288430,
      "270": -0.0057690514397138026,
      "271": -2000737878434.2039,
      "272": -101036531551647.52,
      "273": -107748141619792.53,
      "274": -97993369632024.88,
      "275": -97074221581549.98,
      "276": -95475358312689.1,
      "277": -106494111118205.8,
      "278": -90683269589841.38,
      "279": -91845308001212.44,
      "280": -100289675527587.11,
      "281": -93702809159554.81,
      "282": 291411652122500.94,
      "283": 860139286053148.1,
      "284": -0.02517248932458574,
      "285": 1838777560320476.8,
      "286": 818709596742224,
      "287": 1212403687484945.5,
      "288": -94213659828630.11,
      "289": -0.03185311473378397,
      "290": 219224522566487.8,
      "291": 991699679325189.6,
      "292": 120785829729078.47,
      "293": 0.0031630470710283893,
      "294": 75231792767082.17,
      "295": 41216908069141.47,
      "296": -1431313654372655.8,
      "297": -921062751227407.1,
      "298": 0.005288553645124108,
      "299": -6082221920767091,
      "300": 396987032931397.7,
      "301": -3392953710823015.5,
      "302": 903705288410133,
      "303": 13711169285973.934,
      "304": 536433510029435.2,
      "305": -3358073635749828000,
      "306": -0.017573218546582114,
      "307": -57300115423053096,
      "308": -149155008837270800,
      "309": -95935381270920600,
      "310": -85672038021288430,
      "311": -0.009624149369624715,
      "312": -2000737878434.181,
      "313": -101036521098843.16,
      "314": -107748143532261.8,
      "315": -97993086208472.02,
      "316": -97074299700731.7,
      "317": -95475292406253.55,
      "318": -106494023985653.52,
      "319": -90683557514629.34,
      "320": -91845375464069.3,
      "321": -100290095905872.95,
      "322": -93702857810222.69,
      "323": -4489595683291508,
      "324": 1594483726484342.8,
      "325": 51680926150179.07,
      "326": 1651526550228378.8,
      "327": -3308669276872412,
      "328": 18443160472153.97,
      "329": 1254872287963857.2,
      "330": 1038345447112411.8,
      "331": 301638782514421.1,
      "332": 340655585408861.2,
      "333": -65942599716034.8,
      "334": 482744648746903.06,
      "335": -1175764609946710,
      "336": 218818715405020.2,
      "337": -0.004507117054334678,
      "338": -1281764118542757.5,
      "339": 134253685514144.31,
      "340": 239627119403819.38,
      "341": 405807161467.47205,
      "342": -961859823495056.6,
      "343": 120579073400657.53,
      "344": 234192414716274.1,
      "345": -0.011014330172822984,
      "346": -3359991849918822000,
      "347": 0.012345485142860473,
      "348": -69449710855617300,
      "349": -149155008837270800,
      "350": -95935381270920600,
      "351": -85672038021288430,
      "352": 0.02462415339793709,
      "353": -2000737878434.1733,
      "354": -101036523869342.53,
      "355": -107748168170091.8,
      "356": -97992796031052.44,
      "357": -97074675996980.38,
      "358": -95475258274324.52,
      "359": -106493979991075.14,
      "360": -90683572204741.8,
      "361": -91845408803256.6,
      "362": -100290185239971.66,
      "363": -93702871468590.89,
      "364": 138707797572143.03,
      "365": -3194727565297755.5,
      "366": 823688648128037.9,
      "367": 1731118665222929.2,
      "368": -4533256155810376,
      "369": -617362419760724.8,
      "370": -2738550497485925.5,
      "371": -0.06320876696373524,
      "372": 178099369922233.84,
      "373": -0.028633967453288504,
      "374": 44233949633729.05,
      "375": 103562733727640.44,
      "376": 521559815285187.2,
      "377": 88956502466024,
      "378": 1034483528138911.4,
      "379": 740059281503700.5,
      "380": 210064323855983.16,
      "381": 1271897365508829.8,
      "382": 114533034625568.7,
      "383": 316468656816086.25,
      "384": 82390787458359.8,
      "385": -0.04345927108073208,
      "386": 82743997307833.19,
      "387": -3326767651605354500,
      "388": 0.002910233148858415,
      "389": -75350978637150190,
      "390": -149155008837270800,
      "391": -95935381270920600,
      "392": -85672038021288430,
      "393": -0.03270428052657904,
      "394": -2000737878434.2075,
      "395": -101036435678375.27,
      "396": -107748193299895.64,
      "397": -97992742164383.44,
      "398": -97074529301320.7,
      "399": -95475202128156.39,
      "400": -106493804290736.22,
      "401": -90683616076506.44,
      "402": -91845413348077,
      "403": -100290271655507.75,
      "404": -93702804548579.67,
      "405": 18477548192169.902,
      "406": -623091956824211.2,
      "407": 1592783037446091,
      "408": 392756281921812.5,
      "409": 38395042270718.55,
      "410": -24195241551565.402,
      "411": 2775401500969667.5,
      "412": -0.01519515531592164,
      "413": 41216908069141.44,
      "414": -1509911166555118.8,
      "415": 47726313019940.68,
      "416": 82743997307833.17,
      "417": -1611103785667753.2,
      "418": 301209502863380.1,
      "419": 709630325958683.2,
      "420": -4397552089327397,
      "421": 92210163028864.38,
      "422": 229891321065547.5,
      "423": -1089835456857645.1,
      "424": 735925953403154.4,
      "425": -3306739645828351,
      "426": 939690338411217.6,
      "427": 963042927502232.8,
      "428": -3303055878589944300,
      "429": -0.010117098691577876,
      "430": -96873273879604700,
      "431": -149155008837270800,
      "432": -95935381270920600,
      "433": -85672038021288430,
      "434": -0.03033775362642362,
      "435": -2000737878434.1965,
      "436": -101036390888402.28,
      "437": -107748217601734.42,
      "438": -97992642062599.94,
      "439": -97074575182342.94,
      "440": -95475178403916.27,
      "441": -106493679823125.45,
      "442": -90683662096119.22,
      "443": -91845313109791.31,
      "444": -100290361927622.28,
      "445": -93702808516207.31,
      "446": -73315702135990.05,
      "447": 1757762224070163,
      "448": -7885291831585885,
      "449": 94966239578943.9,
      "450": 454427236201645.2,
      "451": 1563802318620897,
      "452": 184290191412473.03,
      "453": 66519303442999.92,
      "454": -1979954163855534.5,
      "455": -0.00762217658152517,
      "456": 267939175989444.78,
      "457": 88956502466023.97,
      "458": 114559546498617.03,
      "459": 27024505306524.453,
      "460": -0.036417925754964525,
      "461": 82743997307833.12,
      "462": 47726313019940.695,
      "463": 986266579123646.4,
      "464": -214314901705810.12,
      "465": 447793070510651.3,
      "466": 160536774099360.84,
      "467": 70158474342349.04,
      "468": 136075966110118.47,
      "469": -3293493633525138400,
      "470": -0.03618265756985892,
      "471": -101488592857027300,
      "472": -149155008837270800,
      "473": -95935381270920600,
      "474": -85672038021288430,
      "475": 0.03318821367774432,
      "476": -2000737878434.2454,
      "477": -101036389736770.73,
      "478": -107748241086333.27,
      "479": -97992534666590.55,
      "480": -97074728604794.95,
      "481": -95475176279672.47,
      "482": -106493634517172.72,
      "483": -90683705946183.78,
      "484": -91845267585035.84,
      "485": -100290477081203.53,
      "486": -93702804334845.48,
      "487": 99239215613754.95,
      "488": -1225211271142249.8,
      "489": -3395696148294375.5,
      "490": -4448378775222366.5,
      "491": 5838907363010.498,
      "492": 0.0027891842441266886,
      "493": -986405555416594.8,
      "494": -0.05096525665365307,
      "495": 192479389989312.9,
      "496": -1522147283201727.5,
      "497": 339397788805677.9,
      "498": 1515703423889638.8,
      "499": -571163576526260.6,
      "500": 235360429451385.34,
      "501": 822952824825118.4,
      "502": 1424012412793452,
      "503": 54213159131620.94,
      "504": 817556470545988.6,
      "505": -0.01827791790071503,
      "506": 218462037736165.4,
      "507": 947276178309908.8,
      "508": 818709596742224,
      "509": 1056472593424730.5,
      "510": -3276827823384253000,
      "511": -0.010725086943786766,
      "512": -111638494572582600,
      "513": -149155008837270800,
      "514": -95935381270920600,
      "515": -85672038021288430,
      "516": 0.035803563668219046,
      "517": -2000737878434.1968,
      "518": -101036371262893.36,
      "519": -107748258489462.31,
      "520": -97992536707690.4,
      "521": -97074745778175.03,
      "522": -95475170144261.78,
      "523": -106493547930019.97,
      "524": -90683746932227.17,
      "525": -91845192502018.61,
      "526": -100290555183965.06,
      "527": -93702801419476.33,
      "528": 594908453923259.5,
      "529": -1355880829780835.2,
      "530": -0.0045084232672750624,
      "531": 173614554714375.9,
      "532": -1410382843213377.8,
      "533": 1643006422770629,
      "534": 77882393342817.44,
      "535": 49120460584424.51,
      "536": 21261343704301.574,
      "537": 114559546498617.03,
      "538": 156381418388150.56,
      "539": 799964089733097.1,
      "540": 1755281656705133,
      "541": 344976872505451.94,
      "542": -4266346438157760.5,
      "543": 66519303442999.89,
      "544": -0.0052838849486033495,
      "545": 759340666216561.4,
      "546": -5080115636098118,
      "547": 1660571532268856.5,
      "548": 178505177083701.34,
      "549": -0.008708765993342823,
      "550": 115503674186127.69,
      "551": -3268698545404693000,
      "552": 0.08072578446537716,
      "553": -127236044555242960,
      "554": -149155008837270800,
      "555": -95935381270920600,
      "556": -85672038021288430,
      "557": 0.014195112187922763,
      "558": -2000737878434.2021,
      "559": -101036381519887.34,
      "560": -107748272693558.25,
      "561": -97992460689518.62,
      "562": -97074762540953.1,
      "563": -95475207006895.6,
      "564": -106493489278686.4,
      "565": -90683614383217.4,
      "566": -91845117541532.52,
      "567": -100290631132284.44,
      "568": -93702810609183.31,
      "569": -3217596778372140.5,
      "570": 320342672386877.94,
      "571": 75231792767082.19,
      "572": 156381418388150.66,
      "573": -302646516975672.1,
      "574": -431478922813146.94,
      "575": 907666099208248,
      "576": 784648119409889,
      "577": 488357367058589.44,
      "578": 95608216256334.36,
      "579": 82390787458359.83,
      "580": 657145650808450.1,
      "581": -0.02808229671503855,
      "582": -73315702135990.03,
      "583": 0.04247262599926881,
      "584": -1509911166555118.8,
      "585": 1103749831453783.9,
      "586": 257482687781413.06,
      "587": 1625514401808812,
      "588": -3503734911329329,
      "589": 54213159131620.94,
      "590": -1611103785667753.2,
      "591": 439727398749952.25,
      "592": -3262120172398428700,
      "593": -0.049531420772936145,
      "594": -129671450431614300,
      "595": -149155008837270800,
      "596": -95935381270920600,
      "597": -85672038021288430,
      "598": 0.02549609616145458,
      "599": -2000737878434.2358,
      "600": -101036402894273,
      "601": -107748307638936.66,
      "602": -97992430589950.42,
      "603": -97074777195000.86,
      "604": -95475229777744.39,
      "605": -106493449899527.67,
      "606": -90683589339791.88,
      "607": -91845088248522.81,
      "608": -100290697887960.5,
      "609": -93702813476136.2,
      "610": 940948560539548.5,
      "611": -1545149309032224,
      "612": 162220325751161.16,
      "613": 405807161467.44104,
      "614": 423276110014758.3,
      "615": -5626314318405159,
      "616": 818709596742224,
      "617": 390479609215439.44,
      "618": 88088980833872.3,
      "619": 72690707323790.77,
      "620": 83850664836060.84,
      "621": 483944956749218.2,
      "622": -1514382110522782.5,
      "623": 104914345713718.47,
      "624": 810671102966252.6,
      "625": -1163329592978160.5,
      "626": -1527437866580480,
      "627": 686076671072826.1,
      "628": 15732600612758.797,
      "629": 88956502466023.95,
      "630": 1646906026142880.8,
      "631": 169001819641832.94,
      "632": 788410628553387.6,
      "633": -3260079173411305500,
      "634": 0.022903020568046283,
      "635": -131054744786442050,
      "636": -149155008837270800,
      "637": -95935381270920600,
      "638": -85672038021288430,
      "639": 0.009054952108081882,
      "640": -2000737878434.173,
      "641": -101036351276220.86,
      "642": -107748297315498.36,
      "643": -97992397164410.02,
      "644": -97074810958767.17,
      "645": -95475261244103.28,
      "646": -106493410543616.06,
      "647": -90683567969228.61,
      "648": -91845065936909.08,
      "649": -100290762996290.12,
      "650": -93702603149729.61,
      "651": 0.00742967397684739,
      "652": 18443160472154,
      "653": -4470943967664.024,
      "654": -4295199409201665.5,
      "655": -1611103785667753.2,
      "656": -6377413985452243,
      "657": -295275700395649.75,
      "658": 156381418388150.56,
      "659": 7373102419955.189,
      "660": -0.030026635324048274,
      "661": 872282482780130.2,
      "662": 760242408958334.8,
      "663": 2126989501883988.8,
      "664": 136957156439454.34,
      "665": 338166192586022.94,
      "666": 343170968756526.94,
      "667": 83850664836060.89,
      "668": 235554459137765.4,
      "669": -0.0031953277138459303,
      "670": 28931020264377.312,
      "671": 750847234027824.4,
      "672": 1792363527147471.8,
      "673": 1330582345405170.2,
      "674": -3257428579344504300,
      "675": -0.034367659080659134,
      "676": -131637568090687140,
      "677": -149155008837270800,
      "678": -95935381270920600,
      "679": -85672038021288430,
      "680": 0.017415384756138467,
      "681": -2000737878434.2385,
      "682": -101036136125277.3,
      "683": -107748283680154.05,
      "684": -97992361222935.98,
      "685": -97074826027755.6,
      "686": -95475316542560.14,
      "687": -106493308601354.25,
      "688": -90683537969519.05,
      "689": -91845034763560.66,
      "690": -100291057299827.88,
      "691": -93702212228571.55,
      "692": 1093021527413147.9,
      "693": 158980570899708.03,
      "694": 232884026064565.5,
      "695": -4375723112800180,
      "696": 1133915249800595.8,
      "697": 594908453923259.5,
      "698": 0.006840131102668323,
      "699": 740465088665168,
      "700": 709630325958683.2,
      "701": 378438523544464.6,
      "702": 266545028424960.94,
      "703": 103562733727640.4,
      "704": 38395042270718.56,
      "705": -73315702135990.02,
      "706": 818709596742224,
      "707": 66519303442999.87,
      "708": -525703155328456,
      "709": 775589099538838.1,
      "710": -1455544345745009.8,
      "711": 0.011356682058001217,
      "712": -4614218245355647,
      "713": 858557773081188.5,
      "714": -526945963314466.5,
      "715": -3239830105031903000,
      "716": -0.05673558745574349,
      "717": -131653757626916200,
      "718": -149155008837270800,
      "719": -95935381270920600,
      "720": -85672038021288430,
      "721": 0.0442044384427086,
      "722": -2000737878434.1682,
      "723": -101035774542933.31,
      "724": -107747468954890.58,
      "725": -97992313699148.14,
      "726": -97074856478215,
      "727": -95475358629213.19,
      "728": -106493223832891.83,
      "729": -90683698840491.14,
      "730": -91845021684068.84,
      "731": -100291524845930.97,
      "732": -93702188359287.38,
      "733": 713231462021194.4,
      "734": -0.02115665556987981,
      "735": 89763889878315,
      "736": 951701190509537,
      "737": -0.02306054320461373,
      "738": -1524076914245787.8,
      "739": 1257728833107991.8,
      "740": -1166072030449519.2,
      "741": 66519303442999.88,
      "742": 70158474342348.98,
      "743": 1316516959154291.2,
      "744": 394745271838546.06,
      "745": 985860771962179,
      "746": 1141601410408758.5,
      "747": -491728337252145.7,
      "748": -4439624354115957,
      "749": 0.004818524913535204,
      "750": 224112590332357,
      "751": 709468000421876.4,
      "752": -73315702135990.05,
      "753": 334480788310384.44,
      "754": -1507168729083759,
      "755": -2655231059629207,
      "756": -3205616519666663400,
      "757": -0.002281559498536717,
      "758": -131653757626916200,
      "759": -149155008837270800,
      "760": -95935381270920600,
      "761": -85672038021288430,
      "762": -0.02470025127164978,
      "763": -2000737878434.2434,
      "764": -101035219509201.06,
      "765": -107742869995173.89,
      "766": -97992289051771.9,
      "767": -97074847340044.22,
      "768": -95475398321690.12,
      "769": -106493158779295.89,
      "770": -90683975926479.55,
      "771": -91844968680148.36,
      "772": -100292086623227.5,
      "773": -93701777613545.31,
      "774": 0.02483901590452083,
      "775": -4414363890524425.5,
      "776": 594908453923259.5,
      "777": 295799875151410.5,
      "778": -344936794936696.6,
      "779": 868963048093941.2,
      "780": 41216908069141.45,
      "781": 879965649569570.6,
      "782": 52484675150232.875,
      "783": 794424526192231.8,
      "784": -0.018201499175551014,
      "785": 1566141980665878.8,
      "786": 26112837032229.61,
      "787": 51680926150179.15,
      "788": -148049408451927.1,
      "789": -4683001418887290,
      "790": 1074817274428202.8,
      "791": 47726313019940.69,
      "792": 106499468071373.2,
      "793": 125421913692682.48,
      "794": 483042241149257.56,
      "795": 63498484250381.98,
      "796": -1083681242991160.1,
      "797": -3203140767640799700,
      "798": -0.012038006467605993,
      "799": -131653757626916200,
      "800": -149155008837270800,
      "801": -95935381270920600,
      "802": -85672038021288430,
      "803": 0.021427681331877568,
      "804": -2000737878434.2417,
      "805": -101035115024790.53,
      "806": -107741874614557.97,
      "807": -97992256905460.73,
      "808": -97074875276557.53,
      "809": -95475445808827.14,
      "810": -106493092123238.86,
      "811": -90684161529800.16,
      "812": -91844794315360.12,
      "813": -100292487181255.36,
      "814": -93702053011450.94,
      "815": -1163329592978160.5,
      "816": -3470239979989529,
      "817": -1611103785667753.2,
      "818": 2818183232147.687,
      "819": 1697219581902250.2,
      "820": 143385827872279.72,
      "821": 735925953403154.5,
      "822": 149405226056256.44,
      "823": 76671762957512.52,
      "824": 401758538478707.5,
      "825": 474385150554099.3,
      "826": 40362667813931.55,
      "827": 682341132506690.8,
      "828": -1514382110522782.5,
      "829": 114559546498617.03,
      "830": 373802439580860.5,
      "831": 97316000658827.56,
      "832": -2655636866790674,
      "833": 988875488880219.5,
      "834": 251019191257619.7,
      "835": 51680926150179.12,
      "836": 226191817824975.4,
      "837": 305644719138983.6
     }
    },
    {
     "sx": 1,
     "sy": 1,
     "depth": 838,
     "w": {
      "0": 0,
      "1": 0,
      "2": 0,
      "3": 0,
      "4": 0,
      "5": 0,
      "6": 0,
      "7": 0,
      "8": 0,
      "9": 0,
      "10": 0,
      "11": 0,
      "12": 0,
      "13": 0,
      "14": 0,
      "15": 0,
      "16": 0,
      "17": 0,
      "18": 0,
      "19": 0,
      "20": 0,
      "21": 0,
      "22": 0,
      "23": 0,
      "24": 0,
      "25": 0,
      "26": 0,
      "27": 0,
      "28": 0,
      "29": 0,
      "30": 0,
      "31": 0,
      "32": 0,
      "33": 0,
      "34": 0,
      "35": 0,
      "36": 0,
      "37": 0,
      "38": 0,
      "39": 0,
      "40": 0,
      "41": 0,
      "42": 0,
      "43": 0,
      "44": 0,
      "45": 0,
      "46": 0,
      "47": 0,
      "48": 0,
      "49": 0,
      "50": 0,
      "51": 0,
      "52": 0,
      "53": 0,
      "54": 0,
      "55": 0,
      "56": 0,
      "57": 0,
      "58": 0,
      "59": 0,
      "60": 0,
      "61": 0,
      "62": 0,
      "63": 0,
      "64": 0,
      "65": 0,
      "66": 0,
      "67": 0,
      "68": 0,
      "69": 0,
      "70": 0,
      "71": 0,
      "72": 0,
      "73": 0,
      "74": 0,
      "75": 0,
      "76": 0,
      "77": 0,
      "78": 0,
      "79": 0,
      "80": 0,
      "81": 0,
      "82": 0,
      "83": 0,
      "84": 0,
      "85": 0,
      "86": 0,
      "87": 0,
      "88": 0,
      "89": 0,
      "90": 0,
      "91": 0,
      "92": 0,
      "93": 0,
      "94": 0,
      "95": 0,
      "96": 0,
      "97": 0,
      "98": 0,
      "99": 0,
      "100": 0,
      "101": 0,
      "102": 0,
      "103": 0,
      "104": 0,
      "105": 0,
      "106": 0,
      "107": 0,
      "108": 0,
      "109": 0,
      "110": 0,
      "111": 0,
      "112": 0,
      "113": 0,
      "114": 0,
      "115": 0,
      "116": 0,
      "117": 0,
      "118": 0,
      "119": 0,
      "120": 0,
      "121": 0,
      "122": 0,
      "123": 0,
      "124": 0,
      "125": 0,
      "126": 0,
      "127": 0,
      "128": 0,
      "129": 0,
      "130": 0,
      "131": 0,
      "132": 0,
      "133": 0,
      "134": 0,
      "135": 0,
      "136": 0,
      "137": 0,
      "138": 0,
      "139": 0,
      "140": 0,
      "141": 0,
      "142": 0,
      "143": 0,
      "144": 0,
      "145": 0,
      "146": 0,
      "147": 0,
      "148": 0,
      "149": 0,
      "150": 0,
      "151": 0,
      "152": 0,
      "153": 0,
      "154": 0,
      "155": 0,
      "156": 0,
      "157": 0,
      "158": 0,
      "159": 0,
      "160": 0,
      "161": 0,
      "162": 0,
      "163": 0,
      "164": 0,
      "165": 0,
      "166": 0,
      "167": 0,
      "168": 0,
      "169": 0,
      "170": 0,
      "171": 0,
      "172": 0,
      "173": 0,
      "174": 0,
      "175": 0,
      "176": 0,
      "177": 0,
      "178": 0,
      "179": 0,
      "180": 0,
      "181": 0,
      "182": 0,
      "183": 0,
      "184": 0,
      "185": 0,
      "186": 0,
      "187": 0,
      "188": 0,
      "189": 0,
      "190": 0,
      "191": 0,
      "192": 0,
      "193": 0,
      "194": 0,
      "195": 0,
      "196": 0,
      "197": 0,
      "198": 0,
      "199": 0,
      "200": 0,
      "201": 0,
      "202": 0,
      "203": 0,
      "204": 0,
      "205": 0,
      "206": 0,
      "207": 0,
      "208": 0,
      "209": 0,
      "210": 0,
      "211": 0,
      "212": 0,
      "213": 0,
      "214": 0,
      "215": 0,
      "216": 0,
      "217": 0,
      "218": 0,
      "219": 0,
      "220": 0,
      "221": 0,
      "222": 0,
      "223": 0,
      "224": 0,
      "225": 0,
      "226": 0,
      "227": 0,
      "228": 0,
      "229": 0,
      "230": 0,
      "231": 0,
      "232": 0,
      "233": 0,
      "234": 0,
      "235": 0,
      "236": 0,
      "237": 0,
      "238": 0,
      "239": 0,
      "240": 0,
      "241": 0,
      "242": 0,
      "243": 0,
      "244": 0,
      "245": 0,
      "246": 0,
      "247": 0,
      "248": 0,
      "249": 0,
      "250": 0,
      "251": 0,
      "252": 0,
      "253": 0,
      "254": 0,
      "255": 0,
      "256": 0,
      "257": 0,
      "258": 0,
      "259": 0,
      "260": 0,
      "261": 0,
      "262": 0,
      "263": 0,
      "264": 0,
      "265": 0,
      "266": 0,
      "267": 0,
      "268": 0,
      "269": 0,
      "270": 0,
      "271": 0,
      "272": 0,
      "273": 0,
      "274": 0,
      "275": 0,
      "276": 0,
      "277": 0,
      "278": 0,
      "279": 0,
      "280": 0,
      "281": 0,
      "282": 0,
      "283": 0,
      "284": 0,
      "285": 0,
      "286": 0,
      "287": 0,
      "288": 0,
      "289": 0,
      "290": 0,
      "291": 0,
      "292": 0,
      "293": 0,
      "294": 0,
      "295": 0,
      "296": 0,
      "297": 0,
      "298": 0,
      "299": 0,
      "300": 0,
      "301": 0,
      "302": 0,
      "303": 0,
      "304": 0,
      "305": 0,
      "306": 0,
      "307": 0,
      "308": 0,
      "309": 0,
      "310": 0,
      "311": 0,
      "312": 0,
      "313": 0,
      "314": 0,
      "315": 0,
      "316": 0,
      "317": 0,
      "318": 0,
      "319": 0,
      "320": 0,
      "321": 0,
      "322": 0,
      "323": 0,
      "324": 0,
      "325": 0,
      "326": 0,
      "327": 0,
      "328": 0,
      "329": 0,
      "330": 0,
      "331": 0,
      "332": 0,
      "333": 0,
      "334": 0,
      "335": 0,
      "336": 0,
      "337": 0,
      "338": 0,
      "339": 0,
      "340": 0,
      "341": 0,
      "342": 0,
      "343": 0,
      "344": 0,
      "345": 0,
      "346": 0,
      "347": 0,
      "348": 0,
      "349": 0,
      "350": 0,
      "351": 0,
      "352": 0,
      "353": 0,
      "354": 0,
      "355": 0,
      "356": 0,
      "357": 0,
      "358": 0,
      "359": 0,
      "360": 0,
      "361": 0,
      "362": 0,
      "363": 0,
      "364": 0,
      "365": 0,
      "366": 0,
      "367": 0,
      "368": 0,
      "369": 0,
      "370": 0,
      "371": 0,
      "372": 0,
      "373": 0,
      "374": 0,
      "375": 0,
      "376": 0,
      "377": 0,
      "378": 0,
      "379": 0,
      "380": 0,
      "381": 0,
      "382": 0,
      "383": 0,
      "384": 0,
      "385": 0,
      "386": 0,
      "387": 0,
      "388": 0,
      "389": 0,
      "390": 0,
      "391": 0,
      "392": 0,
      "393": 0,
      "394": 0,
      "395": 0,
      "396": 0,
      "397": 0,
      "398": 0,
      "399": 0,
      "400": 0,
      "401": 0,
      "402": 0,
      "403": 0,
      "404": 0,
      "405": 0,
      "406": 0,
      "407": 0,
      "408": 0,
      "409": 0,
      "410": 0,
      "411": 0,
      "412": 0,
      "413": 0,
      "414": 0,
      "415": 0,
      "416": 0,
      "417": 0,
      "418": 0,
      "419": 0,
      "420": 0,
      "421": 0,
      "422": 0,
      "423": 0,
      "424": 0,
      "425": 0,
      "426": 0,
      "427": 0,
      "428": 0,
      "429": 0,
      "430": 0,
      "431": 0,
      "432": 0,
      "433": 0,
      "434": 0,
      "435": 0,
      "436": 0,
      "437": 0,
      "438": 0,
      "439": 0,
      "440": 0,
      "441": 0,
      "442": 0,
      "443": 0,
      "444": 0,
      "445": 0,
      "446": 0,
      "447": 0,
      "448": 0,
      "449": 0,
      "450": 0,
      "451": 0,
      "452": 0,
      "453": 0,
      "454": 0,
      "455": 0,
      "456": 0,
      "457": 0,
      "458": 0,
      "459": 0,
      "460": 0,
      "461": 0,
      "462": 0,
      "463": 0,
      "464": 0,
      "465": 0,
      "466": 0,
      "467": 0,
      "468": 0,
      "469": 0,
      "470": 0,
      "471": 0,
      "472": 0,
      "473": 0,
      "474": 0,
      "475": 0,
      "476": 0,
      "477": 0,
      "478": 0,
      "479": 0,
      "480": 0,
      "481": 0,
      "482": 0,
      "483": 0,
      "484": 0,
      "485": 0,
      "486": 0,
      "487": 0,
      "488": 0,
      "489": 0,
      "490": 0,
      "491": 0,
      "492": 0,
      "493": 0,
      "494": 0,
      "495": 0,
      "496": 0,
      "497": 0,
      "498": 0,
      "499": 0,
      "500": 0,
      "501": 0,
      "502": 0,
      "503": 0,
      "504": 0,
      "505": 0,
      "506": 0,
      "507": 0,
      "508": 0,
      "509": 0,
      "510": 0,
      "511": 0,
      "512": 0,
      "513": 0,
      "514": 0,
      "515": 0,
      "516": 0,
      "517": 0,
      "518": 0,
      "519": 0,
      "520": 0,
      "521": 0,
      "522": 0,
      "523": 0,
      "524": 0,
      "525": 0,
      "526": 0,
      "527": 0,
      "528": 0,
      "529": 0,
      "530": 0,
      "531": 0,
      "532": 0,
      "533": 0,
      "534": 0,
      "535": 0,
      "536": 0,
      "537": 0,
      "538": 0,
      "539": 0,
      "540": 0,
      "541": 0,
      "542": 0,
      "543": 0,
      "544": 0,
      "545": 0,
      "546": 0,
      "547": 0,
      "548": 0,
      "549": 0,
      "550": 0,
      "551": 0,
      "552": 0,
      "553": 0,
      "554": 0,
      "555": 0,
      "556": 0,
      "557": 0,
      "558": 0,
      "559": 0,
      "560": 0,
      "561": 0,
      "562": 0,
      "563": 0,
      "564": 0,
      "565": 0,
      "566": 0,
      "567": 0,
      "568": 0,
      "569": 0,
      "570": 0,
      "571": 0,
      "572": 0,
      "573": 0,
      "574": 0,
      "575": 0,
      "576": 0,
      "577": 0,
      "578": 0,
      "579": 0,
      "580": 0,
      "581": 0,
      "582": 0,
      "583": 0,
      "584": 0,
      "585": 0,
      "586": 0,
      "587": 0,
      "588": 0,
      "589": 0,
      "590": 0,
      "591": 0,
      "592": 0,
      "593": 0,
      "594": 0,
      "595": 0,
      "596": 0,
      "597": 0,
      "598": 0,
      "599": 0,
      "600": 0,
      "601": 0,
      "602": 0,
      "603": 0,
      "604": 0,
      "605": 0,
      "606": 0,
      "607": 0,
      "608": 0,
      "609": 0,
      "610": 0,
      "611": 0,
      "612": 0,
      "613": 0,
      "614": 0,
      "615": 0,
      "616": 0,
      "617": 0,
      "618": 0,
      "619": 0,
      "620": 0,
      "621": 0,
      "622": 0,
      "623": 0,
      "624": 0,
      "625": 0,
      "626": 0,
      "627": 0,
      "628": 0,
      "629": 0,
      "630": 0,
      "631": 0,
      "632": 0,
      "633": 0,
      "634": 0,
      "635": 0,
      "636": 0,
      "637": 0,
      "638": 0,
      "639": 0,
      "640": 0,
      "641": 0,
      "642": 0,
      "643": 0,
      "644": 0,
      "645": 0,
      "646": 0,
      "647": 0,
      "648": 0,
      "649": 0,
      "650": 0,
      "651": 0,
      "652": 0,
      "653": 0,
      "654": 0,
      "655": 0,
      "656": 0,
      "657": 0,
      "658": 0,
      "659": 0,
      "660": 0,
      "661": 0,
      "662": 0,
      "663": 0,
      "664": 0,
      "665": 0,
      "666": 0,
      "667": 0,
      "668": 0,
      "669": 0,
      "670": 0,
      "671": 0,
      "672": 0,
      "673": 0,
      "674": 0,
      "675": 0,
      "676": 0,
      "677": 0,
      "678": 0,
      "679": 0,
      "680": 0,
      "681": 0,
      "682": 0,
      "683": 0,
      "684": 0,
      "685": 0,
      "686": 0,
      "687": 0,
      "688": 0,
      "689": 0,
      "690": 0,
      "691": 0,
      "692": 0,
      "693": 0,
      "694": 0,
      "695": 0,
      "696": 0,
      "697": 0,
      "698": 0,
      "699": 0,
      "700": 0,
      "701": 0,
      "702": 0,
      "703": 0,
      "704": 0,
      "705": 0,
      "706": 0,
      "707": 0,
      "708": 0,
      "709": 0,
      "710": 0,
      "711": 0,
      "712": 0,
      "713": 0,
      "714": 0,
      "715": 0,
      "716": 0,
      "717": 0,
      "718": 0,
      "719": 0,
      "720": 0,
      "721": 0,
      "722": 0,
      "723": 0,
      "724": 0,
      "725": 0,
      "726": 0,
      "727": 0,
      "728": 0,
      "729": 0,
      "730": 0,
      "731": 0,
      "732": 0,
      "733": 0,
      "734": 0,
      "735": 0,
      "736": 0,
      "737": 0,
      "738": 0,
      "739": 0,
      "740": 0,
      "741": 0,
      "742": 0,
      "743": 0,
      "744": 0,
      "745": 0,
      "746": 0,
      "747": 0,
      "748": 0,
      "749": 0,
      "750": 0,
      "751": 0,
      "752": 0,
      "753": 0,
      "754": 0,
      "755": 0,
      "756": 0,
      "757": 0,
      "758": 0,
      "759": 0,
      "760": 0,
      "761": 0,
      "762": 0,
      "763": 0,
      "764": 0,
      "765": 0,
      "766": 0,
      "767": 0,
      "768": 0,
      "769": 0,
      "770": 0,
      "771": 0,
      "772": 0,
      "773": 0,
      "774": 0,
      "775": 0,
      "776": 0,
      "777": 0,
      "778": 0,
      "779": 0,
      "780": 0,
      "781": 0,
      "782": 0,
      "783": 0,
      "784": 0,
      "785": 0,
      "786": 0,
      "787": 0,
      "788": 0,
      "789": 0,
      "790": 0,
      "791": 0,
      "792": 0,
      "793": 0,
      "794": 0,
      "795": 0,
      "796": 0,
      "797": 0,
      "798": 0,
      "799": 0,
      "800": 0,
      "801": 0,
      "802": 0,
      "803": 0,
      "804": 0,
      "805": 0,
      "806": 0,
      "807": 0,
      "808": 0,
      "809": 0,
      "810": 0,
      "811": 0,
      "812": 0,
      "813": 0,
      "814": 0,
      "815": 0,
      "816": 0,
      "817": 0,
      "818": 0,
      "819": 0,
      "820": 0,
      "821": 0,
      "822": 0,
      "823": 0,
      "824": 0,
      "825": 0,
      "826": 0,
      "827": 0,
      "828": 0,
      "829": 0,
      "830": 0,
      "831": 0,
      "832": 0,
      "833": 0,
      "834": 0,
      "835": 0,
      "836": 0,
      "837": 0
     }
    },
    {
     "sx": 1,
     "sy": 1,
     "depth": 838,
     "w": {
      "0": -134.80401350185477,
      "1": 0.06205502803173899,
      "2": 3.7291988158332017,
      "3": -8.99482303023158,
      "4": -5.805367339799873,
      "5": -5.972178880935288,
      "6": 0.10162318485654087,
      "7": -0.052293216882306946,
      "8": 0.017435833408062984,
      "9": -0.023648380112034493,
      "10": 0.009568183602486045,
      "11": -0.011487242659556333,
      "12": -0.004427017345923834,
      "13": -0.01846737570023431,
      "14": -0.007079017764706828,
      "15": -0.01729656903182832,
      "16": 0.01988869798633631,
      "17": 0.026502139310974452,
      "18": -134.3748702279052,
      "19": -0.02042295933776225,
      "20": 3.735765310648894,
      "21": -9.068937442415447,
      "22": -5.827970602256874,
      "23": -5.923808173508924,
      "24": -0.011344811821831252,
      "25": 0.019569283796558038,
      "26": -0.011247977026229145,
      "27": 0.019554343333360716,
      "28": -0.03070046058629586,
      "29": -0.0440206782365491,
      "30": 0.0036370017112166858,
      "31": 0.032523306733831,
      "32": 0.0380965210588368,
      "33": 0.03580406479849102,
      "34": -0.01816126916976216,
      "35": -0.04584703566952473,
      "36": 0.01978417133329936,
      "37": 0.026736810040640928,
      "38": -0.0009159453952567446,
      "39": 0.059877932531090645,
      "40": -0.03850205517295913,
      "41": -0.01815809002303535,
      "42": 0.0027408515835916007,
      "43": -0.08510917049836914,
      "44": 0.006427534898634983,
      "45": -0.05210446378509808,
      "46": 0.04070243858424575,
      "47": 0.0043044112883209255,
      "48": 0.07251089662018087,
      "49": -0.0215341070964603,
      "50": 0.04413785031483987,
      "51": 0.00747400914186258,
      "52": 0.04117034873247989,
      "53": 0.0076965925456078015,
      "54": 0.013666243577751817,
      "55": -0.1382139055090831,
      "56": -0.032801302012886314,
      "57": -0.09862244615589336,
      "58": -0.010683200370453538,
      "59": -133.89225754807654,
      "60": 0.001797186554929113,
      "61": 3.7226465292172426,
      "62": -9.04223216499446,
      "63": -5.8076394868799746,
      "64": -5.9316597285116455,
      "65": -0.01169041355641953,
      "66": 0.02378381643571991,
      "67": -0.03921646958064612,
      "68": -0.0020988770597519225,
      "69": -0.016708122263012635,
      "70": 0.026666374062508085,
      "71": 0.027397702489089678,
      "72": 0.013091886486006626,
      "73": -0.015644435233956533,
      "74": -0.028023574353236318,
      "75": -0.05753565575209142,
      "76": 0.032467106052145714,
      "77": 0.05323022974697074,
      "78": -0.02757019158788941,
      "79": 0.024576892319694857,
      "80": -0.05854066222775455,
      "81": 0.03214414161281667,
      "82": 0.006692496006599766,
      "83": -0.026984674005609378,
      "84": -0.0473333728165364,
      "85": 0.019442661451143112,
      "86": -0.050370803693494635,
      "87": -0.019859636700722185,
      "88": -0.024333261167759412,
      "89": -0.053293905292122155,
      "90": -0.030812099798847206,
      "91": 0.014345232363591316,
      "92": 0.01359200901908824,
      "93": -0.05435032030824097,
      "94": -0.031883095540459455,
      "95": -0.07072340847960958,
      "96": 0.011011667853616416,
      "97": -0.06353912084270472,
      "98": -0.009722193688376164,
      "99": -0.02225554592051445,
      "100": -133.30941226113433,
      "101": 0.022057287018825714,
      "102": 3.6553203069297378,
      "103": -9.001699523046575,
      "104": -5.851001314141566,
      "105": -5.910232818234987,
      "106": -0.03787183697871859,
      "107": -0.044798153570120944,
      "108": 0.022169966614955867,
      "109": 0.050590460740836646,
      "110": 0.0677633728791692,
      "111": -0.018971875847909266,
      "112": 0.03745169967042104,
      "113": -0.02166882216937132,
      "114": -0.00683809232045467,
      "115": -0.04670021673875737,
      "116": -0.06869150538070976,
      "117": 0.057832758978074536,
      "118": 0.02717433154773706,
      "119": 0.0381632514802145,
      "120": 0.009599120828308931,
      "121": -0.01846453226469807,
      "122": 0.010982616148885297,
      "123": -0.003109220433504223,
      "124": 0.03142866383429783,
      "125": 0.008559878322018264,
      "126": 0.032735007124752406,
      "127": -0.10316646559633254,
      "128": -0.022208931222741504,
      "129": -0.039458109160957745,
      "130": 0.04045883163611309,
      "131": -0.026561223562700544,
      "132": -0.01675489378395496,
      "133": 0.010969276189400454,
      "134": 0.014767012820497473,
      "135": -0.04944946185821195,
      "136": -0.048939961173412615,
      "137": 0.02324813272831985,
      "138": -0.06402543213469901,
      "139": 0.01477014282756329,
      "140": 0.001913855008356378,
      "141": -132.59601167128793,
      "142": -0.06872533888711381,
      "143": 3.6588921500715395,
      "144": -9.110685609685182,
      "145": -5.839676748824116,
      "146": -5.946389714315137,
      "147": -0.02850822689904504,
      "148": -0.009881417406810186,
      "149": -0.012492843460483781,
      "150": -0.009950990893085513,
      "151": -0.017922490195124,
      "152": 0.009048094802385085,
      "153": -0.024606906070221212,
      "154": 0.020678408366704214,
      "155": -0.028190127974844114,
      "156": -0.024957310576745998,
      "157": -0.0038641126468717444,
      "158": -0.04102306861797639,
      "159": 0.029772224958160672,
      "160": -0.0023130963035266905,
      "161": -0.0185978435659838,
      "162": 0.06363415283185674,
      "163": -0.0256996266318464,
      "164": -0.012725250619673768,
      "165": 0.009248831668607203,
      "166": -0.07445861785424601,
      "167": -0.0021738824240335386,
      "168": 0.07077928212542842,
      "169": -0.06895642093056072,
      "170": 0.004868562511249215,
      "171": 0.03330087338298477,
      "172": -0.027544779017632116,
      "173": 0.047939180673400854,
      "174": -0.060824764544232045,
      "175": -0.00988570663445347,
      "176": -0.07082434041803605,
      "177": -0.09672601160928962,
      "178": 0.00023942317017013607,
      "179": 0.01762797006807174,
      "180": 0.0682052597002595,
      "181": -0.06084703801980999,
      "182": -132.06946827847298,
      "183": -0.00272140893676994,
      "184": 3.5529471521424103,
      "185": -8.961323642912378,
      "186": -5.794222437746287,
      "187": -5.894693106289478,
      "188": 0.023306328300507058,
      "189": -0.0028946097965060714,
      "190": 0.009781712104882063,
      "191": -0.031114422470139753,
      "192": -0.019889932722231576,
      "193": 0.0787520216067225,
      "194": 0.02714667100572157,
      "195": 0.021703423085342247,
      "196": 0.03155298887440766,
      "197": -0.023877609027511053,
      "198": -0.06824850632446887,
      "199": 0.017232832958320825,
      "200": -0.05476250668030432,
      "201": -0.01826128727112362,
      "202": -0.09343031174233189,
      "203": -0.010312703438834905,
      "204": -0.033381630672320285,
      "205": 0.032910739664076635,
      "206": -0.02913048073272928,
      "207": -0.06821924896317852,
      "208": 0.029233010765768036,
      "209": 0.06043224106846548,
      "210": -0.016969054733963373,
      "211": -0.055788883557511604,
      "212": -0.012234460317740758,
      "213": 0.05809244438319952,
      "214": 0.03914592613613948,
      "215": -0.0015874043422950028,
      "216": -0.04687490737984525,
      "217": 0.0027780113036128037,
      "218": -0.009673552101725035,
      "219": -0.07255290839148264,
      "220": -0.08207571897470368,
      "221": 0.022848383556555562,
      "222": 0.05155962489587408,
      "223": -131.6262415606538,
      "224": 0.06660365873338035,
      "225": 3.527490302936721,
      "226": -9.013663642687469,
      "227": -5.824004653962735,
      "228": -5.923681757028136,
      "229": -0.012597518472082257,
      "230": 0.03860439144579445,
      "231": 0.017138014873709244,
      "232": -0.0023032968841217127,
      "233": -0.003200233411182485,
      "234": -0.008982903666364417,
      "235": -0.017003405118133683,
      "236": -0.028588324022315627,
      "237": -0.051339929119330635,
      "238": -0.0044856086813911565,
      "239": 0.017786989077984,
      "240": 0.012308685795386447,
      "241": -0.02359590334624899,
      "242": -0.05105524681700457,
      "243": -0.059461604069521216,
      "244": 0.011690125337160363,
      "245": -0.056834650756218276,
      "246": 0.005239817834016854,
      "247": -0.008201750872632165,
      "248": 0.023180609934568233,
      "249": 0.013196225267258435,
      "250": 0.03439550578672269,
      "251": 0.008073094049276688,
      "252": -0.02173371272276968,
      "253": -0.06067415942484377,
      "254": 0.0253670420200632,
      "255": 0.021246377571134702,
      "256": 0.009973598174750065,
      "257": 0.0033091189903683023,
      "258": 0.04534330081513098,
      "259": 0.045595717473674566,
      "260": -0.05431283014593559,
      "261": 0.02011269094046021,
      "262": -0.05175547132014716,
      "263": 0.05370061555914234,
      "264": -131.32096512363555,
      "265": 0.026651465881927024,
      "266": 3.5559723601684303,
      "267": -9.05289037921155,
      "268": -5.8067047186994,
      "269": -5.987123791193168,
      "270": -0.037457951742327786,
      "271": 0.0106982958143539,
      "272": -0.033921782222948886,
      "273": 0.00640270844756492,
      "274": -0.002536397315193445,
      "275": 0.011373373819066088,
      "276": -0.07396733269062306,
      "277": -0.011084963000440023,
      "278": -0.002274261745007595,
      "279": 0.0038132523244430705,
      "280": 0.017598125027862364,
      "281": 0.014932282706423917,
      "282": 0.00018770103542416506,
      "283": 0.012237142950527967,
      "284": 0.03190603353710927,
      "285": -0.026986299960679607,
      "286": 0.012822402177555627,
      "287": 0.024974619405119407,
      "288": -0.0604891456272127,
      "289": -0.008064216775775247,
      "290": 0.06111543359653124,
      "291": 0.03012120852284016,
      "292": 0.00853317327814709,
      "293": 0.02417199158641547,
      "294": -0.04354132969725329,
      "295": 0.013098884782606384,
      "296": 0.08975314536574444,
      "297": -0.06879953918215091,
      "298": -0.04778077005053317,
      "299": -0.07419765082424686,
      "300": -0.04942647754717374,
      "301": 0.010085684680322565,
      "302": -0.0018008892320943543,
      "303": 0.00995238219416528,
      "304": 0.014782660330779412,
      "305": -130.71513322125296,
      "306": 0.020342716029759563,
      "307": 3.393275656344594,
      "308": -8.989810851392074,
      "309": -5.7312889107557226,
      "310": -5.994761198595495,
      "311": -0.008866619128477886,
      "312": 0.049033392852740366,
      "313": -0.015573092320035564,
      "314": -0.07676141985150152,
      "315": -0.0019905546018202528,
      "316": -0.0514445774233994,
      "317": -0.08806227752662578,
      "318": 0.005423536998953076,
      "319": 0.02752777340028239,
      "320": -0.03890046528368366,
      "321": 0.0013289811286185324,
      "322": -0.0026091514026720147,
      "323": -0.059010459491440036,
      "324": 0.06711278411971061,
      "325": -0.0026181930283928905,
      "326": 0.001736335516783007,
      "327": 0.0037103482097965057,
      "328": -0.012996555784866764,
      "329": -0.014484684321848662,
      "330": -0.0538314388454196,
      "331": -0.110720460278556,
      "332": -0.06455615602403474,
      "333": 0.04787907596512948,
      "334": 0.0043266547115885,
      "335": -0.04905548067470511,
      "336": 0.037224581364570644,
      "337": -0.020858029514229742,
      "338": 0.05750798037280895,
      "339": -0.007822855110785776,
      "340": -0.04282861678055442,
      "341": -0.01847856844476588,
      "342": -0.032602095209171345,
      "343": 0.012274219756398917,
      "344": -0.05329311707241827,
      "345": 0.04166257368598448,
      "346": -130.17346363281874,
      "347": -0.014262911168002643,
      "348": 3.0654847046202764,
      "349": -9.028484431543477,
      "350": -5.84918813594296,
      "351": -5.923658279227482,
      "352": 0.05765846613953842,
      "353": -0.016006538760018493,
      "354": 0.029871566231579764,
      "355": -0.027657642286027382,
      "356": -0.03627668530079145,
      "357": -0.022456211031549277,
      "358": 0.04432547757304514,
      "359": -0.018288279696124808,
      "360": -0.005234084980798215,
      "361": 0.00007107185256928713,
      "362": 0.03217992600311176,
      "363": 0.03598974333947305,
      "364": -0.01194947157375561,
      "365": -0.05705941947894806,
      "366": -0.016596445761971865,
      "367": -0.03492375440328671,
      "368": -0.037085187471212346,
      "369": -0.018661667679506083,
      "370": -0.005529702824913614,
      "371": 0.00894019439925069,
      "372": -0.069315917437959,
      "373": 0.008234908973242226,
      "374": 0.06735340511665573,
      "375": 0.03622218623872232,
      "376": -0.044258380061723064,
      "377": -0.04930904779039777,
      "378": -0.04200053535208525,
      "379": 0.03748657833970426,
      "380": 0.04928547638815511,
      "381": 0.031072549874264103,
      "382": 0.02833872064088311,
      "383": 0.01855594153189813,
      "384": 0.0409572789634578,
      "385": 0.030293784888436898,
      "386": -0.019317453040260803,
      "387": -123.17265574483217,
      "388": -0.0017585148891035526,
      "389": 2.963200757992862,
      "390": -8.984773308337653,
      "391": -5.83114867538152,
      "392": -5.990081385408491,
      "393": -0.005891013473669932,
      "394": -0.016842882996237117,
      "395": 0.054998128165924136,
      "396": 0.05289318112865854,
      "397": 0.05412807020267919,
      "398": -0.00938695368148349,
      "399": -0.02276055226002564,
      "400": -0.01814244278384255,
      "401": 0.05490584639338351,
      "402": -0.0024252446815376675,
      "403": -0.006937696667202867,
      "404": -0.0486141025712516,
      "405": -0.002391400346524239,
      "406": -0.01962636032692514,
      "407": -0.10158972153999632,
      "408": -0.02698862823289349,
      "409": 0.0037007612858882444,
      "410": -0.06843626467529601,
      "411": -0.021213667695280967,
      "412": 0.0003857156043716395,
      "413": -0.017977732334767075,
      "414": 0.023429022195113537,
      "415": -0.026775443092892672,
      "416": -0.014990458989476584,
      "417": 0.0764272965050699,
      "418": 0.014230380227906599,
      "419": -0.009399345804670065,
      "420": 0.025371510892045257,
      "421": -0.03973730267372456,
      "422": 0.008107366712838928,
      "423": 0.0017997533734831108,
      "424": -0.010038797917359805,
      "425": -0.048355739391374955,
      "426": 0.003955860800340678,
      "427": -0.013915545567281577,
      "428": -122.47363458571857,
      "429": 0.066500795181787,
      "430": 2.5387081957774154,
      "431": -9.002014810586878,
      "432": -5.788752716594179,
      "433": -5.95095340276355,
      "434": 0.004427582468244442,
      "435": 0.05696750844035495,
      "436": -0.0021679681572403307,
      "437": 0.0377305213796085,
      "438": -0.023256640757928992,
      "439": 0.06907321687476466,
      "440": -0.04212634970166962,
      "441": 0.005461839080957797,
      "442": 0.020673039089435425,
      "443": -0.04535609431554183,
      "444": -0.05948908652830852,
      "445": 0.0043991930525666785,
      "446": 0.01989222798642708,
      "447": -0.05803765148918069,
      "448": -0.10814716573696001,
      "449": 0.0731990066215081,
      "450": -0.042249817018538825,
      "451": 0.002425574567935133,
      "452": -0.02012017803699728,
      "453": -0.007453091951618769,
      "454": 0.06188302633309731,
      "455": -0.017009741134553117,
      "456": -0.043203125760008496,
      "457": 0.0028209975207577837,
      "458": -0.004832503785923561,
      "459": -0.06991601555374868,
      "460": -0.007527690200162262,
      "461": 0.001699568187496075,
      "462": 0.05899747257635321,
      "463": -0.018779382399986007,
      "464": -0.05971842510228428,
      "465": 0.008239528352901336,
      "466": -0.032221593332330684,
      "467": 0.03985368854830069,
      "468": 0.03455870635720293,
      "469": -121.6786190428128,
      "470": 0.02372696779307244,
      "471": 2.5085399996649356,
      "472": -9.008428165713564,
      "473": -5.8416523585492905,
      "474": -5.9412448511213585,
      "475": 0.032257710473248706,
      "476": 0.0475526376066188,
      "477": 0.02421911926734866,
      "478": 0.015212982164175904,
      "479": 0.04361548412417605,
      "480": 0.03183460609903924,
      "481": -0.018628856708524454,
      "482": 0.021194781425929975,
      "483": 0.017467149510700386,
      "484": 0.04945610445060667,
      "485": -0.04475988144938255,
      "486": 0.024314865038015776,
      "487": -0.021622430835388944,
      "488": 0.003260838015855905,
      "489": -0.05891468834660801,
      "490": -0.03927343498527289,
      "491": -0.026263452101879404,
      "492": -0.01881049977316893,
      "493": 0.01219351753682779,
      "494": -0.024927923976367172,
      "495": 0.052713222620187544,
      "496": -0.007307676474566224,
      "497": 0.04080135333369041,
      "498": -0.005859125677279825,
      "499": -0.023761049898677868,
      "500": -0.04250494665042202,
      "501": -0.007426295305442392,
      "502": -0.06908001195938132,
      "503": -0.004594314783984628,
      "504": 0.03375768716228143,
      "505": 0.025872259536179196,
      "506": 0.060966349101141286,
      "507": -0.029271610321966002,
      "508": -0.07413409318683112,
      "509": -0.05136077286253261,
      "510": -121.07243988188324,
      "511": 0.030675819985773282,
      "512": 2.168320208441959,
      "513": -9.0519588674946,
      "514": -5.82600853125231,
      "515": -5.91043677007106,
      "516": 0.013028928143737167,
      "517": 0.02276463932526922,
      "518": -0.07126959043682711,
      "519": 0.01632997023779276,
      "520": 0.0026284734372515215,
      "521": -0.0020647955397397415,
      "522": -0.029694837683093528,
      "523": -0.00031279841636913224,
      "524": 0.002928000748882495,
      "525": 0.028439055301357093,
      "526": 0.04455329636479514,
      "527": -0.04858432830100708,
      "528": -0.03173731116463608,
      "529": 0.007087769382958746,
      "530": -0.00945897677626924,
      "531": 0.04050392928721872,
      "532": -0.03997720875394144,
      "533": -0.0503221164102694,
      "534": -0.051308688731259884,
      "535": -0.04522837273201699,
      "536": -0.017760321384106534,
      "537": -0.02717801029469642,
      "538": -0.05553561326300405,
      "539": -0.03348298890011515,
      "540": 0.052205042287000195,
      "541": 0.02620095193946574,
      "542": -0.02968391919847602,
      "543": -0.01727896289050841,
      "544": 0.005427852909803277,
      "545": -0.002658481504616308,
      "546": -0.09059964901959128,
      "547": 0.005473049048186994,
      "548": -0.002304708308363774,
      "549": 0.008502847187862705,
      "550": 0.004128121700192114,
      "551": -120.54635316352879,
      "552": -0.008306769317070816,
      "553": 1.7326134569232576,
      "554": -9.069107546232532,
      "555": -5.794988191785389,
      "556": -5.875364647491592,
      "557": -0.022256811576466296,
      "558": 0.02927494282025613,
      "559": -0.010143560771848735,
      "560": 0.07578690231718704,
      "561": -0.020174424922936914,
      "562": -0.046531261525238746,
      "563": -0.06999506294508526,
      "564": -0.012215812624042116,
      "565": 0.03277312310398253,
      "566": -0.024004615783349715,
      "567": -0.020836270212034193,
      "568": 0.012954461593968321,
      "569": -0.10702279021841209,
      "570": -0.0810454820141037,
      "571": 0.0035428804096048444,
      "572": 0.048005020504707084,
      "573": -0.026751120737679837,
      "574": -0.08261565407740859,
      "575": 0.023312083945369152,
      "576": 0.013243295858089813,
      "577": 0.031307766875849255,
      "578": -0.02247292023174108,
      "579": -0.013281284548008547,
      "580": -0.008490904545766696,
      "581": 0.006786537388112492,
      "582": 0.018461582594070283,
      "583": -0.03800134453665396,
      "584": -0.019078904762520388,
      "585": 0.007715174384708905,
      "586": 0.03971988909249456,
      "587": -0.02664913553793929,
      "588": -0.06727768834819614,
      "589": -0.0006343345930952807,
      "590": 0.02512876463392875,
      "591": -0.0754369829607592,
      "592": -120.18839003125369,
      "593": 0.0397843518178244,
      "594": 1.6722699046933192,
      "595": -9.009610017222997,
      "596": -5.768499304607883,
      "597": -5.966180687798514,
      "598": -0.06958233966960756,
      "599": -0.032515360733996995,
      "600": -0.03953980357831166,
      "601": 0.03148244402257977,
      "602": 0.008589932490522553,
      "603": -0.009935135333162664,
      "604": 0.030195101779801524,
      "605": 0.003994849644539734,
      "606": -0.06688955319473082,
      "607": -0.06075387297634156,
      "608": -0.003171522297340435,
      "609": -0.01750743050177891,
      "610": 0.048674207518993616,
      "611": -0.046304648656471256,
      "612": 0.00812567235168349,
      "613": -0.04298521648212491,
      "614": 0.006765432780447746,
      "615": -0.08128289220427586,
      "616": 0.03244525192317046,
      "617": -0.041097288650923484,
      "618": -0.033886207412667124,
      "619": 0.09114789582223787,
      "620": -0.004231109610521753,
      "621": 0.03467038124037795,
      "622": 0.01197245605014174,
      "623": 0.028355262909750073,
      "624": -0.09173639459735566,
      "625": 0.00043218837238241263,
      "626": -0.043485841189864864,
      "627": 0.001111605410897958,
      "628": 0.012261840734765606,
      "629": 0.010341111473420062,
      "630": -0.008337228819857666,
      "631": -0.023051361035727583,
      "632": -0.04323172432183829,
      "633": -119.82391080294347,
      "634": 0.03169720522656178,
      "635": 1.6675853544925765,
      "636": -9.000798055975174,
      "637": -5.822592662485468,
      "638": -5.938708145178518,
      "639": -0.007291998935819862,
      "640": 0.009782682312260337,
      "641": -0.05369946387962709,
      "642": 0.0038713575122113148,
      "643": 0.002846486141953534,
      "644": -0.017660736844311516,
      "645": -0.015309776372247565,
      "646": 0.022579497658437163,
      "647": -0.02336990353803794,
      "648": -0.03648253991568454,
      "649": -0.015412210567528572,
      "650": 0.03647905698321946,
      "651": -0.004272231475097672,
      "652": -0.03354884428314286,
      "653": -0.039037272310848414,
      "654": -0.023273777346002084,
      "655": -0.002440078193298798,
      "656": -0.150097906891088,
      "657": -0.006925767767372199,
      "658": 0.016977809707878436,
      "659": 0.038314189131035396,
      "660": 0.010961104778684398,
      "661": 0.04207428285000739,
      "662": -0.046722238437787694,
      "663": -0.03963702680861095,
      "664": -0.02094503726668487,
      "665": 0.09893441401553288,
      "666": -0.05487073844157396,
      "667": 0.012477367162926871,
      "668": 0.01946168955521066,
      "669": -0.005517396085180313,
      "670": 0.004722788480256124,
      "671": -0.03961146703749559,
      "672": 0.010871320546137849,
      "673": -0.0713443944872708,
      "674": -119.4317938382766,
      "675": 0.011507726350805039,
      "676": 1.6254104107820073,
      "677": -9.009833653697875,
      "678": -5.834710365966766,
      "679": -5.951776642477838,
      "680": 0.022736184619023374,
      "681": -0.0136151429193765,
      "682": 0.030423118567374282,
      "683": -0.041579709463636386,
      "684": -0.027767695257780164,
      "685": 0.040318792492756585,
      "686": 0.006706287213484895,
      "687": 0.01553806905444385,
      "688": 0.06656235664361852,
      "689": -0.041837801564125414,
      "690": 0.040722061124052876,
      "691": 0.03614062798964021,
      "692": -0.0077829179711127175,
      "693": 0.08255218207652343,
      "694": -0.061082302056579565,
      "695": 0.00832230944762753,
      "696": 0.06109433675895707,
      "697": -0.028378928263684815,
      "698": -0.01023791707877286,
      "699": -0.05512096681782229,
      "700": 0.017371361123722846,
      "701": 0.028324832858709518,
      "702": -0.06460833601078683,
      "703": -0.07450455729240772,
      "704": -0.007877113604652939,
      "705": -0.019089296379513957,
      "706": -0.022118474325158243,
      "707": 0.00885674276370722,
      "708": 0.008743739417517743,
      "709": -0.06468599522952637,
      "710": 0.025345521028033877,
      "711": -0.014781317541215713,
      "712": -0.0830433771494305,
      "713": 0.0008054149477863179,
      "714": -0.021767902770084287,
      "715": -118.8106237687159,
      "716": 0.018618472189121264,
      "717": 1.6979899020018794,
      "718": -9.050019173341688,
      "719": -5.821200016035363,
      "720": -6.033279096722112,
      "721": 0.0400137173254484,
      "722": 0.026053882999219766,
      "723": -0.03541158418105416,
      "724": -0.049025821196335334,
      "725": -0.07672206374463751,
      "726": 0.013458679137512813,
      "727": -0.02791531835771636,
      "728": -0.0407292023446547,
      "729": -0.06986862311378202,
      "730": 0.022085846747657106,
      "731": -0.024058690586491162,
      "732": -0.026556038570219983,
      "733": -0.02427162089856177,
      "734": 0.05997987693736362,
      "735": 0.014174514830715041,
      "736": 0.003677446443149172,
      "737": 0.07900272603578944,
      "738": -0.016222402848373004,
      "739": 0.020542614115166082,
      "740": -0.08957625250019106,
      "741": 0.01530396618424584,
      "742": -0.005366954234652317,
      "743": 0.0003511491671752675,
      "744": -0.0028750215709469323,
      "745": -0.00882812822478735,
      "746": 0.021035437227146583,
      "747": -0.019662744009400643,
      "748": -0.07616344241978991,
      "749": -0.042652025885068216,
      "750": -0.0026995070609849275,
      "751": -0.050453837053189156,
      "752": 0.02518733014962954,
      "753": 0.05361516034505293,
      "754": 0.008156408032424864,
      "755": -0.019263112428590995,
      "756": -118.26214957443325,
      "757": 0.012534408072991934,
      "758": 1.7213201064238348,
      "759": -8.972477521417009,
      "760": -5.806198803112945,
      "761": -5.978188980902485,
      "762": 0.04461890371332961,
      "763": -0.03127663408701329,
      "764": -0.05668671527924168,
      "765": -0.0031262148936337633,
      "766": 0.054387047347460464,
      "767": 0.05209074962030634,
      "768": 0.04539512540802678,
      "769": 0.00848760006094993,
      "770": -0.004887318006671572,
      "771": -0.010370194010290426,
      "772": -0.010247848600062394,
      "773": -0.0003682516493265946,
      "774": 0.0405170361949062,
      "775": -0.0532436709814086,
      "776": 0.010083592133465807,
      "777": -0.03448372575517699,
      "778": 0.016131092039152407,
      "779": 0.040007282199523174,
      "780": -0.08926674785430569,
      "781": -0.05858063684639625,
      "782": 0.029557274127590374,
      "783": -0.013679551443147354,
      "784": -0.010069298964548484,
      "785": -0.023936351276107375,
      "786": 0.043542285136896834,
      "787": -0.003411079867624815,
      "788": -0.0011188321093922652,
      "789": -0.017745408991797107,
      "790": -0.026756881011286943,
      "791": 0.0016081636023533717,
      "792": 0.029191974365796677,
      "793": 0.011208716948638271,
      "794": 0.023401789752305256,
      "795": 0.006472620037253234,
      "796": -0.0107870907322026,
      "797": -117.78246871949786,
      "798": -0.04299307724580586,
      "799": 1.5916621381838352,
      "800": -9.010291350240365,
      "801": -5.85020700523343,
      "802": -5.933526692989695,
      "803": -0.04441201729507985,
      "804": -0.014083956909261675,
      "805": -0.01440590074977959,
      "806": -0.007462696133777037,
      "807": 0.029957119206625617,
      "808": -0.001730320711685348,
      "809": -0.04094367945787302,
      "810": 0.003172733362987049,
      "811": -0.010563109340424601,
      "812": 0.022254882949493033,
      "813": -0.02311988434979681,
      "814": -0.0035754943981633276,
      "815": -0.03647014399442757,
      "816": -0.01368724563062982,
      "817": 0.021221481969229596,
      "818": 0.004463161103525738,
      "819": -0.08599840580493524,
      "820": -0.07434271887880475,
      "821": 0.020210765093202375,
      "822": 0.05045387822464116,
      "823": 0.029036875728238234,
      "824": -0.00014992483393884177,
      "825": 0.0445369821383503,
      "826": 0.020415864981069735,
      "827": 0.0017404859977428314,
      "828": -0.0026550697642875707,
      "829": 0.05245504448126817,
      "830": -0.029039235402595495,
      "831": 0.009106976808872203,
      "832": -0.019783619046233172,
      "833": 0.05381710665124523,
      "834": -0.033380116611397594,
      "835": -0.08272536100554778,
      "836": 0.04366657850896686,
      "837": -0.01322730601958947
     }
    },
    {
     "sx": 1,
     "sy": 1,
     "depth": 838,
     "w": {
      "0": -19.752910664970855,
