{
 "layers": [
  {
   "out_depth": 838,
   "out_sx": 1,
   "out_sy": 1,
   "layer_type": "input"
  },
  {
   "out_depth": 25,
   "out_sx": 1,
   "out_sy": 1,
   "layer_type": "fc",
   "num_inputs": 838,
   "l1_decay_mul": 0,
   "l2_decay_mul": 1,
   "filters": [
    {
     "sx": 1,
     "sy": 1,
     "depth": 838,
     "w": {
      "0": -0.023743172390323048,
      "1": 0.030017255926133992,
      "2": 0.026485661922040573,
      "3": 0.05075562877210181,
      "4": 0.003905161613372097,
      "5": 0.06548318469885457,
      "6": 0.03245894141107191,
      "7": 0.06199477623155022,
      "8": 0.030629850232965296,
      "9": 0.014568712542996775,
      "10": 0.04967118857943454,
      "11": -0.07917146078809642,
      "12": 0.009997757921803692,
      "13": -0.021993039208605528,
      "14": 0.010512312770184901,
      "15": -0.005940361082493973,
      "16": -0.031989039106926166,
      "17": 0.00870688021038394,
      "18": -0.0911536636731668,
      "19": -0.005632107914737926,
      "20": 0.03681077192349883,
      "21": 0.048724394258954785,
      "22": -0.012869347926015937,
      "23": -0.007017106534632531,
      "24": 0.0027333657452215765,
      "25": 0.004473205691716276,
      "26": -0.030351900801187912,
      "27": 0.04031986924272637,
      "28": 0.034131295937001496,
      "29": -0.00904341115613294,
      "30": 0.012742179247384891,
      "31": 0.045637982232153394,
      "32": 0.02255516322363036,
      "33": 0.0045181559604879845,
      "34": -0.08848075310193515,
      "35": -0.04253162214262373,
      "36": 0.015500356205442592,
      "37": -0.010376758718608228,
      "38": 0.03068901988254465,
      "39": -0.043596179535345274,
      "40": -0.09941462604096091,
      "41": -0.017491167788736557,
      "42": 0.0010146987843731364,
      "43": -0.012752726970117947,
      "44": 0.015848022178364785,
      "45": 0.008686710501471098,
      "46": 0.0033722491542604043,
      "47": -0.003163136454410126,
      "48": 0.03937656642492034,
      "49": -0.0032952267223858166,
      "50": 0.038880766328952265,
      "51": -0.020172351894360275,
      "52": -0.0017898925905140016,
      "53": 0.02443800634212179,
      "54": -0.024018662959257704,
      "55": 0.07327814637325807,
      "56": 0.0012974428720119934,
      "57": 0.054748644878939136,
      "58": 0.004518840681659181,
      "59": -0.015257946278814084,
      "60": 0.010957974821762686,
      "61": -0.021787967617317064,
      "62": 0.01248621079957894,
      "63": 0.09193894355603265,
      "64": 0.06150519558834276,
      "65": -0.012788852359445126,
      "66": -0.03265182841054053,
      "67": 0.08151333869151176,
      "68": -0.04099175727592008,
      "69": -0.0444861270644295,
      "70": -0.055123771455252144,
      "71": -0.028894978368310672,
      "72": 0.009666101642343132,
      "73": -0.03255795261889364,
      "74": 0.07263864634793053,
      "75": -0.04095481066696989,
      "76": -0.017039244914813734,
      "77": 0.030120017635605234,
      "78": -0.07607320322584518,
      "79": 0.004357777021665177,
      "80": -0.028737475911137542,
      "81": -0.031685739303951944,
      "82": 0.005430449993397695,
      "83": -0.003744066729892223,
      "84": -0.03287389792432715,
      "85": -0.04552713077677682,
      "86": 0.05435814385849162,
      "87": 0.05091354835717376,
      "88": 0.037432627705961605,
      "89": -0.03610300402247204,
      "90": 0.03726915587675778,
      "91": 0.00890974143728432,
      "92": -0.038115324642410436,
      "93": -0.00321755282570213,
      "94": -0.030280709650671353,
      "95": 0.040354870749640614,
      "96": 0.01026688749492492,
      "97": -0.014869624144418989,
      "98": 0.019416491698827195,
      "99": 0.012840857260986197,
      "100": -0.0012864926465518398,
      "101": 0.016977251399220922,
      "102": 0.008980127751851153,
      "103": 0.0153160803441645,
      "104": 0.03595992121481739,
      "105": -0.018111713739311086,
      "106": -0.021493209239905053,
      "107": -0.07520463629691117,
      "108": -0.028113001721681158,
      "109": -0.045657445277801134,
      "110": 0.02165483245665625,
      "111": 0.005929972750113725,
      "112": 0.025302021961544775,
      "113": 0.013430298192822812,
      "114": -0.025600180938584245,
      "115": 0.021260036567928332,
      "116": -0.05555513247640767,
      "117": -0.034016953867973675,
      "118": 0.03413674953874999,
      "119": 0.02924367917966663,
      "120": -0.05018130333651103,
      "121": -0.02932682286809911,
      "122": 0.009158415289142855,
      "123": -0.003539582908195759,
      "124": -0.01802715062656064,
      "125": -0.03234995646643076,
      "126": -0.008603861408301742,
      "127": -0.0008105236924237455,
      "128": 0.004377846928784363,
      "129": 0.01759500852384333,
      "130": 0.04030457919123595,
      "131": 0.06158768588002439,
      "132": -0.008617466932955706,
      "133": -0.026114075222589243,
      "134": -0.03846318829412301,
      "135": 0.04777075844149292,
      "136": -0.029311703695396447,
      "137": 0.043294421114356586,
      "138": -0.021219506149286818,
      "139": 0.014102484168168512,
      "140": -0.020783992528477152,
      "141": 0.034738005206854695,
      "142": -0.023190344636251765,
      "143": -0.09730484944155883,
      "144": 0.0753448037565621,
      "145": -0.07231829738500184,
      "146": 0.030850715363692934,
      "147": 0.06693950289054092,
      "148": 0.03936572908920344,
      "149": 0.013805570178543022,
      "150": -0.020449947153588596,
      "151": -0.03460656643335083,
      "152": 0.023666835769239208,
      "153": 0.020160589638596575,
      "154": 0.027698050327004866,
      "155": 0.016444454693874556,
      "156": -0.01605198053964236,
      "157": 0.064431647153541,
      "158": -0.036332048881271915,
      "159": 0.043462696305750344,
      "160": -0.019925350263121193,
      "161": -0.014654342604501143,
      "162": -0.03163827266117976,
      "163": -0.024116936648609186,
      "164": 0.036401629441947456,
      "165": -0.0408338665350103,
      "166": 0.04897927337362471,
      "167": 0.01945545539817119,
      "168": -0.016628558550541604,
      "169": 0.0235688970610258,
      "170": 0.012304421717591617,
      "171": -0.007680578504220342,
      "172": 0.06116566316480744,
      "173": 0.02632761709155947,
      "174": 0.039949483193805375,
      "175": -0.009537314931978954,
      "176": -0.018735464907453068,
      "177": -0.006873396815811719,
      "178": -0.03167252977381303,
      "179": 0.03988079466483872,
      "180": 0.028178442113705113,
      "181": 0.03367042097225928,
      "182": -0.08395277757104369,
      "183": -0.002115302634683294,
      "184": 0.047286011993913774,
      "185": -0.07363686159699623,
      "186": -0.046926278456737344,
      "187": -0.026529098281715156,
      "188": -0.054952762561655905,
      "189": 0.017606519962917795,
      "190": 0.06319228751605349,
      "191": 0.021743160832109986,
      "192": -0.032366808426106,
      "193": -0.03173792193002125,
      "194": 0.03891941711080412,
      "195": -0.0690921384516237,
      "196": 0.005079227186577246,
      "197": -0.043505220399904676,
      "198": 0.01597577941797772,
      "199": 0.005575386809196064,
      "200": -0.0336197040499352,
      "201": -0.014682560176346395,
      "202": -0.05716912339389209,
      "203": -0.03284230822468949,
      "204": -0.040186238019205414,
      "205": 0.028041141302058818,
      "206": -0.02201456686425575,
      "207": 0.015418233841000335,
      "208": 0.0678434695960658,
      "209": -0.024845684168772413,
      "210": 0.046322533428449726,
      "211": -0.006352278056926139,
      "212": -0.042138656806015466,
      "213": 0.01653071820275079,
      "214": 0.019836001597580123,
      "215": -0.005811170583485242,
      "216": 0.009583662903715966,
      "217": 0.06355787110372667,
      "218": -0.022933882853374988,
      "219": 0.011296878586663513,
      "220": 0.03402883198452432,
      "221": 0.013065473558792196,
      "222": 0.037915769340775514,
      "223": -0.009597281753272095,
      "224": 0.0008971238789311429,
      "225": 0.05618692647904585,
      "226": 0.022264932406826043,
      "227": -0.01393225273735466,
      "228": 0.012244943666008734,
      "229": 0.036312544611477184,
      "230": 0.016821748231868227,
      "231": 0.0174894850387892,
      "232": 0.014086179909123425,
      "233": 0.0010576408782176124,
      "234": -0.021963461995610604,
      "235": -0.00689793897259918,
      "236": -0.06263925734551436,
      "237": 0.03613028543001189,
      "238": -0.013441434688323574,
      "239": 0.03638850113499442,
      "240": 0.00783278848575768,
      "241": 0.000032569953433982467,
      "242": -0.009469615441942664,
      "243": 0.01868434796244005,
      "244": -0.0032723162036828644,
      "245": 0.022413885251016626,
      "246": 0.034169882462894915,
      "247": -0.018098922594306892,
      "248": 0.021318039118964717,
      "249": 0.0031756957730647876,
      "250": 0.0941277474246234,
      "251": 0.0836102101841237,
      "252": -0.0163447273782483,
      "253": 0.011047349710247675,
      "254": -0.038534361316969606,
      "255": -0.04963748465863279,
      "256": 0.03686886814051162,
      "257": -0.0029174040987051393,
      "258": 0.07022880313531919,
      "259": -0.061296304440795465,
      "260": -0.021696252646402174,
      "261": -0.030027358723902584,
      "262": -0.03341860338424455,
      "263": 0.0026508978594416057,
      "264": 0.05219897479491929,
      "265": 0.010927753965572223,
      "266": -0.048379224272885595,
      "267": -0.03659578580837512,
      "268": 0.054309427787473004,
      "269": -0.033590635903693385,
      "270": -0.023057268763505626,
      "271": 0.01593955250447617,
      "272": 0.021193063253407342,
      "273": -0.04482006899307408,
      "274": -0.06531239034236104,
      "275": -0.029199184636522667,
      "276": -0.017307903199540182,
      "277": 0.022684016042505237,
      "278": -0.01734575422196183,
      "279": 0.06855760514029145,
      "280": -0.02001489740568678,
      "281": 0.043173299950558686,
      "282": 0.015377454447937118,
      "283": -0.002079464544504658,
      "284": -0.00871202021207384,
      "285": 0.024996579173422375,
      "286": 0.02083660907168849,
      "287": -0.0019361255132521514,
      "288": 0.018342867457629336,
      "289": -0.0010684735844777018,
      "290": 0.005342645481028187,
      "291": 0.04232951775886106,
      "292": 0.032374569085826366,
      "293": 0.016191942911359107,
      "294": 0.027815115489302912,
      "295": 0.05361148455248745,
      "296": -0.011359258456464925,
      "297": 0.014249879302547664,
      "298": -0.05804288270379462,
      "299": -0.02636315279845845,
      "300": 0.0024352743123168892,
      "301": -0.016791956427779784,
      "302": 0.022178140603460197,
      "303": -0.030091756306646938,
      "304": 0.02936356354987302,
      "305": -0.018293270676837985,
      "306": -0.009566618216280017,
      "307": 0.02664798832073538,
      "308": 0.016879924501423976,
      "309": -0.056703689316314095,
      "310": 0.04180798482948688,
      "311": 0.01659723354184813,
      "312": 0.02900462459379472,
      "313": 0.008822604454300767,
      "314": 0.014750439940338783,
      "315": 0.023927881296750674,
      "316": 0.032059498104914604,
      "317": -0.01184974798842976,
      "318": -0.019373135981907142,
      "319": -0.017816298887825755,
      "320": -0.012454904754493557,
      "321": -0.03558244616854187,
      "322": 0.038929199749309924,
      "323": 0.014098687178157711,
      "324": -0.038221674093653527,
      "325": -0.0771289292871743,
      "326": -0.05479005285024282,
      "327": -0.013384343184508976,
      "328": -0.016502881732680205,
      "329": 0.00560249892451837,
      "330": -0.014720577760511446,
      "331": 0.07515320084069421,
      "332": -0.01279041780433324,
      "333": 0.03367735565869251,
      "334": -0.003125193031920957,
      "335": 0.0008848487387010953,
      "336": -0.06613571325902687,
      "337": 0.06152349188381562,
      "338": -0.019976385280766878,
      "339": -0.0016038026361685038,
      "340": 0.023505832143308956,
      "341": -0.0836187705413835,
      "342": 0.05058473140868941,
      "343": -0.042235430462572256,
      "344": 0.032372530972155845,
      "345": -0.0451255822516547,
      "346": -0.02620578423885148,
      "347": -0.008876183235673515,
      "348": -0.01162779515408822,
      "349": -0.04329452834418088,
      "350": -0.005982347721667564,
      "351": 0.012532601913583541,
      "352": -0.011338887953890094,
      "353": 0.006216654285673869,
      "354": -0.02781638045998266,
      "355": 0.05832518139291767,
      "356": -0.040309632539323674,
      "357": 0.0017716675009228082,
      "358": -0.032296044113598044,
      "359": -0.06366324894531221,
      "360": -0.008106623769817045,
      "361": -0.02751420169386932,
      "362": -0.03158954483613693,
      "363": -0.01846899608232156,
      "364": 0.022156861802041884,
      "365": -0.010585272523689413,
      "366": 0.0026560573287903195,
      "367": 0.09898358499410916,
      "368": -0.06032229081250156,
      "369": -0.02506413504558467,
      "370": 0.023650545774222004,
      "371": -0.04375425654345023,
      "372": -0.04376806712715228,
      "373": 0.0656784430093687,
      "374": 0.030653254293283895,
      "375": 0.0374302310106836,
      "376": 0.029932150829538626,
      "377": -0.014795079895439916,
      "378": 0.01937005435593824,
      "379": 0.037144976676347315,
      "380": -0.007238204772114923,
      "381": -0.04275030310687328,
      "382": -0.01228866797952357,
      "383": -0.029768542409436265,
      "384": 0.0029200111339711477,
      "385": -0.014775037124384098,
      "386": 0.0025028423764683087,
      "387": 0.012612764811102841,
      "388": 0.022705828864944825,
      "389": 0.014415622705689874,
      "390": 0.010697027130779416,
      "391": 0.003447005617267869,
      "392": -0.042748368560134,
      "393": 0.016847473382302077,
      "394": 0.008919326141599963,
      "395": -0.040703243271423,
      "396": 0.0004935605079886024,
      "397": 0.013162961760019775,
      "398": -0.04037840178095282,
      "399": 0.018051461593255314,
      "400": 0.02128154768919639,
      "401": -0.07532493791739761,
      "402": 0.024129128751553177,
      "403": -0.029789476827896982,
      "404": 0.020439898830830142,
      "405": 0.03626054584702317,
      "406": 0.009999084891338413,
      "407": 0.03253653949515585,
      "408": -0.03182978921693439,
      "409": 0.0024108476009496054,
      "410": 0.008203161363548305,
      "411": 0.05870926657826965,
      "412": -0.0222622428531115,
      "413": -0.016492599528245087,
      "414": -0.024607451392871175,
      "415": -0.06945573654312363,
      "416": -0.017392464949147944,
      "417": -0.014215468229957179,
      "418": 0.011596992551477059,
      "419": 0.010777263710369018,
      "420": -0.020175437705018145,
      "421": 0.013323894477392849,
      "422": 0.007930460196188224,
      "423": -0.0039341796739001365,
      "424": 0.0026045646110907333,
      "425": -0.008114013458264947,
      "426": 0.010553073022107166,
      "427": 0.0005566532517944121,
      "428": -0.010563345320225936,
      "429": -0.036746892836148175,
      "430": 0.01986890437204465,
      "431": 0.020771092106663527,
      "432": 0.00802332572024083,
      "433": -0.010241756769832208,
      "434": 0.023590776405088342,
      "435": -0.06976880507294814,
      "436": 0.06177182635147972,
      "437": 0.02661194156291671,
      "438": 0.01827355557142155,
      "439": 0.0010153597476327196,
      "440": 0.02490454170529631,
      "441": -0.03008654245114726,
      "442": -0.0057543818134906085,
      "443": 0.02059496182500264,
      "444": 0.009853670394676228,
      "445": 0.016366278412956268,
      "446": 0.06909100053324113,
      "447": -0.041763732545480256,
      "448": 0.07053058829291874,
      "449": 0.014996613342594214,
      "450": 0.030532742988300814,
      "451": -0.001893468247292564,
      "452": 0.010978639097344317,
      "453": 0.059239435559896046,
      "454": -0.02900287444009624,
      "455": 0.011962018324258692,
      "456": -0.0043027099774604356,
      "457": -0.041824006983113206,
      "458": 0.03772348748627104,
      "459": -0.009033749917604488,
      "460": 0.0075640813229955845,
      "461": 0.04647930117182415,
      "462": 0.006287906032372354,
      "463": -0.029086772941041297,
      "464": -0.07100733084581112,
      "465": -0.049013408579632496,
      "466": 0.004253693378026798,
      "467": 0.03728604292649803,
      "468": 0.09015155703060963,
      "469": -0.02639332445189743,
      "470": 0.019007071447073642,
      "471": -0.001254540735010348,
      "472": -0.022292125344315607,
      "473": -0.025877421858325547,
      "474": -0.021335951245235053,
      "475": 0.004593074280054778,
      "476": 0.074042228995611,
      "477": 0.023697633642344406,
      "478": -0.002610578681339177,
      "479": 0.0053735106055975024,
      "480": -0.019187132057038196,
      "481": -0.04171886456468169,
      "482": -0.03866621262501157,
      "483": 0.026041231858392022,
      "484": -0.012051406619007726,
      "485": -0.006373681985155331,
      "486": -0.014472769272512283,
      "487": -0.005570843522685218,
      "488": 0.05394066255556828,
      "489": -0.020174927096367798,
      "490": 0.076188106408757,
      "491": 0.04872367899880407,
      "492": 0.02409119263113517,
      "493": -0.023007585506895765,
      "494": 0.01038791775113367,
      "495": -0.037817349148723964,
      "496": 0.0009768440062001306,
      "497": -0.06261779652959688,
      "498": 0.019780663958353466,
      "499": -0.08289754629996385,
      "500": 0.010932356483645435,
      "501": 0.07292978798967859,
      "502": 0.002256551014790599,
      "503": 0.015080418371310026,
      "504": -0.03004571409809072,
      "505": 0.03604130013824636,
      "506": -0.0012736741462093218,
      "507": 0.011736770667241622,
      "508": -0.0158788357295702,
      "509": -0.03890407021643281,
      "510": -0.026765697608383047,
      "511": -0.04679365757797176,
      "512": -0.017779153392651865,
      "513": 0.014955826500113881,
      "514": 0.038677703177739435,
      "515": -0.013161638989957817,
      "516": -0.08353247586383984,
      "517": -0.029680097875874115,
      "518": 0.0711514545521278,
      "519": 0.025393870496149752,
      "520": -0.005544433850350933,
      "521": 0.021375450648904313,
      "522": 0.020313231084773044,
      "523": 0.006635554067530924,
      "524": 0.01753270876585024,
      "525": 0.023071717208055908,
      "526": 0.041677235000990104,
      "527": 0.00999863072181393,
      "528": 0.0040924515325558315,
      "529": 0.05045187448842815,
      "530": 0.09088611062854476,
      "531": 0.007927567736258965,
      "532": -0.04552664879363194,
      "533": 0.007489412822948813,
      "534": 0.03409988881034037,
      "535": 0.04734293909831527,
      "536": 0.0012450916884965627,
      "537": -0.011477073214960552,
      "538": -0.026550428278267844,
      "539": -0.07874893690896882,
      "540": -0.026689863463799333,
      "541": 0.02942276169432919,
      "542": -0.028111049212015137,
      "543": -0.035863199254598764,
      "544": -0.0213194532574457,
      "545": 0.03594967329971858,
      "546": 0.02303941870561408,
      "547": -0.048041897167978936,
      "548": -0.040556353440225984,
      "549": 0.0016321556903082155,
      "550": -0.04916011598480188,
      "551": 0.03485471024270585,
      "552": 0.05266072805219277,
      "553": 0.009940507963993513,
      "554": -0.03781243153466185,
      "555": -0.023705212271446327,
      "556": -0.06686060440015053,
      "557": -0.015823353561407443,
      "558": 0.011793873987611718,
      "559": -0.02433779148262228,
      "560": 0.08079616727358822,
      "561": 0.057706637313875875,
      "562": 0.005313880097945383,
      "563": 0.00842326934906096,
      "564": 0.06418737937355411,
      "565": 0.06593787287538455,
      "566": 0.0725990139293149,
      "567": -0.006437464937598936,
      "568": 0.009640485264900614,
      "569": 0.0074500491953418384,
      "570": 0.02088898819402298,
      "571": 0.05182644064701248,
      "572": 0.030965750770123937,
      "573": -0.029693560152386233,
      "574": -0.05632848740599003,
      "575": -0.05727719407478084,
      "576": -0.015930044148514007,
      "577": -0.04819078576776347,
      "578": 0.011255824418319602,
      "579": 0.024618484337093013,
      "580": -0.030143807762312992,
      "581": 0.033546490572589106,
      "582": -0.02921591500149716,
      "583": 0.004581548252552499,
      "584": -0.007133777708194344,
      "585": -0.012731773870870412,
      "586": 0.07071993830763511,
      "587": 0.003347774799390188,
      "588": -0.014773797047243175,
      "589": -0.0183578838627408,
      "590": -0.045805818471180426,
      "591": -0.005247825387981514,
      "592": -0.009059904460869427,
      "593": -0.046733844264771104,
      "594": 0.020120497423948794,
      "595": -0.0007528336322724384,
      "596": -0.06856561008354371,
      "597": -0.018409253517788913,
      "598": 0.06230939200167841,
      "599": -0.004966029835501488,
      "600": 0.004824522517367241,
      "601": 0.08978414496884433,
      "602": 0.021253652980303663,
      "603": 0.0034211531587270824,
      "604": 0.06376676935870251,
      "605": -0.0006984777395616739,
      "606": -0.035997896304198584,
      "607": 0.018813334602743037,
      "608": 0.00821779276852163,
      "609": -0.003913222821102811,
      "610": -0.061377110734044935,
      "611": 0.012912511869443895,
      "612": 0.03331561338090566,
      "613": -0.047332349902033194,
      "614": 0.0544773843022422,
      "615": -0.017526354779123583,
      "616": -0.00777362334305681,
      "617": -0.0031267013241062657,
      "618": 0.006206250843728475,
      "619": -0.022882240103624673,
      "620": -0.04918212895240173,
      "621": -0.05368280249433096,
      "622": -0.0014980133475697968,
      "623": -0.06844032944191394,
      "624": 0.06877804500644326,
      "625": -0.019820014100334595,
      "626": 0.040135707571665104,
      "627": 0.023997877942189955,
      "628": 0.027050397239413125,
      "629": 0.025622769799392417,
      "630": -0.025333886973646337,
      "631": 0.0546952732314981,
      "632": 0.01445916073895988,
      "633": -0.024019371074331608,
      "634": -0.015588528719006305,
      "635": -0.02226796160876095,
      "636": -0.002083216417114912,
      "637": -0.05406495565493822,
      "638": 0.01080611995858063,
      "639": -0.04607241592473942,
      "640": 0.011464985168054262,
      "641": 0.04822243006567591,
      "642": 0.014063197682315896,
      "643": 0.006343415622001182,
      "644": -0.027881317079266384,
      "645": -0.009229311032327835,
      "646": 0.0453162331791314,
      "647": 0.02890217931096248,
      "648": -0.06537300486978406,
      "649": -0.012940733324542462,
      "650": -0.006103178648057425,
      "651": -0.009577948321159171,
      "652": -0.013278485486282262,
      "653": -0.04106987597472859,
      "654": 0.050744849920882344,
      "655": -0.03191327951776165,
      "656": -0.02344864606449311,
      "657": -0.0033550028676755514,
      "658": -0.039457248675927065,
      "659": 0.04819438838244974,
      "660": 0.011856870766518257,
      "661": -0.04171327295796978,
      "662": 0.07520378589671242,
      "663": 0.03996365414016053,
      "664": 0.07314060458201334,
      "665": 0.01383609233458459,
      "666": -0.02903692620135373,
      "667": -0.017936904079978548,
      "668": -0.027818907261085407,
      "669": -0.03488194833927772,
      "670": -0.06166979553149009,
      "671": -0.006252129124172366,
      "672": 0.016464796463642486,
      "673": -0.053962197801855474,
      "674": -0.010258239210956333,
      "675": -0.029162939859772866,
      "676": 0.036966511402358314,
      "677": -0.035466079930069574,
      "678": 0.012876050296017523,
      "679": 0.01329572424609751,
      "680": -0.04204692727141644,
      "681": 0.02676321234625714,
      "682": -0.02720253085869154,
      "683": -0.005071906161016835,
      "684": 0.050923974395592916,
      "685": 0.035477395439192864,
      "686": 0.04668133477351126,
      "687": -0.028556417146357406,
      "688": -0.05797055671275128,
      "689": -0.00004427645276023124,
      "690": -0.03046926348824069,
      "691": -0.044103326433430054,
      "692": 0.04277381481056449,
      "693": -0.04697215618950763,
      "694": 0.023601320311848015,
      "695": 0.06068091519175846,
      "696": -0.04158755826878153,
      "697": 0.0407642199894818,
      "698": -0.011896663201733255,
      "699": 0.02643079186177828,
      "700": 0.004573907022356269,
      "701": 0.03200087957834775,
      "702": 0.03317163436614405,
      "703": -0.07251918712858081,
      "704": 0.028936483917388494,
      "705": -0.007320239157070452,
      "706": 0.02736857865709275,
      "707": -0.08026741661556787,
      "708": -0.05426550970314989,
      "709": 0.021080390472487165,
      "710": 0.012141197350593933,
      "711": -0.027218760077753434,
      "712": 0.03588966261345455,
      "713": -0.0002918589916146852,
      "714": 0.006173466420825115,
      "715": -0.01837654288922082,
      "716": -0.005471804006920957,
      "717": -0.009035455010330875,
      "718": 0.03860319883931724,
      "719": -0.030310697431502845,
      "720": 0.010730938522096807,
      "721": 0.008580698390684156,
      "722": -0.02014754463720543,
      "723": 0.028657386712095702,
      "724": 0.09112128117624319,
      "725": -0.006875323540741879,
      "726": -0.014024859683531758,
      "727": 0.04070460511246586,
      "728": 0.04449334061785262,
      "729": 0.023669213725053956,
      "730": 0.004893432031784932,
      "731": 0.008537923569965356,
      "732": 0.014991661499671837,
      "733": 0.03845936477790234,
      "734": -0.04044626653000891,
      "735": 0.020700691758480553,
      "736": -0.049124107199853294,
      "737": -0.01117736703728257,
      "738": -0.007745949655670034,
      "739": -0.010851295078412752,
      "740": 0.0073817662183800715,
      "741": 0.018943377504879646,
      "742": 0.03708401994972061,
      "743": -0.01214837453438427,
      "744": -0.030889922466711035,
      "745": 0.055142619779550255,
      "746": -0.05484993340601881,
      "747": -0.03652341406985094,
      "748": -0.029762343036796732,
      "749": 0.008781964137561667,
      "750": -0.025333707588174003,
      "751": -0.00457985218587289,
      "752": -0.01687393232863406,
      "753": 0.02022352147376245,
      "754": 0.03520556418101377,
      "755": 0.0021029837327677333,
      "756": -0.03585137492875904,
      "757": -0.01664883246364079,
      "758": 0.014756252389589605,
      "759": 0.002284186736598522,
      "760": -0.016765994860131653,
      "761": -0.01427606091880891,
      "762": -0.005984173224948025,
      "763": -0.04077773347598778,
      "764": 0.031051128825962684,
      "765": -0.022235051323868806,
      "766": -0.019212404466194065,
      "767": 0.11989755215655064,
      "768": -0.04652072364702746,
      "769": -0.009103646184593379,
      "770": 0.05824549350490093,
      "771": 0.0466475207510379,
      "772": -0.02914093395057213,
      "773": -0.043908217952867645,
      "774": -0.05260093137533269,
      "775": 0.028544173868308324,
      "776": 0.020325584386351236,
      "777": 0.022947831684697207,
      "778": -0.010494578759792162,
      "779": -0.008124613252179823,
      "780": 0.025160801977801673,
      "781": -0.05787915121616776,
      "782": 0.015478633118380568,
      "783": -0.010490888588292923,
      "784": -0.014303962251808253,
      "785": 0.015175087599299447,
      "786": -0.016825885747420104,
      "787": 0.010789332368610575,
      "788": -0.01464516914964553,
      "789": -0.015290917850703275,
      "790": -0.015316035472366263,
      "791": 0.010820507135188355,
      "792": -0.08632727926848648,
      "793": 0.030522561205806303,
      "794": 0.02559960697566259,
      "795": 0.028969091844363182,
      "796": 0.013663390679928835,
      "797": 0.005846181569302335,
      "798": -0.03127714215874794,
      "799": -0.022578448562723463,
      "800": -0.016619901488366378,
      "801": 0.04670180924170818,
      "802": -0.01607454627728416,
      "803": -0.010599086993452956,
      "804": 0.018027636524851495,
      "805": 0.010261465853280272,
      "806": -0.023480414445881562,
      "807": -0.00490645268332475,
      "808": 0.0027605597204868157,
      "809": 0.026703952524646017,
      "810": -0.006166642412431545,
      "811": 0.0019254039445878795,
      "812": 0.004726883578241581,
      "813": -0.011850223024939351,
      "814": -0.003795127988568178,
      "815": 0.005487185650704551,
      "816": -0.08087082619703526,
      "817": 0.017687810038982097,
      "818": -0.016629952522699276,
      "819": 0.05265864825045696,
      "820": 0.013570414389742326,
      "821": 0.010020931631368786,
      "822": 0.0071475673697214874,
      "823": -0.013205327243561436,
      "824": -0.029253946282434225,
      "825": 0.03347713833712253,
      "826": 0.02104777685801493,
      "827": 0.04330839468959591,
      "828": 0.06272212429492569,
      "829": -0.016622864316344774,
      "830": -0.01649416607486041,
      "831": 0.03316289705837507,
      "832": -0.015621734763602558,
      "833": -0.0937467841488364,
      "834": -0.028576537764464123,
      "835": -0.0496303731318357,
      "836": -0.0342833215309242,
      "837": 0.00812845810217864
     }
    },
    {
     "sx": 1,
     "sy": 1,
     "depth": 838,
     "w": {
      "0": 0,
      "1": 0,
      "2": 0,
      "3": 0,
      "4": 0,
      "5": 0,
      "6": 0,
      "7": 0,
      "8": 0,
      "9": 0,
      "10": 0,
      "11": 0,
      "12": 0,
      "13": 0,
      "14": 0,
      "15": 0,
      "16": 0,
      "17": 0,
      "18": 0,
      "19": 0,
      "20": 0,
      "21": 0,
      "22": 0,
      "23": 0,
      "24": 0,
      "25": 0,
      "26": 0,
      "27": 0,
      "28": 0,
      "29": 0,
      "30": 0,
      "31": 0,
      "32": 0,
      "33": 0,
      "34": 0,
      "35": 0,
      "36": 0,
      "37": 0,
      "38": 0,
      "39": 0,
      "40": 0,
      "41": 0,
      "42": 0,
      "43": 0,
      "44": 0,
      "45": 0,
      "46": 0,
      "47": 0,
      "48": 0,
      "49": 0,
      "50": 0,
      "51": 0,
      "52": 0,
      "53": 0,
      "54": 0,
      "55": 0,
      "56": 0,
      "57": 0,
      "58": 0,
      "59": 0,
      "60": 0,
      "61": 0,
      "62": 0,
      "63": 0,
      "64": 0,
      "65": 0,
      "66": 0,
      "67": 0,
      "68": 0,
      "69": 0,
      "70": 0,
      "71": 0,
      "72": 0,
      "73": 0,
      "74": 0,
      "75": 0,
      "76": 0,
      "77": 0,
      "78": 0,
      "79": 0,
      "80": 0,
      "81": 0,
      "82": 0,
      "83": 0,
      "84": 0,
      "85": 0,
      "86": 0,
      "87": 0,
      "88": 0,
      "89": 0,
      "90": 0,
      "91": 0,
      "92": 0,
      "93": 0,
      "94": 0,
      "95": 0,
      "96": 0,
      "97": 0,
      "98": 0,
      "99": 0,
      "100": 0,
      "101": 0,
      "102": 0,
      "103": 0,
      "104": 0,
      "105": 0,
      "106": 0,
      "107": 0,
      "108": 0,
      "109": 0,
      "110": 0,
      "111": 0,
      "112": 0,
      "113": 0,
      "114": 0,
      "115": 0,
      "116": 0,
      "117": 0,
      "118": 0,
      "119": 0,
      "120": 0,
      "121": 0,
      "122": 0,
      "123": 0,
      "124": 0,
      "125": 0,
      "126": 0,
      "127": 0,
      "128": 0,
      "129": 0,
      "130": 0,
      "131": 0,
      "132": 0,
      "133": 0,
      "134": 0,
      "135": 0,
      "136": 0,
      "137": 0,
      "138": 0,
      "139": 0,
      "140": 0,
      "141": 0,
      "142": 0,
      "143": 0,
      "144": 0,
      "145": 0,
      "146": 0,
      "147": 0,
      "148": 0,
      "149": 0,
      "150": 0,
      "151": 0,
      "152": 0,
      "153": 0,
      "154": 0,
      "155": 0,
      "156": 0,
      "157": 0,
      "158": 0,
      "159": 0,
      "160": 0,
      "161": 0,
      "162": 0,
      "163": 0,
      "164": 0,
      "165": 0,
      "166": 0,
      "167": 0,
      "168": 0,
      "169": 0,
      "170": 0,
      "171": 0,
      "172": 0,
      "173": 0,
      "174": 0,
      "175": 0,
      "176": 0,
      "177": 0,
      "178": 0,
      "179": 0,
      "180": 0,
      "181": 0,
      "182": 0,
      "183": 0,
      "184": 0,
      "185": 0,
      "186": 0,
      "187": 0,
      "188": 0,
      "189": 0,
      "190": 0,
      "191": 0,
      "192": 0,
      "193": 0,
      "194": 0,
      "195": 0,
      "196": 0,
      "197": 0,
      "198": 0,
      "199": 0,
      "200": 0,
      "201": 0,
      "202": 0,
      "203": 0,
      "204": 0,
      "205": 0,
      "206": 0,
      "207": 0,
      "208": 0,
      "209": 0,
      "210": 0,
      "211": 0,
      "212": 0,
      "213": 0,
      "214": 0,
      "215": 0,
      "216": 0,
      "217": 0,
      "218": 0,
      "219": 0,
      "220": 0,
      "221": 0,
      "222": 0,
      "223": 0,
      "224": 0,
      "225": 0,
      "226": 0,
      "227": 0,
      "228": 0,
      "229": 0,
      "230": 0,
      "231": 0,
      "232": 0,
      "233": 0,
      "234": 0,
      "235": 0,
      "236": 0,
      "237": 0,
      "238": 0,
      "239": 0,
      "240": 0,
      "241": 0,
      "242": 0,
      "243": 0,
      "244": 0,
      "245": 0,
      "246": 0,
      "247": 0,
      "248": 0,
      "249": 0,
      "250": 0,
      "251": 0,
      "252": 0,
      "253": 0,
      "254": 0,
      "255": 0,
      "256": 0,
      "257": 0,
      "258": 0,
      "259": 0,
      "260": 0,
      "261": 0,
      "262": 0,
      "263": 0,
      "264": 0,
      "265": 0,
      "266": 0,
      "267": 0,
      "268": 0,
      "269": 0,
      "270": 0,
      "271": 0,
      "272": 0,
      "273": 0,
      "274": 0,
      "275": 0,
      "276": 0,
      "277": 0,
      "278": 0,
      "279": 0,
      "280": 0,
      "281": 0,
      "282": 0,
      "283": 0,
      "284": 0,
      "285": 0,
      "286": 0,
      "287": 0,
      "288": 0,
      "289": 0,
      "290": 0,
      "291": 0,
      "292": 0,
      "293": 0,
      "294": 0,
      "295": 0,
      "296": 0,
      "297": 0,
      "298": 0,
      "299": 0,
      "300": 0,
      "301": 0,
      "302": 0,
      "303": 0,
      "304": 0,
      "305": 0,
      "306": 0,
      "307": 0,
      "308": 0,
      "309": 0,
      "310": 0,
      "311": 0,
      "312": 0,
      "313": 0,
      "314": 0,
      "315": 0,
      "316": 0,
      "317": 0,
      "318": 0,
      "319": 0,
      "320": 0,
      "321": 0,
      "322": 0,
      "323": 0,
      "324": 0,
      "325": 0,
      "326": 0,
      "327": 0,
      "328": 0,
      "329": 0,
      "330": 0,
      "331": 0,
      "332": 0,
      "333": 0,
      "334": 0,
      "335": 0,
      "336": 0,
      "337": 0,
      "338": 0,
      "339": 0,
      "340": 0,
      "341": 0,
      "342": 0,
      "343": 0,
      "344": 0,
      "345": 0,
      "346": 0,
      "347": 0,
      "348": 0,
      "349": 0,
      "350": 0,
      "351": 0,
      "352": 0,
      "353": 0,
      "354": 0,
      "355": 0,
      "356": 0,
      "357": 0,
      "358": 0,
      "359": 0,
      "360": 0,
      "361": 0,
      "362": 0,
      "363": 0,
      "364": 0,
      "365": 0,
      "366": 0,
      "367": 0,
      "368": 0,
      "369": 0,
      "370": 0,
      "371": 0,
      "372": 0,
      "373": 0,
      "374": 0,
      "375": 0,
      "376": 0,
      "377": 0,
      "378": 0,
      "379": 0,
      "380": 0,
      "381": 0,
      "382": 0,
      "383": 0,
      "384": 0,
      "385": 0,
      "386": 0,
      "387": 0,
      "388": 0,
      "389": 0,
      "390": 0,
      "391": 0,
      "392": 0,
      "393": 0,
      "394": 0,
      "395": 0,
      "396": 0,
      "397": 0,
      "398": 0,
      "399": 0,
      "400": 0,
      "401": 0,
      "402": 0,
      "403": 0,
      "404": 0,
      "405": 0,
      "406": 0,
      "407": 0,
      "408": 0,
      "409": 0,
      "410": 0,
      "411": 0,
      "412": 0,
      "413": 0,
      "414": 0,
      "415": 0,
      "416": 0,
      "417": 0,
      "418": 0,
      "419": 0,
      "420": 0,
      "421": 0,
      "422": 0,
      "423": 0,
      "424": 0,
      "425": 0,
      "426": 0,
      "427": 0,
      "428": 0,
      "429": 0,
      "430": 0,
      "431": 0,
      "432": 0,
      "433": 0,
      "434": 0,
      "435": 0,
      "436": 0,
      "437": 0,
      "438": 0,
      "439": 0,
      "440": 0,
      "441": 0,
      "442": 0,
      "443": 0,
      "444": 0,
      "445": 0,
      "446": 0,
      "447": 0,
      "448": 0,
      "449": 0,
      "450": 0,
      "451": 0,
      "452": 0,
      "453": 0,
      "454": 0,
      "455": 0,
      "456": 0,
      "457": 0,
      "458": 0,
      "459": 0,
      "460": 0,
      "461": 0,
      "462": 0,
      "463": 0,
      "464": 0,
      "465": 0,
      "466": 0,
      "467": 0,
      "468": 0,
      "469": 0,
      "470": 0,
      "471": 0,
      "472": 0,
      "473": 0,
      "474": 0,
      "475": 0,
      "476": 0,
      "477": 0,
      "478": 0,
      "479": 0,
      "480": 0,
      "481": 0,
      "482": 0,
      "483": 0,
      "484": 0,
      "485": 0,
      "486": 0,
      "487": 0,
      "488": 0,
      "489": 0,
      "490": 0,
      "491": 0,
      "492": 0,
      "493": 0,
      "494": 0,
      "495": 0,
      "496": 0,
      "497": 0,
      "498": 0,
      "499": 0,
      "500": 0,
      "501": 0,
      "502": 0,
      "503": 0,
      "504": 0,
      "505": 0,
      "506": 0,
      "507": 0,
      "508": 0,
      "509": 0,
      "510": 0,
      "511": 0,
      "512": 0,
      "513": 0,
      "514": 0,
      "515": 0,
      "516": 0,
      "517": 0,
      "518": 0,
      "519": 0,
      "520": 0,
      "521": 0,
      "522": 0,
      "523": 0,
      "524": 0,
      "525": 0,
      "526": 0,
      "527": 0,
      "528": 0,
      "529": 0,
      "530": 0,
      "531": 0,
      "532": 0,
      "533": 0,
      "534": 0,
      "535": 0,
      "536": 0,
      "537": 0,
      "538": 0,
      "539": 0,
      "540": 0,
      "541": 0,
      "542": 0,
      "543": 0,
      "544": 0,
      "545": 0,
      "546": 0,
      "547": 0,
      "548": 0,
      "549": 0,
      "550": 0,
      "551": 0,
      "552": 0,
      "553": 0,
      "554": 0,
      "555": 0,
      "556": 0,
      "557": 0,
      "558": 0,
      "559": 0,
      "560": 0,
      "561": 0,
      "562": 0,
      "563": 0,
      "564": 0,
      "565": 0,
      "566": 0,
      "567": 0,
      "568": 0,
      "569": 0,
      "570": 0,
      "571": 0,
      "572": 0,
      "573": 0,
      "574": 0,
      "575": 0,
      "576": 0,
      "577": 0,
      "578": 0,
      "579": 0,
      "580": 0,
      "581": 0,
      "582": 0,
      "583": 0,
      "584": 0,
      "585": 0,
      "586": 0,
      "587": 0,
      "588": 0,
      "589": 0,
      "590": 0,
      "591": 0,
      "592": 0,
      "593": 0,
      "594": 0,
      "595": 0,
      "596": 0,
      "597": 0,
      "598": 0,
      "599": 0,
      "600": 0,
      "601": 0,
      "602": 0,
      "603": 0,
      "604": 0,
      "605": 0,
      "606": 0,
      "607": 0,
      "608": 0,
      "609": 0,
      "610": 0,
      "611": 0,
      "612": 0,
      "613": 0,
      "614": 0,
      "615": 0,
      "616": 0,
      "617": 0,
      "618": 0,
      "619": 0,
      "620": 0,
      "621": 0,
      "622": 0,
      "623": 0,
      "624": 0,
      "625": 0,
      "626": 0,
      "627": 0,
      "628": 0,
      "629": 0,
      "630": 0,
      "631": 0,
      "632": 0,
      "633": 0,
      "634": 0,
      "635": 0,
      "636": 0,
      "637": 0,
      "638": 0,
      "639": 0,
      "640": 0,
      "641": 0,
      "642": 0,
      "643": 0,
      "644": 0,
      "645": 0,
      "646": 0,
      "647": 0,
      "648": 0,
      "649": 0,
      "650": 0,
      "651": 0,
      "652": 0,
      "653": 0,
      "654": 0,
      "655": 0,
      "656": 0,
      "657": 0,
      "658": 0,
      "659": 0,
      "660": 0,
      "661": 0,
      "662": 0,
      "663": 0,
      "664": 0,
      "665": 0,
      "666": 0,
      "667": 0,
      "668": 0,
      "669": 0,
      "670": 0,
      "671": 0,
      "672": 0,
      "673": 0,
      "674": 0,
      "675": 0,
      "676": 0,
      "677": 0,
      "678": 0,
      "679": 0,
      "680": 0,
      "681": 0,
      "682": 0,
      "683": 0,
      "684": 0,
      "685": 0,
      "686": 0,
      "687": 0,
      "688": 0,
      "689": 0,
      "690": 0,
      "691": 0,
      "692": 0,
      "693": 0,
      "694": 0,
      "695": 0,
      "696": 0,
      "697": 0,
      "698": 0,
      "699": 0,
      "700": 0,
      "701": 0,
      "702": 0,
      "703": 0,
      "704": 0,
      "705": 0,
      "706": 0,
      "707": 0,
      "708": 0,
      "709": 0,
      "710": 0,
      "711": 0,
      "712": 0,
      "713": 0,
      "714": 0,
      "715": 0,
      "716": 0,
      "717": 0,
      "718": 0,
      "719": 0,
      "720": 0,
      "721": 0,
      "722": 0,
      "723": 0,
      "724": 0,
      "725": 0,
      "726": 0,
      "727": 0,
      "728": 0,
      "729": 0,
      "730": 0,
      "731": 0,
      "732": 0,
      "733": 0,
      "734": 0,
      "735": 0,
      "736": 0,
      "737": 0,
      "738": 0,
      "739": 0,
      "740": 0,
      "741": 0,
      "742": 0,
      "743": 0,
      "744": 0,
      "745": 0,
      "746": 0,
      "747": 0,
      "748": 0,
      "749": 0,
      "750": 0,
      "751": 0,
      "752": 0,
      "753": 0,
      "754": 0,
      "755": 0,
      "756": 0,
      "757": 0,
      "758": 0,
      "759": 0,
      "760": 0,
      "761": 0,
      "762": 0,
      "763": 0,
      "764": 0,
      "765": 0,
      "766": 0,
      "767": 0,
      "768": 0,
      "769": 0,
      "770": 0,
      "771": 0,
      "772": 0,
      "773": 0,
      "774": 0,
      "775": 0,
      "776": 0,
      "777": 0,
      "778": 0,
      "779": 0,
      "780": 0,
      "781": 0,
      "782": 0,
      "783": 0,
      "784": 0,
      "785": 0,
      "786": 0,
      "787": 0,
      "788": 0,
      "789": 0,
      "790": 0,
      "791": 0,
      "792": 0,
      "793": 0,
      "794": 0,
      "795": 0,
      "796": 0,
      "797": 0,
      "798": 0,
      "799": 0,
      "800": 0,
      "801": 0,
      "802": 0,
      "803": 0,
      "804": 0,
      "805": 0,
      "806": 0,
      "807": 0,
      "808": 0,
      "809": 0,
      "810": 0,
      "811": 0,
      "812": 0,
      "813": 0,
      "814": 0,
      "815": 0,
      "816": 0,
      "817": 0,
      "818": 0,
      "819": 0,
      "820": 0,
      "821": 0,
      "822": 0,
      "823": 0,
      "824": 0,
      "825": 0,
      "826": 0,
      "827": 0,
      "828": 0,
      "829": 0,
      "830": 0,
      "831": 0,
      "832": 0,
      "833": 0,
      "834": 0,
      "835": 0,
      "836": 0,
      "837": 0
     }
    },
    {
     "sx": 1,
     "sy": 1,
     "depth": 838,
     "w": {
      "0": 0,
      "1": 0,
      "2": 0,
      "3": 0,
      "4": 0,
      "5": 0,
      "6": 0,
      "7": 0,
      "8": 0,
      "9": 0,
      "10": 0,
      "11": 0,
      "12": 0,
      "13": 0,
      "14": 0,
      "15": 0,
      "16": 0,
      "17": 0,
      "18": 0,
      "19": 0,
      "20": 0,
      "21": 0,
      "22": 0,
      "23": 0,
      "24": 0,
      "25": 0,
      "26": 0,
      "27": 0,
      "28": 0,
      "29": 0,
      "30": 0,
      "31": 0,
      "32": 0,
      "33": 0,
      "34": 0,
      "35": 0,
      "36": 0,
      "37": 0,
      "38": 0,
      "39": 0,
      "40": 0,
      "41": 0,
      "42": 0,
      "43": 0,
      "44": 0,
      "45": 0,
      "46": 0,
      "47": 0,
      "48": 0,
      "49": 0,
      "50": 0,
      "51": 0,
      "52": 0,
      "53": 0,
      "54": 0,
      "55": 0,
      "56": 0,
      "57": 0,
      "58": 0,
      "59": 0,
      "60": 0,
      "61": 0,
      "62": 0,
      "63": 0,
      "64": 0,
      "65": 0,
      "66": 0,
      "67": 0,
      "68": 0,
      "69": 0,
      "70": 0,
      "71": 0,
      "72": 0,
      "73": 0,
      "74": 0,
      "75": 0,
      "76": 0,
      "77": 0,
      "78": 0,
      "79": 0,
      "80": 0,
      "81": 0,
      "82": 0,
      "83": 0,
      "84": 0,
      "85": 0,
      "86": 0,
      "87": 0,
      "88": 0,
      "89": 0,
      "90": 0,
      "91": 0,
      "92": 0,
      "93": 0,
      "94": 0,
      "95": 0,
      "96": 0,
      "97": 0,
      "98": 0,
      "99": 0,
      "100": 0,
      "101": 0,
      "102": 0,
      "103": 0,
      "104": 0,
      "105": 0,
      "106": 0,
      "107": 0,
      "108": 0,
      "109": 0,
      "110": 0,
      "111": 0,
      "112": 0,
      "113": 0,
      "114": 0,
      "115": 0,
      "116": 0,
      "117": 0,
      "118": 0,
      "119": 0,
      "120": 0,
      "121": 0,
      "122": 0,
      "123": 0,
      "124": 0,
      "125": 0,
      "126": 0,
      "127": 0,
      "128": 0,
      "129": 0,
      "130": 0,
      "131": 0,
      "132": 0,
      "133": 0,
      "134": 0,
      "135": 0,
      "136": 0,
      "137": 0,
      "138": 0,
      "139": 0,
      "140": 0,
      "141": 0,
      "142": 0,
      "143": 0,
      "144": 0,
      "145": 0,
      "146": 0,
      "147": 0,
      "148": 0,
      "149": 0,
      "150": 0,
      "151": 0,
      "152": 0,
      "153": 0,
      "154": 0,
      "155": 0,
      "156": 0,
      "157": 0,
      "158": 0,
      "159": 0,
      "160": 0,
      "161": 0,
      "162": 0,
      "163": 0,
      "164": 0,
      "165": 0,
      "166": 0,
      "167": 0,
      "168": 0,
      "169": 0,
      "170": 0,
      "171": 0,
      "172": 0,
      "173": 0,
      "174": 0,
      "175": 0,
      "176": 0,
      "177": 0,
      "178": 0,
      "179": 0,
      "180": 0,
      "181": 0,
      "182": 0,
      "183": 0,
      "184": 0,
      "185": 0,
      "186": 0,
      "187": 0,
      "188": 0,
      "189": 0,
      "190": 0,
      "191": 0,
      "192": 0,
      "193": 0,
      "194": 0,
      "195": 0,
      "196": 0,
      "197": 0,
      "198": 0,
      "199": 0,
      "200": 0,
      "201": 0,
      "202": 0,
      "203": 0,
      "204": 0,
      "205": 0,
      "206": 0,
      "207": 0,
      "208": 0,
      "209": 0,
      "210": 0,
      "211": 0,
      "212": 0,
      "213": 0,
      "214": 0,
      "215": 0,
      "216": 0,
      "217": 0,
      "218": 0,
      "219": 0,
      "220": 0,
      "221": 0,
      "222": 0,
      "223": 0,
      "224": 0,
      "225": 0,
      "226": 0,
      "227": 0,
      "228": 0,
      "229": 0,
      "230": 0,
      "231": 0,
      "232": 0,
      "233": 0,
      "234": 0,
      "235": 0,
      "236": 0,
      "237": 0,
      "238": 0,
      "239": 0,
      "240": 0,
      "241": 0,
      "242": 0,
      "243": 0,
      "244": 0,
      "245": 0,
      "246": 0,
      "247": 0,
      "248": 0,
      "249": 0,
      "250": 0,
      "251": 0,
      "252": 0,
      "253": 0,
      "254": 0,
      "255": 0,
      "256": 0,
      "257": 0,
      "258": 0,
      "259": 0,
      "260": 0,
      "261": 0,
      "262": 0,
      "263": 0,
      "264": 0,
      "265": 0,
      "266": 0,
      "267": 0,
      "268": 0,
      "269": 0,
      "270": 0,
      "271": 0,
      "272": 0,
      "273": 0,
      "274": 0,
      "275": 0,
      "276": 0,
      "277": 0,
      "278": 0,
      "279": 0,
      "280": 0,
      "281": 0,
      "282": 0,
      "283": 0,
      "284": 0,
      "285": 0,
      "286": 0,
      "287": 0,
      "288": 0,
      "289": 0,
      "290": 0,
      "291": 0,
      "292": 0,
      "293": 0,
      "294": 0,
      "295": 0,
      "296": 0,
      "297": 0,
      "298": 0,
      "299": 0,
      "300": 0,
      "301": 0,
      "302": 0,
      "303": 0,
      "304": 0,
      "305": 0,
      "306": 0,
      "307": 0,
      "308": 0,
      "309": 0,
      "310": 0,
      "311": 0,
      "312": 0,
      "313": 0,
      "314": 0,
      "315": 0,
      "316": 0,
      "317": 0,
      "318": 0,
      "319": 0,
      "320": 0,
      "321": 0,
      "322": 0,
      "323": 0,
      "324": 0,
      "325": 0,
      "326": 0,
      "327": 0,
      "328": 0,
      "329": 0,
      "330": 0,
      "331": 0,
      "332": 0,
      "333": 0,
      "334": 0,
      "335": 0,
      "336": 0,
      "337": 0,
      "338": 0,
      "339": 0,
      "340": 0,
      "341": 0,
      "342": 0,
      "343": 0,
      "344": 0,
      "345": 0,
      "346": 0,
      "347": 0,
      "348": 0,
      "349": 0,
      "350": 0,
      "351": 0,
      "352": 0,
      "353": 0,
      "354": 0,
      "355": 0,
      "356": 0,
      "357": 0,
      "358": 0,
      "359": 0,
      "360": 0,
      "361": 0,
      "362": 0,
      "363": 0,
      "364": 0,
      "365": 0,
      "366": 0,
      "367": 0,
      "368": 0,
      "369": 0,
      "370": 0,
      "371": 0,
      "372": 0,
      "373": 0,
      "374": 0,
      "375": 0,
      "376": 0,
      "377": 0,
      "378": 0,
      "379": 0,
      "380": 0,
      "381": 0,
      "382": 0,
      "383": 0,
      "384": 0,
      "385": 0,
      "386": 0,
      "387": 0,
      "388": 0,
      "389": 0,
      "390": 0,
      "391": 0,
      "392": 0,
      "393": 0,
      "394": 0,
      "395": 0,
      "396": 0,
      "397": 0,
      "398": 0,
      "399": 0,
      "400": 0,
      "401": 0,
      "402": 0,
      "403": 0,
      "404": 0,
      "405": 0,
      "406": 0,
      "407": 0,
      "408": 0,
      "409": 0,
      "410": 0,
      "411": 0,
      "412": 0,
      "413": 0,
      "414": 0,
      "415": 0,
      "416": 0,
      "417": 0,
      "418": 0,
      "419": 0,
      "420": 0,
      "421": 0,
      "422": 0,
      "423": 0,
      "424": 0,
      "425": 0,
      "426": 0,
      "427": 0,
      "428": 0,
      "429": 0,
      "430": 0,
      "431": 0,
      "432": 0,
      "433": 0,
      "434": 0,
      "435": 0,
      "436": 0,
      "437": 0,
      "438": 0,
      "439": 0,
      "440": 0,
      "441": 0,
      "442": 0,
      "443": 0,
      "444": 0,
      "445": 0,
      "446": 0,
      "447": 0,
      "448": 0,
      "449": 0,
      "450": 0,
      "451": 0,
      "452": 0,
      "453": 0,
      "454": 0,
      "455": 0,
      "456": 0,
      "457": 0,
      "458": 0,
      "459": 0,
      "460": 0,
      "461": 0,
      "462": 0,
      "463": 0,
      "464": 0,
      "465": 0,
      "466": 0,
      "467": 0,
      "468": 0,
      "469": 0,
      "470": 0,
      "471": 0,
      "472": 0,
      "473": 0,
      "474": 0,
      "475": 0,
      "476": 0,
      "477": 0,
      "478": 0,
      "479": 0,
      "480": 0,
      "481": 0,
      "482": 0,
      "483": 0,
      "484": 0,
      "485": 0,
      "486": 0,
      "487": 0,
      "488": 0,
      "489": 0,
      "490": 0,
      "491": 0,
      "492": 0,
      "493": 0,
      "494": 0,
      "495": 0,
      "496": 0,
      "497": 0,
      "498": 0,
      "499": 0,
      "500": 0,
      "501": 0,
      "502": 0,
      "503": 0,
      "504": 0,
      "505": 0,
      "506": 0,
      "507": 0,
      "508": 0,
      "509": 0,
      "510": 0,
      "511": 0,
      "512": 0,
      "513": 0,
      "514": 0,
      "515": 0,
      "516": 0,
      "517": 0,
      "518": 0,
      "519": 0,
      "520": 0,
      "521": 0,
      "522": 0,
      "523": 0,
      "524": 0,
      "525": 0,
      "526": 0,
      "527": 0,
      "528": 0,
      "529": 0,
      "530": 0,
      "531": 0,
      "532": 0,
      "533": 0,
      "534": 0,
      "535": 0,
      "536": 0,
      "537": 0,
      "538": 0,
      "539": 0,
      "540": 0,
      "541": 0,
      "542": 0,
      "543": 0,
      "544": 0,
      "545": 0,
      "546": 0,
      "547": 0,
      "548": 0,
      "549": 0,
      "550": 0,
      "551": 0,
      "552": 0,
      "553": 0,
      "554": 0,
      "555": 0,
      "556": 0,
      "557": 0,
      "558": 0,
      "559": 0,
      "560": 0,
      "561": 0,
      "562": 0,
      "563": 0,
      "564": 0,
      "565": 0,
      "566": 0,
      "567": 0,
      "568": 0,
      "569": 0,
      "570": 0,
      "571": 0,
      "572": 0,
      "573": 0,
      "574": 0,
      "575": 0,
      "576": 0,
      "577": 0,
      "578": 0,
      "579": 0,
      "580": 0,
      "581": 0,
      "582": 0,
      "583": 0,
      "584": 0,
      "585": 0,
      "586": 0,
      "587": 0,
      "588": 0,
      "589": 0,
      "590": 0,
      "591": 0,
      "592": 0,
      "593": 0,
      "594": 0,
      "595": 0,
      "596": 0,
      "597": 0,
      "598": 0,
      "599": 0,
      "600": 0,
      "601": 0,
      "602": 0,
      "603": 0,
      "604": 0,
      "605": 0,
      "606": 0,
      "607": 0,
      "608": 0,
      "609": 0,
      "610": 0,
      "611": 0,
      "612": 0,
      "613": 0,
      "614": 0,
      "615": 0,
      "616": 0,
      "617": 0,
      "618": 0,
      "619": 0,
      "620": 0,
      "621": 0,
      "622": 0,
      "623": 0,
      "624": 0,
      "625": 0,
      "626": 0,
      "627": 0,
      "628": 0,
      "629": 0,
      "630": 0,
      "631": 0,
      "632": 0,
      "633": 0,
      "634": 0,
      "635": 0,
      "636": 0,
      "637": 0,
      "638": 0,
      "639": 0,
      "640": 0,
      "641": 0,
      "642": 0,
      "643": 0,
      "644": 0,
      "645": 0,
      "646": 0,
      "647": 0,
      "648": 0,
      "649": 0,
      "650": 0,
      "651": 0,
      "652": 0,
      "653": 0,
      "654": 0,
      "655": 0,
      "656": 0,
      "657": 0,
      "658": 0,
      "659": 0,
      "660": 0,
      "661": 0,
      "662": 0,
      "663": 0,
      "664": 0,
      "665": 0,
      "666": 0,
      "667": 0,
      "668": 0,
      "669": 0,
      "670": 0,
      "671": 0,
      "672": 0,
      "673": 0,
      "674": 0,
      "675": 0,
      "676": 0,
      "677": 0,
      "678": 0,
      "679": 0,
      "680": 0,
      "681": 0,
      "682": 0,
      "683": 0,
      "684": 0,
      "685": 0,
      "686": 0,
      "687": 0,
      "688": 0,
      "689": 0,
      "690": 0,
      "691": 0,
      "692": 0,
      "693": 0,
      "694": 0,
      "695": 0,
      "696": 0,
      "697": 0,
      "698": 0,
      "699": 0,
      "700": 0,
      "701": 0,
      "702": 0,
      "703": 0,
      "704": 0,
      "705": 0,
      "706": 0,
      "707": 0,
      "708": 0,
      "709": 0,
      "710": 0,
      "711": 0,
      "712": 0,
      "713": 0,
      "714": 0,
      "715": 0,
      "716": 0,
      "717": 0,
      "718": 0,
      "719": 0,
      "720": 0,
      "721": 0,
      "722": 0,
      "723": 0,
      "724": 0,
      "725": 0,
      "726": 0,
      "727": 0,
      "728": 0,
      "729": 0,
      "730": 0,
      "731": 0,
      "732": 0,
      "733": 0,
      "734": 0,
      "735": 0,
      "736": 0,
      "737": 0,
      "738": 0,
      "739": 0,
      "740": 0,
      "741": 0,
      "742": 0,
      "743": 0,
      "744": 0,
      "745": 0,
      "746": 0,
      "747": 0,
      "748": 0,
      "749": 0,
      "750": 0,
      "751": 0,
      "752": 0,
      "753": 0,
      "754": 0,
      "755": 0,
      "756": 0,
      "757": 0,
      "758": 0,
      "759": 0,
      "760": 0,
      "761": 0,
      "762": 0,
      "763": 0,
      "764": 0,
      "765": 0,
      "766": 0,
      "767": 0,
      "768": 0,
      "769": 0,
      "770": 0,
      "771": 0,
      "772": 0,
      "773": 0,
      "774": 0,
      "775": 0,
      "776": 0,
      "777": 0,
      "778": 0,
      "779": 0,
      "780": 0,
      "781": 0,
      "782": 0,
      "783": 0,
      "784": 0,
      "785": 0,
      "786": 0,
      "787": 0,
      "788": 0,
      "789": 0,
      "790": 0,
      "791": 0,
      "792": 0,
      "793": 0,
      "794": 0,
      "795": 0,
      "796": 0,
      "797": 0,
      "798": 0,
      "799": 0,
      "800": 0,
      "801": 0,
      "802": 0,
      "803": 0,
      "804": 0,
      "805": 0,
      "806": 0,
      "807": 0,
      "808": 0,
      "809": 0,
      "810": 0,
      "811": 0,
      "812": 0,
      "813": 0,
      "814": 0,
      "815": 0,
      "816": 0,
      "817": 0,
      "818": 0,
      "819": 0,
      "820": 0,
      "821": 0,
      "822": 0,
      "823": 0,
      "824": 0,
      "825": 0,
      "826": 0,
      "827": 0,
      "828": 0,
      "829": 0,
      "830": 0,
      "831": 0,
      "832": 0,
      "833": 0,
      "834": 0,
      "835": 0,
      "836": 0,
      "837": 0
     }
    },
    {
     "sx": 1,
     "sy": 1,
     "depth": 838,
     "w": {
      "0": -20069.22442522265,
      "1": 0.0620475721796372,
      "2": -4.1041611357980115,
      "3": -160.7242828420805,
      "4": -80.2925949880155,
      "5": -80.31883540802984,
      "6": 0.10161097492834578,
      "7": -0.05384038385360002,
      "8": -0.05836935874972699,
      "9": -0.09579015867593552,
      "10": -0.07293516680513705,
      "11": -0.07908647085413491,
      "12": -0.08818180327730374,
      "13": -0.09979074664870882,
      "14": -0.07989009544410616,
      "15": -0.0876673793853278,
      "16": -0.059998120291225074,
      "17": -0.04625032999287204,
      "18": -19978.490573516163,
      "19": -0.020420505538785213,
      "20": -4.100707930550103,
      "21": -160.79838834948882,
      "22": -80.31519553471242,
      "23": -80.27047051229934,
      "24": -0.01134344875357152,
      "25": 0.01801348261473079,
      "26": -0.08701210769743715,
      "27": -0.05256260079553387,
      "28": -0.113187419685851,
      "29": -0.11165846366724166,
      "30": -0.08014539348065654,
      "31": -0.04892323896016525,
      "32": -0.03478193873043143,
      "33": -0.03459352547446875,
      "34": -0.09809620847355108,
      "35": -0.1185644236858071,
      "36": -0.38869520013098807,
      "37": 0.023634030588851346,
      "38": -0.4392943450496074,
      "39": 0.06356723728675008,
      "40": -0.10641033090357316,
      "41": -0.020597586903222206,
      "42": -0.6349497667639747,
      "43": -0.45796460474137274,
      "44": -0.1705450879058337,
      "45": 0.032181874393245394,
      "46": 0.03984841774969718,
      "47": -0.026894425902062813,
      "48": -0.15315819382062065,
      "49": -0.10655647666378511,
      "50": 0.21474146494896362,
      "51": 0.028553067416703982,
      "52": 0.04950475449608177,
      "53": -0.021136904885344227,
      "54": 0.014555290547631331,
      "55": 0.046174377698540395,
      "56": -0.028152419932106692,
      "57": -0.6457581106506581,
      "58": -0.258253615745914,
      "59": -19901.38048379419,
      "60": 0.0017969706246881965,
      "61": -4.241914326883634,
      "62": -160.77168628068114,
      "63": -80.29486686209937,
      "64": -80.2783211239452,
      "65": -0.011689008964442851,
      "66": 0.022227508881838175,
      "67": -0.11491504920730189,
      "68": -0.07420099654722837,
      "69": -0.09910175105315204,
      "70": -0.040981190249283234,
      "71": -0.05638355657423714,
      "72": -0.06839312757295267,
      "73": -0.08853804388154425,
      "74": -0.098401917531593,
      "75": -0.1375112828938754,
      "76": -0.0402258416286824,
      "77": -0.42071862628593865,
      "78": -0.013269524483195502,
      "79": -0.24693864042127128,
      "80": -0.20503140208382914,
      "81": 0.07854062462838347,
      "82": -0.014882994495673842,
      "83": -0.14434232791517895,
      "84": -0.2585999915793931,
      "85": 0.01284284024654161,
      "86": -0.09052728000825817,
      "87": -0.15064798844511643,
      "88": -0.17880412501267853,
      "89": -0.191931308406996,
      "90": -0.025661464460498842,
      "91": 0.12852873796098008,
      "92": -0.09823216377569113,
      "93": 0.013435060799477054,
      "94": 0.045914781520648824,
      "95": -0.056355554748578826,
      "96": -0.19525573853610545,
      "97": -0.372683354968964,
      "98": -0.49457673841836763,
      "99": -0.3334996483568781,
      "100": -19824.78398913525,
      "101": 0.022054636856945246,
      "102": -4.322359589907767,
      "103": -160.73115850869144,
      "104": -80.33822347947896,
      "105": -80.25689678809138,
      "106": -0.03786728671382795,
      "107": -0.04634622106608258,
      "108": -0.053522288737676525,
      "109": -0.02153285267189688,
      "110": -0.01459550256250072,
      "111": -0.08662562289730821,
      "112": -0.04633452254899243,
      "113": -0.10317023313662811,
      "114": -0.07977676715796175,
      "115": -0.11706270068643441,
      "116": -0.14872789664540054,
      "117": -0.014751604714706506,
      "118": 0.11240187365479298,
      "119": 0.1014325314792904,
      "120": -0.08684578631805828,
      "121": -0.5050923137496633,
      "122": -0.09438078119678979,
      "123": 0.027856084697723087,
      "124": -0.34312599291556845,
      "125": -0.4662174638335681,
      "126": 0.03195931255377803,
      "127": -0.13285786371134178,
      "128": -0.022206262840955372,
      "129": -0.11146797579559378,
      "130": -0.40632964565543317,
      "131": -0.037211424923071314,
      "132": -0.47276300828102025,
      "133": -0.2898163790295336,
      "134": -0.15476999873634883,
      "135": -0.049821799070433714,
      "136": 0.11367489042154441,
      "137": 0.1533306679688778,
      "138": -0.1434001915511075,
      "139": 0.025395114870117978,
      "140": -0.17330630764195812,
      "141": -19742.97602116707,
      "142": -0.06871708160356009,
      "143": -4.434220400887384,
      "144": -160.84013150075626,
      "145": -80.32690027479705,
      "146": -80.29304933995508,
      "147": -0.028504801662924985,
      "148": -0.011433680115133632,
      "149": -0.08822524835632563,
      "150": -0.082092109332168,
      "151": -0.10016848606984707,
      "152": -0.05863433777465873,
      "153": -0.10843182321746396,
      "154": -0.06077936006678819,
      "155": -0.10115130139053007,
      "156": -0.0953204185176709,
      "157": -0.0839738284685011,
      "158": -0.11354903050944447,
      "159": 0.13980778527717197,
      "160": -0.5506759135072471,
      "161": 0.13036919240330752,
      "162": -0.1424556368202917,
      "163": 0.012444139832172097,
      "164": -0.499145399158784,
      "165": -0.26180071858229786,
      "166": -0.23984574155269675,
      "167": 0.03227539009949041,
      "168": 0.1043587148613009,
      "169": -0.4706994199640753,
      "170": 0.25049702272732255,
      "171": 0.04600312086693693,
      "172": -0.06722153061721894,
      "173": -0.11664382734898844,
      "174": -0.1509529748420847,
      "175": -0.07233442188453777,
      "176": -0.10859615991400177,
      "177": -0.15670888676738554,
      "178": 0.014606070307151447,
      "179": 0.058901520768471154,
      "180": -0.5510682230113464,
      "181": -0.3832632896114324,
      "182": -19650.0900915751,
      "183": -0.0027210819620962575,
      "184": -4.524180977837648,
      "185": -160.6907874796804,
      "186": -80.28145142501116,
      "187": -80.24135894322733,
      "188": 0.023303528067514793,
      "189": -0.00444771196306293,
      "190": -0.06594270409299514,
      "191": -0.10327600622363432,
      "192": -0.10208108504959908,
      "193": 0.010971729930424164,
      "194": -0.056654799614627015,
      "195": -0.05970795376404284,
      "196": -0.04145337014629362,
      "197": -0.09424791964319147,
      "198": -0.14849554747196478,
      "199": -0.05526876735946386,
      "200": 0.07610802822708039,
      "201": -0.26252597341933037,
      "202": -0.3351858671969896,
      "203": 0.20930561624708197,
      "204": -0.01666247922360272,
      "205": 0.032906785470270254,
      "206": -0.1704832632634114,
      "207": -0.020155275771988137,
      "208": 0.22761784666172666,
      "209": -0.6111868777494779,
      "210": -0.2891566606498304,
      "211": 0.007171990671471809,
      "212": -0.48785211297948133,
      "213": 0.11786704863085717,
      "214": 0.0486718604837308,
      "215": -0.7145465142053341,
      "216": -0.15154200681382918,
      "217": -0.3725864031561678,
      "218": -0.2509398660113058,
      "219": -0.016664666532204924,
      "220": -0.2834805392187442,
      "221": 0.15232248764165343,
      "222": 0.006569289069374862,
      "223": -19569.419282222472,
      "224": 0.06659565636766228,
      "225": -4.519677652521354,
      "226": -160.74312119085474,
      "227": -80.31123006292283,
      "228": -80.27034411100733,
      "229": -0.012596004892319958,
      "230": 0.03704630321403948,
      "231": -0.0585786860244019,
      "232": -0.07449384371416798,
      "233": -0.08532206982252596,
      "234": -0.07684719265689659,
      "235": -0.1008201729311694,
      "236": -0.10992334806527514,
      "237": -0.1243772479073118,
      "238": -0.07493033238905922,
      "239": -0.06253239435599629,
      "240": -0.06025534143426609,
      "241": 0.07191269434414531,
      "242": -0.0019067786450722166,
      "243": 0.20840070971610522,
      "244": 0.004344327465886341,
      "245": -0.14176967268895285,
      "246": 0.006770202541823376,
      "247": -0.10466814144077335,
      "248": -0.028473476296507597,
      "249": -0.2661662775990316,
      "250": 0.05072396348926082,
      "251": -0.38828605973489133,
      "252": -0.4758159008071444,
      "253": -0.4540895787267367,
      "254": -0.11337024286905491,
      "255": 0.08595017813292842,
      "256": 0.005382728414462188,
      "257": 0.011576015235416109,
      "258": -0.3865323147691381,
      "259": -0.11786306482885023,
      "260": -0.17861182691088265,
      "261": -0.00741631669154119,
      "262": -0.7391996261773177,
      "263": 0.09570513125289538,
      "264": -19474.970509154737,
      "265": 0.02664826373386239,
      "266": -4.461122749629779,
      "267": -160.78234321432404,
      "268": -80.29393220623024,
      "269": -80.33377852267289,
      "270": -0.03745345120535138,
      "271": 0.00914356047322468,
      "272": -0.10962162241798042,
      "273": -0.06571830850131989,
      "274": -0.0846048109566895,
      "275": -0.05663699576426325,
      "276": -0.15784014515459585,
      "277": -0.09237345050033317,
      "278": -0.07531967063085884,
      "279": -0.0667219560653528,
      "280": -0.06276474716129206,
      "281": -0.05769617648572109,
      "282": -0.6746832003881209,
      "283": -0.44849877719338793,
      "284": 0.1733195381565868,
      "285": 0.009720619337057377,
      "286": 0.02656506053991288,
      "287": 0.19758808606524234,
      "288": -0.2887941497447521,
      "289": 0.04356439194827403,
      "290": -0.09380633965975087,
      "291": -0.0273084529673504,
      "292": -0.26991621220472145,
      "293": 0.038091855986215235,
      "294": -0.020178633107636918,
      "295": -0.4651294311026609,
      "296": 0.02230218845384358,
      "297": -0.3357178597071556,
      "298": -0.06046241567150866,
      "299": -0.14278973013481044,
      "300": 0.06399598480516562,
      "301": -0.017652408541351507,
      "302": -0.11588108993638155,
      "303": -0.12877670627892368,
      "304": -0.3191015993451154,
      "305": -19376.293391044324,
      "306": 0.020340271871939028,
      "307": -4.439376995298475,
      "308": -160.7192712654493,
      "309": -80.2185254594236,
      "310": -80.34141501244807,
      "311": -0.008865553812693458,
      "312": 0.047474051586468675,
      "313": -0.09126762616828786,
      "314": -0.1488394601313974,
      "315": -0.08398937467419726,
      "316": -0.11953873630027594,
      "317": -0.17202071768214483,
      "318": -0.0757778935599227,
      "319": -0.04554209121688331,
      "320": -0.10953068280566805,
      "321": -0.07900719424811871,
      "322": -0.07534603971523145,
      "323": -0.05887209897742123,
      "324": -0.19857707331562693,
      "325": 0.07392524200719276,
      "326": -0.6250349584086505,
      "327": 0.02550571204471184,
      "328": -0.01609456131086015,
      "329": -0.029541430689658078,
      "330": -0.25749761706668123,
      "331": -0.2309203341069172,
      "332": -0.495804444926079,
      "333": -0.4583051214993649,
      "334": -0.017787483538321946,
      "335": 0.19646136950720255,
      "336": -0.13328724170750925,
      "337": 0.13807015355675165,
      "338": -0.34138619736949466,
      "339": 0.09565306037234282,
      "340": -0.13383541960574658,
      "341": 0.022787150689688042,
      "342": -0.494626218492703,
      "343": 0.01103603070066767,
      "344": -0.048873239122742995,
      "345": -0.0888949408266508,
      "346": -19271.823028499424,
      "347": -0.01426119749290518,
      "348": -4.497008163057918,
      "349": -160.75794019900715,
      "350": -80.33641051913209,
      "351": -80.27032063602759,
      "352": 0.05765153853013124,
      "353": -0.01755806554088586,
      "354": -0.04583584796590836,
      "355": -0.09967969715991634,
      "356": -0.11823317594773398,
      "357": -0.09061735850626348,
      "358": -0.03974324236318173,
      "359": -0.09948852970052777,
      "360": -0.0782852675247766,
      "361": -0.07073215881429551,
      "362": -0.04814495501684237,
      "363": -0.036848019974230484,
      "364": -0.011948035856206605,
      "365": -0.2898431890229459,
      "366": -0.39273235810797635,
      "367": 0.0616909094270616,
      "368": -0.0026608391183217815,
      "369": -0.003776534646914397,
      "370": -0.3155645242672392,
      "371": -0.4057144796626838,
      "372": -0.06472154422938019,
      "373": -0.21215403001365785,
      "374": 0.13381088923205467,
      "375": -0.05700522273163,
      "376": 0.033387640077824,
      "377": 0.09885304971758524,
      "378": -0.04199548902804485,
      "379": -0.10124586869339064,
      "380": 0.035583785213929686,
      "381": -0.08004189960093037,
      "382": -0.30129430767821863,
      "383": -0.22814820728517,
      "384": 0.04922134872165772,
      "385": 0.05934034984290336,
      "386": -0.8085113926200251,
      "387": -19195.81613113258,
      "388": -0.0017583036052261965,
      "389": -4.528167879199314,
      "390": -160.71423432765084,
      "391": -80.31837322599529,
      "392": -80.33673576153605,
      "393": -0.005890305674051067,
      "394": -0.01839430929114665,
      "395": -0.02071411497928411,
      "396": -0.019108030673483982,
      "397": -0.027814252378962363,
      "398": -0.0776349049492547,
      "399": -0.10679151257834281,
      "400": -0.09933000278901663,
      "401": -0.018155084575325112,
      "402": -0.07335943033700519,
      "403": -0.08720868358807551,
      "404": -0.12156137565719387,
      "405": 0.01058994395649398,
      "406": 0.061021648212950336,
      "407": -0.45664831336774264,
      "408": -0.03183225513386702,
      "409": -0.20022746488672014,
      "410": -0.14367187169648335,
      "411": -0.2454226855674615,
      "412": 0.022625213095089452,
      "413": -0.28004779637754723,
      "414": 0.06968754970828357,
      "415": -0.0001344839969482221,
      "416": -0.16134648369695986,
      "417": 0.18800326950707003,
      "418": -0.44479055904317844,
      "419": -0.10701830804159179,
      "420": -0.1328704260302084,
      "421": -0.15132816352668335,
      "422": -0.0012893117846644925,
      "423": -0.3259318125368806,
      "424": -0.14350375509317723,
      "425": 0.15560830106589915,
      "426": -0.029566923420259666,
      "427": -0.7121122416027307,
      "428": -19092.071459335846,
      "429": 0.06649280517502607,
      "430": -4.645629079258785,
      "431": -160.73147375835018,
      "432": -80.27598236104087,
      "433": -80.29761248008073,
      "434": 0.004427050498457318,
      "435": 0.0554072138977049,
      "436": -0.07787301811707664,
      "437": -0.034233218643465485,
      "438": -0.10516740209657298,
      "439": 0.0007213431536909003,
      "440": -0.12612540766373048,
      "441": -0.07572285996454801,
      "442": -0.05244071133750087,
      "443": -0.11639910489548089,
      "444": -0.1397340757165643,
      "445": -0.06863836899544039,
      "446": -0.22124489908033496,
      "447": -0.03531167530986726,
      "448": -0.3346651246536535,
      "449": 0.3307026881968089,
      "450": -0.7674827832649603,
      "451": -0.23221417113735165,
      "452": -0.0057584042355712795,
      "453": -0.06811762849546592,
      "454": -0.19364269360640296,
      "455": -0.12098832129148991,
      "456": 0.06070716747714133,
      "457": 0.008511825492384583,
      "458": -0.07880583142916707,
      "459": -0.1661761011940095,
      "460": -0.5364008937293195,
      "461": 0.0018833032646825326,
      "462": -0.007601251378304538,
      "463": -0.025374611262677062,
      "464": -0.1648888914004095,
      "465": 0.022179043646696397,
      "466": 0.15488575798334775,
      "467": -0.3179879789286762,
      "468": -0.2840427169205589,
      "469": -19015.024190620978,
      "470": 0.023724117020648326,
      "471": -4.607930821709202,
      "472": -160.73788634291844,
      "473": -80.32887564715482,
      "474": -80.28790509491171,
      "475": 0.0322538347402733,
      "476": 0.04599347425166972,
      "477": -0.05152247611203418,
      "478": -0.05671648460244806,
      "479": -0.03830797207006053,
      "480": -0.036554784525650516,
      "481": -0.10255748612925292,
      "482": -0.05997375951708087,
      "483": -0.05564517116016852,
      "484": -0.021644743071333246,
      "485": -0.12500974732156986,
      "486": -0.04881041687940554,
      "487": -0.029051703075211863,
      "488": 0.038070696731823256,
      "489": -0.43604611202940435,
      "490": 0.02604302680434153,
      "491": -0.6887119303730876,
      "492": -0.26632367153246267,
      "493": -0.10330731325691146,
      "494": -0.3577699922314548,
      "495": -0.08775524175397584,
      "496": 0.23294642648574987,
      "497": -0.10283425814625079,
      "498": -0.24451440344155986,
      "499": 0.045186676333731794,
      "500": -0.36997969073105086,
      "501": -0.010259082096333624,
      "502": -0.022534629828601816,
      "503": -0.08504570439492072,
      "504": -0.09512433761505913,
      "505": -0.35444419738503413,
      "506": -0.05464817085789076,
      "507": 0.05097344589463372,
      "508": 0.053823327728533925,
      "509": -0.21041706640935326,
      "510": -18933.228129310613,
      "511": 0.03067213431542276,
      "512": -4.4919918861902115,
      "513": -160.78141181452727,
      "514": -80.31323369944847,
      "515": -80.25710071542284,
      "516": 0.013027362730516573,
      "517": 0.021208454224539795,
      "518": -0.146929951604218,
      "519": -0.05554726560238221,
      "520": -0.0793021770243775,
      "521": -0.07045682535603508,
      "522": -0.11355711402384784,
      "523": -0.08143551139077505,
      "524": -0.07016603865001492,
      "525": -0.04267682221613097,
      "526": -0.03573745845479786,
      "527": -0.1217238135213432,
      "528": -0.012126307272699243,
      "529": -0.2981631907320789,
      "530": -0.1465205474014764,
      "531": -0.6377155791570056,
      "532": -0.0375677232921217,
      "533": -0.29362631938444494,
      "534": 0.03902580881814335,
      "535": -0.1734096907753843,
      "536": -0.1290891883220747,
      "537": -0.24381828194672225,
      "538": -0.08523625114869389,
      "539": -0.043247008395041,
      "540": -0.09428399609030366,
      "541": -0.0837531565857776,
      "542": -0.20913877277963142,
      "543": 0.021252725904073965,
      "544": 0.017135966690315058,
      "545": -0.24410523546923207,
      "546": -0.43199706082028877,
      "547": -0.32257503937298504,
      "548": -0.08360857544803421,
      "549": 0.2281986928701409,
      "550": 0.11321570365549832,
      "551": -18835.616557244597,
      "552": -0.008305771266704285,
      "553": -14.777928399403072,
      "554": -160.79855843286794,
      "555": -80.28221708704574,
      "556": -80.22203280672521,
      "557": -0.02225413744190157,
      "558": 0.027717975512805786,
      "559": -0.08581051389497334,
      "560": 0.003949654213823216,
      "561": -0.10210638737876104,
      "562": -0.11493862486958221,
      "563": -0.15376547514395794,
      "564": -0.09339297056792996,
      "565": -0.040302544253999914,
      "566": -0.09513390650834003,
      "567": -0.10116679813183349,
      "568": -0.060247031730662655,
      "569": -0.023010050368695332,
      "570": -0.262038953595664,
      "571": -0.04579795523952304,
      "572": 0.048253384823951216,
      "573": -0.014111299198879719,
      "574": -0.3601373719873563,
      "575": -0.21876949929462175,
      "576": 0.05167152458782203,
      "577": -0.5054098085472661,
      "578": -0.3240947869046318,
      "579": -0.013279688814408013,
      "580": -0.0071171211054094725,
      "581": -0.1430680804349835,
      "582": -0.008350711810412777,
      "583": -0.41535929188227627,
      "584": 0.0014938486686813229,
      "585": 0.0015567790046702855,
      "586": -0.3759199331375289,
      "587": -0.11150215646936026,
      "588": -0.3109941514061869,
      "589": -0.5100758575303413,
      "590": 0.10166886589916299,
      "591": 0.29668908791134446,
      "592": -18743.210837088223,
      "593": 0.039779571766110154,
      "594": -17.46130617468438,
      "595": -160.73906805242947,
      "596": -80.25573138248264,
      "597": -80.31283793557182,
      "598": -0.0695739794182318,
      "599": -0.03406490399573762,
      "600": -0.11516048517858085,
      "601": -0.04028627846199116,
      "602": -0.07333555380786566,
      "603": -0.07838527528753458,
      "604": -0.05352966546761143,
      "605": -0.0771813433831459,
      "606": -0.1398843429688314,
      "607": -0.13186941718072268,
      "608": -0.0836270881482132,
      "609": -0.09073407483360114,
      "610": -0.07758059161838837,
      "611": -0.16246705303793552,
      "612": -0.2665031357535371,
      "613": -0.05186346318901791,
      "614": 0.008892008414100339,
      "615": -0.032179498170823384,
      "616": -0.6973719383630766,
      "617": -0.2084020158039568,
      "618": -0.011295088632132985,
      "619": 0.08354045830451681,
      "620": -0.0042306012467600495,
      "621": 0.038688921546557495,
      "622": 0.0032170496995076125,
      "623": 0.01614096057153605,
      "624": -0.2128665932322873,
      "625": -0.48710804718233874,
      "626": -0.0018111667885434455,
      "627": -0.37867130644482483,
      "628": 0.17674794395961516,
      "629": 0.14653164325650905,
      "630": 0.013411881025914953,
      "631": -0.8108439814694616,
      "632": -0.053492079278923715,
      "633": -18663.977594581098,
      "634": 0.03169339683775418,
      "635": -7.896141837721627,
      "636": -160.7302571499304,
      "637": -80.3098182410951,
      "638": -80.2853686937517,
      "639": -0.007291122809141381,
      "640": 0.008228056981215233,
      "641": -0.12930819669912566,
      "642": -0.06783614268693802,
      "643": -0.07910307892041712,
      "644": -0.08613908956464483,
      "645": -0.09899017019898737,
      "646": -0.058652508285490075,
      "647": -0.09634829865200498,
      "648": -0.10759518006292322,
      "649": -0.09595122481798143,
      "650": -0.036767438890783946,
      "651": -0.2239691749332064,
      "652": -0.410409633747881,
      "653": 0.06433194589822258,
      "654": 0.03640649758948018,
      "655": -0.0024397850202441214,
      "656": -0.04651062230959149,
      "657": -0.22166966474038144,
      "658": -0.5277796463570075,
      "659": 0.05078179510358374,
      "660": -0.27958650564248383,
      "661": 0.03281416560883897,
      "662": -0.31792188080679806,
      "663": -0.12579115744705077,
      "664": 0.16211680474187215,
      "665": 0.07309845124060206,
      "666": -0.038305784557037224,
      "667": -0.0101886937515729,
      "668": -0.10964360035668513,
      "669": -0.006402083397310563,
      "670": -0.24004036758811675,
      "671": -0.558724371062183,
      "672": -0.600374349910629,
      "673": 0.2205825949266849,
      "674": -18569.538983604365,
      "675": 0.0115063437085209,
      "676": -5.023901810294897,
      "677": -160.73929166203476,
      "678": -80.32193448864618,
      "679": -80.29843562088358,
      "680": 0.02273345288824739,
      "681": -0.015166957024160568,
      "682": -0.045159123455254455,
      "683": -0.11318609567356509,
      "684": -0.10975312270940138,
      "685": -0.02824025813287355,
      "686": -0.0769616508981953,
      "687": -0.06573220894545574,
      "688": -0.0063249106096443936,
      "689": -0.11294304551058816,
      "690": -0.04002047234468372,
      "691": -0.03707316209348997,
      "692": -0.05898213362493814,
      "693": -0.05574870174456322,
      "694": -0.05857887556821715,
      "695": 0.07495091880583306,
      "696": 0.031831298777248204,
      "697": 0.07080374449333462,
      "698": -0.16515111729840523,
      "699": -0.31687399452791126,
      "700": 0.09596866795186712,
      "701": -0.33107972798268687,
      "702": -0.060348680823804936,
      "703": -0.4539200432050641,
      "704": 0.07679557962862857,
      "705": -0.1783828049524231,
      "706": -0.14241472788026477,
      "707": -0.09923496970459171,
      "708": -0.2131117635888689,
      "709": -0.4722865758961996,
      "710": -0.2953488989468179,
      "711": -0.26984035974719794,
      "712": -0.34040623279052296,
      "713": -0.20989630476058108,
      "714": 0.2814181125753132,
      "715": -18517.509546516732,
      "716": 0.018616235197544535,
      "717": -6.6236006609987035,
      "718": -160.77947235342677,
      "719": -80.30842576197017,
      "720": -80.37992828268615,
      "721": 0.040008909715688344,
      "722": 0.024497302699017624,
      "723": -0.11094187009875889,
      "724": -0.12060842922571738,
      "725": -0.15878002964072616,
      "726": -0.05510491882392848,
      "727": -0.11154810964134972,
      "728": -0.12203585548670016,
      "729": -0.14266887151812543,
      "730": -0.04903411450292178,
      "731": -0.1048597516628697,
      "732": -0.0997681177477588,
      "733": -0.12037435709254558,
      "734": -0.10553083496387226,
      "735": -0.5742450900073086,
      "736": -0.3037734564069917,
      "737": 0.050059771705914045,
      "738": 0.10045533028429596,
      "739": 0.05873115978621496,
      "740": -0.0718868563799972,
      "741": 0.002486134640186492,
      "742": -0.0028065824911962163,
      "743": -0.2516369808240753,
      "744": -0.05407827245995655,
      "745": -0.1802197683299573,
      "746": 0.04318345998579055,
      "747": 0.0016462014631118745,
      "748": -0.02089641890482739,
      "749": -0.04201204749916686,
      "750": -0.22448807541598062,
      "751": -0.36717608826851483,
      "752": -0.08493046621738555,
      "753": -0.19762326124684904,
      "754": -0.22673969961034168,
      "755": -0.2813552839721942,
      "756": -18424.418844146276,
      "757": 0.012532902075883558,
      "758": -8.398459216782499,
      "759": -160.70194001805743,
      "760": -80.29342635142908,
      "761": -80.32484478589204,
      "762": 0.044613542794841886,
      "763": -0.032826326180572296,
      "764": -0.13217436297631466,
      "765": -0.07468882250014068,
      "766": -0.0278379758280286,
      "767": -0.016588543239093707,
      "768": -0.038252089265578076,
      "769": -0.07285204755086824,
      "770": -0.07768945739696832,
      "771": -0.08157987224927817,
      "772": -0.09108933087446888,
      "773": -0.0735940574385571,
      "774": 0.04051216811186672,
      "775": 0.09085546780277298,
      "776": 0.032374096034908,
      "777": -0.1586905091073655,
      "778": -0.3268081743364047,
      "779": 0.004227830546657891,
      "780": -0.013256159807020077,
      "781": 0.03317127095449547,
      "782": -0.2989078172313893,
      "783": -0.2780449928712403,
      "784": -0.177506544654774,
      "785": -0.010489061555449028,
      "786": 0.024629201420079183,
      "787": -0.29140551522947183,
      "788": -0.11446565246001277,
      "789": -0.16533003291459883,
      "790": -0.02675366619769561,
      "791": -0.21298588202081734,
      "792": -0.228029508133121,
      "793": -0.1729953637858474,
      "794": 0.022052934719913604,
      "795": -0.0902809976642092,
      "796": -0.5694294764727919,
      "797": -18352.22772799597,
      "798": -0.0429879116688089,
      "799": -11.3962266835586,
      "800": -160.7397493035853,
      "801": -80.33742926600627,
      "802": -80.28018786410927,
      "803": -0.044406681233796756,
      "804": -0.015635714686494495,
      "805": -0.0898493820040726,
      "806": -0.07900875711004647,
      "807": -0.052366961228672425,
      "808": -0.0704689192170189,
      "809": -0.12456201070476064,
      "810": -0.07818887594211475,
      "811": -0.08337063899835152,
      "812": -0.04898078196188381,
      "813": -0.10399337630425505,
      "814": -0.07679991094336652,
      "815": -0.15726203305649664,
      "816": 0.020113009493329396,
      "817": -0.11787264361883366,
      "818": -0.4378122564186195,
      "819": -0.1883117079285966,
      "820": -0.0713647902429912,
      "821": -0.4309070934903194,
      "822": 0.13813285263653108,
      "823": 0.028342083533283248,
      "824": -0.12299721366753079,
      "825": 0.06830253740248601,
      "826": -0.06628592152224042,
      "827": -0.5270700896894054,
      "828": -0.20753633808732855,
      "829": -0.5210526659546482,
      "830": -0.03119809117415762,
      "831": -0.08743779282977421,
      "832": -0.11537494201873826,
      "833": -0.21572848060754765,
      "834": -0.06594712867183672,
      "835": -0.0787897338265774,
      "836": 0.04684471682040509,
      "837": 0.30467471163250154
     }
    },
    {
     "sx": 1,
     "sy": 1,
     "depth": 838,
     "w": {
      "0": 0,
      "1": 0,
      "2": 0,
      "3": 0,
      "4": 0,
      "5": 0,
      "6": 0,
      "7": 0,
      "8": 0,
      "9": 0,
      "10": 0,
      "11": 0,
      "12": 0,
      "13": 0,
      "14": 0,
      "15": 0,
      "16": 0,
      "17": 0,
      "18": 0,
      "19": 0,
      "20": 0,
      "21": 0,
      "22": 0,
      "23": 0,
      "24": 0,
      "25": 0,
      "26": 0,
      "27": 0,
      "28": 0,
      "29": 0,
      "30": 0,
      "31": 0,
      "32": 0,
      "33": 0,
      "34": 0,
      "35": 0,
      "36": 0,
      "37": 0,
      "38": 0,
      "39": 0,
      "40": 0,
      "41": 0,
      "42": 0,
      "43": 0,
      "44": 0,
      "45": 0,
      "46": 0,
      "47": 0,
      "48": 0,
      "49": 0,
      "50": 0,
      "51": 0,
      "52": 0,
      "53": 0,
      "54": 0,
      "55": 0,
      "56": 0,
      "57": 0,
      "58": 0,
      "59": 0,
      "60": 0,
      "61": 0,
      "62": 0,
      "63": 0,
      "64": 0,
      "65": 0,
      "66": 0,
      "67": 0,
      "68": 0,
      "69": 0,
      "70": 0,
      "71": 0,
      "72": 0,
      "73": 0,
      "74": 0,
      "75": 0,
      "76": 0,
      "77": 0,
      "78": 0,
      "79": 0,
      "80": 0,
      "81": 0,
      "82": 0,
      "83": 0,
      "84": 0,
      "85": 0,
      "86": 0,
      "87": 0,
      "88": 0,
      "89": 0,
      "90": 0,
      "91": 0,
      "92": 0,
      "93": 0,
      "94": 0,
      "95": 0,
      "96": 0,
      "97": 0,
      "98": 0,
      "99": 0,
      "100": 0,
      "101": 0,
      "102": 0,
      "103": 0,
      "104": 0,
      "105": 0,
      "106": 0,
      "107": 0,
      "108": 0,
      "109": 0,
      "110": 0,
      "111": 0,
      "112": 0,
      "113": 0,
      "114": 0,
      "115": 0,
      "116": 0,
      "117": 0,
      "118": 0,
      "119": 0,
      "120": 0,
      "121": 0,
      "122": 0,
      "123": 0,
      "124": 0,
      "125": 0,
      "126": 0,
      "127": 0,
      "128": 0,
      "129": 0,
      "130": 0,
      "131": 0,
      "132": 0,
      "133": 0,
      "134": 0,
      "135": 0,
      "136": 0,
      "137": 0,
      "138": 0,
      "139": 0,
      "140": 0,
      "141": 0,
      "142": 0,
      "143": 0,
      "144": 0,
      "145": 0,
      "146": 0,
      "147": 0,
      "148": 0,
      "149": 0,
      "150": 0,
      "151": 0,
      "152": 0,
      "153": 0,
      "154": 0,
      "155": 0,
      "156": 0,
      "157": 0,
      "158": 0,
      "159": 0,
      "160": 0,
      "161": 0,
      "162": 0,
      "163": 0,
      "164": 0,
      "165": 0,
      "166": 0,
      "167": 0,
      "168": 0,
      "169": 0,
      "170": 0,
      "171": 0,
      "172": 0,
      "173": 0,
      "174": 0,
      "175": 0,
      "176": 0,
      "177": 0,
      "178": 0,
      "179": 0,
      "180": 0,
      "181": 0,
      "182": 0,
      "183": 0,
      "184": 0,
      "185": 0,
      "186": 0,
      "187": 0,
      "188": 0,
      "189": 0,
      "190": 0,
      "191": 0,
      "192": 0,
      "193": 0,
      "194": 0,
      "195": 0,
      "196": 0,
      "197": 0,
      "198": 0,
      "199": 0,
      "200": 0,
      "201": 0,
      "202": 0,
      "203": 0,
      "204": 0,
      "205": 0,
      "206": 0,
      "207": 0,
      "208": 0,
      "209": 0,
      "210": 0,
      "211": 0,
      "212": 0,
      "213": 0,
      "214": 0,
      "215": 0,
      "216": 0,
      "217": 0,
      "218": 0,
      "219": 0,
      "220": 0,
      "221": 0,
      "222": 0,
      "223": 0,
      "224": 0,
      "225": 0,
      "226": 0,
      "227": 0,
      "228": 0,
      "229": 0,
      "230": 0,
      "231": 0,
      "232": 0,
      "233": 0,
      "234": 0,
      "235": 0,
      "236": 0,
      "237": 0,
      "238": 0,
      "239": 0,
      "240": 0,
      "241": 0,
      "242": 0,
      "243": 0,
      "244": 0,
      "245": 0,
      "246": 0,
      "247": 0,
      "248": 0,
      "249": 0,
      "250": 0,
      "251": 0,
      "252": 0,
      "253": 0,
      "254": 0,
      "255": 0,
      "256": 0,
      "257": 0,
      "258": 0,
      "259": 0,
      "260": 0,
      "261": 0,
      "262": 0,
      "263": 0,
      "264": 0,
      "265": 0,
      "266": 0,
      "267": 0,
      "268": 0,
      "269": 0,
      "270": 0,
      "271": 0,
      "272": 0,
      "273": 0,
      "274": 0,
      "275": 0,
      "276": 0,
      "277": 0,
      "278": 0,
      "279": 0,
      "280": 0,
      "281": 0,
      "282": 0,
      "283": 0,
      "284": 0,
      "285": 0,
      "286": 0,
      "287": 0,
      "288": 0,
      "289": 0,
      "290": 0,
      "291": 0,
      "292": 0,
      "293": 0,
      "294": 0,
      "295": 0,
      "296": 0,
      "297": 0,
      "298": 0,
      "299": 0,
      "300": 0,
      "301": 0,
      "302": 0,
      "303": 0,
      "304": 0,
      "305": 0,
      "306": 0,
      "307": 0,
      "308": 0,
      "309": 0,
      "310": 0,
      "311": 0,
      "312": 0,
      "313": 0,
      "314": 0,
      "315": 0,
      "316": 0,
      "317": 0,
      "318": 0,
      "319": 0,
      "320": 0,
      "321": 0,
      "322": 0,
      "323": 0,
      "324": 0,
      "325": 0,
      "326": 0,
      "327": 0,
      "328": 0,
      "329": 0,
      "330": 0,
      "331": 0,
      "332": 0,
      "333": 0,
      "334": 0,
      "335": 0,
      "336": 0,
      "337": 0,
      "338": 0,
      "339": 0,
      "340": 0,
      "341": 0,
      "342": 0,
      "343": 0,
      "344": 0,
      "345": 0,
      "346": 0,
      "347": 0,
      "348": 0,
      "349": 0,
      "350": 0,
      "351": 0,
      "352": 0,
      "353": 0,
      "354": 0,
      "355": 0,
      "356": 0,
      "357": 0,
      "358": 0,
      "359": 0,
      "360": 0,
      "361": 0,
      "362": 0,
      "363": 0,
      "364": 0,
      "365": 0,
      "366": 0,
      "367": 0,
      "368": 0,
      "369": 0,
      "370": 0,
      "371": 0,
      "372": 0,
      "373": 0,
      "374": 0,
      "375": 0,
      "376": 0,
      "377": 0,
      "378": 0,
      "379": 0,
      "380": 0,
      "381": 0,
      "382": 0,
      "383": 0,
      "384": 0,
      "385": 0,
      "386": 0,
      "387": 0,
      "388": 0,
      "389": 0,
      "390": 0,
      "391": 0,
      "392": 0,
      "393": 0,
      "394": 0,
      "395": 0,
      "396": 0,
      "397": 0,
      "398": 0,
      "399": 0,
      "400": 0,
      "401": 0,
      "402": 0,
      "403": 0,
      "404": 0,
      "405": 0,
      "406": 0,
      "407": 0,
      "408": 0,
      "409": 0,
      "410": 0,
      "411": 0,
      "412": 0,
      "413": 0,
      "414": 0,
      "415": 0,
      "416": 0,
      "417": 0,
      "418": 0,
      "419": 0,
      "420": 0,
      "421": 0,
      "422": 0,
      "423": 0,
      "424": 0,
      "425": 0,
      "426": 0,
      "427": 0,
      "428": 0,
      "429": 0,
      "430": 0,
      "431": 0,
      "432": 0,
      "433": 0,
      "434": 0,
      "435": 0,
      "436": 0,
      "437": 0,
      "438": 0,
      "439": 0,
      "440": 0,
      "441": 0,
      "442": 0,
      "443": 0,
      "444": 0,
      "445": 0,
      "446": 0,
      "447": 0,
      "448": 0,
      "449": 0,
      "450": 0,
      "451": 0,
      "452": 0,
      "453": 0,
      "454": 0,
      "455": 0,
      "456": 0,
      "457": 0,
      "458": 0,
      "459": 0,
      "460": 0,
      "461": 0,
      "462": 0,
      "463": 0,
      "464": 0,
      "465": 0,
      "466": 0,
      "467": 0,
      "468": 0,
      "469": 0,
      "470": 0,
      "471": 0,
      "472": 0,
      "473": 0,
      "474": 0,
      "475": 0,
      "476": 0,
      "477": 0,
      "478": 0,
      "479": 0,
      "480": 0,
      "481": 0,
      "482": 0,
      "483": 0,
      "484": 0,
      "485": 0,
      "486": 0,
      "487": 0,
      "488": 0,
      "489": 0,
      "490": 0,
      "491": 0,
      "492": 0,
      "493": 0,
      "494": 0,
      "495": 0,
      "496": 0,
      "497": 0,
      "498": 0,
      "499": 0,
      "500": 0,
      "501": 0,
      "502": 0,
      "503": 0,
      "504": 0,
      "505": 0,
      "506": 0,
      "507": 0,
      "508": 0,
      "509": 0,
      "510": 0,
      "511": 0,
      "512": 0,
      "513": 0,
      "514": 0,
      "515": 0,
      "516": 0,
      "517": 0,
      "518": 0,
      "519": 0,
      "520": 0,
      "521": 0,
      "522": 0,
      "523": 0,
      "524": 0,
      "525": 0,
      "526": 0,
      "527": 0,
      "528": 0,
      "529": 0,
      "530": 0,
      "531": 0,
      "532": 0,
      "533": 0,
      "534": 0,
      "535": 0,
      "536": 0,
      "537": 0,
      "538": 0,
      "539": 0,
      "540": 0,
      "541": 0,
      "542": 0,
      "543": 0,
      "544": 0,
      "545": 0,
      "546": 0,
      "547": 0,
      "548": 0,
      "549": 0,
      "550": 0,
      "551": 0,
      "552": 0,
      "553": 0,
      "554": 0,
      "555": 0,
      "556": 0,
      "557": 0,
      "558": 0,
      "559": 0,
      "560": 0,
      "561": 0,
      "562": 0,
      "563": 0,
      "564": 0,
      "565": 0,
      "566": 0,
      "567": 0,
      "568": 0,
      "569": 0,
      "570": 0,
      "571": 0,
      "572": 0,
      "573": 0,
      "574": 0,
      "575": 0,
      "576": 0,
      "577": 0,
      "578": 0,
      "579": 0,
      "580": 0,
      "581": 0,
      "582": 0,
      "583": 0,
      "584": 0,
      "585": 0,
      "586": 0,
      "587": 0,
      "588": 0,
      "589": 0,
      "590": 0,
      "591": 0,
      "592": 0,
      "593": 0,
      "594": 0,
      "595": 0,
      "596": 0,
      "597": 0,
      "598": 0,
      "599": 0,
      "600": 0,
      "601": 0,
      "602": 0,
      "603": 0,
      "604": 0,
      "605": 0,
      "606": 0,
      "607": 0,
      "608": 0,
      "609": 0,
      "610": 0,
      "611": 0,
      "612": 0,
      "613": 0,
      "614": 0,
      "615": 0,
      "616": 0,
      "617": 0,
      "618": 0,
      "619": 0,
      "620": 0,
      "621": 0,
      "622": 0,
      "623": 0,
      "624": 0,
      "625": 0,
      "626": 0,
      "627": 0,
      "628": 0,
      "629": 0,
      "630": 0,
      "631": 0,
      "632": 0,
      "633": 0,
      "634": 0,
      "635": 0,
      "636": 0,
      "637": 0,
      "638": 0,
      "639": 0,
      "640": 0,
      "641": 0,
      "642": 0,
      "643": 0,
      "644": 0,
      "645": 0,
      "646": 0,
      "647": 0,
      "648": 0,
      "649": 0,
      "650": 0,
      "651": 0,
      "652": 0,
      "653": 0,
      "654": 0,
      "655": 0,
      "656": 0,
      "657": 0,
      "658": 0,
      "659": 0,
      "660": 0,
      "661": 0,
      "662": 0,
      "663": 0,
      "664": 0,
      "665": 0,
      "666": 0,
      "667": 0,
      "668": 0,
      "669": 0,
      "670": 0,
      "671": 0,
      "672": 0,
      "673": 0,
      "674": 0,
      "675": 0,
      "676": 0,
      "677": 0,
      "678": 0,
      "679": 0,
      "680": 0,
      "681": 0,
      "682": 0,
      "683": 0,
      "684": 0,
      "685": 0,
      "686": 0,
      "687": 0,
      "688": 0,
      "689": 0,
      "690": 0,
      "691": 0,
      "692": 0,
      "693": 0,
      "694": 0,
      "695": 0,
      "696": 0,
      "697": 0,
      "698": 0,
      "699": 0,
      "700": 0,
      "701": 0,
      "702": 0,
      "703": 0,
      "704": 0,
      "705": 0,
      "706": 0,
      "707": 0,
      "708": 0,
      "709": 0,
      "710": 0,
      "711": 0,
      "712": 0,
      "713": 0,
      "714": 0,
      "715": 0,
      "716": 0,
      "717": 0,
      "718": 0,
      "719": 0,
      "720": 0,
      "721": 0,
      "722": 0,
      "723": 0,
      "724": 0,
      "725": 0,
      "726": 0,
      "727": 0,
      "728": 0,
      "729": 0,
      "730": 0,
      "731": 0,
      "732": 0,
      "733": 0,
      "734": 0,
      "735": 0,
      "736": 0,
      "737": 0,
      "738": 0,
      "739": 0,
      "740": 0,
      "741": 0,
      "742": 0,
      "743": 0,
      "744": 0,
      "745": 0,
      "746": 0,
      "747": 0,
      "748": 0,
      "749": 0,
      "750": 0,
      "751": 0,
      "752": 0,
      "753": 0,
      "754": 0,
      "755": 0,
      "756": 0,
      "757": 0,
      "758": 0,
      "759": 0,
      "760": 0,
      "761": 0,
      "762": 0,
      "763": 0,
      "764": 0,
      "765": 0,
      "766": 0,
      "767": 0,
      "768": 0,
      "769": 0,
      "770": 0,
      "771": 0,
      "772": 0,
      "773": 0,
      "774": 0,
      "775": 0,
      "776": 0,
      "777": 0,
      "778": 0,
      "779": 0,
      "780": 0,
      "781": 0,
      "782": 0,
      "783": 0,
      "784": 0,
      "785": 0,
      "786": 0,
      "787": 0,
      "788": 0,
      "789": 0,
      "790": 0,
      "791": 0,
      "792": 0,
      "793": 0,
      "794": 0,
      "795": 0,
      "796": 0,
      "797": 0,
      "798": 0,
      "799": 0,
      "800": 0,
      "801": 0,
      "802": 0,
      "803": 0,
      "804": 0,
      "805": 0,
      "806": 0,
      "807": 0,
      "808": 0,
      "809": 0,
      "810": 0,
      "811": 0,
      "812": 0,
      "813": 0,
      "814": 0,
      "815": 0,
      "816": 0,
      "817": 0,
      "818": 0,
      "819": 0,
      "820": 0,
      "821": 0,
      "822": 0,
      "823": 0,
      "824": 0,
      "825": 0,
      "826": 0,
      "827": 0,
      "828": 0,
      "829": 0,
      "830": 0,
      "831": 0,
      "832": 0,
      "833": 0,
      "834": 0,
      "835": 0,
      "836": 0,
      "837": 0
     }
    },
    {
     "sx": 1,
     "sy": 1,
     "depth": 838,
     "w": {
      "0": 0,
      "1": 0,
      "2": 0,
      "3": 0,
      "4": 0,
      "5": 0,
      "6": 0,
      "7": 0,
      "8": 0,
      "9": 0,
      "10": 0,
      "11": 0,
      "12": 0,
      "13": 0,
      "14": 0,
      "15": 0,
      "16": 0,
      "17": 0,
      "18": 0,
      "19": 0,
      "20": 0,
      "21": 0,
      "22": 0,
      "23": 0,
      "24": 0,
      "25": 0,
      "26": 0,
      "27": 0,
      "28": 0,
      "29": 0,
      "30": 0,
      "31": 0,
      "32": 0,
      "33": 0,
      "34": 0,
      "35": 0,
      "36": 0,
      "37": 0,
      "38": 0,
      "39": 0,
      "40": 0,
      "41": 0,
      "42": 0,
      "43": 0,
      "44": 0,
      "45": 0,
      "46": 0,
      "47": 0,
      "48": 0,
      "49": 0,
      "50": 0,
      "51": 0,
      "52": 0,
      "53": 0,
      "54": 0,
      "55": 0,
      "56": 0,
      "57": 0,
      "58": 0,
      "59": 0,
      "60": 0,
      "61": 0,
      "62": 0,
      "63": 0,
      "64": 0,
      "65": 0,
      "66": 0,
      "67": 0,
      "68": 0,
      "69": 0,
      "70": 0,
      "71": 0,
      "72": 0,
      "73": 0,
      "74": 0,
      "75": 0,
      "76": 0,
      "77": 0,
      "78": 0,
      "79": 0,
      "80": 0,
      "81": 0,
      "82": 0,
